tree
version=v4
num_class=1
num_tree_per_iteration=1
label_index=0
max_feature_idx=11
objective=regression
feature_names=time_seconds team_id player_id action_id type_name result_name start_x start_y is_home avg_pass_dist avg_pass_angle pass_count
feature_infos=[0:3614.4670000000001] [0:11] [0:452] [0:3518] [0:25] [0:8] [0:105] [0:68] [0:1] [6.6709298018589109:64.96816136907951] [-1.9665800007966561:2.9669686466727692] [1:1913]
tree_sizes=2849 2929 2930 2934 2942 2954 2953 2955 2954 2958 2946 2961 2961 2955 2966 2951 2952 2960 2966 2966 2973 2951 2968 2963 2951 2951 2963 2956 2971 2953 2950 2933 2955 2934 2942 2957 2945 2974 2948 2962 2959 2958 2955 2939 2931 2976 2989 2967 2991 2963 2964 2965 2988 2975 2973 2970 2986 2997 2986 2977 2989 2980 2971 2979 2993 2983 2984 3033 2978 2990 2962 2990 2971 2952 2964 2973 3002 2954 2990 2957 2997 2939 2966 3007 2988 2976 2958 2948 2988 2962 2987 3000 2976 2941 3018 2988 2975 2984 2985 2990 2980 2962 2875 2944 2937 2947 2936 2957 2885 2923 2902 2940 2879 2931 2875 2978 2846 2888 2905 2920 2823 2940 3008 2926 2752 2843 2947 2899 2936 2828 2859 2958 2798 2928 2830 2848 2833 2845 2846 2915 2790 2917 2730 2965 2866 2833 2874 2730 2916 2804 2785 2790 2813 2800 2715 2810 2792 2757 2815 2791 2898 2781 2754 2742 2875 2850 2823 2733 2783 2785 2904 2780 2787 2912 2907 2781 2723 2885 2890 2872 2742 2837 2798 2856 2856 2836 2810 2734 2802 2840 2904 2925 2896 2733 2722 2826 2799 2933 2771 2788 2778 2716 2856 2899 2829 2706 2765 2940 2839 2773 2723 2812 2823 2799 2779 2768 2834 2796 2838 2772 2729 2734 2873 2778 2789 2748 2773 2882 2839 2831 2879 2781 2782 2832 2813 2811 2832 2732 2832 2785 2872 2915 2820 2822 2797 2860 2769 2756 2901 2725 2821 2837 2776 2796 2874 2733 2752 2859 2784 2822 2762 2767 2744 2784 2777 2713 2786 2839 2783 2762 2846 2872 2800 2720 2875 2854 2869 2746 2867 2894 2765 2794 2821 2818 2757 2780 2843 2741 2827 2850 2866 2771 2810 2836 2948 2820 2733 2824 2738 2822 2808 2756 2720 2825 2882 2763 2778 2829 2867 2752 2778 2872 2956 2762 2772 2727 2846 2839 2918 2811 2770 2846 2766 2859 2766 2781 2765 2774 2754 2820 2792 2785 2873 2833 2749 2753 2837 2742 2742 2792 2780 2870 2814 2796 2858 2746 2787 2883 2883 2822 2788 2786 2851 2728 2799 2762 2747 2794 2835 2778 2836 2790 2814 2818 2861 2824 2881 2851 2827 2760 2813 2813 2770 2745 2760 2715 2712 2817 2838 2809 2773 2797 2826 2826 2845 2773 2800 2782 2873 2797 2792 2851 2775 2804 2837 2902 2822 2813 2874 2750 2764 2883 2792 2839 2801 2805 2767 2814 2777 2800 2822 2791 2823 2758 2731 2810 2835 2845 2852 2779 2785 2828 2815 2711 2851 2828 2812 2791 2799 2800 2758 2795 2825 2810 2846 2769 2798 2733 2761 2816 2770 2814 2901 2817 2769 2862 2814 2804 2808 2791 2821 2742 2795 2869 2789 2758 2796 2848 2821 2797 2805 2774 2771 2878 2781 2824 2777 2795 2817 2763 2805 2872 2857 2818 2790 2781 2833 2883 2799 2864 2775 2747 2800 2821 2803 2777 2772 2727 2814 2875 2792 2761

Tree=0
num_leaves=31
num_cat=0
split_feature=7 7 7 7 7 7 7 5 4 7 7 7 5 4 6 7 7 4 4 4 7 7 5 4 7 7 5 5 4 5
split_gain=6.77497e+07 8.8379e+06 7.57209e+06 1.07058e+06 1.06789e+06 1.03614e+06 808244 149394 349744 148171 139865 137957 126084 270614 117692 106957 101854 96635.1 111239 92806 73626.6 60268.1 55623 114457 52170.2 50613.7 49111.7 45143.2 89230.4 44775.4
threshold=33.435362000000005 49.547214000000004 18.888462000000004 58.202356000000009 40.597904000000007 9.5770180000000042 26.000446000000004 6.5000000000000009 6.5000000000000009 44.538198000000008 14.015344000000001 53.718844000000011 6.5000000000000009 6.5000000000000009 103.65573750000001 29.650040000000004 37.095700000000008 22.500000000000004 16.500000000000004 22.500000000000004 21.881210000000006 61.806155400000009 7.5000000000000009 6.5000000000000009 62.664930800000008 5.7739140000000022 6.5000000000000009 6.5000000000000009 6.5000000000000009 5.5000000000000009
decision_type=2 2 2 2 2 2 2 2 2 2 2 2 2 2 2 2 2 2 2 2 2 2 2 2 2 2 2 2 2 2
left_child=2 4 5 11 16 7 20 8 -1 -6 22 -3 13 -5 19 -8 -2 18 21 25 -4 -15 23 -7 -14 -10 -12 28 -13 -20
right_child=1 3 6 12 9 10 15 -9 14 -11 26 27 24 17 -16 -17 -18 -19 29 -21 -22 -23 -24 -25 -26 -27 -28 -29 -30 -31
leaf_value=34.086444819498155 34.245538407829571 34.954641412341608 33.574677285850598 34.356229089267735 34.578422658500848 34.128574921524354 33.905772566961133 32.857003706209753 32.987843831985579 34.763653121732666 33.469161428361062 34.271931289802126 35.413363869131594 35.233713882579153 33.754850360449311 34.072482330025771 34.408065985228745 35.567348558667163 35.057393379991638 32.808092296541112 33.723748136665272 35.39884861849459 33.129115705325844 33.268634102582233 35.588421338523339 33.137706134577108 33.321741532367312 35.220744138002516 35.09651416994857 34.356048215882346
leaf_weight=790 20653 20490 14367 693 19339 400 17978 15498 14149 24441 13610 337 8301 8726 535 20698 18077 4562 599 4889 19560 15063 8308 11852 8734 9362 9659 9051 12400 367
leaf_count=790 20653 20490 14367 693 19339 400 17978 15498 14149 24441 13610 337 8301 8726 535 20698 18077 4562 599 4889 19560 15063 8308 11852 8734 9362 9659 9051 12400 367
internal_value=34.1945 34.8857 33.4598 35.2304 34.5126 33.1508 33.8387 32.9829 33.0485 34.6818 33.324 35.0478 35.3945 35.3328 33.0201 33.995 34.3214 35.3559 35.3169 33.0063 33.6606 35.3383 33.229 33.2967 35.5031 33.0475 33.408 35.1354 35.0747 34.7909
internal_weight=333488 171833 161655 89323 82510 89052 72603 45223 29725 43780 43829 42278 47045 30010 28935 38676 38730 29317 24755 28400 33927 23789 20560 12252 17035 23511 23269 21788 12737 966
internal_count=333488 171833 161655 89323 82510 89052 72603 45223 29725 43780 43829 42278 47045 30010 28935 38676 38730 29317 24755 28400 33927 23789 20560 12252 17035 23511 23269 21788 12737 966
is_linear=0
shrinkage=1


Tree=1
num_leaves=31
num_cat=0
split_feature=7 7 7 7 7 7 7 7 7 5 4 7 5 4 6 7 7 4 7 4 4 5 4 7 7 5 4 5 5 7
split_gain=6.11605e+07 7.58096e+06 7.27967e+06 1.02239e+06 996623 782606 743502 141740 136818 136073 322928 107365 104839 219301 104577 101493 94506.4 87254.3 84685.9 76531.7 101574 59918.3 112596 51132.9 49936.1 48252.1 96426.5 41592.7 41183.5 39432.6
threshold=34.295018000000006 19.436712000000004 50.880932000000008 9.8604080000000049 41.661662000000007 27.565364000000006 59.327994000000011 46.398338000000003 15.392649999999998 6.5000000000000009 6.5000000000000009 54.495778000000008 6.5000000000000009 6.5000000000000009 103.65573750000001 24.063806000000003 37.565036000000006 22.500000000000004 31.364490000000004 22.500000000000004 16.500000000000004 6.5000000000000009 6.5000000000000009 6.0681839999999996 5.463017999999999 6.5000000000000009 6.5000000000000009 5.5000000000000009 6.5000000000000009 64.595036000000007
decision_type=2 2 2 2 2 2 2 2 2 2 2 2 2 2 2 2 2 2 2 2 2 2 2 2 2 2 2 2 2 2
left_child=1 3 4 9 16 15 11 -6 21 10 -1 -4 13 -8 17 -3 -2 23 -7 20 29 22 -5 -12 -11 26 -13 -22 -9 -15
right_child=2 5 6 8 7 18 12 28 -10 24 14 25 -14 19 -16 -17 -18 -19 -20 -21 27 -23 -24 -25 -26 -27 -28 -29 -30 -31
leaf_value=-0.10276037143157693 0.078594405946130194 -0.53049385195683729 0.76668693482568395 -0.068209045283498096 0.42234879589340046 -0.20848399072474796 0.15222774014337137 0.5404606970769662 -0.71221933177461194 -1.3483858193812026 -1.1428035098891505 0.094296205980846523 1.2631701851048953 1.0502880267079691 -0.41954747625868144 -0.36739553763141813 0.23525122809636631 -1.315840019429261 -0.055228852842765824 1.3108550722179275 0.83127207807551007 -0.98047391304069598 -0.84942392835773717 -0.99345130441919727 -1.1715267351870173 1.0164043338893032 0.89208016949746893 0.13378338630675157 0.67943198034359376 1.1909894180949026
leaf_weight=815 18038 22172 18072 476 23208 19446 599 12454 19377 8431 14871 390 14992 13048 536 16740 20647 4940 16803 4370 554 10438 14869 9324 7579 9433 13144 348 9321 8053
leaf_count=815 18038 22172 18072 476 23208 19446 599 12454 19377 8431 14871 390 14992 13048 536 16740 20647 4940 16803 4370 554 10438 14869 9324 7579 9433 13144 348 9321 8053
internal_value=-4.30957e-10 -0.676823 0.677416 -0.982054 0.348289 -0.304606 1.00918 0.50832 -0.812609 -1.14663 -1.08464 0.857857 1.15717 1.09825 -1.11161 -0.460329 0.162205 -1.12435 -0.137444 1.11973 1.08177 -0.888056 -0.825191 -1.08525 -1.26466 0.929595 0.869091 0.562174 0.599949 1.10399
internal_weight=333488 166817 166671 91656 83668 75161 83003 44983 45160 46496 30486 41039 41964 26972 29671 38912 38685 29135 36249 26373 22003 25783 15345 24195 16010 22967 13534 902 21775 21101
internal_count=333488 166817 166671 91656 83668 75161 83003 44983 45160 46496 30486 41039 41964 26972 29671 38912 38685 29135 36249 26373 22003 25783 15345 24195 16010 22967 13534 902 21775 21101
is_linear=0
shrinkage=0.05


Tree=2
num_leaves=31
num_cat=0
split_feature=7 7 7 7 7 7 7 7 7 5 4 5 4 6 7 7 7 4 4 7 7 7 5 7 7 5 4 4 5 9
split_gain=5.51973e+07 6.84182e+06 6.5699e+06 922705 899453 706302 674730 128619 124505 122805 291442 102903 220347 94381 92219.9 85698 80266.6 78896.9 91045 76638 65839.1 51112.6 48138.4 45516.8 45067.3 42616.6 87357.1 40551 38671.3 38460.5
threshold=34.295018000000006 19.436712000000004 50.880932000000008 9.8604080000000049 41.661662000000007 27.565364000000006 58.202356000000009 46.121680000000005 14.015344000000001 6.5000000000000009 6.5000000000000009 6.5000000000000009 6.5000000000000009 103.65573750000001 23.784904000000001 37.82415000000001 3.1645500000000064 22.500000000000004 16.500000000000004 31.108334000000006 54.495778000000008 63.504843000000008 6.5000000000000009 63.504843000000008 5.463017999999999 7.5000000000000009 6.5000000000000009 6.5000000000000009 6.5000000000000009 15.565459383277068
decision_type=2 2 2 2 2 2 2 2 2 2 2 2 2 2 2 2 2 2 2 2 2 2 2 2 2 2 2 2 2 2
left_child=1 3 4 9 15 14 20 -6 25 10 -1 12 -8 16 -3 -2 -12 18 21 -7 -4 -14 27 -13 -11 26 -5 -10 -9 -18
right_child=2 5 6 8 7 19 11 28 22 24 13 23 17 -15 -16 -17 29 -19 -20 -21 -22 -23 -24 -25 -26 -27 -28 -29 -30 -31
leaf_value=-0.097622354760433211 0.079562550548349653 -0.50894732322296077 0.72835257731798486 -0.056332467824725119 0.39631928272593209 -0.20325088021470569 0.14641880219601347 0.50931546637943359 -0.061276842075951243 -1.2809665295455481 -1.1740993048824873 1.1116480899246033 0.96487253463156708 -0.39857010446860697 -0.35460276957926307 0.22840081609161211 -1.0820181744337132 1.2395392415163968 0.53741135008172303 -0.057847683486800562 0.86366885728651477 1.1119132438220503 -0.78112684532447785 1.2771283750408959 -1.1129503900302211 -0.95836847336225617 -0.83223684861979297 -0.65428785257655697 0.64023928673909525 -0.93563918415150793
leaf_weight=815 19313 20852 18072 375 21956 18130 693 13152 294 8431 11076 9844 12835 536 18060 19372 8327 4562 966 18119 17886 10954 10760 7191 7579 7796 11116 14819 9875 9732
leaf_count=815 19313 20852 18072 375 21956 18130 693 13152 294 8431 11076 9844 12835 536 18060 19372 8327 4562 966 18119 17886 10954 10760 7191 7579 7796 11116 14819 9875 9732
internal_value=-6.21382e-10 -0.642982 0.643545 -0.932951 0.330875 -0.289376 0.958721 0.482904 -0.771978 -1.0893 -1.03041 1.08335 1.02764 -1.05603 -0.437312 0.154095 -1.06813 1.04847 1.01326 -0.130571 0.795661 1.03258 -0.700299 1.1815 -1.20143 -0.868135 -0.806916 -0.642752 0.565461 -1.00313
internal_weight=333488 166817 166671 91656 83668 75161 83003 44983 45160 46496 30486 47045 30010 29671 38912 38685 29135 29317 24755 36249 35958 23789 25873 17035 16010 19287 11491 15113 23027 18059
internal_count=333488 166817 166671 91656 83668 75161 83003 44983 45160 46496 30486 47045 30010 29671 38912 38685 29135 29317 24755 36249 35958 23789 25873 17035 16010 19287 11491 15113 23027 18059
is_linear=0
shrinkage=0.05


Tree=3
num_leaves=31
num_cat=0
split_feature=7 7 7 7 7 7 7 7 7 6 7 7 7 5 4 7 6 5 4 5 4 4 5 4 7 5 4 4 5 4
split_gain=4.98252e+07 6.63388e+06 5.5054e+06 916128 697248 654449 613286 133613 127178 114559 99144.5 98702.4 80546.9 79868.9 164536 76424.8 65583.2 63707.3 154393 59818.4 135002 50385.6 50228.2 97369.7 49241.8 41903.2 71890 40066.1 32743.6 35369.1
threshold=34.969068000000007 20.001962000000006 50.880932000000008 11.018686000000002 43.738994000000012 27.812204000000001 59.873762000000006 39.332084000000009 6.0681839999999996 103.65573750000001 54.495778000000008 15.906016000000003 31.611058000000003 6.5000000000000009 6.5000000000000009 24.631674000000007 103.65573750000001 7.5000000000000009 6.5000000000000009 7.5000000000000009 6.5000000000000009 22.500000000000004 6.5000000000000009 6.5000000000000009 48.234032000000006 6.5000000000000009 6.5000000000000009 22.500000000000004 6.5000000000000009 6.5000000000000009
decision_type=2 2 2 2 2 2 2 2 2 2 2 2 2 2 2 2 2 2 2 2 2 2 2 2 2 2 2 2 2 2
left_child=1 3 4 8 7 15 10 -2 9 17 28 25 -7 14 -8 -3 21 18 -1 20 -10 -16 23 -12 -6 26 -5 -20 29 -4
right_child=2 5 6 11 24 12 13 -9 19 -11 22 -13 -14 -15 16 -17 -18 -19 27 -21 -22 -23 -24 -25 -26 -27 -28 -29 -30 -31
leaf_value=-0.10520736331401288 0.11658100707761801 -0.4586622089937798 -0.0028443890278328195 -0.068079445127696897 0.45238567985338413 -0.17845219986931488 0.14797243663837384 0.28859876025257253 -0.050233651595417317 -0.36472744412360808 0.050177691765172283 -0.6226568196881016 -0.034347924766652244 1.1498465099613779 0.9982295157966572 -0.313675276077096 0.43618264772802973 -1.2071637397892001 -1.0311577118585122 -1.0317765222742905 -0.89386130712662881 1.1874341465559222 0.9290900860116702 0.80845040952068692 0.57591089119656491 -0.85612444588155889 -0.7395736243384482 -1.2052698510042195 0.77136001261043641 0.64808581371985463
leaf_weight=424 23315 22208 213 411 21835 19441 553 21885 492 539 436 19430 19347 13954 20176 15386 472 9428 14871 8607 13122 4262 10471 14607 12796 9502 13198 4248 7553 10306
leaf_count=424 23315 22208 213 411 21835 19441 553 21885 492 539 436 19430 19347 13954 20176 15386 472 9428 14871 8607 13122 4262 10471 14607 12796 9502 13198 4248 7553 10306
internal_value=1.48451e-09 -0.596992 0.625662 -0.8776 0.329211 -0.250661 0.910785 0.199869 -1.01895 -1.08698 0.781537 -0.705719 -0.106575 1.0537 1.00101 -0.399324 1.01995 -1.10041 -1.04891 -0.928602 -0.863373 1.03123 0.845003 0.786473 0.498028 -0.775551 -0.719294 -1.06984 0.691935 0.634905
internal_weight=333488 170654 162834 94272 79831 76382 83003 45200 51731 29510 43586 42541 38788 39417 25463 37594 24910 28971 19543 22221 13614 24438 25514 15043 34631 23111 13609 19119 18072 10519
internal_count=333488 170654 162834 94272 79831 76382 83003 45200 51731 29510 43586 42541 38788 39417 25463 37594 24910 28971 19543 22221 13614 24438 25514 15043 34631 23111 13609 19119 18072 10519
is_linear=0
shrinkage=0.05


Tree=4
num_leaves=31
num_cat=0
split_feature=7 7 7 7 7 7 7 7 7 5 4 7 7 6 7 6 5 4 7 4 5 4 4 5 4 7 5 4 5 7
split_gain=4.49799e+07 5.87323e+06 5.03724e+06 727220 715738 710627 511769 103383 99739.3 95520.2 216456 88028.6 81039 80377.3 76583.1 73699.1 67586.9 115430 67259 61421.6 46552.4 98641.4 46168.2 43631.5 86751.1 39062.3 36439.6 61140 35735.4 32402.9
threshold=33.435362000000005 49.547214000000004 17.229534000000005 25.730588000000004 57.660328000000014 40.597904000000007 8.9960940000000011 62.664930800000008 44.808838000000002 6.5000000000000009 6.5000000000000009 20.523250000000004 29.121340000000004 103.65573750000001 52.958774000000012 103.65573750000001 6.5000000000000009 6.5000000000000009 37.095700000000008 22.500000000000004 7.5000000000000009 6.5000000000000009 16.500000000000004 6.5000000000000009 6.5000000000000009 13.227462000000004 6.5000000000000009 6.5000000000000009 7.5000000000000009 2.6305800000000024
decision_type=2 2 2 2 2 2 2 2 2 2 2 2 2 2 2 2 2 2 2 2 2 2 2 2 2 2 2 2 2 2
left_child=2 5 6 11 14 18 9 20 -7 10 -1 -4 -5 19 -3 23 17 -8 -2 22 21 -6 29 24 -9 -19 27 -16 -10 -12
right_child=1 4 3 12 7 8 16 15 28 -11 13 -13 -14 -15 26 -17 -18 25 -20 -21 -22 -23 -24 -25 -26 -27 -28 -29 -30 -31
leaf_value=-0.088326841873473616 0.041422010011434578 0.60483811251605335 -0.56061030984501281 -0.25111671531683244 0.09600288643002472 0.31724769700789945 -0.053074773377502694 0.16095191916825327 0.41402204993045449 -1.100395124624193 -1.0523775711177208 -0.40911607057826943 -0.10676563109904368 -0.35681359789759715 0.011533347689633414 0.42963819999598951 -0.82454502885322567 -0.77523598330843779 0.17349507621665478 -1.1392144801155817 0.97978994757609217 0.85942377320091501 -0.4487152523048703 1.1410187959570164 1.0186912683323894 -0.64272211097723719 0.81987361823783544 0.70893045738281724 0.53944693231493268 -0.9147895345662338
leaf_weight=723 20653 16760 15635 16682 437 20658 690 300 13093 14466 5881 24797 23307 533 322 488 15729 11250 18077 4788 9344 13329 465 8717 16955 10998 9577 13094 10029 15711
leaf_count=723 20653 16760 15635 16682 437 20658 690 300 13093 14466 5881 24797 23307 533 322 488 15729 11250 18077 4788 9344 13329 465 8717 16955 10998 9577 13094 10029 15711
internal_value=-3.61923e-10 0.563223 -0.598684 -0.318169 0.844172 0.259076 -0.876392 0.97092 0.39709 -0.996003 -0.942263 -0.467699 -0.166984 -0.964814 0.686123 1.0384 -0.744717 -0.689977 0.103066 -0.976886 0.893655 0.835189 -0.941649 1.04984 1.00378 -0.70973 0.745374 0.692192 0.468424 -0.952264
internal_weight=333488 171833 161655 80421 89323 82510 81234 49570 43780 42567 28101 40432 39989 27378 39753 26460 38667 22938 38730 26845 23110 13766 22057 25972 17255 22248 22993 13416 23122 21592
internal_count=333488 171833 161655 80421 89323 82510 81234 49570 43780 42567 28101 40432 39989 27378 39753 26460 38667 22938 38730 26845 23110 13766 22057 25972 17255 22248 22993 13416 23122 21592
is_linear=0
shrinkage=0.05


Tree=5
num_leaves=31
num_cat=0
split_feature=7 7 7 7 7 7 7 7 6 7 7 7 7 7 5 4 7 6 5 4 5 4 4 5 4 5 4 4 5 4
split_gain=4.05996e+07 5.40089e+06 4.48511e+06 685094 593128 571626 502397 106186 93867.5 81877.2 80214.6 77987 68152.1 66610.7 65223.5 134094 60950.1 53748.7 52963.8 125833 48940 110164 44602.3 35526.3 42918.2 33875.3 66674.1 32332.2 31690.8 51990.6
threshold=34.969068000000007 19.436712000000004 50.880932000000008 11.018686000000002 27.812204000000001 42.180808000000006 59.873762000000006 6.0681839999999996 103.65573750000001 55.571130000000004 46.398338000000003 22.685854000000003 15.646629999999996 31.611058000000003 6.5000000000000009 6.5000000000000009 39.332084000000009 103.65573750000001 7.5000000000000009 6.5000000000000009 7.5000000000000009 6.5000000000000009 22.500000000000004 6.5000000000000009 6.5000000000000009 6.5000000000000009 6.5000000000000009 22.500000000000004 6.5000000000000009 6.5000000000000009
decision_type=2 2 2 2 2 2 2 2 2 2 2 2 2 2 2 2 2 2 2 2 2 2 2 2 2 2 2 2 2 2
left_child=1 3 5 7 11 16 9 8 18 23 -7 -3 28 -6 15 -8 -2 22 19 -1 21 -9 -17 24 -4 26 -11 -21 29 -5
right_child=2 4 6 12 13 10 14 20 -10 25 -12 -13 -14 -15 -16 17 -18 -19 -20 27 -22 -23 -24 -25 -26 -27 -28 -29 -30 -31
leaf_value=-0.095530651002998235 0.10537803865341529 -0.45778348507949551 -0.0088434320905991844 -0.082131673368618416 -0.16178483589058854 0.35230312216078113 0.13377060722963882 -0.044036458260328863 -0.32851048861958559 0.049628272281671076 0.49005144073195961 -0.31493929516416985 -0.57257497925618062 -0.030738623342740336 1.0383622566832587 0.90012347852536068 0.23676441185709565 0.39248186342765468 -1.0917857936117605 -0.93163809821853638 -0.93089678607707071 -0.80611492593606371 1.0781387165157323 0.71406657131610907 0.60193691728312337 0.85584479267682689 0.74519960938639385 -1.088045635264588 -0.77608972563561751 -0.67129216815021331
leaf_weight=424 23315 15633 294 386 19441 20536 553 492 539 355 21775 24577 18066 19347 13954 20176 14205 472 9428 14871 8607 13122 4262 9693 13243 8331 11670 4248 8955 12518
leaf_count=424 23315 15633 294 386 19441 20536 553 492 539 355 21775 24577 18066 19347 13954 20176 14205 472 9428 14871 8607 13122 4262 9693 13243 8331 11670 4248 8955 12518
internal_value=2.75588e-09 -0.538896 0.564776 -0.800035 -0.235914 0.297202 0.822126 -0.920127 -0.982289 0.705145 0.423194 -0.370475 -0.644432 -0.0964205 0.951479 0.903866 0.155121 0.920962 -0.994452 -0.947496 -0.837574 -0.778574 0.931169 0.640994 0.588672 0.778352 0.724665 -0.96639 -0.703821 -0.653668
internal_weight=333488 170654 162834 91656 78998 79831 83003 51731 29510 43586 42311 40210 39925 38788 39417 25463 37520 24910 28971 19543 22221 13614 24438 23230 13537 20356 12025 19119 21859 12904
internal_count=333488 170654 162834 91656 78998 79831 83003 51731 29510 43586 42311 40210 39925 38788 39417 25463 37520 24910 28971 19543 22221 13614 24438 23230 13537 20356 12025 19119 21859 12904
is_linear=0
shrinkage=0.05


Tree=6
num_leaves=31
num_cat=0
split_feature=7 7 7 7 7 7 7 7 7 5 4 7 6 7 7 6 7 5 4 4 4 5 4 9 5 4 4 5 5 7
split_gain=3.6647e+07 4.79117e+06 4.10709e+06 669072 621747 498761 394353 88506.4 81822 77926.7 176356 77263.5 65551.8 65346 63268.6 56944.9 56262.2 54238.2 95166.3 50652.6 41677.6 39608.8 86898.2 36096.9 33343.5 64581 31579.4 31253.5 30824.3 29994.2
threshold=33.435362000000005 48.769872000000007 16.975928000000003 57.660328000000014 25.730588000000004 40.597904000000007 8.9960940000000011 61.806155400000009 52.958774000000012 6.5000000000000009 6.5000000000000009 20.523250000000004 103.65573750000001 29.393578000000009 43.738994000000012 103.65573750000001 36.592330000000011 6.5000000000000009 6.5000000000000009 22.500000000000004 16.500000000000004 6.5000000000000009 6.5000000000000009 16.152924643683253 7.5000000000000009 6.5000000000000009 15.500000000000002 6.5000000000000009 7.5000000000000009 2.6305800000000024
decision_type=2 2 2 2 2 2 2 2 2 2 2 2 2 2 2 2 2 2 2 2 2 2 2 2 2 2 2 2 2 2
left_child=2 5 6 8 11 16 9 24 27 10 -1 -4 19 -6 -7 21 -2 18 -8 20 26 22 -9 -20 25 -5 -12 -3 -16 -28
right_child=1 3 4 7 13 14 17 15 -10 -11 12 -13 -14 -15 28 -17 -18 -19 23 -21 -22 -23 -24 -25 -26 -27 29 -29 -30 -31
leaf_value=-0.079982338979551093 0.028498484567758105 0.48366660010089046 -0.50841859561986658 0.088131769267414284 -0.22106037775326859 0.26588013736590804 -0.042307635135051834 0.13376860177401892 0.67296573510881408 -0.99360017565740355 -1.1174274998217557 -0.36991205602792399 -0.32205455443746711 -0.092564135807611803 0.34554477132978056 0.39835636672834235 0.14932172009661926 -0.74959835930985408 -0.71483411885419768 -1.0294413094550803 -0.38168166981709584 1.0183273270366315 0.9114793493185257 -0.58497335877527845 0.87194681083413639 0.75972535218285497 -0.94350364103166295 0.6084316329870787 0.45873274225830418 -0.80835734909363355
leaf_weight=723 18010 12009 16952 370 17964 15469 675 366 22993 14466 1130 24797 533 22025 13739 496 20720 15159 9985 4788 465 10227 19282 11531 7831 10998 5685 8624 10699 14777
leaf_count=723 18010 12009 16952 370 17964 15469 675 366 22993 14466 1130 24797 533 22025 13739 496 20720 15159 9985 4788 465 10227 19282 11531 7831 10998 5685 8624 10699 14777
internal_value=2.31714e-09 0.508383 -0.540391 0.750905 -0.29119 0.220959 -0.79527 0.876587 0.6081 -0.899311 -0.850772 -0.426152 -0.871127 -0.150288 0.34501 0.929707 0.0931372 -0.676698 -0.626898 -0.882028 -0.850029 0.938528 0.896992 -0.645238 0.792556 0.737867 -0.860115 0.535815 0.395099 -0.845905
internal_weight=333488 171833 161655 93196 81738 78637 79917 49570 43626 42567 28101 41749 27378 39989 39907 30371 38730 37350 22191 26845 22057 29875 19648 21516 19199 11368 21592 20633 24438 20462
internal_count=333488 171833 161655 93196 81738 78637 79917 49570 43626 42567 28101 41749 27378 39989 39907 30371 38730 37350 22191 26845 22057 29875 19648 21516 19199 11368 21592 20633 24438 20462
is_linear=0
shrinkage=0.05


Tree=7
num_leaves=31
num_cat=0
split_feature=7 7 7 7 7 7 7 7 6 7 7 7 7 7 5 4 4 4 5 4 5 4 7 5 4 5 9 4 5 4
split_gain=3.30792e+07 4.40065e+06 3.6565e+06 646822 464812 411360 409881 94611.7 76934.8 67970.4 66120.5 65601.3 62683.2 54520.5 53274.4 109233 45329.7 66863.3 44052.4 102564 43084.1 90680.8 39844.8 35346.6 68467.2 33348.3 32088.7 29550.7 28740.6 50213.2
threshold=34.969068000000007 20.265257999999999 50.880932000000008 11.298846000000003 42.700498000000003 28.599406000000005 59.873762000000006 6.0681839999999996 103.65573750000001 54.495778000000008 16.720758000000004 24.904490000000003 39.332084000000009 46.398338000000003 6.5000000000000009 6.5000000000000009 22.500000000000004 16.500000000000004 7.5000000000000009 6.5000000000000009 7.5000000000000009 6.5000000000000009 32.343894000000013 6.5000000000000009 6.5000000000000009 5.5000000000000009 15.456474937914786 15.500000000000002 6.5000000000000009 6.5000000000000009
decision_type=2 2 2 2 2 2 2 2 2 2 2 2 2 2 2 2 2 2 2 2 2 2 2 2 2 2 2 2 2 2
left_child=1 3 4 7 12 11 9 8 18 -4 28 -3 -2 -6 15 -8 17 27 19 -1 21 -9 -7 24 -11 -19 -23 -17 29 -5
right_child=2 5 6 10 13 22 14 20 -10 23 -12 -13 -14 -15 -16 16 -18 25 -20 -21 -22 26 -24 -25 -26 -27 -28 -29 -30 -31
leaf_value=-0.086755003177443904 0.094977895539613735 -0.36646048990607427 0.56230459103716957 -0.042709935453939279 0.32488607599719171 -0.12197207309290109 0.12091282633475112 -0.045877253000981 -0.29585547764597248 0.022522784677270584 -0.48963342027658785 -0.23808383985475615 0.22178414233225952 0.44250195718423702 0.93751655096278697 1.0732018089206619 0.97968449608747799 0.61966682934247608 -0.98751649972090694 -0.87298183038198651 -0.83835596665064704 -0.81461034871504312 -0.01435639489222445 0.75958256729919493 0.6583730146891551 -0.01327386988447078 -0.65997262825481651 0.80490814880427008 -0.68029182888883366 -0.58842788290711612
leaf_weight=424 23315 22223 18072 434 17996 19435 553 512 539 436 16909 18021 16745 21775 13954 1086 4270 534 9428 19119 9102 5692 15430 10471 14607 341 8170 18679 10554 14662
leaf_count=424 23315 22223 18072 434 17996 19435 553 512 539 436 16909 18021 16745 21775 13954 1086 4270 534 9428 19119 9102 5692 15430 10471 14607 341 8170 18679 10554 14662
internal_value=-1.40067e-10 -0.486432 0.509792 -0.711551 0.268196 -0.200061 0.742156 -0.828144 -0.887736 0.636494 -0.566392 -0.308974 0.147983 0.389282 0.858994 0.815963 0.831393 0.800715 -0.898748 -0.855924 -0.753235 -0.699334 -0.0743452 0.689044 0.639944 0.373001 -0.72347 0.81965 -0.616993 -0.572739
internal_weight=333488 170654 162834 95545 79831 75109 83003 52986 29510 43586 42559 40244 40060 39771 39417 25463 24910 20640 28971 19543 23476 14374 34865 25514 15043 875 13862 19765 25650 15096
internal_count=333488 170654 162834 95545 79831 75109 83003 52986 29510 43586 42559 40244 40060 39771 39417 25463 24910 20640 28971 19543 23476 14374 34865 25514 15043 875 13862 19765 25650 15096
is_linear=0
shrinkage=0.05


Tree=8
num_leaves=31
num_cat=0
split_feature=7 7 7 7 7 7 7 7 7 6 7 7 6 7 7 5 4 5 4 5 5 4 5 4 9 5 5 9 5 4
split_gain=2.9854e+07 3.97236e+06 3.29999e+06 559124 420410 392379 372690 85912.8 79195.6 72073.6 67875.6 56116.1 52808.9 50234.2 48457.8 44358 96692.6 44198.2 69126 40854.7 35459.9 77684.4 34976.2 69420.1 31055.8 29924.6 27759.7 27165.8 25506.9 43746
threshold=34.969068000000007 20.001962000000006 50.880932000000008 11.298846000000003 43.738994000000012 27.812204000000001 58.202356000000009 5.1466819999999993 39.332084000000009 103.65573750000001 63.504843000000008 15.646629999999996 103.65573750000001 31.364490000000004 24.631674000000007 7.5000000000000009 6.5000000000000009 6.5000000000000009 6.5000000000000009 6.5000000000000009 7.5000000000000009 6.5000000000000009 7.5000000000000009 6.5000000000000009 15.291443410866867 6.5000000000000009 6.5000000000000009 15.333260087494148 6.5000000000000009 6.5000000000000009
decision_type=2 2 2 2 2 2 2 2 2 2 2 2 2 2 2 2 2 2 2 2 2 2 2 2 2 2 2 2 2 2
left_child=1 3 4 7 8 14 17 9 -2 20 22 -5 28 -7 26 16 -9 18 -4 -6 21 -1 23 -8 -18 -13 -3 -20 29 -12
right_child=2 5 6 11 19 13 10 15 -10 -11 12 25 -14 -15 -16 -17 24 -19 27 -21 -22 -23 -24 -25 -26 -27 -28 -29 -30 -31
leaf_value=-0.089272778859594837 0.090228999408349234 -0.30748728997925207 -0.038465146110601235 -0.59970619869983388 0.33840055780649281 -0.14322658356291662 0.08293774897007497 -0.043417821918523669 0.22266273743364531 -0.27905437002356387 0.15147003811417203 -0.43191813762233838 0.34185054660958714 -0.029188650338552221 -0.24102280759028344 -0.80560995798292301 -0.78310799642945761 0.64960020648311412 0.62899833291235863 0.44799964000885373 -0.95218608780575953 -0.83985139141139831 0.81278198219096209 0.7103883093823864 -0.64187567981825333 -0.55376598532776689 -0.4202664938028649 0.5087215185581232 0.94888988088855852 0.84492371102031061
leaf_weight=352 23315 12562 509 20604 19631 18148 455 585 21885 536 231 11991 481 20640 15386 10574 6435 14943 7277 15000 7957 16696 9844 14150 9851 8691 9646 13229 7177 14707
leaf_count=352 23315 12562 509 20604 19631 18148 455 585 21885 536 231 11991 481 20640 15386 10574 6435 14943 7277 15000 7957 16696 9844 14150 9851 8691 9646 13229 7177 14707
internal_value=-8.91175e-10 -0.46211 0.484303 -0.67925 0.254786 -0.194112 0.705049 -0.786737 0.154351 -0.852735 0.797676 -0.541304 0.860148 -0.0825443 -0.309223 -0.725317 -0.674994 0.583862 0.537117 0.385872 -0.865032 -0.824354 0.739939 0.690841 -0.69768 -0.483121 -0.356473 0.551404 0.871421 0.8342
internal_weight=333488 170654 162834 94272 79831 76382 83003 52986 45200 25541 47045 41286 22596 38788 37594 27445 16871 35958 21015 34631 25005 17048 24449 14605 16286 20682 22208 20506 22115 14938
internal_count=333488 170654 162834 94272 79831 76382 83003 52986 45200 25541 47045 41286 22596 38788 37594 27445 16871 35958 21015 34631 25005 17048 24449 14605 16286 20682 22208 20506 22115 14938
is_linear=0
shrinkage=0.05


Tree=9
num_leaves=31
num_cat=0
split_feature=7 7 7 7 7 7 7 7 7 6 7 7 7 6 5 4 7 4 5 4 7 4 5 4 9 4 5 5 4 5
split_gain=2.69515e+07 3.5383e+06 3.0225e+06 493949 421051 364725 329592 74302.3 64363.2 56807.2 55564.4 55299.1 54512.7 47660 45721.5 115365 43303.3 36298.1 35045.6 73042.4 34145.5 34136.9 32057.6 67539.2 27828.5 25867.3 25474.8 25256.5 42509.2 25080
threshold=33.435362000000005 48.769872000000007 17.496808000000005 57.423892000000002 26.000446000000004 40.107896000000011 7.8378500000000004 63.504843000000008 13.485488000000002 103.65573750000001 52.703910000000008 21.614990000000002 43.738994000000012 103.65573750000001 7.5000000000000009 6.5000000000000009 29.913132000000001 22.500000000000004 7.5000000000000009 6.5000000000000009 36.127992000000006 16.500000000000004 7.5000000000000009 6.5000000000000009 15.487401171261615 15.500000000000002 6.5000000000000009 6.5000000000000009 6.5000000000000009 7.5000000000000009
decision_type=2 2 2 2 2 2 2 2 2 2 2 2 2 2 2 2 2 2 2 2 2 2 2 2 2 2 2 2 2 2
left_child=2 5 6 10 11 20 9 18 22 14 -3 26 -7 -9 15 -1 -6 21 19 -5 -2 25 23 -8 -21 -17 -4 28 -12 -14
right_child=1 3 4 7 16 12 8 13 -10 -11 27 -13 29 -15 -16 17 -18 -19 -20 24 -22 -23 -24 -25 -26 -27 -28 -29 -30 -31
leaf_value=-0.068179498392613211 0.016075617077495049 0.45591701192881368 -0.36677899577333029 0.073035339738780208 -0.17781242423690688 0.22239865575254633 -0.037477491336809575 0.82784951501616877 -0.51527743055277664 -0.28526530058430838 -0.047391966789640257 -0.29885010102158022 0.29229441861650268 0.3247580219656539 -0.87081845313497108 -1.0058926372797792 -0.07199851591222535 -0.89660212501280512 0.76319106933954961 0.74094231287269052 0.11427859134708532 -0.28696885226655944 -0.70433500958976947 -0.61022605450418155 0.6094664570333016 -0.73637744593141463 -0.48216743130230411 0.63270595909953808 0.54036514956282111 0.3943925399388688
leaf_weight=600 15469 19336 11258 532 19267 18038 533 22115 19324 560 315 20896 13739 481 12406 937 19409 4584 11380 7295 20692 407 10298 15005 8978 17854 8317 9617 13147 10699
leaf_count=600 15469 19336 11258 532 19267 18038 533 22115 19324 560 315 20896 13739 481 12406 937 19409 4584 11380 7295 20692 407 10298 15005 8978 17854 8317 9617 13147 10699
internal_value=1.29848e-10 0.435976 -0.463425 0.644391 -0.242681 0.188975 -0.675177 0.749592 -0.584298 -0.785066 0.518439 -0.355419 0.288329 0.81714 -0.792674 -0.752913 -0.124711 -0.770189 0.695438 0.649558 0.0722692 -0.740004 -0.635921 -0.590579 0.668406 -0.749817 -0.415805 0.570821 0.526612 0.336993
internal_weight=333488 171833 161655 93196 79147 78637 82508 50781 45160 37348 42415 40471 42476 22596 36788 24382 38676 23782 28185 16805 36161 19198 25836 15538 16273 18791 19575 23079 13462 24438
internal_count=333488 171833 161655 93196 79147 78637 82508 50781 45160 37348 42415 40471 42476 22596 36788 24382 38676 23782 28185 16805 36161 19198 25836 15538 16273 18791 19575 23079 13462 24438
is_linear=0
shrinkage=0.05


Tree=10
num_leaves=31
num_cat=0
split_feature=7 7 7 7 7 7 7 7 7 6 7 7 5 4 5 4 6 7 7 4 4 5 4 5 4 5 5 4 7 4
split_gain=2.43277e+07 3.34013e+06 2.5936e+06 447706 373908 359567 268220 83849.3 52788.8 51268.5 49318.8 47984.3 42685.6 50400.3 41263.6 104117 37682 36560.5 35965.9 32759.1 30808.6 28789.3 61868.8 27167 53455.6 26705.8 25488.1 55032.2 24831.3 23571.9
threshold=33.005602000000003 48.769872000000007 16.975928000000003 56.602180000000011 25.730588000000004 40.107896000000011 7.8378500000000004 61.806155400000009 21.614990000000002 103.65573750000001 44.538198000000008 12.41952 6.5000000000000009 6.5000000000000009 7.5000000000000009 6.5000000000000009 103.65573750000001 36.127992000000006 28.859880000000004 22.500000000000004 16.500000000000004 6.5000000000000009 6.5000000000000009 7.5000000000000009 6.5000000000000009 6.5000000000000009 7.5000000000000009 6.5000000000000009 52.189014000000007 22.500000000000004
decision_type=2 2 2 2 2 2 2 2 2 2 2 2 2 2 2 2 2 2 2 2 2 2 2 2 2 2 2 2 2 2
left_child=2 5 6 12 8 17 9 23 25 14 -7 26 13 -3 15 -1 21 -2 -6 20 -17 22 -9 24 -5 -4 27 -8 -15 -24
right_child=1 3 4 7 18 10 11 16 -10 -11 -12 -13 -14 28 -16 19 -18 -19 -20 -21 -22 -23 29 -25 -26 -27 -28 -29 -30 -31
leaf_value=-0.064770528487094761 0.011137864221369786 -0.087533027301629318 -0.35285803872496324 0.063639282662701871 -0.1882237049326167 0.22170916573448413 -0.023735482843247207 0.08725321673141008 -0.28735449599154772 -0.27100203219801189 0.32951711748707729 -0.51040107697663484 0.54365883788115832 0.38698205740831182 -0.82727752519345366 -0.712325797244304 0.32724723294884295 0.10856465945217986 -0.088631107801043621 -0.85177201330194485 -0.27262040626358347 0.83469187276174406 0.71562148455206542 0.69841600475850962 0.6086102915681586 -0.46388648085476519 -0.68496703231358613 -0.59174988261938399 0.49424435945515716 0.8532093181229734
leaf_weight=600 18011 449 12751 465 15391 21908 442 366 19583 560 20568 21798 16071 9548 12406 18791 496 20692 22056 4584 407 10227 15379 9961 13924 9415 8231 12098 12407 3903
leaf_count=600 18011 449 12751 465 15391 21908 442 366 19583 560 20568 21798 16071 9548 12406 18791 496 20692 22056 4584 407 10227 15379 9961 13924 9415 8231 12098 12407 3903
internal_value=4.15898e-10 0.407935 -0.447064 0.612171 -0.244278 0.173465 -0.64802 0.704064 -0.347171 -0.745813 0.273913 -0.562221 0.481477 0.436873 -0.753041 -0.715268 0.759483 0.0632257 -0.129564 -0.731679 -0.703004 0.766659 0.731248 0.634941 0.590999 -0.400017 -0.616602 -0.571729 0.447597 0.743472
internal_weight=333488 174375 159113 93196 79196 81179 79917 54721 41749 37348 42476 42569 38475 22404 36788 24382 30371 38703 37447 23782 19198 29875 19648 24350 14389 22166 20771 12540 21955 19282
internal_count=333488 174375 159113 93196 79196 81179 79917 54721 41749 37348 42476 42569 38475 22404 36788 24382 30371 38703 37447 23782 19198 29875 19648 24350 14389 22166 20771 12540 21955 19282
is_linear=0
shrinkage=0.05


Tree=11
num_leaves=31
num_cat=0
split_feature=7 7 7 7 7 7 7 7 7 7 5 4 4 4 7 7 6 7 5 5 9 5 4 5 4 9 7 5 5 5
split_gain=2.19568e+07 2.72967e+06 2.61732e+06 344788 320815 318883 318205 53590.1 52289 51218.2 48962.1 113197 44520.5 73287.2 42913.4 41213.4 40752.1 36783.7 35356.5 34395.4 31376.7 28419.3 57017.4 25292.8 26081.4 23303.5 22697.8 21782.2 21205.9 20800.2
threshold=34.295018000000006 18.888462000000004 50.080062000000005 9.5770180000000042 58.202356000000009 41.661662000000007 26.000446000000004 30.643894000000003 64.058590800000019 14.015344000000001 6.5000000000000009 6.5000000000000009 22.500000000000004 16.500000000000004 46.121680000000005 53.718844000000011 103.65573750000001 37.565036000000006 6.5000000000000009 5.5000000000000009 15.291443410866867 7.5000000000000009 6.5000000000000009 6.5000000000000009 6.5000000000000009 15.487401171261615 4.2863800000000021 7.5000000000000009 6.5000000000000009 7.5000000000000009
decision_type=2 2 2 2 2 2 2 2 2 2 2 2 2 2 2 2 2 2 2 2 2 2 2 2 2 2 2 2 2 2
left_child=1 3 5 10 15 17 18 -8 21 29 11 -1 13 20 27 28 -10 -2 -3 -15 -13 22 -6 24 -11 -24 -12 -7 -4 -5
right_child=2 6 4 9 8 14 7 -9 16 23 26 12 -14 19 -16 -17 -18 -19 -20 -21 -22 -23 25 -25 -26 -27 -28 -29 -30 -31
leaf_value=-0.063320819804632056 0.044094578112187741 -0.25907162549828111 0.38901886824742549 -0.51068943661267974 0.069325407452044838 0.20340906490825048 -0.15237328101936878 -0.041633369462920643 0.75678014304534069 0.07510579048685545 -0.83493124616176984 -0.72600530750342518 -0.80736033417602471 -0.46512636694324833 0.35068621988739329 0.53761202501487737 0.28997120598169718 0.14182874413476168 -0.36197064386974109 0.13517368030514818 -0.60844857617199688 0.70180678300992239 0.67946161865588572 -0.50567292054097968 -0.40996488238847717 0.55741495457456425 -0.71222652792186913 0.30352848035799662 0.49906828690394606 -0.61317516019748108
leaf_weight=790 18038 19093 10406 12252 496 12091 23151 20687 19528 283 6469 10114 4897 585 19235 21788 479 20647 14834 403 12936 10806 7269 9659 13327 8467 9029 9865 7556 8308
leaf_count=790 18038 19093 10406 12252 496 12091 23151 20687 19528 283 6469 10114 4897 585 19235 21788 479 20647 14834 403 12936 10806 7269 9659 13327 8467 9029 9865 7556 8308
internal_value=9.83425e-12 -0.405531 0.405887 -0.594537 0.595963 0.199345 -0.189093 -0.100116 0.684325 -0.494601 -0.691393 -0.653827 -0.669949 -0.641956 0.296161 0.491386 0.745604 0.0962574 -0.304062 -0.220267 -0.660031 0.63898 0.597155 -0.443794 -0.399879 0.613793 -0.763445 0.248393 0.435313 -0.552102
internal_weight=333488 166817 166671 89052 86795 79876 77765 43838 47045 43829 45223 29725 28935 24038 41191 39750 20007 38685 33927 988 23050 27038 16232 23269 13610 15736 15498 21956 17962 20560
internal_count=333488 166817 166671 89052 86795 79876 77765 43838 47045 43829 45223 29725 28935 24038 41191 39750 20007 38685 33927 988 23050 27038 16232 23269 13610 15736 15498 21956 17962 20560
is_linear=0
shrinkage=0.05


Tree=12
num_leaves=31
num_cat=0
split_feature=7 7 7 7 7 7 7 7 7 6 7 5 4 5 4 9 5 4 5 4 7 7 6 4 5 5 4 4 4 4
split_gain=1.98227e+07 2.72207e+06 2.11615e+06 365834 315887 292853 209114 69247.2 48357 43991 41026.9 38693.2 76268.4 36588.1 45572.3 36128.2 32847.9 60742.8 32324.5 81489.2 29890.3 29842.5 28967.4 24903.3 24827.2 24017.7 23890.9 23013.1 22721.7 22203.9
threshold=33.005602000000003 48.769872000000007 16.720758000000004 56.602180000000011 25.730588000000004 40.107896000000011 7.5546979999999992 61.227390400000012 21.881210000000006 103.65573750000001 43.738994000000012 6.5000000000000009 6.5000000000000009 6.5000000000000009 6.5000000000000009 16.62448253904952 6.5000000000000009 6.5000000000000009 7.5000000000000009 6.5000000000000009 29.121340000000004 36.592330000000011 103.65573750000001 22.500000000000004 6.5000000000000009 5.5000000000000009 15.500000000000002 22.500000000000004 15.500000000000002 16.500000000000004
decision_type=2 2 2 2 2 2 2 2 2 2 2 2 2 2 2 2 2 2 2 2 2 2 2 2 2 2 2 2 2 2
left_child=2 5 6 13 8 21 9 -5 24 18 -7 12 -8 14 -3 -14 17 -9 19 -1 -6 -2 27 26 -4 -24 -21 28 -19 -28
right_child=1 3 4 7 20 10 11 16 -10 -11 -12 -13 15 -15 -16 -17 -18 22 -20 23 -22 -23 25 -25 -26 -27 29 -29 -30 -31
leaf_value=-0.060610211663376615 0.015815574981738131 -0.10548661529316768 -0.31815254875218163 0.56648222760311584 -0.16695772400981346 0.19001932059378765 0.0088963759368964369 0.054999042482534372 -0.25394549305300557 -0.23202365751830306 0.2894337461297693 -0.57089319475131173 -0.54630911763639856 0.4920349717360149 0.40336736291087444 -0.42486307439737303 0.75074416251424647 0.88918444849978917 -0.75066678891424721 -0.89100274080786479 -0.077079709513563049 0.10379523192840941 0.63973264324816714 -0.76933031627875459 -0.41937916401477376 -0.076352749108777623 -0.63421293376252041 0.77367013959375242 0.62677375668654178 -0.25269980094944822
leaf_weight=573 20552 449 14244 21773 16682 18038 793 427 18247 548 24438 17185 13045 16071 21955 11542 11247 870 11896 892 20765 18151 226 4530 10539 243 17242 4011 15924 390
leaf_count=573 20552 449 14244 21773 16682 18038 793 427 18247 548 24438 17185 13045 16071 21955 11542 11247 870 11896 892 20765 18151 226 4530 10539 243 17242 4011 15924 390
internal_value=-6.86064e-10 0.368232 -0.403553 0.552607 -0.223307 0.156565 -0.588018 0.635673 -0.315718 -0.676591 0.247216 -0.512959 -0.473732 0.434466 0.393169 -0.489298 0.681397 0.645456 -0.683449 -0.649605 -0.117119 0.0570764 0.657307 -0.664245 -0.361199 0.268712 -0.638546 0.666067 0.640368 -0.625774
internal_weight=333488 174375 159113 93196 80477 81179 78636 54721 43030 36071 42476 42565 25380 38475 22404 24587 32948 21701 35523 23627 37447 38703 21274 23054 24783 469 18524 20805 16794 17632
internal_count=333488 174375 159113 93196 80477 81179 78636 54721 43030 36071 42476 42565 25380 38475 22404 24587 32948 21701 35523 23627 37447 38703 21274 23054 24783 469 18524 20805 16794 17632
is_linear=0
shrinkage=0.05


Tree=13
num_leaves=31
num_cat=0
split_feature=7 7 7 7 7 7 7 7 7 6 7 5 4 5 5 4 9 5 4 5 4 9 4 4 5 4 5 4 4 9
split_gain=1.78938e+07 2.39201e+06 1.99717e+06 357552 298266 220936 184309 68021.6 48098.8 43623.7 37942.6 36869.1 58919.8 34372.6 31810.4 34217.5 31717.7 30831.5 59786.1 30342 68235.2 29537.2 26731.1 45215.3 26022.6 22752.6 21552.5 46696.8 21546.1 21218.8
threshold=34.969068000000007 20.265257999999999 51.921094000000004 12.152790000000005 43.738994000000012 28.859880000000004 60.677318000000007 5.1466819999999993 39.332084000000009 103.65573750000001 24.631674000000007 6.5000000000000009 6.5000000000000009 6.5000000000000009 6.5000000000000009 6.5000000000000009 15.487401171261615 6.5000000000000009 6.5000000000000009 7.5000000000000009 6.5000000000000009 17.590844990067502 22.500000000000004 16.500000000000004 5.5000000000000009 15.500000000000002 7.5000000000000009 6.5000000000000009 15.500000000000002 15.822588556705869
decision_type=2 2 2 2 2 2 2 2 2 2 2 2 2 2 2 2 2 2 2 2 2 2 2 2 2 2 2 2 2 2
left_child=1 3 4 7 8 10 11 9 -2 26 -3 12 -4 -6 15 -5 -14 18 -8 20 -9 -22 23 28 -25 -10 27 -1 -20 -17
right_child=2 5 6 14 13 -7 17 19 25 -11 -12 -13 16 -15 -16 29 -18 -19 22 -21 21 -23 -24 24 -26 -27 -28 -29 -30 -31
leaf_value=-0.071965094151966544 0.06968521277700683 -0.27117133663578891 -0.015649933930051717 0.056424456166594188 0.26683998417051885 -0.051310283452660345 0.048656744722069968 -0.020355043001615659 0.23314643468574414 -0.21771209892094023 -0.17556364806951388 0.54321777623592571 0.53213429676069457 0.36053919807158219 -0.46005031967345816 -0.44004512950855362 0.41474899422657985 0.70582912683735932 0.84247769399396244 -0.61580987137358667 -0.57324484839565637 -0.43396322107057222 0.73496593290541667 0.46182441290146958 -0.10942649269947805 0.12975683936372404 -0.74154248276758894 -0.65389799992905084 0.59785436258366831 -0.3388846103363804
leaf_weight=352 23315 20935 666 465 22712 33597 468 673 9131 536 20577 17419 9509 17200 16104 8315 14575 12359 951 12184 13139 5359 4111 499 332 12754 7957 16696 16833 13765
leaf_count=352 23315 20935 666 465 22712 33597 468 673 9131 536 20577 17419 9509 17200 16104 8315 14575 12359 951 12184 13139 5359 4111 499 332 12754 7957 16696 16833 13765
internal_value=-5.52419e-10 -0.357763 0.374944 -0.523735 0.207612 -0.146632 0.558188 -0.603455 0.119657 -0.664029 -0.22378 0.487489 0.448267 0.307219 -0.406379 -0.368041 0.461096 0.642043 0.608054 -0.554113 -0.514901 -0.532894 0.619574 0.594091 0.233599 0.172894 -0.673596 -0.641882 0.610936 -0.37698
internal_weight=333488 170654 162834 95545 85112 75109 77722 56896 45200 25541 41512 42169 24750 39912 38649 22545 24084 35553 23194 31355 19171 18498 22726 18615 831 21885 25005 17048 17784 22080
internal_count=333488 170654 162834 95545 85112 75109 77722 56896 45200 25541 41512 42169 24750 39912 38649 22545 24084 35553 23194 31355 19171 18498 22726 18615 831 21885 25005 17048 17784 22080
is_linear=0
shrinkage=0.05


Tree=14
num_leaves=31
num_cat=0
split_feature=7 7 7 7 7 7 7 7 7 6 5 7 5 4 6 5 4 7 9 5 4 9 5 5 5 5 4 10 5 9
split_gain=1.61624e+07 2.27488e+06 1.68439e+06 300873 245837 240069 170637 57670.4 38670.6 33381.3 32987.2 32085.7 29870.6 59804.5 29861.1 29791.6 38622.4 29685.1 27764.5 27109.8 58392.7 26644.1 22024.4 20037.8 19900.3 19792.4 40274.8 19459.2 18895 17396.2
threshold=32.784228000000006 48.769872000000007 16.720758000000004 56.602180000000011 40.597904000000007 25.730588000000004 7.8378500000000004 64.058590800000019 21.614990000000002 103.65573750000001 7.5000000000000009 37.095700000000008 6.5000000000000009 6.5000000000000009 103.65573750000001 6.5000000000000009 6.5000000000000009 3.1645500000000064 16.152924643683253 7.5000000000000009 6.5000000000000009 15.487401171261615 5.5000000000000009 5.5000000000000009 6.5000000000000009 7.5000000000000009 6.5000000000000009 -0.015846897043507047 6.5000000000000009 16.124948204008493
decision_type=2 2 2 2 2 2 2 2 2 2 2 2 2 2 2 2 2 2 2 2 2 2 2 2 2 2 2 2 2 2
left_child=2 4 6 15 11 8 9 19 24 17 27 -2 13 -8 -9 16 -3 -1 -15 20 -5 -22 -7 -11 -4 26 -19 -6 -10 -18
right_child=1 3 5 7 10 22 12 14 28 23 -12 -13 -14 18 -16 -17 29 25 -20 -21 21 -23 -24 -25 -26 -27 -28 -29 -30 -31
leaf_value=-0.66610884133416937 0.017818888112707598 -0.104305728466424 -0.28802847634618589 0.030209353519205302 0.15171767629186358 -0.066244032793179239 0.0093199996573909028 0.65167017621906109 -0.18863207493865908 -0.56463305565319499 0.27837792439180736 0.10562745877754201 -0.51281203492422467 -0.49704884151571865 0.25207789810384101 0.44396716821532556 0.41520904959688815 -0.051937766175617898 -0.38899841025117304 0.5893361182330894 0.57738183438073232 0.46173702492388841 -0.14471904732423341 0.038274795032357652 -0.38122801643424559 -0.63832120822070271 -0.55365308704161409 0.24952016011191419 -0.28751397960234154 0.3253523220997257
leaf_weight=15841 24508 449 13497 643 14120 16238 764 19528 10916 245 17838 18077 16672 11277 479 16071 9478 413 12575 13979 9124 10968 19896 315 9950 7828 12706 7949 8667 12477
leaf_count=15841 24508 449 13497 643 14120 16238 764 19528 10916 245 17838 18077 16672 11277 479 16071 9478 413 12575 13979 9124 10968 19896 315 9950 7828 12706 7949 8667 12477
internal_value=-2.09737e-10 0.329887 -0.367282 0.499159 0.13865 -0.204471 -0.531187 0.57449 -0.284261 -0.608628 0.227815 0.0550929 -0.461135 -0.426136 0.642103 0.392019 0.354755 -0.614461 -0.440084 0.535522 0.499242 0.514253 -0.109454 -0.225497 -0.327579 -0.575402 -0.537859 0.186945 -0.232395 0.364144
internal_weight=333488 175688 157800 93196 82492 79164 78636 54721 43030 37348 39907 42585 41288 24616 20007 38475 22404 36788 23852 34714 20735 20092 36134 560 23447 20947 13119 22069 19583 21955
internal_count=333488 175688 157800 93196 82492 79164 78636 54721 43030 37348 39907 42585 41288 24616 20007 38475 22404 36788 23852 34714 20735 20092 36134 560 23447 20947 13119 22069 19583 21955
is_linear=0
shrinkage=0.05


Tree=15
num_leaves=31
num_cat=0
split_feature=7 7 7 7 7 7 7 7 7 5 4 4 4 5 5 4 5 7 5 4 4 6 5 4 9 6 4 5 7 5
split_gain=1.45921e+07 2.14617e+06 1.43798e+06 297178 217057 192345 154987 55333.2 33119.3 32587.3 72400.6 31191.3 55628.5 30297.9 30182.2 35581.9 28631.3 27465 24544 40109.4 24537.5 25023.7 24058.6 45804.2 22704.9 21828.5 19713.3 19543.6 19365.8 18464.7
threshold=32.343894000000013 48.234032000000006 16.720758000000004 56.350104000000009 39.332084000000009 24.342266000000006 8.9960940000000011 61.806155400000009 43.738994000000012 6.5000000000000009 6.5000000000000009 22.500000000000004 16.500000000000004 6.5000000000000009 6.5000000000000009 6.5000000000000009 5.5000000000000009 28.859880000000004 6.5000000000000009 6.5000000000000009 15.500000000000002 69.924382500000007 6.5000000000000009 6.5000000000000009 15.822588556705869 103.65573750000001 15.500000000000002 5.5000000000000009 36.127992000000006 7.5000000000000009
decision_type=2 2 2 2 2 2 2 2 2 2 2 2 2 2 2 2 2 2 2 2 2 2 2 2 2 2 2 2 2 2
left_child=2 4 6 14 28 13 9 29 26 10 -1 12 20 -4 15 -3 -14 -7 19 -9 -12 -22 23 -8 -25 -21 -6 -27 -2 -5
right_child=1 3 5 7 8 17 22 18 -10 -11 11 -13 16 -15 -16 -17 -18 -19 -20 25 21 -23 -24 24 -26 27 -28 -29 -30 -31
leaf_value=-0.043985682098761095 0.0044681197860371611 -0.106102055168884 -0.24380381889584068 0.45439168331249019 0.21062017565079272 -0.1622958007072032 0.01606753793669621 0.045191428361212219 0.24157228760128246 -0.63021714521161687 -0.76906445150486613 -0.66670186450247426 -0.3836639427853567 -0.33584359411414727 0.41652627106628864 0.3371362029036144 0.16958182456560042 -0.07915091027226373 0.65251839657707578 0.57536203677304809 -0.49762898195596117 -0.62373522297149808 -0.47782117425842474 -0.47077859286009521 -0.3643946706899055 0.56630063059606728 0.11438346231713459 -0.081145581209058626 0.075776041348604009 0.54077101815332695
leaf_weight=723 21900 462 20860 15123 9131 21912 658 375 21835 14466 1136 4796 565 15649 16666 22707 399 18167 10247 19282 15171 5311 14624 8452 12335 224 12754 243 16845 10470
leaf_count=723 21900 462 20860 15123 9131 21912 658 375 21835 14466 1136 4796 565 15649 16666 22707 399 18167 10247 19282 15171 5311 14624 8452 12335 224 12754 243 16845 10470
internal_value=-6.57051e-10 0.308629 -0.354439 0.469591 0.12164 -0.200234 -0.504628 0.543889 0.198004 -0.569243 -0.537855 -0.550897 -0.526302 -0.283255 0.36521 0.328298 -0.154675 -0.124608 0.589528 0.557454 -0.542874 -0.530328 -0.428371 -0.394649 -0.40765 0.567181 0.154536 0.229407 0.0354704 0.489729
internal_weight=333488 178264 155224 95799 82465 76588 78636 55964 43720 42567 28101 27378 22582 36509 39835 23169 964 40079 30371 20124 21618 20482 36069 21445 20787 19749 21885 467 38745 25593
internal_count=333488 178264 155224 95799 82465 76588 78636 55964 43720 42567 28101 27378 22582 36509 39835 23169 964 40079 30371 20124 21618 20482 36069 21445 20787 19749 21885 467 38745 25593
is_linear=0
shrinkage=0.05


Tree=16
num_leaves=31
num_cat=0
split_feature=7 7 7 7 7 7 7 7 7 7 7 6 5 4 6 5 4 9 7 5 5 4 7 7 5 4 9 5 10 10
split_gain=1.31694e+07 1.93692e+06 1.2978e+06 268204 195894 166525 148376 51822.9 33253 31247.4 29890.1 28743.6 27239.4 32112.6 25599.9 24663 55997.1 28091.6 23905.9 19087.6 18205.2 17791.3 17477.6 17314 16092.9 36078.2 17655 15738.5 15411.1 15213.6
threshold=32.343894000000013 48.234032000000006 16.975928000000003 56.350104000000009 39.332084000000009 25.730588000000004 7.5546979999999992 64.595036000000007 12.975488 20.523250000000004 43.738994000000012 103.65573750000001 6.5000000000000009 6.5000000000000009 103.65573750000001 7.5000000000000009 6.5000000000000009 16.933170049893956 3.1645500000000064 6.5000000000000009 5.5000000000000009 15.500000000000002 36.127992000000006 52.462612000000007 7.5000000000000009 6.5000000000000009 17.287727065113767 5.5000000000000009 0.041982020698168906 -1.0000000180025095e-35
decision_type=2 2 2 2 2 2 2 2 2 2 2 2 2 2 2 2 2 2 2 2 2 2 2 2 2 2 2 2 2 2
left_child=2 4 6 12 22 9 11 15 24 -4 21 18 13 -3 -9 16 -5 -18 -1 28 29 -6 -2 -15 25 -8 -27 -13 -11 -7
right_child=1 3 5 7 10 20 8 14 -10 19 -12 27 -14 23 -16 -17 17 -19 -20 -21 -22 -23 -24 -25 -26 26 -28 -29 -30 -31
leaf_value=-0.60343812232516136 0.004244716678605708 -0.1007969495634754 -0.30675948855699881 0.012308893509340476 0.20008916910730232 -0.12043362861441764 -0.010935990263656921 0.5985418274079789 -0.36603088759242181 -0.23812577089712908 0.22949367033360285 -0.5009109854098347 0.39569996248573619 0.27813282863601779 0.2267382006595271 0.53331381032120695 0.50498303149479029 0.38619295789876157 -0.52091958481217693 -0.26830727274589961 -0.13823652075894727 0.1086642890851606 0.071987242560497683 0.36550816215139842 -0.50343310389165541 -0.47666535369997676 -0.3602068912463523 0.040228287148504308 -0.13236814359211974 -0.019526121814376626
leaf_weight=15841 21900 462 16952 703 9131 6706 518 16911 19243 6257 21835 236 16666 11754 476 15447 14972 7455 19682 10876 18420 12754 16845 10953 9810 9256 5019 312 7664 8432
leaf_count=15841 21900 462 16952 703 9131 6706 518 16911 19243 6257 21835 236 16666 11754 476 15447 14972 7455 19682 10876 18420 12754 16845 10953 9810 9256 5019 312 7664 8432
internal_value=-5.60347e-10 0.293197 -0.336717 0.446112 0.115558 -0.187782 -0.47706 0.516695 -0.415266 -0.254442 0.188104 -0.552174 0.34695 0.311883 0.588363 0.484393 0.451722 0.465496 -0.557718 -0.218677 -0.104851 0.146809 0.0336968 0.320279 -0.453775 -0.420845 -0.435719 -0.192817 -0.179902 -0.0642273
internal_weight=333488 178264 155224 95799 82465 75307 79917 55964 43846 41749 43720 36071 39835 23169 17387 38577 23130 22427 35523 24797 33558 21885 38745 22707 24603 14793 14275 548 13921 15138
internal_count=333488 178264 155224 95799 82465 75307 79917 55964 43846 41749 43720 36071 39835 23169 17387 38577 23130 22427 35523 24797 33558 21885 38745 22707 24603 14793 14275 548 13921 15138
is_linear=0
shrinkage=0.05


Tree=17
num_leaves=31
num_cat=0
split_feature=7 7 7 7 7 7 7 7 7 7 7 5 5 4 7 6 5 6 5 4 4 4 10 9 9 5 4 5 4 9
split_gain=1.18854e+07 1.74986e+06 1.17176e+06 226019 193539 174533 114668 34138.6 32550.1 32042.9 30725.7 28840.9 26338.4 51740 24445.7 24013.1 23810.4 23103.9 18751.8 36665.9 19243.5 19618.7 18177 17947.1 16909.6 15772.1 15176.8 15175.7 31041.9 16784.9
threshold=32.343894000000013 49.547214000000004 16.168700000000005 41.388948000000006 58.202356000000009 23.247262000000003 7.2671600000000014 37.095700000000008 64.595036000000007 28.333118000000002 53.718844000000011 7.5000000000000009 6.5000000000000009 6.5000000000000009 12.152790000000005 103.65573750000001 6.5000000000000009 103.65573750000001 7.5000000000000009 6.5000000000000009 15.500000000000002 22.500000000000004 -0.015846897043507047 15.291443410866867 15.487401171261615 5.5000000000000009 15.500000000000002 7.5000000000000009 6.5000000000000009 15.472338106609879
decision_type=2 2 2 2 2 2 2 2 2 2 2 2 2 2 2 2 2 2 2 2 2 2 2 2 2 2 2 2 2 2
left_child=2 3 6 7 10 16 12 -2 18 26 -3 22 13 -1 27 23 -4 -10 19 -6 -21 24 -5 -15 -22 -17 -7 28 -8 -30
right_child=1 4 5 11 8 9 14 -9 17 -11 -12 -13 -14 15 -16 25 -18 -19 -20 20 21 -23 -24 -25 -26 -27 -28 -29 29 -31
leaf_value=-0.017648972517495112 0.012005567136195876 0.31326368930396442 -0.23512176535198065 0.13883936991442189 0.033243506137369511 -0.20790313047327136 -0.012925749232517249 0.095977672416860241 0.56861473200166146 -0.075290188322113205 0.39855368753951659 0.25744955446227491 -0.58905328749005703 -0.56607568048711621 -0.3623690548270016 -0.47822990291712125 -0.32006338723853056 0.21540129306636158 0.52181253714073739 0.67058245062432675 0.48227295427194278 0.63002123312878178 0.23352906262989601 -0.47577194220939339 0.37617623597672961 0.073985375227466246 -0.12773469049802352 -0.49080791086366526 -0.4905121174893049 -0.37413953588591586
leaf_weight=551 27084 20490 19398 14499 536 9807 484 21883 16911 20730 21788 17683 11425 9890 19205 234 14356 476 11765 961 6909 1259 7792 12401 8228 289 14832 8721 5172 7729
leaf_count=551 27084 20490 19398 14499 536 9807 484 21883 16911 20730 21788 17683 11425 9890 19205 234 14356 476 11765 961 6909 1259 7792 12401 8228 289 14832 8721 5172 7729
internal_value=1.41815e-10 0.278538 -0.319881 0.121548 0.434856 -0.185154 -0.459958 0.0495321 0.504626 -0.121101 0.357218 0.209766 -0.526839 -0.496417 -0.403634 -0.50798 -0.271249 0.558945 0.472782 0.440544 0.453121 0.440376 0.171939 -0.515838 0.424602 -0.173086 -0.159644 -0.439485 -0.406045 -0.420793
internal_weight=333488 178264 155224 88941 89323 79123 76101 48967 47045 45369 42278 39974 34790 23365 41311 22814 33754 17387 29658 17893 17357 16396 22291 22291 15137 523 24639 22106 13385 12901
internal_count=333488 178264 155224 88941 89323 79123 76101 48967 47045 45369 42278 39974 34790 23365 41311 22814 33754 17387 29658 17893 17357 16396 22291 22291 15137 523 24639 22106 13385 12901
is_linear=0
shrinkage=0.05


Tree=18
num_leaves=31
num_cat=0
split_feature=7 7 7 7 7 7 7 7 6 5 5 4 9 5 5 4 7 5 4 4 4 5 5 4 9 10 7 9 4 7
split_gain=1.07325e+07 1.44399e+06 1.2131e+06 190981 170581 156624 119524 36332.2 28202.9 27741.4 26105.4 42128.8 26603.7 23151.5 22864.7 30978 22213.3 21562.7 39553.2 19626.2 33168.4 20056 18522.3 43619.9 19979.9 18489.1 18218.8 17899.7 17485.5 16901.7
threshold=34.969068000000007 19.436712000000004 51.661198000000006 11.018686000000002 42.700498000000003 27.565364000000006 60.944558000000008 4.2863800000000021 103.65573750000001 6.5000000000000009 6.5000000000000009 6.5000000000000009 15.487401171261615 6.5000000000000009 6.5000000000000009 6.5000000000000009 31.108334000000006 6.5000000000000009 6.5000000000000009 22.500000000000004 16.500000000000004 5.5000000000000009 7.5000000000000009 6.5000000000000009 17.997550792749184 0.051083366539588511 39.081572000000008 15.822588556705869 15.500000000000002 46.918980000000012
decision_type=2 2 2 2 2 2 2 2 2 2 2 2 2 2 2 2 2 2 2 2 2 2 2 2 2 2 2 2 2 2
left_child=1 3 4 7 26 13 10 8 -1 29 11 -4 -13 25 15 -5 -7 18 -8 20 28 -22 23 -9 -25 -3 -2 -17 -20 -6
right_child=2 5 6 14 9 16 17 22 -10 -11 -12 12 -14 -15 -16 27 -18 -19 19 -21 21 -23 -24 24 -26 -27 -28 -29 -30 -31
leaf_value=-0.53423620190155474 0.052653256771292692 -0.20504997608971254 -0.037033594742634915 0.070267410892775856 0.14628049061958354 -0.09200633175341455 0.0099291038905038095 -0.0062720937146990277 -0.16389981083310365 0.27143899207540895 0.42257503822949094 0.41884727952587064 0.31452958895679073 -0.23517935938659151 -0.37497154419236051 -0.36307408212077008 -0.017224272156417673 0.55588381543432053 0.68809778025712021 0.58111461372461815 0.35145196128462453 -0.15238275830464609 -0.48983825187866326 -0.45356078382390907 -0.33049388093079163 -0.11271104729318832 0.12041012946068622 -0.2721134216719292 0.46237664119948774 0.22933079315378727
leaf_weight=20988 21971 10533 702 557 11354 18130 453 648 527 19036 18533 10077 15532 17209 16525 8794 21956 11804 906 4065 492 330 11572 13647 4349 11170 18089 14049 16185 13305
leaf_count=20988 21971 10533 702 557 11354 18130 453 648 527 19036 18533 10077 15532 17209 16525 8794 21956 11804 906 4065 492 330 11572 13647 4349 11170 18089 14049 16185 13305
internal_value=2.34845e-10 -0.277074 0.29038 -0.412101 0.157772 -0.120411 0.43083 -0.475507 -0.525165 0.226095 0.37712 0.345103 0.355578 -0.191868 -0.329945 -0.298148 -0.0510465 0.501183 0.472397 0.481929 0.459421 0.149183 -0.440149 -0.409307 -0.42382 -0.157525 0.0832487 -0.307131 0.474342 0.191091
internal_weight=333488 170654 162834 91656 83755 78998 79079 51731 21515 43695 44844 26311 25609 38912 39925 23400 40086 34235 22431 21978 17913 822 30216 18644 17996 21703 40060 22843 17091 24659
internal_count=333488 170654 162834 91656 83755 78998 79079 51731 21515 43695 44844 26311 25609 38912 39925 23400 40086 34235 22431 21978 17913 822 30216 18644 17996 21703 40060 22843 17091 24659
is_linear=0
shrinkage=0.05


Tree=19
num_leaves=31
num_cat=0
split_feature=7 7 7 7 7 7 7 7 7 7 6 5 4 9 5 4 5 7 5 4 4 4 5 5 4 4 4 4 6 5
split_gain=9.68711e+06 1.21607e+06 1.17452e+06 185776 156033 138946 101921 32789.8 30199.6 25646.9 25453.1 22696 37709.7 23101.6 19460.3 35696.8 19360.2 19086.5 18809.1 27675.2 17712.6 29934.5 18100.5 16716.4 39366.9 19018.2 19894.4 19460.8 20042.7 16419.5
threshold=34.295018000000006 18.888462000000004 51.921094000000004 42.180808000000006 11.018686000000002 26.000446000000004 60.944558000000008 4.2863800000000021 46.398338000000003 30.643894000000003 103.65573750000001 6.5000000000000009 6.5000000000000009 15.487401171261615 6.5000000000000009 6.5000000000000009 6.5000000000000009 37.82415000000001 6.5000000000000009 6.5000000000000009 22.500000000000004 16.500000000000004 5.5000000000000009 7.5000000000000009 6.5000000000000009 15.500000000000002 22.500000000000004 17.500000000000004 69.139087500000016 5.5000000000000009
decision_type=2 2 2 2 2 2 2 2 2 2 2 2 2 2 2 2 2 2 2 2 2 2 2 2 2 2 2 2 2 2
left_child=1 4 3 17 7 16 11 10 -5 -7 -1 12 -4 -14 15 -8 -3 -2 19 -6 21 -17 -23 24 -9 -26 27 28 -27 -19
right_child=2 5 6 8 18 9 14 23 -10 -11 -12 -13 13 -15 -16 20 -18 29 -20 -21 -22 22 -24 -25 25 26 -28 -29 -30 -31
leaf_value=-0.50752439085315237 0.0317226003098438 -0.16757792486911552 -0.036598759503397825 0.16717015673790447 0.063704602542459535 -0.10225377379466194 0.0094326518920083719 -0.0059584870552902838 0.24758711872339176 -0.025644860464083669 -0.1557048242362446 0.40382415131154731 0.40012484772435519 0.30150572849226004 0.52808961258288789 0.45062508369702337 -0.24372127663352483 0.053186348232536929 -0.35988813315041374 -0.29679301235583172 0.55205890294721149 0.33387936543355268 -0.14476361791913708 -0.46534633920494795 -0.60849817804427764 -0.3509452959927194 -0.58143525535219975 -0.010580633611815222 -0.48499111570097703 0.13974885541975487
leaf_weight=20988 19313 19093 681 20536 546 23151 453 648 27056 20687 527 17974 9828 15004 11804 17091 14834 10172 15424 21351 4065 492 330 11572 1056 11662 1254 359 3665 11872
leaf_count=20988 19313 19093 681 20536 546 23151 453 648 27056 20687 527 17974 9828 15004 11804 17091 14834 10172 15424 21351 4065 492 330 11572 1056 11662 1254 359 3665 11872
internal_value=-9.15502e-11 -0.269362 0.269598 0.145527 -0.395516 -0.124898 0.411592 -0.451732 0.212887 -0.0661023 -0.498907 0.360789 0.330471 0.340537 0.476124 0.448777 -0.20087 0.0680119 -0.317595 -0.287804 0.457833 0.43645 0.141723 -0.418141 -0.388842 -0.402629 -0.389795 -0.374475 -0.382998 0.0998054
internal_weight=333488 166817 166671 88949 89052 77765 77722 51731 47592 43838 21515 43487 25513 24832 34235 22431 33927 41357 37321 21897 21978 17913 822 30216 18644 17996 16940 15686 15327 22044
internal_count=333488 166817 166671 88949 89052 77765 77722 51731 47592 43838 21515 43487 25513 24832 34235 22431 33927 41357 37321 21897 21978 17913 822 30216 18644 17996 16940 15686 15327 22044
is_linear=0
shrinkage=0.05


Tree=20
num_leaves=31
num_cat=0
split_feature=7 7 7 7 7 7 7 7 5 5 4 4 4 4 6 7 5 7 9 4 5 7 10 10 9 4 4 5 7 6
split_gain=8.74482e+06 1.15933e+06 993278 169979 134309 114460 109844 25176.2 24970.4 24778.3 53474.7 26048.7 39986.5 22487.2 23049.5 21584.3 21276.5 19636.7 18825.5 20117.6 17945.3 17418.4 17158 16984.4 15753.4 15339.5 14756.8 14689.1 14132.9 13043.6
threshold=33.435362000000005 50.880932000000008 17.496808000000005 41.661662000000007 26.000446000000004 60.140968000000008 9.5770180000000042 54.495778000000008 6.5000000000000009 6.5000000000000009 6.5000000000000009 22.500000000000004 16.500000000000004 15.500000000000002 69.924382500000007 22.403824000000004 5.5000000000000009 37.565036000000006 15.487401171261615 15.500000000000002 5.5000000000000009 13.744364000000003 0.041982020698168906 1.0000000180025095e-35 15.291443410866867 24.500000000000004 22.500000000000004 5.5000000000000009 3.4465460000000054 14.944545000000002
decision_type=2 2 2 2 2 2 2 2 2 2 2 2 2 2 2 2 2 2 2 2 2 2 2 2 2 2 2 2 2 2
left_child=2 3 6 17 15 7 9 -3 22 10 -1 12 13 -12 24 -4 -14 -2 -7 -20 23 -8 -5 -6 -15 -13 -21 -19 -11 -22
right_child=1 5 4 8 20 18 21 -9 -10 28 11 25 16 14 -16 -17 -18 27 19 26 29 -23 -24 -25 -26 -27 -28 -29 -30 -31
leaf_value=-0.0051598733771372075 0.021177210065571894 0.28297468865227854 -0.23220425341869452 0.13408516207212184 -0.087583478914913082 0.479852239804898 -0.35491986660188329 0.35932955957343149 0.23320950479182634 -0.55776441677324573 -0.6216948610312355 -0.63238020696223085 -0.28179252698762802 -0.43521532288650805 -0.48987115705080869 -0.15823219046398629 0.19034417124509018 0.042211564613552827 0.48956137002443373 0.35090012004345411 -0.15547089527106145 -0.28653459955885618 0.22878374832710127 0.011626522517991351 -0.33366054141085805 -0.45274998660780491 0.49682888969038275 0.12687696245511657 -0.45584899185568439 -0.073140239659235343
leaf_weight=790 23200 18072 23456 18830 7867 20001 19243 26814 19741 5042 1234 2030 585 6148 5589 17015 403 9429 5474 10570 7357 18042 6412 9552 10079 2867 2072 11218 10456 13900
leaf_count=790 23200 18072 23456 18830 7867 20001 19243 26814 19741 5042 1234 2030 585 6148 5589 17015 403 9429 5474 10570 7357 18042 6412 9552 10079 2867 2072 11218 10456 13900
internal_value=-5.21171e-10 0.24834 -0.263976 0.122799 -0.137432 0.382695 -0.385365 0.328588 0.191085 -0.437749 -0.411025 -0.422106 -0.400693 -0.414045 -0.402299 -0.201105 -0.0892105 0.0527432 0.44641 0.409489 -0.0708039 -0.321829 0.158141 -0.03318 -0.372137 -0.527214 0.374818 0.0882123 -0.489005 -0.101635
internal_weight=333488 171833 161655 88830 79147 83003 82508 44886 44983 45223 29725 28935 24038 23050 21816 40471 988 43847 38117 18116 38676 37285 25242 17419 16227 4897 12642 20647 15498 21257
internal_count=333488 171833 161655 88830 79147 83003 82508 44886 44983 45223 29725 28935 24038 23050 21816 40471 988 43847 38117 18116 38676 37285 25242 17419 16227 4897 12642 20647 15498 21257
is_linear=0
shrinkage=0.05


Tree=21
num_leaves=31
num_cat=0
split_feature=7 7 7 7 7 7 7 7 7 5 4 5 4 5 5 6 5 4 9 9 4 4 6 6 10 9 4 4 4 4
split_gain=7.89896e+06 1.17292e+06 785362 178631 127719 102742 69919 34033.3 24242.5 22339.5 27110.9 19975.5 36492.7 19574.3 17813.6 17623 17137 34452 21836.3 16980 18961.1 16259.6 16036.1 15910.8 15709.6 15000.4 14596.3 13409.3 13062.5 15791.5
threshold=32.343894000000013 47.720190000000009 15.646629999999996 56.350104000000009 22.685854000000003 39.332084000000009 6.6829380000000009 64.595036000000007 28.859880000000004 6.5000000000000009 6.5000000000000009 6.5000000000000009 6.5000000000000009 7.5000000000000009 6.5000000000000009 15.364492500000003 6.5000000000000009 6.5000000000000009 18.306583281304786 15.487401171261615 15.500000000000002 6.5000000000000009 103.65573750000001 103.65573750000001 0.051083366539588511 16.124948204008493 14.500000000000002 22.500000000000004 15.500000000000002 22.500000000000004
decision_type=2 2 2 2 2 2 2 2 2 2 2 2 2 2 2 2 2 2 2 2 2 2 2 2 2 2 2 2 2 2
left_child=2 5 6 9 14 -2 11 19 26 10 -3 12 -1 15 21 -7 17 -8 -19 -5 -21 -4 -9 28 -23 -12 -6 -22 -14 -30
right_child=1 3 4 7 8 13 16 22 -10 -11 25 -13 23 -15 -16 -17 -18 18 -20 20 27 24 -24 -25 -26 -27 -28 -29 29 -31
leaf_value=0.014954706134769367 0.026318129262105541 -0.13645441448749673 0.2090981486663529 0.4104620540758635 -0.17259214748688612 0.23406623806266902 0.010077626980124627 0.46743743117178377 -0.056039423677350965 0.30801565042015716 0.28760414015388558 -0.49145420977628806 -0.62878632708173621 0.17767658599721758 -0.27086518558886413 0.092819241219330828 -0.37568106023357239 -0.35002560108827008 -0.24302207629738831 0.41161094796963571 0.29814250382915275 -0.25316876987947756 0.173168793091347 -0.14457191210458684 -0.16198618792605937 0.20794877097749451 -0.10099612744815563 0.52088504402701019 -0.39282782815888284 -0.50038453404174321
leaf_weight=500 38745 483 243 18071 11782 2482 813 16911 18167 17755 10294 10424 751 18635 14323 20027 16572 17495 6554 6885 12908 8499 476 522 10634 13879 17986 713 15590 4369
leaf_count=500 38745 483 243 18071 11782 2482 813 16911 18167 17755 10294 10424 751 18635 14323 20027 16572 17495 6554 6885 12908 8499 476 522 10634 13879 17986 713 15590 4369
internal_value=4.29657e-11 0.227071 -0.260776 0.342649 -0.153993 0.0847494 -0.37923 0.401302 -0.101556 0.265253 0.234459 -0.434553 -0.40726 0.139774 -0.228583 0.108394 -0.336295 -0.310042 -0.320864 0.375125 0.343985 -0.197328 0.459381 -0.417203 -0.20249 0.24187 -0.129333 0.309802 -0.424075 -0.416372
internal_weight=333488 178264 155224 98375 81634 79889 73590 55964 47935 42411 24656 32156 21732 41144 33699 22509 41434 24862 24049 38577 20506 19376 17387 21232 19133 24173 29768 13621 20710 19959
internal_count=333488 178264 155224 98375 81634 79889 73590 55964 47935 42411 24656 32156 21732 41144 33699 22509 41434 24862 24049 38577 20506 19376 17387 21232 19133 24173 29768 13621 20710 19959
is_linear=0
shrinkage=0.05


Tree=22
num_leaves=31
num_cat=0
split_feature=7 7 7 7 7 7 7 7 5 5 4 4 4 6 4 6 5 5 4 10 5 4 10 5 4 10 7 9 4 4
split_gain=7.13434e+06 964713 808933 154273 122042 83090.2 75707.8 30710.5 19350.6 18803.7 33135.4 18939.8 19004.9 20203.2 18406.2 18280.9 17514 16424.8 32700.8 16415 15984.4 20334.3 15381.1 15329.7 33002 20008.4 14700 14522.7 14243.6 14542.9
threshold=34.969068000000007 20.523250000000004 51.921094000000004 12.152790000000005 44.006200000000014 28.859880000000004 60.944558000000008 4.2863800000000021 5.5000000000000009 6.5000000000000009 6.5000000000000009 15.500000000000002 22.500000000000004 56.150587500000007 14.500000000000002 103.65573750000001 6.5000000000000009 6.5000000000000009 6.5000000000000009 0.051083366539588511 6.5000000000000009 6.5000000000000009 -0.01305628345535345 7.5000000000000009 6.5000000000000009 0.16078158072578222 37.565036000000006 15.487401171261615 15.500000000000002 18.500000000000004
decision_type=2 2 2 2 2 2 2 2 2 2 2 2 2 2 2 2 2 2 2 2 2 2 2 2 2 2 2 2 2 2
left_child=1 3 4 7 8 14 9 15 22 10 -4 -12 13 -13 -3 -1 -6 18 -8 -16 21 -5 -2 24 -9 -26 -10 -20 -27 -30
right_child=2 5 6 20 16 -7 17 23 26 -11 11 12 -14 -15 19 -17 -18 -19 27 -21 -22 -23 -24 -25 25 28 -28 -29 29 -31
leaf_value=-0.43695552109270042 0.0033272797714857111 -0.18110397317900162 -0.062095110141125169 0.098284072844958964 0.16673266964686081 -0.031658549152524168 -0.036636409262723595 -0.003224004720941016 0.048988837875038375 0.34875920978918967 0.47586884205031732 0.22987518489330305 0.45341635692780102 0.32746030870785697 -0.15251406950278179 -0.13879606323758498 0.23475537375002503 0.45673156395524145 0.43119632831924587 -0.071113994215250317 -0.29172997235105191 -0.23431118122497635 0.089515714370530117 -0.39535922919148847 -0.39732365642161044 -0.52110185325585501 0.13093196331230822 0.34980599878943736 -0.27016168967750315 -0.49549462302081637
leaf_weight=20988 12053 15413 681 469 22030 33597 453 756 7989 17974 1318 13107 1498 8909 12296 527 16588 11804 11538 12479 16685 22819 9073 13677 8725 677 17379 10440 10779 767
leaf_count=20988 12053 15413 681 469 22030 33597 453 756 7989 17974 1318 13107 1498 8909 12296 527 16588 11804 11538 12479 16685 22819 9073 13677 8725 677 17379 10440 10779 767
internal_value=-3.65979e-10 -0.225903 0.236751 -0.329656 0.130256 -0.0896894 0.353373 -0.382545 0.0756897 0.309588 0.281991 0.291428 0.281089 0.269364 -0.138203 -0.429652 0.195951 0.40899 0.383867 -0.111513 -0.254376 -0.227613 0.0403427 -0.353899 -0.327773 -0.339486 0.105126 0.392534 -0.2982 -0.285131
internal_weight=333488 170654 162834 96869 85112 73785 77722 56896 46494 43487 25513 24832 23514 22016 40188 21515 38618 34235 22431 24775 39973 23288 21126 35381 21704 20948 25368 21978 12223 11546
internal_count=333488 170654 162834 96869 85112 73785 77722 56896 46494 43487 25513 24832 23514 22016 40188 21515 38618 34235 22431 24775 39973 23288 21126 35381 21704 20948 25368 21978 12223 11546
is_linear=0
shrinkage=0.05


Tree=23
num_leaves=31
num_cat=0
split_feature=7 7 7 7 7 7 7 7 7 5 4 9 5 10 4 10 5 10 7 6 5 4 4 4 6 5 6 7 6 5
split_gain=6.44066e+06 958591 643049 135837 94070 87264.7 70526.8 24555.3 18782.9 17914.6 34899.2 16591.8 16152.6 16095.9 16042.3 15777.3 15617.9 15904.8 15563.5 15228.4 14021.4 32080.4 19178 19445.8 16661.4 12874.9 12277.6 11953 11871.1 11766
threshold=32.343894000000013 48.234032000000006 16.720758000000004 57.423892000000002 40.107896000000011 23.784904000000001 7.5546979999999992 65.11908480000001 53.203132000000004 6.5000000000000009 6.5000000000000009 15.629090026765097 7.5000000000000009 -0.015846897043507047 15.500000000000002 0.051083366539588511 5.5000000000000009 1.0000000180025095e-35 13.485488000000002 103.65573750000001 7.5000000000000009 6.5000000000000009 15.500000000000002 22.500000000000004 60.702337500000006 5.5000000000000009 12.497205000000003 36.127992000000006 7.2261787499999981 5.5000000000000009
decision_type=2 2 2 2 2 2 2 2 2 2 2 2 2 2 2 2 2 2 2 2 2 2 2 2 2 2 2 2 2 2
left_child=2 4 6 8 27 14 9 20 -3 10 -1 -12 13 -6 -4 -16 17 -7 -8 -9 21 -5 -23 24 -24 -21 -18 -2 -15 -29
right_child=1 3 5 7 12 16 18 19 -10 -11 11 -13 -14 28 15 -17 26 -19 -20 25 -22 22 23 -25 -26 -27 -28 29 -30 -31
leaf_value=0.017870215985741959 0.002656773378412395 0.21977148788338302 -0.23933149579190052 -0.023766099687715366 0.073987756483687758 -0.10328357787772742 -0.31514495081633115 0.43208563729274818 0.2846086916459058 -0.43755197654191663 -0.4126766716199482 -0.32874364997246674 0.17049519344544548 0.37546014450030185 -0.21285431702576357 -0.12803371422847923 -0.17382600738447554 -0.011965851913566677 -0.25227133210102975 0.42237092907455837 0.38493951281937777 0.53016714252039998 0.26902346615527067 0.49321950217510796 0.36696804531202459 -0.10159730492122621 -0.090973839722831407 0.013617158077154965 0.14548849233842462 0.089471126446338839
leaf_weight=588 21900 24459 11807 654 13919 8439 27113 14328 20559 11905 12181 11397 17917 607 10168 11897 6032 10962 15452 220 14242 1152 11427 1504 7003 251 17283 9225 7430 11467
leaf_count=588 21900 24459 11807 654 13919 8439 27113 14328 20559 11905 12181 11397 17917 607 10168 11897 6032 10962 15452 220 14242 1152 11427 1504 7003 251 17283 9225 7430 11467
internal_value=-3.50553e-10 0.205042 -0.235476 0.312616 0.0800733 -0.132356 -0.335911 0.368675 0.249382 -0.387349 -0.362617 -0.372106 0.135267 0.106518 -0.192292 -0.167121 -0.08483 -0.051687 -0.29232 0.42289 0.346377 0.321114 0.331811 0.320348 0.30624 0.143144 -0.112409 0.0284036 0.162857 0.0556536
internal_weight=333488 178264 155224 95799 82465 76588 78636 50781 45018 36071 24166 23578 39873 21956 33872 22065 42716 19401 42565 14799 35982 21740 21086 19934 18430 471 23315 42592 8037 20692
internal_count=333488 178264 155224 95799 82465 76588 78636 50781 45018 36071 24166 23578 39873 21956 33872 22065 42716 19401 42565 14799 35982 21740 21086 19934 18430 471 23315 42592 8037 20692
is_linear=0
shrinkage=0.05


Tree=24
num_leaves=31
num_cat=0
split_feature=7 7 7 7 7 7 7 7 7 6 5 4 9 4 5 4 10 5 4 5 4 9 4 9 10 4 4 6 6 4
split_gain=5.81286e+06 789096 659821 119744 107109 73476.4 59314.1 26059.4 19822.3 16388.9 15710.9 28358.2 18002.1 14678 14635.3 15244.7 14515.7 14296.7 26542.5 14040 18184.5 14128.2 13197.3 19345.3 14277.1 13618.9 36587 12912.6 12856.5 12668.2
threshold=34.969068000000007 20.265257999999999 52.189014000000007 12.152790000000005 45.324686000000007 28.333118000000002 61.227390400000012 4.2863800000000021 39.857146000000007 103.65573750000001 6.5000000000000009 6.5000000000000009 15.291443410866867 15.500000000000002 6.5000000000000009 6.5000000000000009 0.061251512580285258 6.5000000000000009 6.5000000000000009 6.5000000000000009 6.5000000000000009 15.822588556705869 15.500000000000002 17.287727065113767 0.47200776839608044 6.5000000000000009 4.5000000000000009 8.9661600000000039 15.748792500000009 15.500000000000002
decision_type=2 2 2 2 2 2 2 2 2 2 2 2 2 2 2 2 2 2 2 2 2 2 2 2 2 2 2 2 2 2
left_child=1 3 4 7 8 13 10 9 -2 -1 11 -4 -13 -3 15 -6 -15 18 -8 20 -5 -22 25 24 -24 26 -9 -17 -10 -14
right_child=2 5 6 19 14 -7 17 22 28 -11 -12 12 29 16 -16 27 -18 -19 -20 -21 21 -23 23 -25 -26 -27 -28 -29 -30 -31
leaf_value=-0.39568045890834896 0.043556951578061061 -0.16949292172567573 -0.059041432677295759 0.10358156919219 -0.20634695487130417 -0.031320116753981046 -0.042702607222749857 -0.35851624004119059 0.17607006732943917 -0.11337133040810728 0.31816161446314883 0.32117962199113509 0.44560822058363575 -0.14519634169186743 0.22742364348330707 0.43911104347407115 -0.067657608079315507 0.41707041912419113 0.35544294782055064 -0.26697977651037447 -0.26382997485560655 -0.18128437640211537 -0.36295286029072393 -0.22943057128158442 -0.26378079764342449 -0.44085700573028341 0.0058887761344926228 0.15970879616709555 0.08809306301594913 0.22351321073005451
leaf_weight=20988 25909 14805 690 465 279 36160 427 7750 5122 527 17985 9247 671 12020 14282 423 12124 11247 21274 16104 8315 13765 10238 7298 5622 3717 756 18448 21942 14888
leaf_count=20988 25909 14805 690 465 279 36160 427 7750 5122 527 17985 9247 671 12020 14282 423 12124 11247 21274 16104 8315 13765 10238 7298 5622 3717 756 18448 21942 14888
internal_value=5.4971e-11 -0.20391 0.213703 -0.299238 0.119042 -0.0826455 0.320719 -0.345372 0.0748171 -0.388765 0.282377 0.257134 0.265928 -0.130296 0.189117 0.160547 -0.10626 0.37132 0.347609 -0.231323 -0.205853 -0.21237 -0.318984 -0.296799 -0.327799 -0.361017 -0.326128 0.165972 0.104743 0.233091
internal_weight=333488 170654 162834 95545 86405 75109 76429 56896 52973 21515 43481 25496 24806 38949 33432 19150 24144 32948 21701 38649 22545 22080 35381 23158 15860 12223 8506 18871 27064 15559
internal_count=333488 170654 162834 95545 86405 75109 76429 56896 52973 21515 43481 25496 24806 38949 33432 19150 24144 32948 21701 38649 22545 22080 35381 23158 15860 12223 8506 18871 27064 15559
is_linear=0
shrinkage=0.05


Tree=25
num_leaves=31
num_cat=0
split_feature=7 7 7 7 7 7 7 7 5 4 5 4 5 10 6 4 5 4 4 6 5 6 4 4 9 4 4 4 5 4
split_gain=5.25246e+06 782404 525799 121427 85855 67207.2 47165.7 25520 15649.2 19584 15336.6 27589.6 14735.9 14833.9 14683 14643.1 18858.6 30254.9 21974.9 19116.6 13946.5 13665.4 13445.6 17951.6 18782.4 13145.3 12892.6 28795.1 17565.7 16856
threshold=32.343894000000013 47.720190000000009 15.646629999999996 56.108024000000007 23.247262000000003 40.597904000000007 6.6829380000000009 65.11908480000001 6.5000000000000009 6.5000000000000009 6.5000000000000009 6.5000000000000009 5.5000000000000009 1.0000000180025095e-35 20.415622500000001 22.500000000000004 7.5000000000000009 6.5000000000000009 15.500000000000002 60.702337500000006 6.5000000000000009 103.65573750000001 22.500000000000004 15.500000000000002 16.152924643683253 6.5000000000000009 22.500000000000004 16.500000000000004 5.5000000000000009 24.500000000000004
decision_type=2 2 2 2 2 2 2 2 2 2 2 2 2 2 2 2 2 2 2 2 2 2 2 2 2 2 2 2 2 2
left_child=2 5 6 8 20 -2 10 15 9 -3 11 -1 13 -6 -7 16 17 -5 -19 -20 25 -9 23 -8 -25 -4 27 -13 -29 -28
right_child=1 3 4 7 12 14 22 21 -10 -11 -12 26 -14 -15 -16 -17 -18 18 19 -21 -22 -23 -24 24 -26 -27 29 28 -30 -31
leaf_value=0.036020734042301772 0.028710430394125065 -0.13303810169825644 0.20517168238265915 -0.038035779389236191 -0.096808395940117198 0.18423646222420523 -0.31317771621664214 0.39193897631895452 0.25039968080499259 0.19430124148378408 -0.40486845604117416 -0.33496160342184794 -0.10553579344769465 -0.011373522285995729 0.1044486845112772 0.44845523574967017 0.34124588136766926 0.47858352646054264 0.23401253275535516 0.33120182083355409 -0.21865603193711311 0.11822691706371061 -0.41684384670256069 -0.28769445490507106 -0.20169677544238113 -0.16031107593138144 -0.55161491096830562 -0.2357185686731289 0.22252258009201775 -0.34506889743238944
leaf_weight=500 45161 466 249 761 8953 7301 14421 14328 17250 23465 10424 16007 24669 11747 27427 1753 16893 1344 13580 8064 15432 471 1591 12310 13112 20584 1507 481 370 2867
leaf_count=500 45161 466 249 761 8953 7301 14421 14328 17250 23465 10424 16007 24669 11747 27427 1753 16893 1344 13580 8064 15432 471 1591 12310 13112 20584 1507 481 370 2867
internal_value=-4.59116e-10 0.185165 -0.212649 0.279561 -0.125277 0.0689258 -0.309572 0.326698 0.214096 0.187927 -0.35501 -0.331095 -0.0794329 -0.0483251 0.121223 0.306965 0.300862 0.272137 0.282405 0.270223 -0.182629 0.383228 -0.274309 -0.268617 -0.243339 -0.155943 -0.339741 -0.319894 -0.0364833 -0.416231
internal_weight=333488 178264 155224 98375 81634 79889 73590 57194 41181 23931 32156 21732 45369 20700 34728 42395 40642 23749 22988 21644 36265 14799 41434 39843 25422 20833 21232 16858 851 4374
internal_count=333488 178264 155224 98375 81634 79889 73590 57194 41181 23931 32156 21732 45369 20700 34728 42395 40642 23749 22988 21644 36265 14799 41434 39843 25422 20833 21232 16858 851 4374
is_linear=0
shrinkage=0.05


Tree=26
num_leaves=31
num_cat=0
split_feature=7 7 7 7 7 7 7 7 5 9 4 5 9 5 4 10 5 4 4 4 9 6 6 6 6 5 5 4 10 10
split_gain=4.74243e+06 738014 448818 118562 73601 59529.3 40301.3 24674.2 15215.3 14973.6 15934.1 14488.8 14572.5 13213.7 17501.7 12833.6 12798.8 22115.5 12723.2 16870.2 18286.4 12333 11948.7 11861.7 11634 11626.5 11455 12219.2 12311.9 11329.7
threshold=31.852900000000009 47.196182000000007 15.392649999999998 55.571130000000004 22.403824000000004 39.081572000000008 6.0681839999999996 65.11908480000001 5.5000000000000009 16.124948204008493 15.500000000000002 6.5000000000000009 25.500333542887258 6.5000000000000009 6.5000000000000009 0.020860854432512056 6.5000000000000009 6.5000000000000009 22.500000000000004 15.500000000000002 15.565459383277068 103.65573750000001 12.497205000000003 48.100657500000004 62.325165000000005 5.5000000000000009 6.5000000000000009 6.5000000000000009 0.051083366539588511 1.0000000180025095e-35
decision_type=2 2 2 2 2 2 2 2 2 2 2 2 2 2 2 2 2 2 2 2 2 2 2 2 2 2 2 2 2 2
left_child=2 5 6 13 26 -2 16 9 23 -5 -11 12 -7 14 -3 -16 17 -1 19 -8 -21 -9 -10 29 -12 -23 27 -4 -29 -6
right_child=1 3 4 7 8 11 18 21 22 10 24 -13 -14 -15 15 -17 -18 -19 -20 20 -22 25 -24 -25 -26 -27 -28 28 -30 -31
leaf_value=0.034569658505176355 0.016663372504266954 -0.13526780568559318 0.18327316236204735 0.31452692422384015 -0.08172001378616664 0.064544159511222401 -0.30172632397645749 0.37234202339204109 -0.17145045538707979 0.31982052867573368 0.19805392045827103 0.13593066898334544 0.22828262671705138 0.2310026525204667 0.15924948552431761 0.24722646008329133 -0.38866615586076292 -0.32586818979307791 -0.40017033019290493 -0.28567665867985265 -0.20063214267966281 0.37765934451059868 -0.090435237158543805 -0.099196661100653769 0.31341921712174126 -0.12025666269158344 -0.21420857363283696 -0.20486106390558897 -0.1240934634770976 0.013840658164230758
leaf_weight=435 40030 450 263 25783 5023 20365 14871 14328 5957 6505 9880 18151 1456 17308 17972 5388 9434 19641 1665 10621 15612 220 19286 8256 2806 251 14300 8471 10651 8109
leaf_count=435 40030 450 263 25783 5023 20365 14871 14328 5957 6505 9880 18151 1456 17308 17972 5388 9434 19641 1665 10621 15612 220 19286 8256 2806 251 14300 8471 10651 8109
internal_value=3.53242e-11 0.173177 -0.205292 0.263109 -0.123945 0.0597627 -0.295684 0.308064 -0.0832639 0.289636 0.256196 0.102925 0.0754696 0.197758 0.173592 0.179541 -0.340631 -0.318058 -0.264671 -0.259182 -0.235064 0.364066 -0.109554 -0.0522355 0.223571 0.112316 -0.180261 -0.155218 -0.159873 -0.0227114
internal_weight=333488 180893 152595 100891 80316 80002 72279 59773 46631 44974 19191 39972 21821 41118 23810 23360 29510 20076 42769 41104 26233 14799 25243 21388 12686 471 33685 19385 19122 13132
internal_count=333488 180893 152595 100891 80316 80002 72279 59773 46631 44974 19191 39972 21821 41118 23810 23360 29510 20076 42769 41104 26233 14799 25243 21388 12686 471 33685 19385 19122 13132
is_linear=0
shrinkage=0.05


Tree=27
num_leaves=31
num_cat=0
split_feature=7 7 7 7 7 7 7 7 5 6 10 4 4 9 4 4 9 4 5 6 4 9 6 5 4 4 4 6 4 4
split_gain=4.28549e+06 581574 488661 93610.2 78947.9 53019.6 44445.8 20763.7 15265.9 14315.1 14200.1 13378.9 17586.5 18488.3 15369.2 33909.1 12941.1 12359.4 11916.1 13712.4 11966.4 14440.6 11749.8 11087 20800.1 12992.5 17319.1 13513.7 11182.9 11067.8
threshold=34.969068000000007 20.523250000000004 52.189014000000007 12.152790000000005 44.538198000000008 27.565364000000006 60.677318000000007 3.1645500000000064 5.5000000000000009 103.65573750000001 -0.01305628345535345 22.500000000000004 15.500000000000002 15.565459383277068 6.5000000000000009 4.5000000000000009 16.62448253904952 15.500000000000002 6.5000000000000009 7.2261787499999981 6.5000000000000009 16.124948204008493 70.329315000000008 6.5000000000000009 6.5000000000000009 22.500000000000004 17.500000000000004 56.150587500000007 15.500000000000002 15.500000000000002
decision_type=2 2 2 2 2 2 2 2 2 2 2 2 2 2 2 2 2 2 2 2 2 2 2 2 2 2 2 2 2 2
left_child=1 3 4 7 8 29 23 9 10 -1 -2 12 14 -14 15 -9 -8 -18 19 -6 -21 -22 -15 24 -4 26 27 28 -26 -3
right_child=2 5 6 -5 18 -7 16 11 -10 -11 -12 -13 13 22 -16 -17 17 -19 -20 20 21 -23 -24 -25 25 -27 -28 -29 -30 -31
leaf_value=-0.3528739633064627 -0.0043970338836961109 -0.15249815379561019 -0.061013383676482451 -0.19700031238220064 0.44231188162482021 -0.030461711625328975 0.33557121402687873 -0.31071090072662555 0.085858084032702897 -0.087003221103287592 0.076201053018187997 -0.4142298608417333 -0.29525817556403383 -0.19023983641986053 -0.39624729922641649 0.021087167238759173 0.35322904523236348 0.23284476550045136 0.18946089306878319 -0.20107172543708113 0.18289544135136412 0.097613974456134886 -0.32445039256695418 0.2710861790989475 0.37420097339249425 0.37318986885948108 -0.089444772534434239 0.27084335729231152 0.17822128057341113 -0.093327390126683021
leaf_weight=15841 12857 12656 649 39973 351 40086 25379 8896 26708 523 9505 1717 10881 12092 4218 843 3041 7133 15988 274 8242 12480 1885 16873 775 1408 453 8741 11977 21043
leaf_count=15841 12857 12656 649 39973 351 40086 25379 8896 26708 523 9505 1717 10881 12092 4218 843 3041 7133 15988 274 8242 12480 1885 16873 775 1408 453 8741 11977 21043
internal_value=-1.4775e-10 -0.175083 0.183491 -0.255641 0.102028 -0.0693229 0.275588 -0.296839 0.0603394 -0.344377 0.0298613 -0.277647 -0.271605 -0.246386 -0.316521 -0.281991 0.316472 0.268828 0.156821 0.132375 0.127193 0.131534 -0.20834 0.240028 0.218195 0.225954 0.216508 0.222956 0.190132 -0.11555
internal_weight=333488 170654 162834 96869 86405 73785 76429 56896 49070 16364 22362 40532 38815 24858 13957 9739 35553 10174 37335 21347 20996 20722 13977 40876 24003 23354 21946 21493 12752 33699
internal_count=333488 170654 162834 96869 86405 73785 76429 56896 49070 16364 22362 40532 38815 24858 13957 9739 35553 10174 37335 21347 20996 20722 13977 40876 24003 23354 21946 21493 12752 33699
is_linear=0
shrinkage=0.05


Tree=28
num_leaves=31
num_cat=0
split_feature=7 7 7 7 7 7 7 7 6 5 4 9 5 10 5 4 5 4 4 4 9 4 6 5 4 10 4 5 4 6
split_gain=3.86864e+06 601858 366968 97665.6 49545.4 46516.1 45556.5 22524.3 14076.4 12871.3 27750.1 15475.3 12764.4 13810.4 12437 13604.6 11787.7 11198 13313.7 16381.1 10995.6 12417.2 10386.2 10197.3 13793.4 10919.5 10139 10113.9 21910.1 14323.2
threshold=31.852900000000009 47.196182000000007 16.975928000000003 55.048312000000003 38.337108000000008 26.000446000000004 8.9960940000000011 63.772610000000007 20.415622500000001 6.5000000000000009 6.5000000000000009 15.291443410866867 6.5000000000000009 0.041982020698168906 6.5000000000000009 6.5000000000000009 6.5000000000000009 15.500000000000002 18.500000000000004 16.500000000000004 15.487401171261615 15.500000000000002 74.549160000000015 6.5000000000000009 6.5000000000000009 0.020860854432512056 4.5000000000000009 6.5000000000000009 6.5000000000000009 62.998740000000012
decision_type=2 2 2 2 2 2 2 2 2 2 2 2 2 2 2 2 2 2 2 2 2 2 2 2 2 2 2 2 2 2
left_child=2 4 6 23 -2 12 9 20 -6 10 -1 -12 13 -4 15 -9 -10 -13 19 22 -5 -22 -19 24 -3 -26 -7 28 -8 -30
right_child=1 3 5 7 8 26 27 14 16 -11 11 17 -14 -15 -16 -17 -18 18 -20 -21 21 -23 -24 -25 25 -27 -28 -29 29 -31
leaf_value=0.030759814741500698 0.010641622583277026 -0.13632786149334272 -0.15611726478437787 0.28326014709966107 0.14048314259641725 -0.10353155990974283 0.082945850139302724 -0.091888373439499738 0.049463805004816071 -0.33304229462228774 -0.32598573379147522 -0.47801512857745343 -0.16839188223082918 -0.080272723249832201 0.37444715298827957 0.29822985646480998 0.10994542422676201 -0.2150446689872666 -0.34066884049014035 0.02638920868126482 0.28337903269322545 0.20479477326304468 -0.35658589380784511 0.20523269928071752 0.13909069390253406 0.22263859668549177 -0.03791594940392333 -0.25053902862040478 -0.18165890124593848 -0.27374576557191183
leaf_weight=723 36138 404 10672 18461 10410 8106 675 227 19934 14466 11886 521 18674 13716 6697 14398 13520 10049 2793 641 7572 14955 1488 16255 16827 5095 21510 15159 15746 5770
leaf_count=723 36138 404 10672 18461 10410 8106 675 227 19934 14466 11886 521 18674 13716 6697 14398 13520 10049 2793 641 7572 14955 1488 16255 16827 5095 21510 15159 15746 5770
internal_value=-4.61709e-10 0.156411 -0.185417 0.237625 0.053992 -0.104109 -0.25936 0.276335 0.0897069 -0.294722 -0.274995 -0.283069 -0.137282 -0.113462 0.318016 0.292175 0.0739067 -0.250142 -0.242212 -0.219631 0.254653 0.231209 -0.2333 0.175107 0.153173 0.158508 -0.0558752 -0.219059 -0.197554 -0.206354
internal_weight=333488 180893 152595 100891 80002 72678 79917 62310 43864 42567 28101 27378 43062 24388 21322 14625 33454 15492 14971 12178 40988 22527 11537 38581 22326 21922 29616 37350 22191 21516
internal_count=333488 180893 152595 100891 80002 72678 79917 62310 43864 42567 28101 27378 43062 24388 21322 14625 33454 15492 14971 12178 40988 22527 11537 38581 22326 21922 29616 37350 22191 21516
is_linear=0
shrinkage=0.05


Tree=29
num_leaves=31
num_cat=0
split_feature=7 7 7 7 7 7 7 9 4 4 5 10 5 6 9 9 4 6 4 5 4 4 6 5 4 4 4 5 10 5
split_gain=3.49423e+06 476309 399812 60355.4 59317.6 58207.7 40701.6 12978.5 16658.8 13111 12457.5 11813.6 11700.6 12058.3 14840.8 11585.6 12489.8 11155.8 10866.6 14785.4 39531.2 20648.8 15331.5 31055.8 12881.7 10532.6 19277.7 10204.2 11107.7 9762.08
threshold=34.969068000000007 18.888462000000004 51.661198000000006 43.201250000000009 27.041798000000007 9.8604080000000049 60.140968000000008 15.291443410866867 15.500000000000002 22.500000000000004 5.5000000000000009 -0.036119196396228244 6.5000000000000009 8.100225 15.456474937914786 15.487401171261615 15.500000000000002 90.309555000000003 22.500000000000004 6.5000000000000009 17.500000000000004 6.5000000000000009 59.127757500000008 5.5000000000000009 15.500000000000002 6.5000000000000009 3.5000000000000004 6.5000000000000009 0.041982020698168906 6.5000000000000009
decision_type=2 2 2 2 2 2 2 2 2 2 2 2 2 2 2 2 2 2 2 2 2 2 2 2 2 2 2 2 2 2
left_child=1 5 3 10 12 7 29 -1 -9 -10 11 -2 13 -3 17 -8 25 -15 19 20 21 -7 24 -24 -23 26 -17 28 -5 -4
right_child=2 4 6 27 -6 18 15 8 9 -11 -12 -13 -14 14 -16 16 -18 -19 -20 -21 -22 22 23 -25 -26 -27 -28 -29 -30 -31
leaf_value=-0.30628469207667036 -0.020381091313426372 -0.26665328844920394 0.19125515415551925 0.091525290074165142 -0.030081519253613749 0.10209019796492527 0.30973909737673788 -0.31575949830564448 -0.209177859213204 -0.32559734797442219 0.072414387748331463 0.057916898730872725 -0.14638184012417965 -0.16356103668285671 -0.054770589937147729 0.31367373045528074 0.22722121365645931 0.088984503281439198 -0.32780560830092814 -0.2258568036841625 0.30873935627363003 -0.34306144614383988 -0.28364357235610338 0.013550176883875626 -0.14241424161872232 0.42627157357306888 -0.034003038699026253 0.16118324780874127 0.17214741818691234 0.24083524371429418
leaf_weight=20650 9809 937 24058 17725 42638 658 20001 7524 15455 2867 23289 9467 17117 6108 14331 3438 12642 471 1504 17455 432 847 6246 1023 14391 1585 451 17836 5629 16904
leaf_count=20650 9809 937 24058 17725 42638 658 20001 7524 15455 2867 23289 9467 17117 6108 14331 3438 12642 471 1504 17455 432 847 6246 1023 14391 1585 451 17836 5629 16904
internal_value=2.75628e-10 -0.158096 0.165688 0.0895589 -0.0708331 -0.238058 0.246319 -0.276731 -0.253119 -0.227395 0.0478055 0.0180733 -0.115427 -0.0911746 -0.0833112 0.283504 0.25454 -0.145481 -0.195804 -0.190968 -0.16516 -0.173998 -0.182069 -0.241818 -0.153567 0.317632 0.273354 0.132706 0.110958 0.211716
internal_weight=333488 170654 162834 83755 81602 89052 79079 46496 25846 18322 42565 19276 38964 21847 20910 38117 18116 6579 42556 41052 23597 23165 22507 7269 15238 5474 3889 41190 23354 40962
internal_count=333488 170654 162834 83755 81602 89052 79079 46496 25846 18322 42565 19276 38964 21847 20910 38117 18116 6579 42556 41052 23597 23165 22507 7269 15238 5474 3889 41190 23354 40962
is_linear=0
shrinkage=0.05


Tree=30
num_leaves=31
num_cat=0
split_feature=7 7 7 7 7 7 7 9 4 4 10 4 4 9 4 4 4 4 5 6 6 6 7 5 5 6 6 7 10 5
split_gain=3.15719e+06 501661 293155 69663 53497 53283.3 24030.5 14118.4 13478.8 16584.1 18032.2 14739.9 32317.4 13573.9 12937.5 12817 12480.2 21681.3 12069.8 11635.7 11634.7 11370.3 11309.3 11058.2 10937.1 10756.4 10741.4 10605.3 9686.55 9084.31
threshold=31.611058000000003 48.234032000000006 14.54809 57.660328000000014 22.403824000000004 41.661662000000007 3.4465460000000054 15.291443410866867 22.500000000000004 15.500000000000002 0.4825607347248117 6.5000000000000009 3.5000000000000004 16.870425416933397 15.500000000000002 22.500000000000004 6.5000000000000009 4.5000000000000009 5.5000000000000009 103.65573750000001 20.415622500000001 12.497205000000003 36.837946000000009 7.5000000000000009 5.5000000000000009 48.100657500000004 89.312947500000021 53.718844000000011 1.0000000180025095e-35 6.5000000000000009
decision_type=2 2 2 2 2 2 2 2 2 2 2 2 2 2 2 2 2 2 2 2 2 2 2 2 2 2 2 2 2 2
left_child=2 5 6 27 29 22 19 -5 9 11 13 12 -8 -11 16 -16 17 -9 25 -1 -7 23 -2 -20 -21 28 -27 -3 -6 -4
right_child=1 3 4 7 18 20 8 14 -10 10 -12 -13 -14 -15 15 -17 -18 -19 21 24 -22 -23 -24 -25 -26 26 -28 -29 -30 -31
leaf_value=-0.30283393633481825 0.0017794607438794355 0.15459820480022576 -0.12868615718012186 0.28804470863063292 -0.06795750115668002 0.16500967636080882 -0.26418264164715449 0.2734172008846853 -0.35408887497773039 -0.25991746482040318 -0.14783057620216597 -0.33199026418274208 -0.02843644036722236 -0.17646022363565939 0.19428759801101361 0.31845199231787158 0.38651129437450105 -0.12587317714311141 -0.35237951053040428 -0.32149058190376861 0.089023449065930016 -0.074138282136242115 0.047664066231543623 -0.13021242546564701 0.13916292383364137 -0.10312273827983792 0.11003265653989305 0.20317387773997769 0.021737907880605888 -0.17844398662093422
leaf_weight=17114 29646 26966 21696 23700 4867 6252 10553 5360 2034 12777 10584 5230 1686 7875 15470 2401 2276 363 630 230 25935 18823 24549 5048 293 7444 642 19263 7889 15892
leaf_count=17114 29646 26966 21696 23700 4867 6252 10553 5360 2034 12777 10584 5230 1686 7875 15470 2401 2276 363 630 230 25935 18823 24549 5048 293 7444 642 19263 7889 15892
internal_value=-4.05641e-11 0.140203 -0.168812 0.21899 -0.105617 0.0528272 -0.245459 0.260166 -0.227983 -0.222716 -0.200897 -0.261731 -0.231707 -0.228094 0.234625 0.210969 0.287476 0.248091 -0.0690532 -0.295734 0.103783 -0.0928459 0.0225641 -0.154863 -0.0634189 -0.0410836 -0.0861989 0.174839 -0.012485 -0.149723
internal_weight=333488 182181 151307 95799 82931 86382 68376 49570 50739 48705 31236 17469 12239 20652 25870 17871 7999 5723 45343 17637 32187 24501 54195 5678 523 20842 8086 46229 12756 37588
internal_count=333488 182181 151307 95799 82931 86382 68376 49570 50739 48705 31236 17469 12239 20652 25870 17871 7999 5723 45343 17637 32187 24501 54195 5678 523 20842 8086 46229 12756 37588
is_linear=0
shrinkage=0.05


Tree=31
num_leaves=31
num_cat=0
split_feature=7 7 7 7 7 7 7 7 6 4 4 5 4 4 4 6 6 5 4 9 6 6 5 10 4 4 5 4 5 6
split_gain=2.85003e+06 472555 250566 75369.9 46637 39191.3 19676 14250.3 13266.9 11496.3 10976.1 11007.7 20545.4 14978.4 13752.3 12577.7 10738.4 10719.5 18622.9 14906.3 12354.9 14482.4 10481.8 9806.89 15143.9 10049.6 9581.98 13537.1 9327.4 8875.06
threshold=31.108334000000006 46.918980000000012 14.015344000000001 57.124080000000014 22.403824000000004 37.82415000000001 4.2863800000000021 65.11908480000001 20.415622500000001 12.500000000000002 22.500000000000004 7.5000000000000009 6.5000000000000009 15.500000000000002 17.500000000000004 62.325165000000005 103.65573750000001 6.5000000000000009 6.5000000000000009 16.124948204008493 10.758667499999998 48.376282500000009 5.5000000000000009 0.16078158072578222 15.500000000000002 22.500000000000004 6.5000000000000009 6.5000000000000009 6.5000000000000009 11.641350000000005
decision_type=2 2 2 2 2 2 2 2 2 2 2 2 2 2 2 2 2 2 2 2 2 2 2 2 2 2 2 2 2 2
left_child=2 5 6 17 29 -2 26 10 -7 -6 11 12 -5 -14 15 -15 -9 18 -3 -20 -21 -22 -18 -8 -25 -26 27 -1 -10 -4
right_child=1 3 4 7 9 8 23 16 28 -11 -12 -13 13 14 -16 -17 22 -19 19 20 21 -23 -24 24 25 -27 -28 -29 -30 -31
leaf_value=0.09187944981232872 0.0043403824600024435 -0.1442552139322304 -0.2425150117925271 -0.070239057104769673 -0.1063167761783104 0.12123032961301401 -0.24414068411548989 0.2943114295042652 0.036623791670671646 -0.050858440070795791 0.3590067309650708 0.25600603442329084 0.3816508294035823 0.17447105871140425 -0.071680592025333209 0.26035294514586738 0.30362030534581708 0.18635868435635397 0.18683624078034061 0.33874773458660057 0.0661384653166084 0.16437325858732066 -0.16914978877602302 -0.2491219947784476 -0.15889089970268336 -0.33007651202282084 -0.32592610021983881 -0.2596772752185067 0.089895119473563712 -0.13821072335624304
leaf_weight=279 37432 567 2155 682 13803 11020 18800 14328 20352 28931 1547 14797 1180 12088 461 6586 220 21032 12226 588 9414 6238 251 8903 15658 907 6469 14767 13781 38026
leaf_count=279 37432 567 2155 682 13803 11020 18800 14328 20352 28931 1547 14797 1180 12088 461 6586 220 21032 12226 588 9414 6238 251 8903 15658 907 6469 14767 13781 38026
internal_value=-4.31212e-10 0.13112 -0.162945 0.202994 -0.105133 0.0421704 -0.235813 0.245068 0.0735316 -0.0687714 0.228612 0.222976 0.1997 0.208762 0.1981 0.20476 0.286589 0.159176 0.139484 0.145136 0.113742 0.105289 0.051677 -0.21675 -0.19653 -0.168264 -0.275038 -0.253158 0.0581318 -0.143805
internal_weight=333488 184790 148698 102205 82915 82585 65783 52140 45153 42734 37341 35794 20997 20315 19135 18674 14799 50065 29033 28466 16240 15652 471 44268 25468 16565 21515 15046 34133 40181
internal_count=333488 184790 148698 102205 82915 82585 65783 52140 45153 42734 37341 35794 20997 20315 19135 18674 14799 50065 29033 28466 16240 15652 471 44268 25468 16565 21515 15046 34133 40181
is_linear=0
shrinkage=0.05


Tree=32
num_leaves=31
num_cat=0
split_feature=7 7 7 7 7 7 7 6 9 4 7 4 10 4 4 5 4 4 6 5 4 5 5 4 4 4 4 5 4 6
split_gain=2.57365e+06 332605 312946 49376.4 44155.1 37101.5 35507.7 11295.2 10836.5 13427.6 10241.6 10195.7 12243 9873.71 9650.54 12055.7 37407.8 18611.1 13642.3 29418.6 11519.8 9421.82 9163.83 18203 9653.69 11529.9 17793.9 12763 12411.7 12072.3
threshold=33.868930000000013 50.880932000000008 18.888462000000004 42.180808000000006 9.5770180000000042 26.000446000000004 61.227390400000012 15.748792500000009 15.291443410866867 15.500000000000002 54.495778000000008 14.500000000000002 -0.0013699602251541498 22.500000000000004 22.500000000000004 6.5000000000000009 17.500000000000004 6.5000000000000009 59.127757500000008 5.5000000000000009 15.500000000000002 6.5000000000000009 6.5000000000000009 6.5000000000000009 15.500000000000002 22.500000000000004 16.500000000000004 5.5000000000000009 24.500000000000004 68.015062500000013
decision_type=2 2 2 2 2 2 2 2 2 2 2 2 2 2 2 2 2 2 2 2 2 2 2 2 2 2 2 2 2 2
left_child=2 3 4 -2 8 -4 10 -5 -1 -10 -3 -7 -13 -11 15 16 17 -6 20 -20 -19 -9 23 -8 -25 26 29 -28 -27 -26
right_child=1 6 5 7 14 11 22 21 9 13 -12 12 -14 -15 -16 -17 -18 18 19 -21 -22 -23 -24 24 25 28 27 -29 -30 -31
leaf_value=-0.26635351156748616 0.03093712334550941 0.15166451891469679 -0.10462454636631102 0.17658784725883839 0.10749508044239281 -0.062042021325975305 -0.093620772529130009 0.076058417418554181 -0.27448047270880338 -0.17752364130297094 0.19875295197494486 -0.05098711020207182 0.022014051239576043 -0.27917251598831583 -0.29098353994429305 -0.19520958598365273 0.30891184567558122 -0.30698090307712556 -0.25262276064923722 0.031544005293970188 -0.12026127590856815 0.12717225807212951 0.28522078825949443 0.39921055733044258 0.19341565334098709 0.42326214574121102 0.14524260142269799 -0.26070029887413754 0.23973055237831528 0.28927813471117786
leaf_weight=20171 43925 18072 33927 5076 683 18188 427 21921 7249 14960 31983 10750 12332 2843 1555 17967 453 875 6470 1060 14766 15314 11247 870 10876 1430 479 325 2589 4705
leaf_count=20171 43925 18072 33927 5076 683 18188 427 21921 7249 14960 31983 10750 12332 2843 1555 17967 453 875 6470 1060 14766 15314 11247 870 10876 1430 479 325 2589 4705
internal_value=-7.24547e-11 0.136838 -0.140995 0.0680698 -0.204416 -0.065889 0.208284 0.106619 -0.239077 -0.217114 0.181752 -0.0340454 -0.0119848 -0.193756 -0.168653 -0.164153 -0.141196 -0.149744 -0.157327 -0.212621 -0.130707 0.0970805 0.248593 0.229609 0.236097 0.229142 0.210527 -0.0188512 0.305033 0.222363
