tree
version=v4
num_class=1
num_tree_per_iteration=1
label_index=0
max_feature_idx=11
objective=regression
feature_names=time_seconds team_id player_id action_id type_name result_name start_x start_y is_home avg_pass_dist avg_pass_angle pass_count
feature_infos=[0:3598.9680000000008] [0:11] [0:452] [0:3518] [0:25] [0:8] [0:105] [0:68] [0:1] [6.6709298018589109:37.341389101114608] [-2.1589673627522998:2.9669686466727692] [1:1913]
tree_sizes=2843 2933 2928 2924 2944 2932 2933 2923 2921 2918 2922 2933 2919 2920 2932 2916 2917 2935 2942 2947 2918 2928 2945 2935 2935 2944 2932 2934 2929 2956 2937 2955 2950 2932 2934 2944 2941 2958 2936 2943 2941 2953 2944 2925 2964 2952 2933 2946 2942 2976 2941 2992 2937 2933 2951 2952 2970 2941 2963 2965 2947 2962 2966 2952 2959 2951 2982 2966 2964 2945 2987 2936 2942 2941 2945 2979 2969 2943 2963 2930 2952 2987 2956 2950 2954 2956 3000 2959 2952 2922 2983 2951 2937 2959 2931 2967 2955 2976 2901 2984 2986 2973 2952 2969 2917 2984 3001 2980 2898 2966 3006 2917 2972 2981 2991 2952 2974 2952 2986 2919 3004 3000 2949 2982 2979 2930 2946 2884 2860 2949 3013 2980 2921 2961 2959 2891 2823 2987 2936 2932 2868 2917 2914 2907 2930 2936 2877 3018 2905 2939 2816 2968 2899 2947 2852 3033 2961 2865 2857 2884 2891 2946 2928 2797 2871 2789 2900 2864 2994 2938 2909 2978 2884 2813 2821 2823 2981 2884 2804 2829 2781 2752 2835 2825 2849 2840 2861 2850 2832 2871 2902 2807 2810 2788 2836 2824 2890 2855 2904 2813 2790 2809 2803 2858 2782 2880 2794 2812 2828 2792 2771 2914 2824 2778 2813 2813 2919 2879 2792 2803 2836 2818 2887 2914 2915 2797 2854 2761 2813 2811 2784 2812 2869 2865 2796 2824 2793 2857 2757 2791 2856 2780 2798 2848 2810 2903 2839 2859 2790 2793 2788 2919 2873 2810 2707 2846 2817 2875 2813 2789 2773 2802 2776 2785 2898 2814 2825 2762 2753 2837 2873 2822 2762 2843 2863 2845 2775 2742 2804 2830 2802 2784 2868 2868 2766 2903 2789 2750 2796 2767 2764 2765 2755 2756 2787 2866 2855 2761 2762 2842 2901 2912 2774 2742 2876 2779 2775 2747 2800 2872 2851 2785 2935 2827 2760 2767 2787 2761 2767 2789 2741 2894 2831 2859 2853 2751 2813 2850 2783 2758 2779 2768 2938 2836 2765 2783 2825 2786 2846 2818 2790 2789 2804 2794 2783 2828 2823 2818 2743 2911 2834 2919 2738 2799 2754 2803 2823 2864 2783 2843 2863 2854 2756 2773 2823 2857 2866 2746 2869 2865 2818 2787 2780 2835 2809 2899 2873 2789 2782 2773 2812 2784 2777 2750 2758 2755 2776 2869 2798 2834 2747 2871 2777 2838 2758 2825 2880 2790 2726 2806 2796 2782 2765 2812 2837 2845 2797 2760 2737 2774 2869 2769 2827 2794 2739 2745 2764 2790 2792 2767 2764 2886 2820 2734 2889 2834 2822 2797 2759 2778 2793 2788 2770 2762 2736 2794 2758 2800 2846 2867 2824 2851 2833 2867 2769 2744 2752 2776 2776 2814 2827 2747 2868 2817 2856 2832 2797 2771 2802 2762 2792 2854 2869 2825 2786 2781 2760 2818 2831 2803 2800 2802 2737 2761 2748 2741 2745 2809 2811 2742 2782 2780 2867 2824 2770 2797 2866 2815 2814 2752 2780 2765 2823 2833 2830 2758 2821 2817 2896 2879

Tree=0
num_leaves=31
num_cat=0
split_feature=6 6 6 6 6 6 6 5 5 9 9 6 6 6 6 4 4 4 6 6 6 5 5 9 5 5 6 4 5 5
split_gain=1.11157e+08 1.86662e+07 1.7315e+07 2.76053e+06 2.44828e+06 2.33784e+06 1.93798e+06 778287 1.72509e+06 667831 483686 417706 393855 328314 326972 300277 464080 289631 286387 277619 237980 217554 505179 155102 146705 164878 134028 115552 108683 235754
threshold=47.745337500000005 68.793690000000012 27.734227500000003 82.038757500000017 14.279475000000001 58.030035000000005 38.47021500000001 7.5000000000000009 5.5000000000000009 20.293531619021277 24.959460356514835 92.148315000000011 74.019802500000011 20.513325000000005 52.939267500000007 5.5000000000000009 3.5000000000000004 9.5000000000000018 32.687340000000006 64.117777500000017 43.408470000000008 7.5000000000000009 5.5000000000000009 23.65960413437416 5.5000000000000009 6.5000000000000009 8.7168427500000014 22.500000000000004 5.5000000000000009 6.5000000000000009
decision_type=2 2 2 2 2 2 2 2 2 2 2 2 2 2 2 2 2 2 2 2 2 2 2 2 2 2 2 2 2 2
left_child=2 5 4 12 7 14 18 8 17 27 13 -5 -3 -6 24 16 -9 -1 -4 -7 28 22 -12 -19 -2 -26 -17 -10 -8 -30
right_child=1 3 6 11 10 19 20 15 9 -11 21 -13 -14 -15 -16 26 -18 23 -20 -21 -22 -23 -24 -25 25 -27 -28 -29 29 -31
leaf_value=47.628590972800659 49.814274326350869 50.934349252006328 48.991850401071936 51.634845661612054 48.419335242752638 50.44219783027107 49.389499435383215 47.819236918836324 48.868536224201854 50.073808225803354 49.028131409668816 52.053477670873711 51.258906719775801 48.705107795484835 50.1771037830623 47.55319776081538 48.431815006501225 48.044456675713704 49.244452338123878 50.70414627715401 49.713392178921545 48.517004753126898 50.696666383894197 48.44356276976648 50.451281551069144 49.963668677338887 47.907967123949888 47.829894699613632 50.107589871856113 49.498984290741696
leaf_weight=2622 14553 16882 19525 16882 17342 24931 13178 7552 1140 1704 1676 9209 20944 23904 23462 5959 5235 5544 26382 17020 22110 788 622 4340 2119 9532 4812 350 1907 9609
leaf_count=2622 14553 16882 19525 16882 17342 24931 13178 7552 1140 1704 1676 9209 20944 23904 23462 5959 5235 5544 26382 17020 22110 788 622 4340 2119 9532 4812 350 1907 9609
internal_value=49.7569 50.7312 48.8973 51.387 48.3755 50.2737 49.3678 48.0879 48.3606 49.3977 48.6301 51.7826 51.1141 48.585 50.0415 47.9062 48.07 48.0958 49.137 50.5485 49.5942 49.2339 49.4798 48.2197 49.9201 50.0524 47.7117 48.6246 49.4876 49.5998
internal_weight=331835 155534 176301 63917 83590 91617 92711 39258 15700 3194 44332 26091 37826 41246 49666 23558 12787 12506 45907 41951 46804 3086 2298 9884 26204 11651 10771 1490 24694 11516
internal_count=331835 155534 176301 63917 83590 91617 92711 39258 15700 3194 44332 26091 37826 41246 49666 23558 12787 12506 45907 41951 46804 3086 2298 9884 26204 11651 10771 1490 24694 11516
is_linear=0
shrinkage=1


Tree=1
num_leaves=31
num_cat=0
split_feature=6 6 6 6 6 6 6 5 5 9 6 9 6 6 6 6 4 4 5 5 4 6 6 5 5 9 5 5 5 5
split_gain=1.00333e+08 1.83069e+07 1.41626e+07 2.50159e+06 2.49384e+06 1.96981e+06 1.66259e+06 675444 1.48835e+06 561875 446136 422008 347070 303456 269858 268557 262945 404279 258268 525437 250515 222807 203981 158059 201633 132384 105663 185526 104924 221253
threshold=46.482765000000008 68.793690000000012 26.679817500000002 56.84505750000001 83.258910000000014 13.49985 36.810952500000006 7.5000000000000009 5.5000000000000009 20.293531619021277 75.378975000000011 24.959460356514835 62.736345000000007 93.43708500000001 52.939267500000007 20.513325000000005 5.5000000000000009 3.5000000000000004 7.5000000000000009 5.5000000000000009 9.5000000000000018 31.086457500000005 41.636070000000011 5.5000000000000009 6.5000000000000009 23.65960413437416 5.5000000000000009 7.5000000000000009 5.5000000000000009 6.5000000000000009
decision_type=2 2 2 2 2 2 2 2 2 2 2 2 2 2 2 2 2 2 2 2 2 2 2 2 2 2 2 2 2 2
left_child=2 3 5 14 10 7 21 8 20 -10 -3 15 -5 -6 23 -7 17 -9 19 -13 -1 -4 -8 -2 -25 -22 -24 -28 -23 -30
right_child=1 4 6 12 13 11 22 16 9 -11 -12 18 -14 -15 -16 -17 -18 -19 -20 -21 25 28 26 24 -26 -27 27 -29 29 -31
leaf_value=-2.0363017537394295 0.032746133540265225 1.1491850129784222 -0.79092264729545991 0.5951005660911628 1.8304087562426474 -1.285164999883645 -0.32478355097594969 -1.8624076493542217 -1.0944087365017214 0.28825673488301445 1.4813654765450381 -0.75137038778968168 0.86676318346556924 2.2107318714844761 0.37214963509280691 -1.0245716766017769 -1.9668213855013459 -1.2735635397084177 -1.2833122430997852 0.85927185372958437 -1.6452627597141394 -0.65883489722309441 -0.21422496691403739 0.6474622501980859 0.16661900331283216 -1.2603353594545892 0.43926518139058079 -0.098592049841394844 0.016570215852477765 -0.54727847965041432
leaf_weight=2521 17993 20777 16829 24884 15539 19417 23563 7096 1346 1618 19684 1918 22287 7917 18242 20143 10061 4947 966 688 4979 12398 13379 2663 12025 4051 1934 9376 2085 10509
leaf_count=2521 17993 20777 16829 24884 15539 19417 23563 7096 1346 1618 19684 1918 22287 7917 18242 20143 10061 4947 966 688 4979 12398 13379 2663 12025 4051 1934 9376 2085 10509
internal_value=-2.4559e-09 0.890141 -0.849189 0.461106 1.54858 -1.33445 -0.419541 -1.60413 -1.33914 -0.339634 1.31079 -1.10548 0.723454 1.95878 0.218089 -1.15248 -1.77815 -1.62052 -0.585003 -0.326151 -1.59561 -0.650283 -0.219553 0.132095 0.253798 -1.47258 -0.119121 -0.00661894 -0.555579 -0.45393
internal_weight=331835 162011 169824 98094 63917 79751 90073 36619 14515 2964 40461 43132 47171 23456 50923 39560 22104 12043 3572 2606 11551 41821 48252 32681 14688 9030 24689 11310 24992 12594
internal_count=331835 162011 169824 98094 63917 79751 90073 36619 14515 2964 40461 43132 47171 23456 50923 39560 22104 12043 3572 2606 11551 41821 48252 32681 14688 9030 24689 11310 24992 12594
is_linear=0
shrinkage=0.05


Tree=2
num_leaves=31
num_cat=0
split_feature=6 6 6 6 6 6 6 5 5 9 9 6 6 6 6 6 4 4 6 5 5 4 6 5 5 9 5 5 4 6
split_gain=9.05798e+07 1.52164e+07 1.41051e+07 2.1083e+06 2.05914e+06 1.85242e+06 1.73494e+06 609589 1.34323e+06 507267 375434 337772 311140 276266 275330 266010 237308 364862 237243 233207 478739 226090 195537 137611 151900 120381 115455 243065 127712 98817.1
threshold=47.745337500000005 69.571215000000009 27.045637500000009 58.619872500000007 83.258910000000014 13.49985 37.092562500000007 7.5000000000000009 5.5000000000000009 20.645885062585354 24.959460356514835 75.842077500000016 53.761890000000008 43.408470000000008 92.148315000000011 20.513325000000005 5.5000000000000009 3.5000000000000004 64.117777500000017 7.5000000000000009 5.5000000000000009 9.5000000000000018 32.054242500000008 5.5000000000000009 6.5000000000000009 20.673542708607712 5.5000000000000009 6.5000000000000009 22.500000000000004 6.9383790000000003
decision_type=2 2 2 2 2 2 2 2 2 2 2 2 2 2 2 2 2 2 2 2 2 2 2 2 2 2 2 2 2 2
left_child=2 3 5 12 11 7 22 8 21 -10 15 -3 23 26 -6 -7 17 -9 -5 20 -12 -1 -4 -2 -25 -23 -8 28 -28 -18
right_child=1 4 6 18 14 10 13 16 9 -11 19 -13 -14 -15 -16 -17 29 -19 -20 -21 -22 25 -24 24 -26 -27 27 -29 -30 -31
leaf_value=-1.9344866714700826 0.068298849324916089 1.1193669808290319 -0.720836155908819 0.63308965642146475 1.7231130437067941 -1.2209067817460844 -0.36079074969785491 -1.7692872655206271 -1.0339840316289621 0.27883518142590896 -0.71277004809963718 1.4182810306296112 0.41072180781341266 -0.039123612898163407 2.0739102740670434 -0.96541762344471393 -2.0456831241639528 -1.2098853694192564 0.87133289693577121 -1.2156155849139549 0.81905266869264093 -1.5819141581804119 -0.50398408114816007 0.64086485158857842 0.20401659461806734 -1.2167932490771278 0.47921269423616419 -0.25916385142310105 -0.38134082175617379 -1.7299131171153996
leaf_weight=2521 16707 19455 19375 22321 14247 19417 16527 7096 1358 1606 1940 18379 22209 22110 9209 21435 4415 4947 19647 974 692 4505 22430 2433 10927 4525 1908 12317 557 5646
leaf_count=2521 16707 19455 19375 22321 14247 19417 16527 7096 1358 1606 1940 18379 22209 22110 9209 21435 4415 4947 19647 974 692 4505 22430 2433 10927 4525 1908 12317 557 5646
internal_value=-3.23707e-09 0.879507 -0.775908 0.480684 1.49277 -1.26059 -0.363234 -1.52393 -1.27218 -0.322652 -1.04368 1.26457 0.268791 -0.174432 1.86084 -1.08685 -1.68924 -1.5395 0.744621 -0.554631 -0.310026 -1.51583 -0.604487 0.163953 0.283571 -1.39895 -0.269986 -0.168461 0.284759 -1.86848
internal_weight=331835 155534 176301 94244 61290 81077 95224 36619 14515 2964 44458 37834 52276 53419 23456 40852 22104 12043 41968 3606 2632 11551 41805 30067 13360 9030 31309 14782 2465 10061
internal_count=331835 155534 176301 94244 61290 81077 95224 36619 14515 2964 44458 37834 52276 53419 23456 40852 22104 12043 41968 3606 2632 11551 41805 30067 13360 9030 31309 14782 2465 10061
is_linear=0
shrinkage=0.05


Tree=3
num_leaves=31
num_cat=0
split_feature=6 6 6 6 6 6 6 5 5 9 9 6 6 6 6 6 6 4 6 5 5 4 5 5 4 4 9 5 5 4
split_gain=8.17615e+07 1.32726e+07 1.32176e+07 1.95795e+06 1.81538e+06 1.69162e+06 1.55803e+06 584134 1.31184e+06 499357 377019 312139 284778 251074 240593 225591 223656 218034 194930 169888 335973 169183 143169 344755 135497 139757 122391 119014 122760 112178
threshold=48.255427500000003 70.349632500000013 27.734227500000003 59.575635000000005 14.664299999999999 83.86854000000001 38.990910000000007 7.5000000000000009 5.5000000000000009 20.021972825346491 23.65960413437416 53.761890000000008 76.772115000000014 7.8496057500000029 33.310095000000011 22.891050000000003 93.43708500000001 9.5000000000000018 64.443540000000013 5.5000000000000009 7.5000000000000009 22.500000000000004 7.5000000000000009 5.5000000000000009 5.5000000000000009 3.5000000000000004 20.673542708607712 5.5000000000000009 6.5000000000000009 5.5000000000000009
decision_type=2 2 2 2 2 2 2 2 2 2 2 2 2 2 2 2 2 2 2 2 2 2 2 2 2 2 2 2 2 2
left_child=2 3 4 11 7 12 14 8 17 -10 15 27 -3 29 -4 -6 -7 -1 -5 -8 21 -21 23 -12 25 -15 -19 -2 -29 -9
right_child=1 5 6 18 10 16 19 13 9 -11 22 -13 -14 24 -16 -17 -18 26 -20 20 -22 -23 -24 -25 -26 -27 -28 28 -30 -31
leaf_value=-1.8218580765119041 0.072665091782227451 1.0987065521506716 -0.64309664823383539 0.62990975828606377 -1.0968673353404099 1.6651932153746227 -0.2060153323983035 -1.6085495996525059 -0.95965261920433831 0.2734907162320323 -0.58976979553389453 0.40672093035408069 1.378748223624618 -1.4750140855077944 -0.41952907534958711 -0.8559015108189838 1.9964998080692196 -1.4818800099947564 0.84923665257493841 0.59849766480818489 -0.10377982543879212 -0.22739272405599731 -1.0099091690079414 0.82889628774439128 -1.5971929768762649 -1.0094231266287492 -1.1377374527540458 0.61579215635008633 0.20666568778372466 -1.91864040549523
leaf_weight=2671 15290 19401 22189 19557 23708 14286 25105 6619 1541 1757 1562 26226 17062 3593 26294 16454 7917 5332 21018 2883 18035 790 733 590 5881 2923 5012 2248 9944 5214
leaf_count=2671 15290 19401 22189 19557 23708 14286 25105 6619 1541 1757 1562 26226 17062 3593 26294 16454 7917 5332 21018 2883 18035 790 733 590 5881 2923 5012 2248 9944 5214
internal_value=9.5542e-10 0.848786 -0.725719 0.481375 -1.18462 1.43926 -0.323189 -1.42472 -1.19342 -0.302699 -0.958487 0.28333 1.22975 -1.58044 -0.521848 -0.998146 1.78333 -1.41912 0.743522 -0.117443 -0.0150102 0.420863 -0.40639 -0.200823 -1.4232 -1.26616 -1.31513 0.165579 0.282102 -1.74519
internal_weight=331835 152949 178886 94283 83590 58666 95296 40543 16313 3298 43047 53708 36463 24230 48483 40162 22203 13015 40575 46813 21708 3673 2885 2152 12397 6516 10344 27482 12192 11833
internal_count=331835 152949 178886 94283 83590 58666 95296 40543 16313 3298 43047 53708 36463 24230 48483 40162 22203 13015 40575 46813 21708 3673 2885 2152 12397 6516 10344 27482 12192 11833
is_linear=0
shrinkage=0.05


Tree=4
num_leaves=31
num_cat=0
split_feature=6 6 6 6 6 6 6 5 5 9 6 9 6 5 5 6 6 5 5 6 4 4 4 6 4 9 9 5 5 5
split_gain=7.38643e+07 1.34558e+07 1.0409e+07 1.85441e+06 1.83816e+06 1.40812e+06 1.29569e+06 475457 1.02589e+06 378343 320650 283352 254025 247450 461603 241879 218656 194962 242440 190046 175623 291650 171426 154486 138381 106929 100622 99419 120845 93375.4
threshold=46.482765000000008 68.793690000000012 25.551225000000006 81.412537500000028 56.84505750000001 35.635267500000005 12.201420000000001 7.5000000000000009 5.5000000000000009 20.865348443090586 90.038025000000019 26.67442021891544 62.736345000000007 7.5000000000000009 5.5000000000000009 74.019802500000011 41.110597500000004 5.5000000000000009 6.5000000000000009 18.867817500000005 5.5000000000000009 3.5000000000000004 9.5000000000000018 31.086457500000005 22.500000000000004 16.949675118125061 30.030268250587202 5.5000000000000009 7.5000000000000009 5.5000000000000009
decision_type=2 2 2 2 2 2 2 2 2 2 2 2 2 2 2 2 2 2 2 2 2 2 2 2 2 2 2 2 2 2
left_child=2 4 6 15 17 23 7 8 22 -10 -5 19 27 14 -13 -3 -7 25 24 -8 21 -9 -1 -4 -19 -2 -24 -6 -29 -18
right_child=1 3 5 10 12 16 11 20 9 -11 -12 13 -14 -15 -16 -17 29 18 -20 -21 -22 -23 26 -25 -26 -27 -28 28 -30 -31
leaf_value=-1.7680261253704004 0.016120492507568793 0.95605372206314532 -0.69474084026929384 1.4899070514231092 0.41975806927266907 -0.31214529811277786 -1.1487852184074079 -1.6371887141979398 -0.96139439092300649 0.23515036823758229 1.8350841034525958 -0.70728648820916817 0.7434198661139666 -1.1862179026666844 0.72864315784817579 1.2142242168571156 -0.19520705492522825 0.78342457920369679 0.21838021774726371 -0.92653066265612838 -1.7188509721782432 -1.1115170705796114 -1.3700619861844978 -0.49935063421764925 0.076746244399228544 0.21449326371388697 -0.91637248097550439 0.95082795494102046 0.53963243635198543 -0.0096735996253729181
leaf_weight=2359 16283 16882 20823 15583 13571 26258 17571 6393 1185 1493 11840 2250 22287 1256 745 19612 14779 3355 18756 21251 8989 4493 6253 19675 873 11656 1519 2224 9089 12532
leaf_count=2359 16283 16882 20823 15583 13571 26258 17571 6393 1185 1493 11840 2250 22287 1256 745 19612 14779 3355 18756 21251 8989 4493 6253 19675 873 11656 1519 2224 9089 12532
internal_value=-3.10057e-09 0.763754 -0.728616 1.32826 0.395931 -0.377325 -1.16481 -1.40219 -1.16464 -0.294314 1.63894 -0.984688 0.620816 -0.597141 -0.350102 1.0948 -0.209123 0.187616 0.295481 -1.02712 -1.55529 -1.42023 -1.3947 -0.599815 0.637509 0.0988805 -1.28139 0.511007 0.620469 -0.110073
internal_weight=331835 162011 169824 63917 98094 94067 75757 32684 12809 2678 27423 43073 47171 4251 2995 36494 53569 50923 22984 38822 19875 10886 10131 40498 4228 27939 7772 24884 11313 27311
internal_count=331835 162011 169824 63917 98094 94067 75757 32684 12809 2678 27423 43073 47171 4251 2995 36494 53569 50923 22984 38822 19875 10886 10131 40498 4228 27939 7772 24884 11313 27311
is_linear=0
shrinkage=0.05


Tree=5
num_leaves=31
num_cat=0
split_feature=6 6 6 6 6 6 6 5 5 9 9 6 6 6 6 6 4 6 6 5 5 4 4 4 5 5 5 5 4 9
split_gain=6.66966e+07 1.11658e+07 1.04373e+07 1.79325e+06 1.70094e+06 1.18422e+06 1.07654e+06 475689 1.078e+06 403631 314901 278864 232024 218376 212680 194207 177593 164477 159278 144395 304682 197150 130117 132101 123735 290100 106585 112147 105492 104495
threshold=48.782317500000012 29.421892500000006 71.55267000000002 14.664299999999999 59.575635000000005 84.51917250000001 39.239812500000006 7.5000000000000009 5.5000000000000009 20.021972825346491 23.65960413437416 22.891050000000003 54.586087500000012 6.9383790000000003 65.884612500000017 77.740897500000003 9.5000000000000018 93.43708500000001 44.940367500000008 5.5000000000000009 6.5000000000000009 22.500000000000004 5.5000000000000009 3.5000000000000004 7.5000000000000009 5.5000000000000009 5.5000000000000009 6.5000000000000009 22.500000000000004 26.900863398873931
decision_type=2 2 2 2 2 2 2 2 2 2 2 2 2 2 2 2 2 2 2 2 2 2 2 2 2 2 2 2 2 2
left_child=1 3 4 7 12 15 19 8 16 28 11 -5 26 -9 -6 -4 -1 -7 -8 -3 21 -21 23 -15 25 -12 -2 -28 -10 -18
right_child=2 6 5 10 14 17 18 13 9 -11 24 -13 -14 22 -16 -17 29 -19 -20 20 -22 -23 -24 -25 -26 -27 27 -29 -30 -31
leaf_value=-1.6460797371401998 0.086869356875650131 -0.52871828231980122 1.0349519696491567 -0.99039840802665668 0.59261095260897334 1.5157971914909247 -0.16816890266746082 -1.6046860367650861 -0.63031764466612661 0.24746098216756129 -0.50336829889542556 -0.74563644272215879 0.38743934109765865 -1.3490567985730966 0.81280113046518321 1.2751031763144836 -1.3038028676704554 1.8049205620991353 0.017066480019828158 0.28624720271972687 -0.42974832619787739 -0.5631713500131138 -1.4604633078773919 -0.92604332329369177 -0.88840941123897821 0.77713162438852379 0.59323753584617511 0.21015802849347281 -1.6024403653509631 -0.96923735013013279
leaf_weight=2671 16010 21510 18101 23708 24892 12990 28681 10108 1175 1757 1609 22856 22378 4054 19603 15738 6787 7917 19492 2713 18112 913 6680 3388 766 610 2343 10350 366 3557
leaf_count=2671 16010 21510 18101 23708 24892 12990 28681 10108 1175 1757 1609 22856 22378 4054 19603 15738 6787 7917 19492 2713 18112 913 6680 3388 766 610 2343 10350 366 3557
internal_value=8.09507e-10 -0.645087 0.778939 -1.04013 0.463616 1.32943 -0.255789 -1.28673 -1.078 -0.270566 -0.838342 -0.870257 0.266753 -1.42726 0.689619 1.14664 -1.28261 1.62528 -0.093218 -0.436874 -0.345993 0.0723699 -1.30027 -1.15648 -0.340499 -0.151361 0.17266 0.280871 -0.861205 -1.18876
internal_weight=331835 181513 150322 90092 95576 54746 91421 40543 16313 3298 49549 46564 51081 24230 44495 33839 13015 20907 48173 43248 21738 3626 14122 7442 2985 2219 28703 12693 1541 10344
internal_count=331835 181513 150322 90092 95576 54746 91421 40543 16313 3298 49549 46564 51081 24230 44495 33839 13015 20907 48173 43248 21738 3626 14122 7442 2985 2219 28703 12693 1541 10344
is_linear=0
shrinkage=0.05


Tree=6
num_leaves=31
num_cat=0
split_feature=6 6 6 6 6 6 6 5 5 9 6 6 9 5 5 6 6 6 4 4 6 4 9 6 5 5 5 5 5 5
split_gain=6.01936e+07 1.00865e+07 9.42427e+06 1.67849e+06 1.39969e+06 1.17543e+06 957183 385860 834004 310108 263254 227189 201748 186081 334180 185956 177248 175344 150421 248983 144736 139555 121101 112653 102247 106574 93287.7 108273 90096.7 180979
threshold=48.782317500000012 28.080360000000006 72.397342500000022 60.507982500000004 12.201420000000001 39.239812500000006 85.876717500000012 7.5000000000000009 5.5000000000000009 20.865348443090586 54.860977500000011 21.301560000000006 26.67442021891544 7.5000000000000009 5.5000000000000009 34.4604225 78.730732500000016 66.588165000000018 5.5000000000000009 3.5000000000000004 44.164995000000012 9.5000000000000018 23.65960413437416 94.818832500000013 5.5000000000000009 6.5000000000000009 5.5000000000000009 7.5000000000000009 5.5000000000000009 6.5000000000000009
decision_type=2 2 2 2 2 2 2 2 2 2 2 2 2 2 2 2 2 2 2 2 2 2 2 2 2 2 2 2 2 2
left_child=1 4 3 10 7 15 16 8 21 -10 24 12 -6 14 -14 28 -4 -5 19 -9 -7 -1 -13 -8 -2 -26 -12 -28 -3 -30
right_child=2 5 6 17 11 20 23 18 9 -11 26 22 13 -15 -16 -17 -18 -19 -20 -21 -22 -23 -24 -25 25 -27 27 -29 29 -31
leaf_value=-1.5973208252304261 0.086146418219617327 -0.62419073144328763 1.0193906546302343 0.5927780748736321 -0.99501263637172832 -0.17254743130928485 1.481840344044941 -1.4804390774616452 -0.87226442522750502 0.21101980302784604 0.30013106380949361 -0.75555731712176089 -0.6955407502140698 -1.1428060033709568 0.61566231672330129 -0.33157501003589956 1.2488421200712887 0.79504819791913928 -1.5563434626999839 -0.99473849917984458 0.00087267760395882586 -1.1582457822535415 -0.1234965969038633 1.7403979764431829 0.56844785091554184 0.20446867045127914 0.80986698192806006 0.41863865450584337 -0.023604445565799818 -0.51918498916046374
leaf_weight=2359 16694 12601 18123 23553 25036 24842 11694 6393 1185 1493 13625 22698 1943 1104 648 22365 15715 19656 8989 4493 23331 7772 784 6585 2468 10864 2192 9153 2202 11275
leaf_count=2359 16694 12601 18123 23553 25036 24842 11694 6393 1185 1493 13625 22698 1943 1104 648 22365 15715 19656 8989 4493 23331 7772 784 6585 2468 10864 2192 9153 2202 11275
internal_value=1.16367e-09 -0.612832 0.739992 0.451585 -1.01045 -0.263444 1.28344 -1.26705 -1.05305 -0.268327 0.26836 -0.849822 -0.944112 -0.599227 -0.367613 -0.437357 1.12595 0.684792 -1.40497 -1.27997 -0.0885571 -1.26048 -0.734455 1.57499 0.168601 0.271848 0.388319 0.494229 -0.528078 -0.438212
internal_weight=331835 181513 150322 98205 84897 96616 52117 32684 12809 2678 54996 52213 28731 3695 2591 48443 33838 43209 19875 10886 48173 10131 23482 18279 30026 13332 24970 11345 26078 13477
internal_count=331835 181513 150322 98205 84897 96616 52117 32684 12809 2678 54996 52213 28731 3695 2591 48443 33838 43209 19875 10886 48173 10131 23482 18279 30026 13332 24970 11345 26078 13477
is_linear=0
shrinkage=0.05


Tree=7
num_leaves=31
num_cat=0
split_feature=6 6 6 6 6 6 6 5 5 9 6 9 5 5 6 6 6 6 5 5 4 6 4 4 4 9 5 5 4 9
split_gain=5.43361e+07 9.7482e+06 7.83263e+06 1.37373e+06 1.31227e+06 1.04278e+06 1.01132e+06 342877 727613 275756 262796 200561 209259 366902 182987 169406 161289 159503 151719 320815 169452 136525 130893 212403 123432 93705 87477.4 109865 86925.3 84080.2
threshold=46.721010000000007 68.793690000000012 25.961880000000008 80.890477500000017 57.456420000000008 36.530392500000012 11.795122500000003 7.5000000000000009 5.5000000000000009 20.865348443090586 89.092972500000016 26.67442021891544 7.5000000000000009 5.5000000000000009 52.939267500000007 18.457477500000003 62.736345000000007 74.019802500000011 5.5000000000000009 6.5000000000000009 22.500000000000004 31.086457500000005 5.5000000000000009 3.5000000000000004 9.5000000000000018 17.283018848252912 5.5000000000000009 6.5000000000000009 22.500000000000004 30.030268250587202
decision_type=2 2 2 2 2 2 2 2 2 2 2 2 2 2 2 2 2 2 2 2 2 2 2 2 2 2 2 2 2 2
left_child=2 4 6 17 14 21 7 8 24 -10 -5 15 13 -13 26 -8 -6 -3 -7 20 25 -4 23 -9 -1 -20 -2 28 -28 -26
right_child=1 3 5 10 16 18 11 22 9 -11 -12 12 -14 -15 -16 -17 -18 -19 19 -21 -22 -23 -24 -25 29 -27 27 -29 -30 -31
leaf_value=-1.5251369830050501 0.02217682205061923 0.8194083941043635 -0.5925051295325473 1.2572902055289104 0.44796214902717041 -0.24135220797192397 -0.9967706461503264 -1.4143621797478556 -0.84676009746791392 0.19475529242045614 1.5611160988721171 -0.6143740243758975 -1.0406233436216803 0.6297935577586331 0.28853684305323857 -0.79154776176295194 0.63826120685407339 1.0323299916167115 0.2936189134288969 -0.15109699744215957 -0.2689081636887023 -0.4138068839335689 -1.489731249119544 -0.95704295357579072 -1.1893498444805057 0.8541144499221851 0.63556252917558576 0.12433333075101893 -0.085828636660322033 -0.76736439974334925
leaf_weight=2295 17297 16882 19465 15543 22251 27005 17440 6179 1129 1454 13129 2380 1389 789 20875 23750 22287 18363 1923 19794 895 23705 8584 4310 5943 1218 2026 11536 526 1473
leaf_count=2295 17297 16882 19465 15543 22251 27005 17440 6179 1129 1454 13129 2380 1389 789 20875 23750 22287 18363 1923 19794 895 23705 8584 4310 5943 1218 2026 11536 526 1473
internal_value=-3.68852e-10 0.6602 -0.620056 1.13941 0.343769 -0.313671 -0.993547 -1.21222 -1.00632 -0.260479 1.39641 -0.843614 -0.528901 -0.304608 0.173816 -0.87844 0.543189 0.930343 -0.16021 -0.0682562 0.338025 -0.49438 -1.34494 -1.22645 -1.2047 0.510965 0.0975117 0.190007 0.486875 -1.10553
internal_weight=331835 160715 171120 63917 96798 94005 77115 31367 12294 2583 28672 45748 4558 3169 52260 41190 44538 35245 50835 23830 4036 43170 19073 10489 9711 3141 31385 14088 2552 7416
internal_count=331835 160715 171120 63917 96798 94005 77115 31367 12294 2583 28672 45748 4558 3169 52260 41190 44538 35245 50835 23830 4036 43170 19073 10489 9711 3141 31385 14088 2552 7416
is_linear=0
shrinkage=0.05


Tree=8
num_leaves=31
num_cat=0
split_feature=6 6 6 6 6 6 6 5 5 6 9 6 9 5 5 6 6 5 5 4 5 5 5 5 4 4 4 4 4 9
split_gain=4.90626e+07 9.393e+06 6.5126e+06 1.47379e+06 1.12422e+06 873410 837001 310432 649342 259281 244448 180436 173842 201833 342758 168853 151079 130421 293397 154219 129370 167165 124185 262948 192320 116674 113392 185393 109314 97547.6
threshold=45.732382500000007 67.323217500000013 25.551225000000006 80.309617500000016 55.449607500000006 11.35365 35.635267500000005 7.5000000000000009 5.5000000000000009 90.038025000000019 20.865348443090586 72.779227500000019 24.959460356514835 7.5000000000000009 5.5000000000000009 61.451985000000015 17.582932500000009 5.5000000000000009 6.5000000000000009 22.500000000000004 5.5000000000000009 6.5000000000000009 5.5000000000000009 6.5000000000000009 22.500000000000004 22.500000000000004 5.5000000000000009 3.5000000000000004 9.5000000000000018 17.997550792749184
decision_type=2 2 2 2 2 2 2 2 2 2 2 2 2 2 2 2 2 2 2 2 2 2 2 2 2 2 2 2 2 2
left_child=2 4 5 11 20 7 22 8 28 -5 -10 -3 16 14 -14 -6 -7 -8 19 -19 29 25 -4 24 -24 -22 27 -9 -1 -2
right_child=1 3 6 9 15 12 17 26 10 -11 -12 -13 13 -15 -16 -17 -18 18 -20 -21 21 -23 23 -25 -26 -27 -28 -29 -30 -31
leaf_value=-1.4570681240466514 -0.016025292645137083 0.73582647210070917 -0.58078002870028411 1.1979746531047093 0.37390047026124806 -0.96599801442889643 -0.25974189312894252 -1.3535363626529575 -0.81488650760043468 1.4985358902195791 0.18367887055709606 0.95118910459064032 -0.59993996676537209 -1.0054576684075307 0.57571909884411632 0.56102909414481716 -0.76874511407914214 0.46445349717123297 -0.17689680958874984 -0.28948701920175773 0.64294811165244214 0.14417544928116771 0.21884822087342523 -0.48353030560355253 -0.62707074185823153 -0.026108423373854314 -1.4254760709312924 -0.91743770939841718 -1.0550183174483463 0.19607803065315821
leaf_weight=2226 18874 18238 19412 18213 26215 15931 26264 5964 1072 11840 1431 20838 2551 1538 819 22318 24848 3053 19478 872 3129 17820 2529 17642 915 823 8226 4121 7030 7605
leaf_count=2226 18874 18238 19412 18213 26215 15931 26264 5964 1072 11840 1431 20838 2551 1538 819 22318 24848 3053 19478 872 3129 17820 2529 17642 915 823 8226 4121 7030 7605
internal_value=-4.5509e-10 0.607989 -0.607956 1.05314 0.290038 -0.949702 -0.32082 -1.15897 -0.958494 1.31639 -0.243993 0.850673 -0.811969 -0.530833 -0.314223 0.459952 -0.845805 -0.183259 -0.0974256 0.296954 0.119132 0.209421 -0.489527 -0.405518 -0.00589506 0.503618 -1.28771 -1.17533 -1.15171 0.0448926
internal_weight=331835 165913 165922 69129 96784 75757 90165 30070 11759 30053 2503 39076 45687 4908 3370 48533 40779 49667 23403 3925 48251 21772 40498 21086 3444 3952 18311 10085 9256 26479
internal_count=331835 165913 165922 69129 96784 75757 90165 30070 11759 30053 2503 39076 45687 4908 3370 48533 40779 49667 23403 3925 48251 21772 40498 21086 3444 3952 18311 10085 9256 26479
is_linear=0
shrinkage=0.05


Tree=9
num_leaves=31
num_cat=0
split_feature=6 6 6 6 6 6 6 5 5 9 9 6 6 6 5 5 6 6 4 5 5 4 4 5 5 4 4 4 9 9
split_gain=4.43424e+07 7.43689e+06 6.92496e+06 1.20526e+06 1.07777e+06 841833 727530 325839 767578 266063 227783 177345 168217 154357 137086 182313 130092 129571 122042 118409 239941 126323 111701 109183 227338 155450 106790 100828 96380.7 88603.2
threshold=48.782317500000012 29.421892500000006 71.166007500000021 15.068025 59.575635000000005 83.86854000000001 39.239812500000006 7.5000000000000009 5.5000000000000009 20.021972825346491 23.65960413437416 6.5293095000000028 23.300970000000003 53.761890000000008 5.5000000000000009 6.5000000000000009 77.236057500000015 93.43708500000001 9.5000000000000018 5.5000000000000009 7.5000000000000009 22.500000000000004 5.5000000000000009 5.5000000000000009 6.5000000000000009 22.500000000000004 3.5000000000000004 22.500000000000004 20.673542708607712 17.283018848252912
decision_type=2 2 2 2 2 2 2 2 2 2 2 2 2 2 2 2 2 2 2 2 2 2 2 2 2 2 2 2 2 2
left_child=1 3 4 7 13 16 23 8 18 27 12 -9 -5 -2 -6 -16 -4 -7 -1 -8 21 -21 26 -3 25 29 -13 -10 -20 -25
right_child=2 6 5 10 14 17 19 11 9 -11 -12 22 -14 -15 15 -17 -18 -19 28 20 -22 -23 -24 24 -26 -27 -28 -29 -30 -31
leaf_value=-1.3442897881078089 0.1287688660723719 -0.43700650674017344 0.82674412617438142 -0.79586155686040039 0.47425380437754561 1.2246763488107473 -0.14737514393335802 -1.3331472754950902 -0.45069944427332687 0.21011895588022222 -0.23384791447373487 -1.0947019377598637 -0.60331865423596143 0.30266497860732366 0.94387131585092421 0.57490769320622748 1.0233038713695861 1.4768471568977199 -1.1122671806175819 0.52473633096782712 -0.064186730158330263 -0.17991979740284109 -1.1985528667006649 0.033591521911765058 -0.35046338864575849 -0.481074715009916 -0.73359892606028732 -1.3757794146454827 -0.81380763553317126 0.61395848522694518
leaf_weight=2716 24855 21510 18061 23922 23108 14286 25884 9265 1223 1808 2724 4511 21574 26226 4244 15859 15766 7917 5654 2961 18518 810 7372 1593 18112 913 3749 388 5186 1120
leaf_count=2716 24855 21510 18061 23922 23108 14286 25884 9265 1223 1808 2724 4511 21574 26226 4244 15859 15766 7917 5654 2961 18518 810 7372 1593 18112 913 3749 388 5186 1120
internal_value=-1.11079e-10 -0.525988 0.635128 -0.848386 0.373526 1.07537 -0.208278 -1.04464 -0.875721 -0.206234 -0.677968 -1.15981 -0.704559 0.218051 0.557319 0.652801 0.918356 1.31459 -1.04457 -0.0746322 0.00984339 0.373378 -1.05707 -0.357142 -0.278115 0.0832663 -0.930807 -0.6735 -0.96948 0.273183
internal_weight=331835 181513 150322 90092 94292 56030 91421 41872 16975 3419 48220 24897 45496 51081 43211 20103 33827 22203 13556 48173 22289 3771 15632 43248 21738 3626 8260 1611 10840 2713
internal_count=331835 181513 150322 90092 94292 56030 91421 41872 16975 3419 48220 24897 45496 51081 43211 20103 33827 22203 13556 48173 22289 3771 15632 43248 21738 3626 8260 1611 10840 2713
is_linear=0
shrinkage=0.05


Tree=10
num_leaves=31
num_cat=0
split_feature=6 6 6 6 6 6 6 5 5 6 9 5 5 9 5 5 6 5 5 6 6 5 5 4 4 9 4 4 4 4
split_gain=4.00278e+07 7.67676e+06 5.3026e+06 1.19637e+06 903235 755934 675930 245357 489830 234025 191842 146749 187478 139498 182406 330748 126613 123077 154013 118470 116250 106000 225990 166605 103718 91105.2 90321.1 147789 86551.4 86076.8
threshold=45.732382500000007 67.323217500000013 24.815962500000005 79.780627500000023 56.030310000000007 35.029680000000006 10.517534999999997 7.5000000000000009 5.5000000000000009 89.092972500000016 20.293531619021277 5.5000000000000009 6.5000000000000009 26.67442021891544 7.5000000000000009 5.5000000000000009 72.779227500000019 5.5000000000000009 6.5000000000000009 41.110597500000004 17.582932500000009 5.5000000000000009 6.5000000000000009 22.500000000000004 22.500000000000004 17.997550792749184 5.5000000000000009 3.5000000000000004 9.5000000000000018 22.500000000000004
decision_type=2 2 2 2 2 2 2 2 2 2 2 2 2 2 2 2 2 2 2 2 2 2 2 2 2 2 2 2 2 2
left_child=2 4 6 16 17 21 7 8 28 -5 -10 -6 29 20 15 -15 -3 25 24 -7 -8 -4 23 -23 -19 -2 27 -9 -1 -13
right_child=1 3 5 9 11 19 13 26 10 -11 -12 12 -14 14 -16 -17 -18 18 -20 -21 -22 22 -24 -25 -26 -27 -28 -29 -30 -31
leaf_value=-1.3333711280795233 -0.010646028104905565 0.66727706368838646 -0.54550462647467268 1.0639387397833329 0.34003985983712198 -0.24030446826478166 -0.87508597888156892 -1.2412438751456765 -0.78573123558359681 1.3407719752816909 0.14162188533091427 0.92301325943712742 0.44504949946690353 -0.573815612919505 -0.93794184177697471 0.5571363183273742 0.85050024735179497 0.60363043140232109 0.14131082250266783 -0.089067706147658132 -0.70454596477041187 0.19756442890476664 -0.45560665238410608 -0.58693334696884902 -0.0090186679647667242 0.18937691740097021 -1.3115121537530881 -0.8338768546252544 -0.96181774676730203 0.33383834494660236
leaf_weight=2079 19993 18238 19255 18241 24737 28979 18053 5561 935 13129 1382 3465 16901 2710 1666 849 19521 3325 18777 23409 22381 2522 17635 925 872 7959 7499 3713 6369 755
leaf_count=2079 19993 18238 19255 18241 24737 28979 18053 5561 935 13129 1382 3465 16901 2710 1666 849 19521 3325 18777 23409 22381 2522 17635 925 872 7959 7499 3713 6369 755
internal_value=5.0333e-10 0.549163 -0.549134 0.951594 0.261723 -0.297997 -0.867271 -1.06292 -0.876622 1.1798 -0.232601 0.422688 0.519486 -0.749272 -0.506152 -0.304027 0.762001 0.116777 0.202516 -0.172726 -0.780689 -0.460693 -0.383231 -0.012955 0.476342 0.0463081 -1.18248 -1.07815 -1.05325 0.817604
internal_weight=331835 165913 165922 69129 96784 92725 73197 27538 10765 31370 2317 45858 21121 45659 5225 3559 37759 50926 22974 52388 40434 40337 21082 3447 4197 27952 16773 9274 8448 4220
internal_count=331835 165913 165922 69129 96784 92725 73197 27538 10765 31370 2317 45858 21121 45659 5225 3559 37759 50926 22974 52388 40434 40337 21082 3447 4197 27952 16773 9274 8448 4220
is_linear=0
shrinkage=0.05


Tree=11
num_leaves=31
num_cat=0
split_feature=6 6 6 6 6 6 6 5 5 9 9 6 5 5 6 5 5 5 5 4 6 4 4 9 4 5 5 4 9 4
split_gain=3.61863e+07 6.18738e+06 5.53459e+06 983503 982995 610144 590940 257138 611316 207102 200993 147517 145582 156193 143866 113979 157784 106657 221027 148408 106532 101020 96711.3 93108.6 92557.5 90876.6 184407 95611.6 90713.5 89518.2
threshold=49.035367500000007 29.421892500000006 72.397342500000022 14.664299999999999 60.507982500000004 40.338060000000006 85.876717500000012 7.5000000000000009 5.5000000000000009 20.021972825346491 23.65960413437416 22.505647500000006 5.5000000000000009 6.5000000000000009 6.1074247500000007 5.5000000000000009 6.5000000000000009 5.5000000000000009 6.5000000000000009 22.500000000000004 78.730732500000016 22.500000000000004 9.5000000000000018 16.949675118125061 5.5000000000000009 5.5000000000000009 7.5000000000000009 22.500000000000004 17.565675266315314 3.5000000000000004
decision_type=2 2 2 2 2 2 2 2 2 2 2 2 2 2 2 2 2 2 2 2 2 2 2 2 2 2 2 2 2 2
left_child=1 3 4 7 12 17 20 8 22 -10 11 -5 23 21 -9 -6 -17 -3 19 28 -4 -14 -1 -2 29 -7 27 -27 -19 -16
right_child=2 5 6 10 15 25 -8 14 9 -11 -12 -13 13 -15 24 16 -18 18 -20 -21 -22 -23 -24 -25 -26 26 -28 -29 -30 -31
leaf_value=-1.2178948888882144 0.067875376450358266 -0.3811951723482469 0.78756087192238067 -0.73469982621723495 0.45645339467592327 -0.11664548363337837 1.22299396556548 -1.2186158294854501 -0.61063377431102495 0.18351244815788512 -0.21925546245465377 -0.55659749889576526 0.68515380152571526 0.24178291077221847 -1.0000686573474613 0.88935359473061237 0.54679967615922009 0.066338113516809516 -0.30048288144803498 -0.41904499004842971 0.96544611572474359 0.09714559037363181 -0.880413815314806 0.2503896984377586 -1.0912989074402379 0.49475045699681142 -0.040884596901838127 -0.15100152926609434 0.63054470887885516 -0.67116597137055722
leaf_weight=2671 18269 24278 18123 22456 23048 23850 18279 8467 1541 1757 2985 24108 3637 19520 4492 4263 15898 1883 20195 1014 15715 914 10344 11316 7436 2738 16932 725 1146 3835
leaf_count=2671 18269 24278 18123 22456 23048 23850 18279 8467 1541 1757 2985 24108 3637 19520 4492 4263 15898 1883 20195 1014 15715 914 10344 11316 7436 2738 16932 725 1146 3835
internal_value=7.88458e-10 -0.471299 0.578449 -0.766428 0.35491 -0.184662 0.993919 -0.949059 -0.795596 -0.187555 -0.616992 -0.642489 0.211975 0.303282 -1.05238 0.532405 0.619232 -0.307121 -0.232925 0.104528 0.870174 0.567061 -0.949673 0.137685 -0.963086 -0.0503809 0.0271092 0.359558 0.279802 -0.848593
internal_weight=331835 182853 148982 90092 96865 92761 52117 40543 16313 3298 49549 46564 53656 24071 24230 43209 20161 48516 24238 4043 33838 4551 13015 29585 15763 44245 20395 3463 3029 8327
internal_count=331835 182853 148982 90092 96865 92761 52117 40543 16313 3298 49549 46564 53656 24071 24230 43209 20161 48516 24238 4043 33838 4551 13015 29585 15763 44245 20395 3463 3029 8327
is_linear=0
shrinkage=0.05


Tree=12
num_leaves=31
num_cat=0
split_feature=6 6 6 6 6 6 6 6 5 5 9 4 5 5 6 6 6 4 4 6 5 5 5 5 4 9 9 4 9 4
split_gain=3.26677e+07 5.79328e+06 4.81604e+06 888517 687308 643610 594075 242564 206038 562845 177727 177615 124802 125229 120928 115783 107908 106743 127377 98620.8 93739.6 129288 84791 173188 93232 83858.1 82266.1 79710.1 78300 77467.3
threshold=49.558372500000011 29.421892500000006 70.349632500000013 15.068025 83.86854000000001 59.892105000000008 40.338060000000006 3.9715095000000011 7.5000000000000009 5.5000000000000009 23.65960413437416 22.500000000000004 5.5000000000000009 6.5000000000000009 23.300970000000003 76.772115000000014 94.818832500000013 5.5000000000000009 3.5000000000000004 34.179862500000006 5.5000000000000009 6.5000000000000009 5.5000000000000009 7.5000000000000009 22.500000000000004 15.873663665699935 20.673542708607712 22.500000000000004 23.65960413437416 3.5000000000000004
decision_type=2 2 2 2 2 2 2 2 2 2 2 2 2 2 2 2 2 2 2 2 2 2 2 2 2 2 2 2 2 2
left_child=1 3 5 7 15 12 19 -1 9 26 14 28 25 27 -5 -4 -6 18 -10 -3 -7 -22 -8 24 -24 -2 -9 -14 -11 -12
right_child=2 6 4 10 16 20 22 8 17 11 29 -13 13 -15 -16 -17 -18 -19 -20 -21 21 -23 23 -25 -26 -27 -28 -29 -30 -31
leaf_value=-1.1747161213537676 0.028602352141497339 -0.37840794796715038 0.69219026238742132 -0.68268658127979631 1.0570342914732815 0.40217322596739236 -0.10445579552132007 -0.97248124411635184 -0.99355053185588782 -0.25032345572966436 -0.83694531653123561 -1.163271436965571 0.65118449786322941 0.23321573506765103 -0.51943535841711375 0.87075353194976179 1.2983648604937548 -1.0699580362942773 -0.65187183011569161 -0.2331121011688953 0.81417752520602871 0.48839646233568984 0.47263402662226839 -0.033605269952794094 -0.1455049423819379 0.20718003932718179 -0.70577943959850165 0.099253509766228667 0.29872471425399699 -0.07967751007459134
leaf_weight=6604 11604 19585 19401 23922 15618 20937 25272 6675 6120 1176 395 339 3266 17540 21574 17062 6585 9486 4921 28931 3859 14445 2907 17975 772 15166 5101 818 1450 2329
leaf_count=6604 11604 19585 19401 23922 15618 20937 25272 6675 6120 1176 395 339 3266 17540 21574 17062 6585 9486 4921 28931 3859 14445 2907 17975 772 15166 5101 818 1450 2329
internal_value=9.21436e-10 -0.440535 0.558671 -0.728107 0.909291 0.323953 -0.169082 -0.896611 -0.844536 -0.701925 -0.581785 -0.0861985 0.201937 0.291276 -0.605274 0.775745 1.12861 -0.946949 -0.841264 -0.291765 0.47443 0.55708 -0.0422419 0.0303668 0.342924 0.129772 -0.856954 0.540636 0.0528448 -0.189487
internal_weight=331835 185534 146301 90092 58666 87635 95442 41872 35268 14741 48220 2965 48394 21624 45496 36463 22203 20527 11041 48516 39241 18304 46926 21654 3679 26770 11776 4084 2626 2724
internal_count=331835 185534 146301 90092 58666 87635 95442 41872 35268 14741 48220 2965 48394 21624 45496 36463 22203 20527 11041 48516 39241 18304 46926 21654 3679 26770 11776 4084 2626 2724
is_linear=0
shrinkage=0.05


Tree=13
num_leaves=31
num_cat=0
split_feature=6 6 6 6 6 6 6 5 5 6 4 6 5 5 9 5 5 4 4 4 4 5 5 4 5 5 4 5 4 5
split_gain=2.95258e+07 5.86121e+06 3.72767e+06 943741 660358 538018 500061 182175 357600 166619 150621 116087 114190 141741 99775.2 166550 328900 102840 147338 123230 95932.8 93583.2 217729 114091 90306.2 198112 146048 87765 370883 85394.9
threshold=45.205650000000013 66.588165000000018 24.435442500000004 80.309617500000016 54.860977500000011 34.740825000000008 10.096842000000004 7.5000000000000009 5.5000000000000009 91.012162500000017 15.500000000000002 73.194397500000008 5.5000000000000009 6.5000000000000009 20.865348443090586 7.5000000000000009 5.5000000000000009 5.5000000000000009 15.500000000000002 3.5000000000000004 9.5000000000000018 5.5000000000000009 6.5000000000000009 22.500000000000004 5.5000000000000009 6.5000000000000009 22.500000000000004 5.5000000000000009 19.000000000000004 5.5000000000000009
decision_type=2 2 2 2 2 2 2 2 2 2 2 2 2 2 2 2 2 2 2 2 2 2 2 2 2 2 2 2 2 2
left_child=2 4 6 11 29 24 7 8 -1 -5 20 -3 -6 -14 17 16 -16 19 -19 -8 -10 -7 23 -23 -4 26 -26 -20 -29 -2
right_child=1 3 5 9 12 21 14 -9 10 -11 -12 -13 13 -15 15 -17 -18 18 27 -21 -22 22 -24 -25 25 -27 -28 28 -30 -31
leaf_value=-0.91378990634473434 0.019053754968862798 0.57441788804008098 -0.48218732310677431 0.93362288818012884 0.2697548746904157 -0.22384954871225454 -0.6669957626649029 -1.0284313337297324 -2.394233798980713 1.1802668193757102 -0.45264456269893655 0.74155852282734624 0.67593564563107877 0.3607213881970473 -0.51872126379469896 -0.82840248893541524 0.54180342187580743 -0.92167627536946439 -0.7421936896592356 -0.3114948976021405 0.60108230518461292 0.38842727014502043 -0.15549047930363483 -0.24611492915409139 0.21312700624071224 -0.39984708299811356 -0.51982868004494343 0.018817962867526669 -0.74026747536596371 0.1527469754738395
leaf_weight=8044 26500 22173 19210 19500 26204 26787 7303 15943 28 10553 1613 19547 4456 17863 3314 2107 938 7331 12917 3659 590 3149 20183 914 2510 17736 932 2217 5869 21745
leaf_count=8044 26500 22173 19210 19500 26204 26787 7303 15943 28 10553 1613 19547 4456 17863 3314 2107 938 7331 12917 3659 590 3149 20183 914 2510 17736 932 2217 5869 21745
internal_value=6.97852e-10 0.46424 -0.479157 0.80661 0.210303 -0.267338 -0.748585 -0.922623 -0.758447 1.02023 -0.198349 0.652728 0.340543 0.423654 -0.648642 -0.464896 -0.284767 -0.678376 -0.728688 -0.548333 0.465372 -0.159432 -0.0882643 0.245683 -0.403685 -0.332478 0.0146625 -0.661326 -0.532143 0.079312
internal_weight=331835 168541 163294 71773 96768 91421 71873 26218 10275 30053 2231 41720 48523 22319 45655 6359 4252 39296 28334 10962 618 51033 24246 4063 40388 21178 3442 21003 8086 48245
internal_count=331835 168541 163294 71773 96768 91421 71873 26218 10275 30053 2231 41720 48523 22319 45655 6359 4252 39296 28334 10962 618 51033 24246 4063 40388 21178 3442 21003 8086 48245
is_linear=0
shrinkage=0.05


Tree=14
num_leaves=31
num_cat=0
split_feature=6 6 6 6 6 6 6 5 5 9 6 6 9 5 5 6 6 6 5 5 4 5 5 9 4 4 4 4 4 4
split_gain=2.66601e+07 4.47718e+06 4.15013e+06 758176 581738 525430 486497 167863 356701 145671 118002 115572 104825 130341 266762 111111 101973 89584.7 86259.3 183612 130664 80812.7 104578 79029.1 77858.4 123589 74275.7 111508 76661.7 71934.1
threshold=47.745337500000005 67.68541500000002 27.045637500000009 82.038757500000017 11.795122500000003 37.092562500000007 57.74580000000001 7.5000000000000009 5.5000000000000009 20.865348443090586 75.378975000000011 91.012162500000017 20.865348443090586 7.5000000000000009 5.5000000000000009 20.101357500000002 43.408470000000008 52.939267500000007 5.5000000000000009 6.5000000000000009 22.500000000000004 5.5000000000000009 6.5000000000000009 17.894341529186267 5.5000000000000009 3.5000000000000004 5.5000000000000009 3.5000000000000004 15.500000000000002 9.5000000000000018
decision_type=2 2 2 2 2 2 2 2 2 2 2 2 2 2 2 2 2 2 2 2 2 2 2 2 2 2 2 2 2 2
left_child=2 6 4 10 7 18 17 8 29 -10 -3 -5 15 14 -14 26 -7 -2 -4 20 23 -8 -23 -20 25 -9 27 -6 -28 -1
right_child=1 3 5 11 12 16 21 24 9 -11 -12 -13 13 -15 -16 -17 -18 -19 19 -21 -22 22 -24 -25 -26 -27 28 -29 -30 -31
leaf_value=-1.0919090091065435 0.072433839510274434 0.58018090317780147 -0.40355543588456338 0.90683770128061281 -0.69860427902945743 -0.15125078718160315 0.3054909696106175 -0.9972712648725901 -0.61229147627434977 0.14469730210347367 0.75118430013239479 1.1212534663249165 -0.43623509132408911 -0.73797184008077232 0.5656363458756648 -0.52502673622851326 -0.010991877184952719 0.20897636649181373 0.050398818714939356 -0.32477214739645749 -0.44489644152017443 0.68862922467907872 0.38906784435264097 0.62897780938725201 -1.0569878968470083 -0.64842925750533786 -0.92440187893329151 -0.25979125162976457 -0.6743352478233785 -0.77158237884845637
leaf_weight=2295 26204 24710 20366 15538 3948 31309 21167 6179 1129 1454 17049 10553 2910 1671 861 22507 22110 22181 1711 17914 913 3647 14485 901 8584 4310 4202 2286 11325 7416
leaf_count=2295 26204 24710 20366 15538 3948 31309 21167 6179 1129 1454 17049 10553 2910 1671 861 22507 22110 22181 1711 17914 913 3647 14485 901 8584 4310 4202 2286 11325 7416
internal_value=5.98446e-10 0.47715 -0.420945 0.782111 -0.683849 -0.197099 0.24117 -0.852454 -0.708384 -0.186174 0.649997 0.993562 -0.57746 -0.370375 -0.207486 -0.602917 -0.093198 0.135029 -0.329866 -0.259864 0.0700003 0.371852 0.44932 0.249978 -0.945318 -0.85393 -0.683478 -0.537692 -0.74201 -0.847285
internal_weight=331835 155534 176301 67850 81077 95224 87684 31367 12294 2583 41759 26091 49710 5442 3771 44268 53419 48385 41805 21439 3525 39299 18132 2612 19073 10489 21761 6234 15527 9711
internal_count=331835 155534 176301 67850 81077 95224 87684 31367 12294 2583 41759 26091 49710 5442 3771 44268 53419 48385 41805 21439 3525 39299 18132 2612 19073 10489 21761 6234 15527 9711
is_linear=0
shrinkage=0.05


Tree=15
num_leaves=31
num_cat=0
split_feature=6 6 6 6 6 6 6 6 5 5 9 4 5 5 6 5 5 4 9 6 4 4 9 5 5 4 9 4 5 5
split_gain=2.40693e+07 4.53389e+06 3.35346e+06 779663 560329 406841 390524 200287 145656 401475 145601 143535 113900 116580 113676 91892.9 213553 124162 88384.7 85873.5 79342.9 86596.5 79038.7 75060.6 105024 73833.8 70937.3 64055.2 71684.8 74793.7
threshold=50.356845000000014 31.086457500000005 72.397342500000022 15.068025 61.451985000000015 87.399427500000016 42.621915000000008 4.4249624999999986 7.5000000000000009 5.5000000000000009 23.65960413437416 22.500000000000004 5.5000000000000009 6.5000000000000009 23.66217 5.5000000000000009 6.5000000000000009 22.500000000000004 17.283018848252912 79.235992500000023 5.5000000000000009 3.5000000000000004 16.949675118125061 5.5000000000000009 6.5000000000000009 22.500000000000004 20.673542708607712 3.5000000000000004 5.5000000000000009 6.5000000000000009
decision_type=2 2 2 2 2 2 2 2 2 2 2 2 2 2 2 2 2 2 2 2 2 2 2 2 2 2 2 2 2 2
left_child=1 3 4 7 12 19 15 -1 9 26 14 -11 22 25 -5 -3 17 18 -17 -4 21 -10 -2 -6 -25 -14 -9 -12 -29 -30
right_child=2 6 5 10 23 -7 -8 8 20 11 27 -13 13 -15 -16 16 -18 -19 -20 -21 -22 -23 -24 24 -26 -27 -28 28 29 -31
leaf_value=-0.99749878386712754 0.065559458390052866 -0.27130622556228573 0.64698401263047922 -0.57996298615660702 0.38384760956804503 1.0232454241051427 0.00029045562442851211 -0.83685730224697841 -0.84258607879853376 0.064138042650030244 -0.71493238482210375 -1.0391369186191191 0.61431782873160978 0.22543649218954501 -0.43191243072861935 0.11186515657561401 -0.20428935382254676 -0.30017200292422508 0.63428866338800138 0.80090029396549312 -0.91386848549374988 -0.55498982504091499 0.23884797866247476 0.75294324072571639 0.46039439815814726 0.095668131547160057 -0.58376742732315867 -0.24916882487773304 0.6595223993667686 -0.28182744032090851
leaf_weight=7939 17669 27438 19426 25166 20938 15705 39180 6531 5806 2512 405 334 3509 18427 26744 1973 21865 1036 1373 16986 9178 4766 10485 3891 14501 853 4806 1484 576 333
leaf_count=7939 17669 27438 19426 25166 20938 15705 39180 6531 5806 2512 405 334 3509 18427 26744 1973 21865 1036 1373 16986 9178 4766 10485 3891 14501 853 4806 1484 576 333
internal_value=-5.02395e-10 -0.369181 0.491182 -0.609034 0.306813 0.810532 -0.119732 -0.771418 -0.718524 -0.596281 -0.48475 -0.0653398 0.197359 0.280458 -0.503687 -0.207326 -0.140442 0.17814 0.326237 0.718785 -0.80631 -0.712934 0.130095 0.448586 0.522286 0.512895 -0.729567 -0.133409 -0.0349896 0.314671
internal_weight=331835 189445 142390 96580 90273 52117 92865 41872 33933 14183 54708 2846 50943 22789 51910 53685 26247 4382 3346 36412 19750 10572 28154 39330 18392 4362 11337 2798 2393 909
internal_count=331835 189445 142390 96580 90273 52117 92865 41872 33933 14183 54708 2846 50943 22789 51910 53685 26247 4382 3346 36412 19750 10572 28154 39330 18392 4362 11337 2798 2393 909
is_linear=0
shrinkage=0.05


Tree=16
num_leaves=31
num_cat=0
split_feature=6 6 6 6 6 6 6 5 5 4 6 6 5 5 4 6 5 5 4 4 5 5 4 9 4 9 9 9 5 5
split_gain=2.17369e+07 3.99699e+06 3.06507e+06 637969 470634 458698 378037 137796 270234 123385 109456 91109.8 89613.7 110885 87583.7 86891.9 75218 156714 81799.2 73643.7 73467.9 151721 109349 72195.9 70277.5 69753.4 69419.2 65021.5 106465 198717
threshold=46.482765000000008 67.323217500000013 26.679817500000002 81.412537500000028 10.517534999999997 55.150620000000011 36.810952500000006 7.5000000000000009 5.5000000000000009 15.500000000000002 94.818832500000013 74.019802500000011 5.5000000000000009 6.5000000000000009 9.5000000000000018 19.698000000000004 5.5000000000000009 6.5000000000000009 22.500000000000004 22.500000000000004 5.5000000000000009 6.5000000000000009 22.500000000000004 26.765440607674627 22.500000000000004 14.617549877941281 17.970073593562439 20.865348443090586 7.5000000000000009 5.5000000000000009
decision_type=2 2 2 2 2 2 2 2 2 2 2 2 2 2 2 2 2 2 2 2 2 2 2 2 2 2 2 2 2 2
left_child=2 5 4 11 7 -2 20 8 -1 14 -5 -3 -7 24 -10 27 -8 18 25 -11 -4 22 26 -17 -14 -18 -22 -6 29 -29
right_child=1 3 6 10 15 12 16 -9 9 19 -12 -13 13 -15 -16 23 17 -19 -20 -21 21 -23 -24 -25 -26 -27 -28 28 -30 -31
leaf_value=-0.77983783698288223 0.08056581672941425 0.50939676697196867 -0.37371536529644889 0.83335617560646513 -0.62688269957547749 0.24151418985140879 -0.15861218581379802 -0.87785725279811189 -2.2486237493054619 -0.2632193575175914 1.067208329560617 0.65746217219425107 0.68861429790707551 0.32116960146727302 0.56588131080582837 -0.47842036984781622 -0.0020582462401620072 -0.092854424696201629 -0.17414806862180732 -1.2418531976673939 0.041083404839347505 -0.29990312431544852 -0.40909278871112575 -0.0017373044274629685 0.17879686490694682 0.53530168851575788 0.58757235093462579 -0.47664291561748312 -0.75210675600775778 0.42766186455750499
leaf_weight=8448 43068 22094 20278 20838 23414 26911 25653 16773 29 1477 6585 19612 3742 18336 590 22790 844 18783 849 221 1738 18008 924 823 825 2123 873 2675 1725 786
leaf_count=8448 43068 22094 20278 20838 23414 26911 25653 16773 29 1477 6585 19612 3742 18336 590 22790 844 18783 849 221 1738 18008 924 823 825 2123 873 2675 1725 786
internal_value=3.42207e-10 0.414319 -0.395258 0.702192 -0.621004 0.200065 -0.195382 -0.788254 -0.648642 -0.170291 0.88951 0.579024 0.303382 0.376076 0.434022 -0.532793 -0.100019 -0.0335071 0.25861 -0.390592 -0.305409 -0.241113 0.0583739 -0.461806 0.596519 0.382443 0.223805 -0.591402 -0.431211 -0.271273
internal_weight=331835 162011 169824 69129 79751 92882 90073 27538 10765 2317 27423 41706 49814 22903 619 52213 48252 22599 3816 1698 41821 21543 3535 23613 4567 2967 2611 28600 5186 3461
internal_count=331835 162011 169824 69129 79751 92882 90073 27538 10765 2317 27423 41706 49814 22903 619 52213 48252 22599 3816 1698 41821 21543 3535 23613 4567 2967 2611 28600 5186 3461
is_linear=0
shrinkage=0.05


Tree=17
num_leaves=31
num_cat=0
split_feature=6 6 6 6 6 6 6 6 5 5 4 5 5 5 5 4 5 5 4 9 9 5 6 9 9 9 4 9 4 4
split_gain=1.96356e+07 3.92202e+06 2.48011e+06 671757 397898 384524 320151 137433 124586 241831 113024 85304.5 142391 77213.9 101102 76677.4 70702.8 165968 87524.6 74782 68150.8 75130.1 67645 64918.9 64513.6 62351.7 61007.5 72739.4 60923.3 60278.3
threshold=45.205650000000013 65.884612500000017 25.551225000000006 79.235992500000023 54.021555000000006 10.096842000000004 34.179862500000006 88.203412500000013 7.5000000000000009 5.5000000000000009 15.500000000000002 5.5000000000000009 6.5000000000000009 5.5000000000000009 6.5000000000000009 9.5000000000000018 5.5000000000000009 6.5000000000000009 22.500000000000004 15.163320178254938 17.387733074961158 5.5000000000000009 18.457477500000003 26.839058181045839 17.66815165740589 26.765440607674627 9.5000000000000018 30.030268250587202 22.500000000000004 22.500000000000004
decision_type=2 2 2 2 2 2 2 2 2 2 2 2 2 2 2 2 2 2 2 2 2 2 2 2 2 2 2 2 2 2
left_child=2 4 5 11 20 8 23 -5 9 26 15 -3 -13 -6 28 -11 24 18 19 -18 21 -2 -7 -4 -8 -24 -1 -28 -15 -12
right_child=1 3 6 7 13 22 16 -9 -10 10 29 12 -14 14 -16 -17 17 -19 -20 -21 -22 -23 25 -25 -26 -27 27 -29 -30 -31
leaf_value=-0.98458706053897105 -0.067538882250330376 0.44863055267174756 -0.33709677711090891 0.72861503952699613 0.20394170131550951 -0.57380579442910962 -0.25385183216988455 0.93508056574423382 -0.84255611839638389 -2.1403044019426622 -0.26397901581043687 0.83625356959786379 0.51853845829503964 0.62893048312209998 0.27671002719081339 0.53758725335821511 -0.0055885674313499653 -0.13020805089631354 -0.20798562646036217 0.50130580460531948 0.13702448486244487 0.096341617754856293 -0.47369771850885489 0.31672927790981098 -0.10071280484942223 -0.064493046644173491 -0.75724924415821215 -0.33175377622217506 0.15616820269534668 -1.1914097382454203
leaf_weight=2023 15123 21797 33536 18265 27017 26022 16037 14426 15943 28 1413 4585 15276 3667 18354 590 1085 21284 961 2209 16184 13010 22546 384 12041 971 4747 1274 837 200
leaf_count=2023 15123 21797 33536 18265 27017 26022 16037 14426 15943 28 1413 4585 15276 3667 18354 590 1085 21284 961 2209 16184 13010 22546 384 12041 971 4747 1274 837 200
internal_value=-2.59031e-10 0.378585 -0.39075 0.650067 0.164295 -0.600212 -0.209476 0.819725 -0.755055 -0.619287 -0.15869 0.516929 0.591884 0.261166 0.328801 0.416259 -0.13342 -0.0732175 0.211856 0.334342 0.0552749 0.00824704 -0.518262 -0.329695 -0.18818 -0.456802 -0.747033 -0.667217 0.541075 -0.378974
internal_weight=331835 168541 163294 74349 94192 75757 87537 32691 26218 10275 2231 41658 19861 49875 22858 618 53617 25539 4255 3294 44317 28133 49539 33920 28078 23517 8044 6021 4504 1613
internal_count=331835 168541 163294 74349 94192 75757 87537 32691 26218 10275 2231 41658 19861 49875 22858 618 53617 25539 4255 3294 44317 28133 49539 33920 28078 23517 8044 6021 4504 1613
is_linear=0
shrinkage=0.05


Tree=18
num_leaves=31
num_cat=0
split_feature=6 6 6 6 6 6 6 6 5 5 4 9 5 5 4 4 4 5 5 4 4 9 5 5 5 5 5 4 9 9
split_gain=1.77457e+07 3.35181e+06 2.47929e+06 573241 422701 301967 291076 170932 123791 359702 123904 113815 95690.7 238419 176943 145060 141250 89834.8 94290 80287 95426.2 71115 69833.1 125558 83643.6 69778.7 161407 93656 71293.1 68199.8
threshold=50.356845000000014 31.086457500000005 72.397342500000022 15.475372500000001 61.768717500000008 87.399427500000016 42.621915000000008 3.9715095000000011 7.5000000000000009 5.5000000000000009 22.500000000000004 23.65960413437416 5.5000000000000009 7.5000000000000009 22.500000000000004 5.5000000000000009 3.5000000000000004 5.5000000000000009 6.5000000000000009 5.5000000000000009 3.5000000000000004 14.944291953472145 5.5000000000000009 6.5000000000000009 4.5000000000000009 5.5000000000000009 6.5000000000000009 22.500000000000004 17.283018848252912 20.865348443090586
decision_type=2 2 2 2 2 2 2 2 2 2 2 2 2 2 2 2 2 2 2 2 2 2 2 2 2 2 2 2 2 2
left_child=1 3 4 7 17 22 25 -1 9 29 -11 12 -5 14 -14 16 -15 21 -19 20 -10 -2 24 -24 -4 -3 27 28 -27 -9
right_child=2 6 5 11 -6 -7 -8 8 19 10 -12 -13 13 15 -16 -17 -18 18 -20 -21 -22 -23 23 -25 -26 26 -28 -29 -30 -31
leaf_value=-0.89293002042347414 -0.0046888215090469454 -0.2338922084262976 1.200562648822864 -0.50899977752285452 0.39017752137109679 0.87959941820593457 0.0011030330611380898 -0.73239912811882713 -0.73346233918192105 0.086076947552954572 -0.90160772985776161 -0.086073092288904418 0.17589742512176385 -0.38956201827762538 -0.53210489552239371 -0.5566681005083397 0.049676850266608938 0.4495932117935299 0.19487555474162443 -0.7998303095154613 -0.44210428927098555 0.16477093107592367 0.90698706213454572 0.60777455342311426 0.53179480370257048 0.093202895050027226 -0.17536385862039283 -0.25830576089013041 0.56240276358336572 -0.49373753501822731
leaf_weight=6604 8993 27438 480 21886 37981 15705 39180 7003 6354 2749 359 2524 3073 10677 1238 11845 2209 4496 18932 9792 5039 19871 4783 13133 18016 1973 21865 1036 1373 5228
leaf_count=6604 8993 27438 480 21886 37981 15705 39180 7003 6354 2749 359 2524 3073 10677 1238 11845 2209 4496 18932 9792 5039 19871 4783 13133 18016 1973 21865 1036 1373 5228
internal_value=-3.76851e-10 -0.316996 0.421752 -0.523225 0.263225 0.696341 -0.102516 -0.658837 -0.61651 -0.508332 -0.0280089 -0.413806 -0.430049 -0.370552 -0.0274213 -0.430365 -0.314265 0.171016 0.243758 -0.694837 -0.604598 0.111973 0.617299 0.687655 0.54915 -0.178139 -0.119856 0.157112 0.285735 -0.630386
internal_weight=331835 189445 142390 96580 90273 52117 92865 43128 36524 15339 3108 53452 50928 29042 4311 24731 12886 52292 23428 21185 11393 28864 36412 17916 18496 53685 26247 4382 3346 12231
internal_count=331835 189445 142390 96580 90273 52117 92865 43128 36524 15339 3108 53452 50928 29042 4311 24731 12886 52292 23428 21185 11393 28864 36412 17916 18496 53685 26247 4382 3346 12231
is_linear=0
shrinkage=0.05


Tree=19
num_leaves=31
num_cat=0
split_feature=6 6 6 6 6 6 6 6 5 5 9 6 6 9 5 5 5 5 4 9 9 9 9 5 5 4 4 4 5 5
split_gain=1.60175e+07 2.86584e+06 2.38093e+06 432245 374288 321571 307145 115132 90358 208565 90737.6 85936 74333.2 69125.9 68503.2 71547.2 63980.9 138761 76410.2 69552.5 63565 59762.5 58571.7 80336.4 151607 63942.7 93418.9 65516.1 58232.4 124771
threshold=49.558372500000011 29.103585000000006 69.571215000000009 11.795122500000003 84.51917250000001 39.239812500000006 58.619872500000007 3.9715095000000011 7.5000000000000009 5.5000000000000009 23.65960413437416 20.513325000000005 76.311585000000008 26.765440607674627 5.5000000000000009 6.5000000000000009 5.5000000000000009 7.5000000000000009 22.500000000000004 14.617549877941281 17.997550792749184 16.949675118125061 20.865348443090586 7.5000000000000009 5.5000000000000009 5.5000000000000009 3.5000000000000004 15.500000000000002 5.5000000000000009 7.5000000000000009
decision_type=2 2 2 2 2 2 2 2 2 2 2 2 2 2 2 2 2 2 2 2 2 2 2 2 2 2 2 2 2 2
left_child=1 3 6 7 12 -3 14 -1 9 -9 -11 22 -4 28 21 -16 20 18 19 -18 -7 -2 25 24 -24 26 -5 -27 -13 -30
right_child=2 5 4 11 -6 16 -8 8 -10 10 -12 13 -14 -15 15 -17 17 -19 -20 -21 -22 -23 23 -25 -26 27 -28 -29 29 -31
leaf_value=-0.8482835208438102 0.0064079732691864405 -0.2188675160760111 0.47391897635550095 -0.53730956141878816 0.80047420753444853 -0.14163580183421215 0.31617623741685003 -0.61580940598074518 -0.69232478330411229 -0.41559005863099552 0.23989153653778669 -0.46517357845775698 0.60964693233992462 0.076699709412344122 0.39549795090747714 0.14958743398380492 0.036863344591646439 -0.030443846100791556 -0.12603157477417079 0.54934028566922233 0.017014637830802735 0.16891150091352503 -0.38064505130714599 -0.64079138167477945 0.45208176288950058 -0.74569865759872289 -0.14345240182147737 -0.52035722202515922 0.0030798255648069829 -0.38213000835924354
leaf_weight=6604 14586 44509 20768 4193 20907 18439 41968 7931 14703 969 1160 12989 19615 829 3652 15562 931 20058 873 2292 9601 9243 2331 1420 714 4405 2349 12047 2483 13704
leaf_count=6604 14586 44509 20768 4193 20907 18439 41968 7931 14703 969 1160 12989 19615 829 3652 15562 931 20058 873 2292 9601 9243 2331 1420 714 4405 2349 12047 2483 13704
internal_value=5.49306e-10 -0.308474 0.391196 -0.513506 0.62875 -0.120132 0.219927 -0.66279 -0.613321 -0.497855 -0.0584465 -0.432018 0.539845 -0.373525 0.126082 0.196328 -0.0359337 0.023712 0.288912 0.401306 -0.0873133 0.0694413 -0.495935 -0.330217 -0.185385 -0.528114 -0.395889 -0.580692 -0.386318 -0.323041
internal_weight=331835 185534 146301 88831 61290 96703 85011 31367 24763 10060 2129 57464 40383 30005 43043 19214 52194 24154 4096 3223 28040 23829 27459 4465 3045 22994 6542 16452 29176 16187
internal_count=331835 185534 146301 88831 61290 96703 85011 31367 24763 10060 2129 57464 40383 30005 43043 19214 52194 24154 4096 3223 28040 23829 27459 4465 3045 22994 6542 16452 29176 16187
is_linear=0
shrinkage=0.05


Tree=20
num_leaves=31
num_cat=0
split_feature=6 6 6 6 6 6 6 6 5 5 9 5 5 5 5 5 5 4 9 9 9 5 5 9 5 5 4 4 5 9
split_gain=1.44831e+07 2.94944e+06 1.80417e+06 515166 289313 261688 258503 105446 94638.1 182083 92301.8 74312.4 123520 62258.5 83482.3 60261 134963 73684.6 61983.4 60417 58970 57066.8 73562.3 56904.3 63314.6 86969.1 56260.8 56141.8 55768.4 55622.1
threshold=44.940367500000008 65.51643 24.435442500000004 79.235992500000023 53.761890000000008 33.310095000000011 10.096842000000004 93.43708500000001 7.5000000000000009 5.5000000000000009 19.963260682539794 5.5000000000000009 6.5000000000000009 5.5000000000000009 6.5000000000000009 5.5000000000000009 6.5000000000000009 22.500000000000004 17.970073593562439 17.66815165740589 17.374235367132034 4.5000000000000009 5.5000000000000009 29.404206760070604 7.5000000000000009 5.5000000000000009 22.500000000000004 22.500000000000004 5.5000000000000009 26.765440607674627
decision_type=2 2 2 2 2 2 2 2 2 2 2 2 2 2 2 2 2 2 2 2 2 2 2 2 2 2 2 2 2 2
left_child=2 4 6 11 20 29 8 21 9 -1 -11 -3 26 -6 27 19 17 18 -17 -7 28 -5 -23 -8 25 -25 -13 -15 -2 -4
right_child=1 3 5 7 13 15 23 -9 -10 10 -12 12 -14 14 -16 16 -18 -19 -20 -21 -22 22 -24 24 -26 -27 -28 -29 -30 -31
leaf_value=-0.64268344320856041 -0.067155442524051132 0.37855048063406355 -0.30648847472173513 1.0739805255738821 0.1671846189516088 -0.23559416282516632 -0.46807323503208631 0.86353918159289034 -0.72642837980814301 -0.53708138636152591 0.12327204980432704 0.81117558609482732 0.44315451344762585 0.55731638707779629 0.23206915934158154 0.148886432001229 -0.1190940866793857 -0.18966685379886952 0.60540674123001503 -0.090702407145526021 0.11755501208291877 0.54845516595231569 0.7237550475430542 -0.27980098314718049 -0.5671207903522324 0.46211915686865057 0.34235911779690786 0.10240293573262504 0.075018115311387024 0.24240605037611648
leaf_weight=8044 14959 22486 33438 783 27000 16575 42620 7917 15943 863 1368 3941 15779 3650 18323 2372 22468 1031 1083 12713 16589 11433 12558 1486 1011 538 764 833 12799 468
leaf_count=8044 14959 22486 33438 783 27000 16575 42620 7917 15943 863 1368 3941 15779 3650 18323 2372 22468 1031 1083 12713 16589 11433 12558 1486 1011 538 764 833 12799 468
internal_value=1.74852e-10 0.322655 -0.338175 0.555108 0.135858 -0.189195 -0.525035 0.704688 -0.650166 -0.531836 -0.132167 0.441309 0.5102 0.218562 0.279387 -0.123051 -0.0691006 0.18129 0.291987 -0.172701 0.0429724 0.653925 0.640215 -0.453177 -0.243994 -0.082591 0.735049 0.472788 -0.00160031 -0.298912
internal_weight=331835 169814 162021 75661 94153 90148 71873 32691 26218 10275 2231 42970 20484 49806 22806 56242 26954 4486 3455 29288 44347 24774 23991 45655 3035 2024 4705 4483 27758 33906
internal_count=331835 169814 162021 75661 94153 90148 71873 32691 26218 10275 2231 42970 20484 49806 22806 56242 26954 4486 3455 29288 44347 24774 23991 45655 3035 2024 4705 4483 27758 33906
is_linear=0
shrinkage=0.05


Tree=21
num_leaves=31
num_cat=0
split_feature=6 6 6 6 6 6 6 5 5 4 6 4 9 6 5 5 5 5 4 9 5 4 9 4 4 4 4 4 9 5
split_gain=1.30758e+07 2.2178e+06 2.04807e+06 333432 323554 296249 240651 85410.8 164330 87403.5 76987.8 66682 63376.3 61619.1 61275.3 119496 56566.8 113418 80026.1 59613 55663.3 54193.5 64229.5 53956.8 53099.9 83108.7 50556.3 52037.9 49958.1 48986.9
threshold=47.745337500000005 68.793690000000012 28.080360000000006 83.258910000000014 10.096842000000004 58.030035000000005 38.732662500000011 7.5000000000000009 5.5000000000000009 15.500000000000002 20.101357500000002 9.5000000000000018 15.107030051300589 94.818832500000013 5.5000000000000009 6.5000000000000009 5.5000000000000009 6.5000000000000009 22.500000000000004 15.052068109843901 4.5000000000000009 9.5000000000000018 30.030268250587202 15.500000000000002 5.5000000000000009 3.5000000000000004 7.5000000000000009 3.5000000000000004 26.765440607674627 5.5000000000000009
decision_type=2 2 2 2 2 2 2 2 2 2 2 2 2 2 2 2 2 2 2 2 2 2 2 2 2 2 2 2 2 2
left_child=2 5 4 14 7 12 16 8 21 11 -6 -10 -2 -5 20 23 -4 18 19 -18 -3 -1 -23 -16 25 -9 27 -19 -12 -8
right_child=1 3 6 13 10 -7 29 24 9 -11 28 -13 -14 -15 15 -17 17 26 -20 -21 -22 22 -24 -25 -26 -27 -28 -29 -30 -31
leaf_value=-0.83444394947453648 0.011389167506093071 1.1526208570788776 -0.26769255634687389 0.65956723708809151 -0.45998738213866264 0.27428936834445677 -0.09736102223820188 -0.73251766216934566 -2.0040716716221403 -0.31927317100890579 -0.35719953529029153 0.49318613129652156 0.1325245125204825 0.83991322379584743 1.1864770881271363 0.46609279586483532 -0.13473409542950923 -0.17190287269430635 -0.29565391521224932 0.37030057920109438 0.40500649757020812 -0.61992422886167686 -0.22009256944590133 0.68850620698752651 -0.79199495763468564 -0.41919250357211546 -0.30372711461007557 0.20596280275083267 0.034446855321517172 0.006650907120991912
leaf_weight=2023 15866 252 22609 16871 31278 41951 24398 5342 28 1613 26561 590 33800 6585 625 14654 819 10580 992 2039 20734 4747 1274 4196 7096 3505 7851 997 840 21119
leaf_count=2023 15866 252 22609 16871 31278 41951 24398 5342 28 1613 26561 590 33800 6585 625 14654 819 10580 992 2039 20734 4747 1274 4196 7096 3505 7851 997 840 21119
internal_value=-2.80047e-10 0.334163 -0.294801 0.560209 -0.471629 0.17646 -0.130561 -0.617658 -0.505244 -0.125559 -0.406383 0.380042 0.0938273 0.710197 0.473258 0.537132 -0.211363 -0.156652 0.0912745 0.225576 0.413984 -0.610549 -0.535323 0.753064 -0.690107 -0.608385 -0.205783 -0.139361 -0.345193 -0.0491015
internal_weight=331835 155534 176301 63917 84897 91617 91404 26218 10275 2231 58679 618 49666 23456 40461 19475 45887 23278 3850 2858 20986 8044 6021 4821 15943 8847 19428 11577 27401 45517
internal_count=331835 155534 176301 63917 84897 91617 91404 26218 10275 2231 58679 618 49666 23456 40461 19475 45887 23278 3850 2858 20986 8044 6021 4821 15943 8847 19428 11577 27401 45517
is_linear=0
shrinkage=0.05


Tree=22
num_leaves=31
num_cat=0
split_feature=6 6 6 6 6 6 6 6 9 5 5 4 5 5 4 4 4 5 5 4 4 4 9 9 9 5 5 5 5 5
split_gain=1.18167e+07 2.23871e+06 1.66474e+06 388886 286516 206067 199511 127018 88022.8 83419.6 252908 100016 81636.3 198219 157281 124094 124271 73641 79483.9 64280.8 68895.1 62357.7 59568.1 59128.6 54425.2 51456.4 97604.2 63740.8 48764.3 105784
threshold=50.356845000000014 31.086457500000005 72.397342500000022 15.475372500000001 62.736345000000007 87.399427500000016 41.636070000000011 4.4249624999999986 23.65960413437416 7.5000000000000009 5.5000000000000009 22.500000000000004 5.5000000000000009 7.5000000000000009 22.500000000000004 5.5000000000000009 3.5000000000000004 5.5000000000000009 6.5000000000000009 5.5000000000000009 3.5000000000000004 22.500000000000004 20.865348443090586 16.949675118125061 17.60689595969485 5.5000000000000009 6.5000000000000009 4.5000000000000009 5.5000000000000009 6.5000000000000009
decision_type=2 2 2 2 2 2 2 2 2 2 2 2 2 2 2 2 2 2 2 2 2 2 2 2 2 2 2 2 2 2
left_child=1 3 4 7 17 25 28 -1 12 10 22 -12 -5 14 24 16 -15 23 21 20 -11 -19 -9 -2 -14 27 -27 -4 -3 -30
right_child=2 6 5 8 -6 -7 -8 9 -10 19 11 -13 13 15 -16 -17 -18 18 -20 -21 -22 -23 -24 -25 -26 26 -28 -29 29 -31
leaf_value=-0.71956658634250448 0.040490341718851387 -0.20270001388110637 1.014023743097987 -0.42430161439157116 0.32861961772133896 0.72055015988835036 -0.0066726226652977783 -0.60713048563464422 -0.04887802407229952 -0.59390376651634169 0.10911273147127959 -0.78599799369267154 0.037394367369053674 -0.31420653876915772 -0.4593729426966971 -0.46778170553461407 0.09778848589427902 0.4785504470304911 0.16497851531641758 -0.65891083132782791 -0.34135303484358126 0.0266497584181218 -0.37931417187690658 0.18377116297537535 0.46745913711735282 0.75764303246574172 0.49383224462646685 0.43021861795250066 0.13330803830517005 -0.14943558247633387
leaf_weight=7939 19570 24672 480 21886 34087 15705 44310 6859 2524 6040 2635 354 1853 10677 1238 11845 2209 3903 20372 9484 4884 949 4933 11392 1220 4783 13133 18016 3967 19916
leaf_count=7939 19570 24672 480 21886 34087 15705 44310 6859 2524 6040 2635 354 1853 10677 1238 11845 2209 3903 20372 9484 4884 949 4933 11392 1220 4783 13133 18016 3967 19916
internal_value=2.20688e-10 -0.258675 0.344158 -0.427218 0.214257 0.569164 -0.0833899 -0.538914 -0.337095 -0.498157 -0.407699 0.00310096 -0.351379 -0.296424 0.0164436 -0.350962 -0.24358 0.144875 0.208294 -0.563674 -0.480991 0.390163 -0.511827 0.0932084 0.208133 0.503868 0.564261 0.445369 -0.1534 -0.102471
internal_weight=331835 189445 142390 96580 90273 52117 92865 43128 53452 35189 14781 2989 50928 29042 4311 24731 12886 56186 25224 20408 10924 4852 11792 30962 3073 36412 17916 18496 48555 23883
internal_count=331835 189445 142390 96580 90273 52117 92865 43128 53452 35189 14781 2989 50928 29042 4311 24731 12886 56186 25224 20408 10924 4852 11792 30962 3073 36412 17916 18496 48555 23883
is_linear=0
shrinkage=0.05


Tree=23
num_leaves=31
num_cat=0
split_feature=6 6 6 6 6 6 6 6 9 5 5 4 4 4 5 5 4 9 5 4 4 5 5 9 4 5 5 4 9 5
split_gain=1.06847e+07 2.33362e+06 1.24106e+06 372963 221984 221738 152060 111543 83289.4 77163.8 194487 154001 120277 118172 69946.2 203888 81667.8 53862.6 56464.6 53171.9 57022.1 52389.6 64208 51119 50643.2 54629 55125.2 50290.9 47833.3 46545.2
threshold=52.681912500000003 31.711260000000006 74.019802500000011 15.068025 64.117777500000017 43.408470000000008 87.399427500000016 4.4249624999999986 23.65960413437416 5.5000000000000009 7.5000000000000009 22.500000000000004 5.5000000000000009 3.5000000000000004 7.5000000000000009 5.5000000000000009 22.500000000000004 17.997550792749184 5.5000000000000009 5.5000000000000009 3.5000000000000004 5.5000000000000009 6.5000000000000009 17.533301432062611 3.5000000000000004 5.5000000000000009 6.5000000000000009 24.500000000000004 20.673542708607712 5.5000000000000009
decision_type=2 2 2 2 2 2 2 2 2 2 2 2 2 2 2 2 2 2 2 2 2 2 2 2 2 2 2 2 2 2
left_child=1 3 4 7 21 29 -4 -1 9 -5 11 23 13 -12 15 28 -17 18 -7 20 -16 -2 -23 -11 -10 -26 -27 -13 -9 -3
right_child=2 5 6 8 -6 17 -8 14 24 10 12 27 -14 -15 19 16 -18 -19 -20 -21 -22 22 -24 -25 25 26 -28 -29 -30 -31
leaf_value=-0.68358825801132361 0.12240528369737191 -0.17348576787638095 0.49389358170275682 -0.40074211074850502 0.33514854573751141 -0.076550701490773435 0.68452265169357351 -0.57377369310886894 -0.56938245208459159 0.037635270347760347 -0.29784060170021126 -0.54994819392221539 -0.44475551439393118 0.088599789849452104 -0.56499990841595948 0.085345464171678612 -0.74685857455374416 0.10190363304796933 0.05418903036154276 -0.62428231012193036 -0.33162483071216214 0.3962995932551816 0.18386376683912548 0.43898984903284105 -0.15405442078872075 0.63255911098664697 -0.16488203581185701 0.40085889611251746 -0.36594635190530767 -0.081526884783103423
leaf_weight=7939 27139 28392 31330 23422 33902 17716 15705 6531 408 1914 11438 1161 12556 2392 5806 2512 334 13810 15470 9178 4766 4424 18148 1355 1496 580 346 158 4806 26701
leaf_count=7939 27139 28392 31330 23422 33902 17716 15705 6531 408 1914 11438 1161 12556 2392 5806 2512 334 13810 15470 9178 4766 4424 18148 1355 1496 580 346 158 4806 26701
internal_value=1.73339e-11 -0.228634 0.352078 -0.401474 0.236496 -0.060859 0.557545 -0.514872 -0.318501 -0.33226 -0.280474 0.0199893 -0.332719 -0.231003 -0.475398 -0.390687 -0.0123201 0.0189255 -0.015605 -0.536232 -0.459791 0.169217 0.2255 0.203997 -0.0540418 0.0327703 0.334595 -0.436053 -0.485671 -0.128918
internal_weight=331835 201187 130648 99098 83613 102089 47035 41872 57226 54396 30974 4588 26386 13830 33933 14183 2846 46996 33186 19750 10572 49711 22572 3269 2830 2422 926 1319 11337 55093
internal_count=331835 201187 130648 99098 83613 102089 47035 41872 57226 54396 30974 4588 26386 13830 33933 14183 2846 46996 33186 19750 10572 49711 22572 3269 2830 2422 926 1319 11337 55093
is_linear=0
shrinkage=0.05


Tree=24
num_leaves=31
num_cat=0
split_feature=6 6 6 6 6 6 6 6 4 9 5 5 6 5 5 5 5 4 9 5 5 4 4 4 9 7 5 5 4 9
split_gain=9.64455e+06 1.96839e+06 1.22754e+06 380843 178498 178154 176166 81675.2 72115 64062.6 173392 82950.2 66124.9 59384.3 101339 57460.7 67504.3 52705.4 51967.7 50359.8 79667 70190.8 56147.8 60214.9 47662.1 47331.5 47192 61286.8 47912.2 44843
threshold=44.940367500000008 64.792297500000018 24.435442500000004 78.223635000000016 52.939267500000007 4.787695499999999 35.635267500000005 94.818832500000013 1.5000000000000002 29.404206760070604 7.5000000000000009 5.5000000000000009 17.183617500000008 5.5000000000000009 6.5000000000000009 4.5000000000000009 5.5000000000000009 22.500000000000004 26.765440607674627 5.5000000000000009 6.5000000000000009 22.500000000000004 7.5000000000000009 3.5000000000000004 14.881203386106959 62.710300400000008 5.5000000000000009 6.5000000000000009 22.500000000000004 15.222122124811888
decision_type=2 2 2 2 2 2 2 2 2 2 2 2 2 2 2 2 2 2 2 2 2 2 2 2 2 2 2 2 2 2
left_child=2 4 5 13 24 -1 18 15 -7 12 11 -11 -10 25 17 -5 -17 -15 19 -4 21 29 23 -22 -2 -3 -6 28 -28 -21
right_child=1 3 6 7 26 8 -8 -9 9 10 -12 -13 -14 14 -16 16 -18 -19 -20 20 22 -23 -24 -25 -26 -27 27 -29 -30 -31
leaf_value=-0.63470464185230135 -0.06215339162637952 0.31825522455056376 -0.28605448132368338 0.92342453145063841 0.12392159516025425 -0.70572259889177102 -0.084244811560083566 0.72766394182746286 -0.45288355605416925 -0.16711163768929427 -0.55363021113316713 0.36640364608902298 -0.34119113743399054 0.69002457098436099 0.34878847211444203 0.43811219799522622 0.59398722088831002 0.23674549551872037 0.27627323691716843 -0.12567280019420199 -0.18431290680640289 -0.31906634683087987 -0.31792392498431676 0.20703860064225799 0.060229626885419156 0.096144382833575084 0.46399909857470834 0.18058735306916507 0.048234370509136648 0.31185207684886829
leaf_weight=9267 10879 19862 20904 910 27723 1869 45766 6585 32428 2385 2467 1049 22408 3862 15803 13275 14568 769 513 869 9920 1017 8272 1091 29605 2728 3674 18717 854 1796
leaf_count=9267 10879 19862 20904 910 27723 1869 45766 6585 32428 2385 2467 1049 22408 3862 15803 13275 14568 769 513 869 9920 1017 8272 1091 29605 2728 3674 18717 854 1796
internal_value=2.73914e-10 0.263299 -0.275963 0.447199 0.105721 -0.430097 -0.153076 0.568825 -0.39981 -0.390397 -0.23386 -0.00413624 -0.407242 0.347302 0.409065 0.532447 0.519669 0.614755 -0.224053 -0.229904 -0.178793 0.0343254 -0.219487 -0.145537 0.0273424 0.291433 0.167977 0.22052 0.385584 0.169184
internal_weight=331835 169814 162021 78362 91452 71873 90148 35338 62606 60737 5901 3434 54836 43024 20434 28753 27843 4631 44382 43869 22965 3682 19283 11011 40484 22590 50968 23245 4528 2665
internal_count=331835 169814 162021 78362 91452 71873 90148 35338 62606 60737 5901 3434 54836 43024 20434 28753 27843 4631 44382 43869 22965 3682 19283 11011 40484 22590 50968 23245 4528 2665
is_linear=0
shrinkage=0.05


Tree=25
num_leaves=31
num_cat=0
split_feature=6 6 6 6 6 6 6 6 5 5 4 4 4 9 5 5 9 9 5 4 9 5 6 5 5 5 4 5 5 4
split_gain=8.70424e+06 1.9137e+06 1.02049e+06 287212 198506 161571 138593 79939.4 67502.6 314035 178205 113799 124388 76662.1 55809 140940 63958.2 51763.7 55192.6 47454.8 44325.6 41817.9 40518.4 40384.6 48877.2 77591.5 46253.7 40172.4 106579 66897
threshold=52.681912500000003 31.086457500000005 73.194397500000008 13.0625775 42.621915000000008 63.777840000000005 87.399427500000016 3.9715095000000011 5.5000000000000009 6.5000000000000009 22.500000000000004 5.5000000000000009 3.5000000000000004 17.894341529186267 7.5000000000000009 5.5000000000000009 19.963260682539794 17.997550792749184 5.5000000000000009 24.500000000000004 17.344108077288379 5.5000000000000009 19.698000000000004 4.5000000000000009 5.5000000000000009 6.5000000000000009 15.500000000000002 5.5000000000000009 6.5000000000000009 22.500000000000004
decision_type=2 2 2 2 2 2 2 2 2 2 2 2 2 2 2 2 2 2 2 2 2 2 2 2 2 2 2 2 2 2
left_child=1 3 5 7 27 20 23 -1 -5 10 13 12 22 -10 15 -9 -17 18 -6 -12 21 -2 -11 -4 -25 26 -26 -3 29 -29
right_child=2 4 6 8 17 -7 -8 14 9 11 19 -13 -14 -15 -16 16 -18 -19 -20 -21 -22 -23 -24 24 25 -27 -28 28 -30 -31
leaf_value=-0.63729699604239387 0.067657941547110301 -0.16757121263793118 0.89584553151948687 -0.36217606671145702 -0.07831582441795816 0.29438646272762131 0.61919259594420528 -0.44851332823785212 0.046751836082502496 -0.43269770011476827 -0.51935901794626582 -0.42346416242656559 0.059318351070587763 0.47618282666835698 -0.50221633138906652 -0.3236016961736865 0.19957135196161419 0.089888676621170935 0.04624473085599199 0.3832550325756332 0.22404854076129782 0.17882512724028043 -0.23713440145452239 0.37225777660330511 0.99911169994773208 0.42794469490362896 0.59248583427262369 0.25272370478415546 -0.12615094213550634 -0.20707397233536576
leaf_weight=6604 18197 27438 478 26176 19100 32661 15705 9300 2173 3823 1186 14096 3045 1992 16995 1003 1399 15180 16642 166 14381 15809 8622 16637 865 12263 3652 3346 21865 1036
leaf_count=6604 18197 27438 478 26176 19100 32661 15705 9300 2173 3823 1186 14096 3045 1992 16995 1003 1399 15180 16642 166 14381 15809 8622 16637 865 12263 3652 3346 21865 1036
internal_value=-2.37235e-10 -0.20636 0.317777 -0.366849 -0.0581868 0.208459 0.496406 -0.480452 -0.301405 -0.256089 0.0902317 -0.320669 -0.227124 0.252136 -0.444357 -0.360327 -0.0188893 0.0125345 -0.0203186 -0.408535 0.150459 0.119338 -0.29721 0.439514 0.432987 0.493199 0.670354 -0.125268 -0.0810457 0.144018
internal_weight=331835 201187 130648 96580 104607 81048 49600 35301 61279 35103 5517 29586 15490 4165 28697 11702 2402 50922 35742 1352 48387 34006 12445 33895 33417 16780 4517 53685 26247 4382
internal_count=331835 201187 130648 96580 104607 81048 49600 35301 61279 35103 5517 29586 15490 4165 28697 11702 2402 50922 35742 1352 48387 34006 12445 33895 33417 16780 4517 53685 26247 4382
is_linear=0
shrinkage=0.05


Tree=26
num_leaves=31
num_cat=0
split_feature=6 6 6 6 6 6 6 5 5 4 6 4 5 5 9 9 4 9 5 5 6 9 4 4 4 5 5 5 4 9
split_gain=7.86808e+06 1.38842e+06 1.2091e+06 242197 183181 164444 162652 58885.2 104220 68768.7 57482.4 55864.5 48499.7 59745.6 48180.7 46167.3 46019.2 54699.3 44787.9 84228.1 43035.9 42696.8 41167 40816.8 60890.2 40534.8 39993.7 63473.7 53530.9 44792.5
threshold=47.215297500000013 67.323217500000013 26.679817500000002 80.309617500000016 9.2170260000000024 56.84505750000001 37.918597500000011 7.5000000000000009 5.5000000000000009 15.500000000000002 96.54498000000001 9.5000000000000018 4.5000000000000009 5.5000000000000009 15.107030051300589 26.839058181045839 9.5000000000000018 23.65960413437416 5.5000000000000009 6.5000000000000009 20.101357500000002 17.841199633380853 22.500000000000004 5.5000000000000009 3.5000000000000004 5.5000000000000009 5.5000000000000009 6.5000000000000009 22.500000000000004 15.052068109843901
decision_type=2 2 2 2 2 2 2 2 2 2 2 2 2 2 2 2 2 2 2 2 2 2 2 2 2 2 2 2 2 2
left_child=2 5 4 18 7 14 15 8 16 11 12 -10 -5 -14 -2 26 -1 -18 -3 22 -6 25 -20 24 -9 -8 -4 28 29 -28
right_child=1 3 6 10 20 -7 21 23 9 -11 -12 -13 13 -15 -16 -17 17 -19 19 -21 -22 -23 -24 -25 -26 -27 27 -29 -30 -31
leaf_value=-0.69784809404803561 -0.014249028936349301 0.28986631772376031 -0.22806470032934253 0.84185857771618133 -0.361830936903273 0.19656670470931842 -0.13951313274545601 -0.59089346805787324 -1.8210186413356237 -0.26977324922687784 0.68051835974457531 0.46472376756689721 0.39998948515093435 0.55860906029716584 0.094704745091596765 0.39331944497043625 -0.5744880240459489 -0.25490539726620531 0.65373514568332114 0.33789490936443162 -0.27233957026681849 0.015983402583318165 0.2383307962938094 -0.65063538505757457 -0.30774620851788592 -0.021088851739508124 -0.14761887208653743 -0.17150428693212669 -0.26026570975838187 0.28580957291746356
leaf_weight=1860 14805 20357 22793 986 33894 41959 14955 4880 28 1434 5237 590 11208 12622 32249 353 2589 2773 3728 14281 22255 17881 710 6340 3108 13981 842 20063 1033 2041
leaf_count=1860 14805 20357 22793 986 33894 41959 14955 4880 28 1434 5237 590 11208 12622 32249 353 2589 2773 3728 14281 22255 17881 710 6340 3108 13981 842 20063 1033 2041
internal_value=-3.08608e-10 0.255159 -0.232314 0.423273 -0.37549 0.124599 -0.110766 -0.49237 -0.394205 -0.0797546 0.52999 0.361163 0.498224 0.484005 0.0604237 -0.176342 -0.48355 -0.409213 0.341197 0.39702 -0.32636 -0.0447586 0.587278 -0.555909 -0.480726 -0.0822941 -0.180642 -0.135565 0.0485668 0.159224
internal_weight=331835 158142 173693 69129 79751 89013 93942 23602 9274 2052 30053 618 24816 23830 47054 47125 7222 5362 39076 18719 56149 46817 4438 14328 7988 28936 46772 23979 3916 2883
internal_count=331835 158142 173693 69129 79751 89013 93942 23602 9274 2052 30053 618 24816 23830 47054 47125 7222 5362 39076 18719 56149 46817 4438 14328 7988 28936 46772 23979 3916 2883
is_linear=0
shrinkage=0.05


Tree=27
num_leaves=31
num_cat=0
split_feature=6 6 6 6 6 6 6 6 4 9 5 5 4 4 9 5 5 5 4 5 5 4 4 4 4 5 5 9 9 4
split_gain=7.1094e+06 1.4511e+06 914531 264839 153204 150610 123584 62422.3 58016.3 55167.2 188252 166273 102248 103463 51608.5 45469.6 75169.8 45360.9 155108 44454.2 72015.1 63784.6 52127.4 59538.9 44148.7 44031.5 51113.9 43536.3 41180.6 40309.6
threshold=44.940367500000008 65.51643 22.891050000000003 78.223635000000016 35.029680000000006 55.150620000000011 4.787695499999999 94.818832500000013 1.5000000000000002 20.645885062585354 7.5000000000000009 5.5000000000000009 5.5000000000000009 15.500000000000002 26.765440607674627 5.5000000000000009 6.5000000000000009 5.5000000000000009 19.000000000000004 5.5000000000000009 6.5000000000000009 22.500000000000004 7.5000000000000009 3.5000000000000004 15.500000000000002 4.5000000000000009 5.5000000000000009 14.806625984865539 16.994771486389791 22.500000000000004
decision_type=2 2 2 2 2 2 2 2 2 2 2 2 2 2 2 2 2 2 2 2 2 2 2 2 2 2 2 2 2 2
left_child=2 5 6 15 14 27 -1 25 -8 12 11 24 -10 -14 19 -3 29 -15 -19 -4 21 -21 23 -22 -11 -5 -27 -2 -6 -17
right_child=1 3 4 7 28 -7 8 -9 9 10 -12 -13 13 17 -16 16 -18 18 -20 20 22 -23 -24 -25 -26 26 -28 -29 -30 -31
leaf_value=-0.5484435055308533 -0.040308069722541702 0.25100432929621491 -0.26026290025022747 0.79948470435954555 -0.1197779432189678 0.16359489207084837 -0.63055736741354307 0.6278954173259218 -0.24591626005773548 0.1439058716569207 -0.47874886312833626 0.32174916324200947 -0.54808574576396318 -0.41357512415172676 0.23360771053206567 0.60732333708178476 0.30356813737673888 0.085206844029652062 -0.39748376783119782 0.16142383903433596 -0.16793535497099046 -0.29090362542653803 -0.28954433964185994 0.2024060919607536 -0.2807706503094804 0.37507747777470968 0.51071510118788221 0.064486983775847703 -0.027561875790466442 0.1978923272051745
leaf_weight=9267 13486 21159 21808 910 25103 43282 1806 6585 12054 703 5245 1862 10188 12536 670 3642 14802 2309 5961 2800 10306 1080 8999 1213 4727 13275 14568 37385 23384 720
leaf_count=9267 13486 21159 21808 910 25103 43282 1806 6585 12054 703 5245 1862 10188 12536 670 3642 14802 2309 5961 2800 10306 1080 8999 1213 4727 13275 14568 37385 23384 720
internal_value=-5.49262e-11 0.22606 -0.236934 0.389107 -0.137617 0.0950364 -0.379018 0.489034 -0.351661 -0.342599 -0.250297 -0.0859764 -0.369481 -0.417537 -0.202072 0.301534 0.357325 -0.353611 -0.262716 -0.208389 -0.162022 0.0355183 -0.199378 -0.128937 -0.22579 0.457232 0.446046 0.0367056 -0.0753046 0.539742
internal_weight=331835 169814 162021 75661 95363 94153 66658 35338 57391 55585 12537 7292 43048 30994 46876 40323 19164 20806 8270 46206 24398 3880 20518 11519 5430 28753 27843 50871 48487 4362
internal_count=331835 169814 162021 75661 95363 94153 66658 35338 57391 55585 12537 7292 43048 30994 46876 40323 19164 20806 8270 46206 24398 3880 20518 11519 5430 28753 27843 50871 48487 4362
is_linear=0
shrinkage=0.05


Tree=28
num_leaves=31
num_cat=0
split_feature=6 6 6 6 6 6 6 6 5 5 4 4 5 5 9 5 5 4 9 9 4 9 4 5 5 4 7 9 9 5
split_gain=6.42673e+06 1.22526e+06 915285 187068 146820 145464 125998 53542.5 48771.1 85787.3 59919.4 48841.7 44927.9 50790.9 45243.4 42234.6 56544 42188.9 38876.4 38724.7 38585.2 50250.7 38289 37663.9 53348.6 42495.8 38939 37342.3 37291.3 35558.2
threshold=50.356845000000014 29.103585000000006 71.55267000000002 9.2170260000000024 60.507982500000004 40.605232500000007 85.191487500000008 20.101357500000002 7.5000000000000009 5.5000000000000009 15.500000000000002 9.5000000000000018 5.5000000000000009 6.5000000000000009 14.944291953472145 5.5000000000000009 4.5000000000000009 22.500000000000004 20.865348443090586 26.839058181045839 9.5000000000000018 30.030268250587202 15.500000000000002 5.5000000000000009 6.5000000000000009 22.500000000000004 62.710300400000008 15.291443410866867 17.533301432062611 5.5000000000000009
decision_type=2 2 2 2 2 2 2 2 2 2 2 2 2 2 2 2 2 2 2 2 2 2 2 2 2 2 2 2 2 2
left_child=1 3 4 8 12 19 -4 -5 9 20 11 -11 14 17 -2 16 -8 27 29 -3 -1 -22 -18 26 25 -25 -6 -14 -7 -9
right_child=2 5 6 7 23 28 15 18 -10 10 -12 -13 13 -15 -16 -17 22 -19 -20 -21 21 -23 -24 24 -26 -27 -28 -29 -30 -31
leaf_value=-0.63466848265739872 -0.04886240388310556 -0.13348168674108782 0.3575564901202482 -0.32600610628008314 0.20209372942573411 -0.045522781373434629 0.79896025501707846 -0.30768453454714362 -0.50454467002936554 -1.7009325947080338 -0.24946218856644131 0.43631427763454167 0.18081955528736046 0.11028426066985851 0.093729576327747366 0.58448466305531277 0.62363474942741914 -0.017717937601059299 0.040893358941756046 0.50446419393854158 -0.45181276302850537 -0.082685517674801673 0.34361370020333537 0.51214373542103131 0.23133881753220462 0.08473907266980929 -0.010379881599315851 0.52948038911202777 0.043098322336193283 -0.19826195702813465
leaf_weight=1860 8053 50835 35145 33894 19209 29818 967 13292 14328 28 1434 590 1283 17030 17991 10446 1493 794 1224 239 4179 1183 6695 3300 14936 706 2429 1913 19722 16819
leaf_count=1860 8053 50835 35145 33894 19209 29818 967 13292 14328 28 1434 590 1283 17030 17991 10446 1493 794 1224 239 4179 1183 6695 3300 14936 706 2429 1913 19722 16819
internal_value=-2.31928e-10 -0.190767 0.253808 -0.326095 0.153619 -0.0712862 0.414204 -0.28245 -0.446719 -0.357381 -0.0720904 0.339481 0.0935271 0.147905 0.0496391 0.515775 0.437376 0.308476 -0.235336 -0.130496 -0.438442 -0.370373 0.394673 0.223312 0.274796 0.43682 0.178242 0.389514 -0.0102425 -0.246565
internal_weight=331835 189445 142390 88831 87644 100614 54746 65229 23602 9274 2052 618 47064 21020 26044 19601 9155 3990 31335 51074 7222 5362 8188 40580 18942 4006 21638 3196 49540 30111
internal_count=331835 189445 142390 88831 87644 100614 54746 65229 23602 9274 2052 618 47064 21020 26044 19601 9155 3990 31335 51074 7222 5362 8188 40580 18942 4006 21638 3196 49540 30111
is_linear=0
shrinkage=0.05


Tree=29
num_leaves=31
num_cat=0
split_feature=6 6 6 6 6 6 6 6 5 5 4 5 5 4 4 4 9 4 4 9 9 4 4 9 5 3 9 5 5 5
split_gain=5.80643e+06 1.28368e+06 686674 216783 118298 114008 86071.9 71580.1 57290.3 181508 77454 55567.8 170479 121024 75978.8 107095 60153.3 52004.5 61803.6 48017.3 41187.6 40954.3 38619 38315.3 38021.6 37645.6 35933.2 43678.5 34993.2 32889
threshold=52.681912500000003 32.054242500000008 74.019802500000011 16.285027500000002 63.777840000000005 43.408470000000008 89.092972500000016 3.9715095000000011 7.5000000000000009 5.5000000000000009 22.500000000000004 5.5000000000000009 6.5000000000000009 22.500000000000004 5.5000000000000009 3.5000000000000004 17.894341529186267 5.5000000000000009 3.5000000000000004 20.865348443090586 17.997550792749184 9.5000000000000018 24.500000000000004 17.620772435351217 5.5000000000000009 2110.5000000000005 17.997550792749184 5.5000000000000009 5.5000000000000009 4.5000000000000009
decision_type=2 2 2 2 2 2 2 2 2 2 2 2 2 2 2 2 2 2 2 2 2 2 2 2 2 2 2 2 2 2
left_child=1 3 4 7 23 20 29 -1 9 19 -11 -5 13 16 15 -14 -13 18 -10 -9 24 -21 -15 28 -3 -23 27 -7 -2 -4
right_child=2 5 6 11 -6 26 -8 8 17 10 -12 12 14 22 -16 -17 -18 -19 -20 21 -22 25 -24 -25 -26 -27 -28 -29 -30 -31
leaf_value=-0.52768578825243295 0.050829904143459316 -0.17807522591854799 0.74097729656769307 -0.28447138955118029 0.24327406931457995 -0.067349960416005522 0.52107446413000114 -0.44414189486088651 -0.43074319228456592 0.13323073322509379 -0.60010896756297805 0.063885007073642114 -0.21334932235072401 -0.42711522345408115 -0.32518227065710387 0.17390617500321312 0.48080649302950534 -0.48344882274218215 -0.20294265446016069 -0.61577101818152835 -0.034528038114535947 -0.28199430920206242 0.41681649899714951 0.19853298381718668 -0.072453232939602083 0.037578686391373718 0.082231476989826663 0.047638282077450751 0.1497326354107221 0.36374786361424066
leaf_weight=6604 19293 17088 588 24227 35226 17716 13129 7679 6806 3009 409 2046 11453 1132 12135 2115 1499 10427 5293 672 19657 3547 154 12422 16994 1245 13810 15470 16672 33318
leaf_count=6604 19293 17088 588 24227 35226 17716 13129 7679 6806 3009 409 2046 11453 1132 12135 2115 1499 10427 5293 672 19657 3547 154 12422 16994 1245 13810 15470 16672 33318
internal_value=-2.753e-10 -0.168545 0.259545 -0.295021 0.173571 -0.0424235 0.412379 -0.375434 -0.34971 -0.279111 0.0454788 -0.227927 -0.183063 0.08945 -0.234283 -0.152983 0.24018 -0.401613 -0.331086 -0.363525 -0.0921665 -0.250228 -0.326053 0.122826 -0.12541 -0.198967 0.0144567 -0.013747 0.0966774 0.37029
internal_weight=331835 201187 130648 100452 83613 100735 47035 45691 39087 16561 3418 54761 30534 4831 25703 13568 3545 22526 12099 13143 53739 5464 1286 48387 34082 4792 46996 33186 35965 33906
internal_count=331835 201187 130648 100452 83613 100735 47035 45691 39087 16561 3418 54761 30534 4831 25703 13568 3545 22526 12099 13143 53739 5464 1286 48387 34082 4792 46996 33186 35965 33906
is_linear=0
shrinkage=0.05


Tree=30
num_leaves=31
num_cat=0
split_feature=6 6 6 6 6 6 6 5 5 4 5 4 9 0 9 4 5 5 4 4 4 9 4 6 9 5 9 5 5 4
split_gain=5.2424e+06 906032 839383 132063 129759 128884 122883 43581.1 56832.5 42758 61837.6 89172.5 60718.1 41135.7 39045.6 35147 34887.5 269594 139395 84427.5 87780 41479.5 35897.6 35452.8 33753.6 35214.7 33557.9 33392.1 32838.4 32372
threshold=48.782317500000012 27.045637500000009 69.571215000000009 9.2170260000000024 82.635472500000006 38.47021500000001 58.619872500000007 5.5000000000000009 4.5000000000000009 22.500000000000004 7.5000000000000009 9.5000000000000018 30.030268250587202 9.0840000000000014 26.900863398873931 15.500000000000002 5.5000000000000009 7.5000000000000009 22.500000000000004 5.5000000000000009 3.5000000000000004 16.870425416933397 24.500000000000004 16.285027500000002 17.405921111575839 5.5000000000000009 17.997550792749184 5.5000000000000009 5.5000000000000009 5.5000000000000009
decision_type=2 2 2 2 2 2 2 2 2 2 2 2 2 2 2 2 2 2 2 2 2 2 2 2 2 2 2 2 2 2
left_child=1 3 6 9 -4 14 13 8 -6 10 11 -1 27 -2 -3 -10 -5 18 21 20 -19 -18 -20 -22 25 -7 28 -13 -15 -12
right_child=2 5 4 16 7 24 -8 -9 15 -11 29 12 -14 26 -16 -17 17 19 22 -21 23 -23 -24 -25 -26 -27 -28 -29 -30 -31
leaf_value=-0.59213275879116234 -0.44649418404087515 -0.14286196943870874 0.30085023453629856 -0.31241562636752945 0.72060926753471344 -0.11162554439052513 0.18255695754953419 0.51209152102073463 0.55077999766454977 -0.81620990955732697 -0.39055767694763205 -0.36729019599854262 0.047080587078009273 0.00021819123249772218 0.41042165875455183 0.30400715125939493 0.03426540103117056 -0.28391585803299652 -0.49659520449480077 -0.37640207427147448 -0.1289710921293728 0.37354943313014688 0.36021472096443174 0.16462480256056763 0.022125219508508251 -0.0041252580306785532 0.14321583076467193 -0.067822159769732701 0.097168355165635739 -0.54187338314644928
leaf_weight=1888 390 48099 36511 22754 1105 15760 41968 13024 1721 615 7988 3752 1781 18958 321 8929 1424 10895 964 14455 2748 2452 140 1643 21510 14746 11520 1238 16196 6340
leaf_count=1888 390 48099 36511 22754 1105 15760 41968 13024 1721 615 7988 3752 1781 18958 321 8929 1424 10895 964 14455 2748 2452 140 1643 21510 14746 11520 1238 16196 6340
internal_value=4.01553e-11 -0.180855 0.218382 -0.305188 0.360784 -0.0804882 0.120352 0.449095 0.379298 -0.404769 -0.393761 -0.28827 -0.203542 0.0648816 -0.139194 0.343885 -0.264295 -0.232759 0.107721 -0.289771 -0.20785 0.2489 -0.387942 -0.019115 -0.0258408 -0.059662 0.0691546 -0.292993 0.0448847 -0.457513
internal_weight=331835 181513 150322 81077 61290 100436 89032 24779 11755 23602 22987 8659 6771 47064 48420 10650 57475 34721 4980 29741 15286 3876 1104 4391 52016 30506 46674 4990 35154 14328
internal_count=331835 181513 150322 81077 61290 100436 89032 24779 11755 23602 22987 8659 6771 47064 48420 10650 57475 34721 4980 29741 15286 3876 1104 4391 52016 30506 46674 4990 35154 14328
is_linear=0
shrinkage=0.05


Tree=31
num_leaves=31
num_cat=0
split_feature=6 6 6 6 6 6 6 6 4 9 5 5 4 4 5 4 4 5 5 7 7 4 9 4 9 9 4 5 4 5
split_gain=4.73938e+06 1.01554e+06 586386 201755 98092.4 91980.1 84263.2 49588.9 45200.5 43666.7 139172 115787 78971.6 73760.8 43143.3 52909.1 39725.8 39247.6 67230.2 41190.3 40236.3 37861 37675.2 37035.4 36549.1 35415.6 35943.1 34439.4 86676.9 33588.5
threshold=44.164995000000012 64.443540000000013 22.112422500000005 77.740897500000003 33.003810000000009 55.150620000000011 4.787695499999999 98.24141250000001 1.5000000000000002 20.645885062585354 7.5000000000000009 5.5000000000000009 5.5000000000000009 15.500000000000002 4.5000000000000009 7.5000000000000009 15.500000000000002 5.5000000000000009 6.5000000000000009 62.710300400000008 7.3649100000000027 22.500000000000004 26.765440607674627 22.500000000000004 17.997550792749184 14.793333032681748 6.5000000000000009 5.5000000000000009 19.000000000000004 5.5000000000000009
decision_type=2 2 2 2 2 2 2 2 2 2 2 2 2 2 2 2 2 2 2 2 2 2 2 2 2 2 2 2 2 2
left_child=2 5 6 17 22 25 -1 14 -8 12 11 16 -10 -14 -5 -16 -11 19 23 20 -3 27 -4 -19 29 26 -2 -15 -29 -6
right_child=1 3 4 7 24 -7 8 -9 9 10 -12 -13 13 21 15 -17 -18 18 -20 -21 -22 -23 -24 -25 -26 -27 -28 28 -30 -31
leaf_value=-0.45413865327679165 0.11203675240419719 0.06761050307978711 -0.18401203418342618 0.68018714201052288 -0.15423257691848247 0.12739770499221872 -0.54083512576982951 0.56578597009278764 -0.19674077511382282 0.17538654894168784 -0.39776482531902452 0.28467912563977027 -0.46289170432938082 -0.32849925519101952 0.4614439250841269 0.32256091352779392 -0.22873494528615762 0.52079899949815345 0.23976949970695605 0.010768487133336902 0.25149123757060615 -0.49262094416954494 0.17678318150863406 0.13730694037419275 -0.019482813851470823 0.050780384361542967 -0.082866457773888375 0.076475572620744517 -0.30361638672363978 -0.055293080636144021
leaf_weight=9267 3008 3640 39675 1138 17356 39259 1754 3926 11476 700 5189 1836 9854 10219 10066 21515 4633 3815 15817 2729 16284 2150 737 754 19410 40628 11074 2186 4779 16961
leaf_count=9267 3008 3640 39675 1138 17356 39259 1754 3926 11476 700 5189 1836 9854 10219 10066 21515 4633 3815 15817 2729 16284 2150 737 754 19410 40628 11074 2186 4779 16961
internal_value=5.51999e-11 0.180346 -0.197985 0.311652 -0.118582 0.069001 -0.314701 0.397875 -0.291111 -0.28285 -0.200541 -0.0577887 -0.307865 -0.351556 0.377727 0.366828 -0.175691 0.238239 0.288571 0.192945 0.217897 -0.294811 -0.177432 0.457513 -0.0743173 0.0270965 -0.041234 -0.270062 -0.184323 -0.105332
internal_weight=331835 173653 158182 79684 94139 93969 64043 36645 54776 53022 12358 7169 40664 29188 32719 31581 5333 43039 20386 22653 19924 19334 40412 4569 53727 54710 14082 17184 6965 34317
internal_count=331835 173653 158182 79684 94139 93969 64043 36645 54776 53022 12358 7169 40664 29188 32719 31581 5333 43039 20386 22653 19924 19334 40412 4569 53727 54710 14082 17184 6965 34317
is_linear=0
shrinkage=0.05


Tree=32
num_leaves=31
num_cat=0
split_feature=6 6 6 6 6 6 6 6 4 5 5 4 4 9 4 5 5 4 4 4 9 9 9 5 5 7 7 5 5 4
split_gain=4.28454e+06 946699 510477 168583 99289.9 84729.4 61421 56007.9 48075.5 50838.3 186345 78713 67774.6 60134.9 59241.9 40889.9 97862 79446.5 47546.3 67541.6 39338.8 35537.2 33877.8 31953.6 49056.1 33974.9 32776.5 31846.2 88884.8 66868.3
threshold=52.681912500000003 32.054242500000008 75.378975000000011 18.457477500000003 64.117777500000017 42.621915000000008 2.8462455000000033 90.038025000000019 1.5000000000000002 7.5000000000000009 5.5000000000000009 22.500000000000004 5.5000000000000009 30.030268250587202 3.5000000000000004 5.5000000000000009 6.5000000000000009 22.500000000000004 5.5000000000000009 3.5000000000000004 15.291443410866867 17.68977110765568 16.994771486389791 5.5000000000000009 6.5000000000000009 62.710300400000008 7.3649100000000027 5.5000000000000009 6.5000000000000009 22.500000000000004
decision_type=2 2 2 2 2 2 2 2 2 2 2 2 2 2 2 2 2 2 2 2 2 2 2 2 2 2 2 2 2 2
left_child=1 3 4 6 22 -3 -1 -4 -8 10 13 21 14 -10 -11 -5 17 20 19 -18 -17 -12 -2 25 -25 26 -6 -7 29 -29
right_child=2 5 7 15 23 27 8 -9 9 12 11 -13 -14 -15 -16 16 18 -19 -20 -21 -22 -23 -24 24 -26 -27 -28 28 -30 -31
leaf_value=-0.50392565052867566 0.079356018131161291 -0.08283584375242431 0.32867515356226401 -0.23679279775324569 0.049473893014195414 -0.02715615168990422 -0.5426887309953069 0.45634447311885373 -0.34815029507793699 -0.35067595412266145 -0.11603089836474585 -0.49695391336637745 -0.41786293235380534 -0.062402906955887405 -0.14120745148415198 -0.062176683822362536 -0.16514082263512139 -0.27311100228382362 -0.26366179413744528 0.18102701812481298 0.33083041227261933 0.23913217623147054 0.16849003170144086 0.42117683613149587 0.21967409486476475 -0.0051631030152975372 0.22719665467860897 0.37014728570682121 0.0070629235030854184 -0.12770831617695547
leaf_weight=3999 34229 49813 31300 21735 3160 27816 1958 11840 13459 7607 948 543 12785 2133 6068 911 10198 1167 10451 1635 2115 2740 15482 3860 13887 2399 14491 3194 19057 855
leaf_count=3999 34229 49813 31300 21735 3160 27816 1958 11840 13459 7607 948 543 12785 2133 6068 911 10198 1167 10451 1635 2115 2740 15482 3860 13887 2399 14491 3194 19057 855
internal_value=3.97694e-11 -0.144781 0.222951 -0.253396 0.153557 -0.0364721 -0.315622 0.363715 -0.300012 -0.289746 -0.229203 0.065086 -0.335103 -0.30906 -0.257729 -0.18597 -0.14425 0.0773534 -0.185948 -0.11731 0.212513 0.147838 0.107116 0.214636 0.263501 0.171384 0.19538 0.00888187 0.052266 0.265018
internal_weight=331835 201187 130648 100452 87508 100735 52240 43140 48241 46283 19823 4231 26460 15592 13675 48212 26477 4193 22284 11833 3026 3688 49711 37797 17747 20050 17651 50922 23106 4049
internal_count=331835 201187 130648 100452 87508 100735 52240 43140 48241 46283 19823 4231 26460 15592 13675 48212 26477 4193 22284 11833 3026 3688 49711 37797 17747 20050 17651 50922 23106 4049
is_linear=0
shrinkage=0.05


Tree=33
num_leaves=31
num_cat=0
split_feature=6 6 6 6 6 6 6 5 5 5 4 5 4 9 0 9 5 5 4 9 5 5 5 4 4 4 9 4 7 7
split_gain=3.86837e+06 757069 540163 133932 89630.1 83588.1 83192.6 40556.5 57698.9 38820.5 36586.1 47918.6 69506.4 49013 33564.2 32706.9 30698.2 53453.2 32492.9 30258.5 30095.8 29787.9 50846.6 42863 36526.8 41543.5 35686.6 29693.8 29601.9 30739.8
