tree
version=v4
num_class=1
num_tree_per_iteration=1
label_index=0
max_feature_idx=11
objective=regression
feature_names=time_seconds team_id player_id action_id type_name result_name start_x start_y is_home avg_pass_dist avg_pass_angle pass_count
feature_infos=[0:3614.4670000000001] [0:11] [0:452] [0:3518] [0:25] [0:8] [0:105] [0:68] [0:1] [6.6709298018589109:64.96816136907951] [-1.9665800007966561:2.9669686466727692] [1:1913]
tree_sizes=2842 2926 2926 2931 2929 2929 2925 2921 2929 2927 2917 2923 2934 2915 2933 2930 2930 2937 2934 2943 2929 2923 2925 2945 2944 2942 2956 2928 2918 2925 2939 2934 2922 2948 2932 2920 2934 2938 2935 2932 2958 2941 2953 2946 2941 2956 2940 2946 2955 2966 2943 2971 2965 2965 2963 2918 2958 2952 2929 2976 2956 2973 2978 2947 2957 2950 2922 2964 2969 2940 2959 2947 2974 2930 2979 2956 2985 2945 2970 2930 2948 2957 2965 2943 2962 2982 2959 2962 2956 2954 2965 2932 2931 2986 2902 2968 2972 2971 2975 2934 2975 2999 2920 2977 2955 2912 2938 2971 2973 3013 2964 2921 2887 2977 2974 2955 2963 2933 2964 2935 2901 2966 2959 2980 3010 2927 3000 3014 2921 2956 2975 2901 2860 2949 2986 2934 2952 2973 2950 2925 2949 2952 2940 2942 2921 2939 2921 3011 2892 2881 2881 2919 2878 2888 2949 3003 2837 2875 2944 2918 2884 2936 2920 2919 2837 2888 2964 2934 2945 2963 2908 2959 2816 2815 2933 2915 2867 2838 2820 2881 2871 2797 2904 2777 2856 2841 2838 2932 2900 2900 2874 2867 2880 2907 2789 2856 2787 2786 2840 2933 2979 2862 2785 2784 2871 2765 2884 2890 2930 2942 2894 2802 2872 2802 2787 2872 2817 2761 2860 2839 2851 2857 2885 2828 2759 2804 2813 2801 2838 2893 2913 2799 2874 2816 2795 2868 2835 2893 2793 2856 2869 2895 2912 2817 2773 2840 2823 2816 2850 2795 2789 2818 2860 2846 2787 2757 2794 2813 2796 2890 2830 2831 2793 2812 2816 2826 2805 2766 2886 2800 2785 2853 2804 2858 2744 2837 2844 2744 2856 2804 2770 2794 2777 2815 2885 2857 2864 2841 2751 2796 2827 2803 2904 2818 2804 2763 2817 2838 2750 2803 2817 2862 2755 2796 2948 2779 2803 2827 2833 2925 2792 2800 2824 2798 2750 2748 2823 2801 2772 2830 2841 2813 2811 2804 2828 2745 2751 2865 2891 2897 2836 2801 2822 2756 2778 2817 2728 2841 2822 2696 2746 2912 2808 2800 2795 2766 2806 2745 2865 2848 2826 2859 2799 2806 2801 2739 2806 2797 2853 2860 2850 2828 2894 2777 2787 2863 2842 2743 2870 2785 2797 2872 2832 2806 2750 2791 2908 2723 2750 2756 2817 2756 2886 2808 2752 2826 2797 2861 2759 2787 2830 2836 2821 2771 2799 2772 2780 2763 2752 2831 2803 2842 2805 2733 2802 2814 2793 2814 2870 2754 2752 2812 2816 2809 2771 2849 2796 2758 2749 2912 2774 2803 2731 2754 2866 2758 2798 2715 2792 2784 2865 2799 2805 2855 2955 2842 2895 2855 2811 2805 2763 2885 2792 2825 2756 2750 2794 2764 2753 2766 2800 2810 2835 2766 2820 2795 2755 2840 2858 2821 2851 2743 2780 2826 2803 2796 2947 2790 2842 2825 2812 2834 2734 2782 2868 2741 2785 2758 2746 2878 2747 2748 2753 2867 2786 2904 2785 2756 2769 2836 2754 2823 2825 2803 2832 2800 2766

Tree=0
num_leaves=31
num_cat=0
split_feature=6 6 6 6 6 6 6 5 5 9 9 6 6 6 6 4 4 6 4 6 6 5 5 5 5 9 6 4 5 5
split_gain=1.12611e+08 1.88598e+07 1.78197e+07 2.58703e+06 2.5548e+06 2.52992e+06 2.09201e+06 752893 1.70874e+06 648846 522861 413891 363383 349424 345874 318458 476311 301796 294920 272122 260043 256830 565635 171664 188836 154356 133541 111918 100833 246927
threshold=47.855902500000006 69.549742500000008 27.624922500000007 83.292352500000007 58.519860000000001 14.1383025 38.294287500000003 6.5000000000000009 5.5000000000000009 20.293531619021277 23.65960413437416 75.450952500000014 53.590057500000007 22.001595000000005 92.52568500000001 5.5000000000000009 3.5000000000000004 64.049790000000016 9.5000000000000018 32.89618500000001 43.249342500000004 7.5000000000000009 5.5000000000000009 5.5000000000000009 6.5000000000000009 23.65960413437416 7.6520535000000027 22.500000000000004 5.5000000000000009 7.5000000000000009
decision_type=2 2 2 2 2 2 2 2 2 2 2 2 2 2 2 2 2 2 2 2 2 2 2 2 2 2 2 2 2 2
left_child=2 4 5 11 12 7 19 8 18 27 13 -3 23 -7 -5 16 -9 -6 -1 -4 28 22 -12 -2 -25 -20 -17 -10 -8 -30
right_child=1 3 6 14 17 10 20 15 9 -11 21 -13 -14 -15 -16 26 -18 -19 25 -21 -22 -23 -24 24 -26 -27 -28 -29 29 -31
leaf_value=47.564387482886218 49.77470450294296 50.937366034618677 48.939226302154289 51.622542934200929 50.400737251341425 48.388053102456091 49.335939586652941 47.759797233883916 48.809544324294009 50.005933243115336 48.963852087840301 51.267799980043037 50.15204706690475 48.680010695727482 52.014755604420763 47.465130550804844 48.375074501385043 50.668934281428584 47.980345934859542 49.184069541714862 49.661945492291807 48.425655341211765 50.648094211961848 50.422114743059126 49.928633456319716 48.381079150206652 47.815734010168818 47.782657072240163 50.055420283877851 49.435688623735892
leaf_weight=2677 16053 18321 20880 14559 22410 22150 13214 7650 1117 1677 1803 19631 22397 19073 9156 5263 5342 19719 5455 24859 23699 856 689 2378 10491 4295 5612 348 1923 9791
leaf_count=2677 16053 18321 20880 14559 22410 22150 13214 7650 1117 1677 1803 19631 22397 19073 9156 5263 5342 19719 5455 24859 23699 856 689 2378 10491 4295 5612 348 1923 9791
internal_value=49.7003 50.6856 48.8435 51.3643 50.2377 48.3138 49.315 48.0221 48.2926 49.3344 48.5719 51.1083 50.0009 48.5231 51.774 47.8457 48.0128 50.5263 48.0292 49.0723 49.5434 49.1729 49.4295 49.8838 50.0198 48.1569 47.6461 48.5656 49.4306 49.5374
internal_weight=333488 155115 178373 61667 93448 84007 94366 39436 15569 3142 44571 37952 51319 41223 23715 23867 12992 42129 12427 45739 48627 3348 2492 28922 12869 9750 10875 1465 24928 11714
internal_count=333488 155115 178373 61667 93448 84007 94366 39436 15569 3142 44571 37952 51319 41223 23715 23867 12992 42129 12427 45739 48627 3348 2492 28922 12869 9750 10875 1465 24928 11714
is_linear=0
shrinkage=1


Tree=1
num_leaves=31
num_cat=0
split_feature=6 6 6 6 6 6 6 5 5 9 9 6 6 6 5 5 4 4 6 6 6 4 6 5 5 9 5 5 5 5
split_gain=1.01632e+08 1.70343e+07 1.60823e+07 2.55751e+06 2.29131e+06 2.0865e+06 1.88931e+06 651548 1.47605e+06 541985 435554 431464 375669 315582 281676 567074 277097 414240 272834 263998 253611 253275 215893 154927 170425 128935 104684 173033 98500.2 119966
threshold=47.855902500000006 68.761980000000008 27.624922500000007 81.492547500000015 13.3497 57.922252500000006 38.553480000000008 6.5000000000000009 5.5000000000000009 20.021972825346491 26.67442021891544 91.361287500000017 20.415622500000001 74.055975000000018 7.5000000000000009 5.5000000000000009 5.5000000000000009 3.5000000000000004 53.590057500000007 32.89618500000001 64.049790000000016 9.5000000000000018 42.981225000000009 5.5000000000000009 6.5000000000000009 30.030268250587202 5.5000000000000009 6.5000000000000009 5.5000000000000009 6.5000000000000009
decision_type=2 2 2 2 2 2 2 2 2 2 2 2 2 2 2 2 2 2 2 2 2 2 2 2 2 2 2 2 2 2
left_child=2 5 4 13 7 18 19 8 21 -10 12 -5 -6 -3 15 -12 17 -9 23 -4 28 -1 -8 -2 -25 -23 -24 -28 -7 -30
right_child=1 3 6 11 10 20 22 16 9 -11 14 -13 -14 -15 -16 -17 -18 -19 -20 -21 -22 25 26 24 -26 -27 27 -29 29 -31
leaf_value=-2.0414800493583591 0.070665921278768792 1.1268894165660002 -0.72303836145873313 1.7670046295871071 -1.2945875692640889 0.5599075557682035 -0.25621627998765856 -1.8654132750505079 -1.1044603101634181 0.26615523803290819 -0.74123233042398917 2.1737929687941855 -0.99903420802776299 1.4212100229487969 -1.2845718872535241 0.88730670670340439 -1.9745163375048944 -1.2747197372997205 0.41532253232268967 -0.48461283809636602 0.9013121038368358 -1.5705874171713226 -0.13719954393828876 0.6857056554932428 0.21689842731652242 -1.0822121589873557 0.48286707139060492 -0.022070245706156823 1.0818254630664597 0.67825870473004257
leaf_weight=2585 16053 17022 20880 17204 19435 13525 22287 7183 1304 1614 1989 10495 24064 19589 1001 731 10166 5058 19760 26151 17076 7214 13451 2378 10491 1663 2064 9533 2301 9221
leaf_count=2585 16053 17022 20880 17204 19435 13525 22287 7183 1304 1614 1989 10495 24064 19589 1001 731 10166 5058 19760 26151 17076 7214 13451 2378 10491 1663 2064 9533 2301 9221
internal_value=2.18198e-09 0.936014 -0.813967 1.55863 -1.31715 0.495064 -0.366018 -1.613 -1.35033 -0.346347 -1.08667 1.92113 -1.13109 1.28437 -0.567467 -0.303562 -1.78157 -1.62134 0.272118 -0.590465 0.752726 -1.60593 -0.143013 0.174279 0.303527 -1.4791 -0.042288 0.067797 0.651425 0.758853
internal_weight=333488 155115 178373 64310 84007 90805 94366 36787 14380 2918 47220 27699 43499 36611 3721 2720 22407 12241 48682 47031 42123 11462 47335 28922 12869 8877 25048 11597 25047 11522
internal_count=333488 155115 178373 64310 84007 90805 94366 36787 14380 2918 47220 27699 43499 36611 3721 2720 22407 12241 48682 47031 42123 11462 47335 28922 12869 8877 25048 11597 25047 11522
is_linear=0
shrinkage=0.05


Tree=2
num_leaves=31
num_cat=0
split_feature=6 6 6 6 6 6 6 5 5 9 9 6 6 5 5 6 6 6 4 4 6 6 4 5 5 9 5 5 4 5
split_gain=9.1751e+07 1.67307e+07 1.31481e+07 2.31249e+06 2.22371e+06 1.76691e+06 1.68098e+06 563174 1.28274e+06 465878 371317 362130 316141 312239 565585 307044 254642 251390 239822 360655 228761 219283 216570 142834 180536 118111 110384 217239 100204 98565.9
threshold=46.57222500000001 68.761980000000008 25.832782500000004 82.680517500000022 56.989432500000007 36.652035000000005 12.497205000000003 6.5000000000000009 5.5000000000000009 20.645885062585354 26.67442021891544 75.450952500000014 92.52568500000001 7.5000000000000009 5.5000000000000009 61.974622500000009 52.780455000000011 19.548375 5.5000000000000009 3.5000000000000004 30.987495000000003 40.95288750000001 9.5000000000000018 5.5000000000000009 6.5000000000000009 23.65960413437416 5.5000000000000009 6.5000000000000009 22.500000000000004 5.5000000000000009
decision_type=2 2 2 2 2 2 2 2 2 2 2 2 2 2 2 2 2 2 2 2 2 2 2 2 2 2 2 2 2 2
left_child=2 4 6 11 16 20 7 8 22 -10 17 -3 -5 14 -12 -6 23 -8 19 -9 -4 -7 -1 -2 -25 -24 -23 28 -28 -22
right_child=1 3 5 12 15 21 10 18 9 -11 13 -13 -14 -15 -16 -17 -18 -19 -20 -21 29 26 25 24 -26 -27 27 -29 -30 -31
leaf_value=-1.9527731189489872 0.030946742874707518 1.0993049158123189 -0.76538679000447385 1.7212044235678776 0.55296624640011371 -0.32723998772591895 -1.2588126536014543 -1.7944097742416039 -1.0631328769649069 0.25215667101403022 -0.76158192922445866 1.4037439546789088 2.0900248886717101 -1.3053865334887078 0.81979132539809307 0.81222858444837698 0.35600536263797006 -1.0050080682821803 -1.8977460500007837 -1.2253778392312769 -0.6363917294326864 -0.20537928766783159 -1.5949784114777212 0.62292947760409101 0.16079641478525758 -1.2108883890300897 0.59982312818486105 -0.10163283927975948 -0.21516557994641758 -0.43716029631128406
leaf_weight=2487 17352 20964 19606 15900 21007 20999 18975 6688 1206 1524 2200 18290 9156 1221 761 25023 19784 20082 9449 4771 12433 15577 4370 2582 11643 3693 1831 11040 475 12399
leaf_count=2487 17352 20964 19606 15900 21007 20999 18975 6688 1206 1524 2200 18290 9156 1221 761 25023 19784 20082 9449 4771 12433 15577 4370 2582 11643 3693 1831 11040 475 12399
internal_value=-5.2789e-09 0.854819 -0.80463 1.4807 0.441533 -0.40839 -1.28753 -1.54953 -1.2949 -0.328883 -1.08037 1.24116 1.85598 -0.632591 -0.355157 0.693907 0.215353 -1.12831 -1.71126 -1.55749 -0.637715 -0.204256 -1.54487 0.12723 0.244679 -1.41906 -0.114966 -0.00943759 0.431948 -0.536912
internal_weight=333488 161701 171787 64310 97391 94360 77427 34188 13280 2730 43239 39254 25056 4182 2961 46030 51361 39057 20908 11459 44438 49922 10550 31577 14225 8063 28923 13346 2306 24832
internal_count=333488 161701 171787 64310 97391 94360 77427 34188 13280 2730 43239 39254 25056 4182 2961 46030 51361 39057 20908 11459 44438 49922 10550 31577 14225 8063 28923 13346 2306 24832
is_linear=0
shrinkage=0.05


Tree=3
num_leaves=31
num_cat=0
split_feature=6 6 6 6 6 6 6 5 5 9 6 9 6 6 5 5 4 4 4 5 5 6 6 6 4 9 5 5 9 5
split_gain=8.28196e+07 1.5845e+07 1.11471e+07 2.39277e+06 1.9073e+06 1.52299e+06 1.40383e+06 531068 1.20626e+06 440754 382127 381232 333507 306928 234521 454524 227207 339305 206170 198424 241219 195069 190981 168110 136156 111608 105269 128241 101152 96823.8
threshold=45.812077500000008 67.64693250000002 25.832782500000004 80.940405000000013 55.282027500000005 13.3497 36.371790000000011 6.5000000000000009 5.5000000000000009 20.021972825346491 91.361287500000017 24.959460356514835 61.353757500000007 73.222747500000011 7.5000000000000009 5.5000000000000009 5.5000000000000009 3.5000000000000004 9.5000000000000018 5.5000000000000009 6.5000000000000009 20.007382500000002 30.987495000000003 40.439700000000009 22.500000000000004 20.645885062585354 5.5000000000000009 6.5000000000000009 17.405921111575839 5.5000000000000009
decision_type=2 2 2 2 2 2 2 2 2 2 2 2 2 2 2 2 2 2 2 2 2 2 2 2 2 2 2 2 2 2
left_child=2 4 5 13 19 7 22 8 18 -10 -5 21 26 -3 15 -13 17 -9 -1 28 24 -7 -4 -8 -21 -20 -6 -28 -2 -25
right_child=1 3 6 10 12 11 23 16 9 -11 -12 14 -14 -15 -16 -17 -18 -19 25 20 -22 -23 -24 29 -26 -27 27 -29 -30 -31
leaf_value=-1.8431116822010225 -0.011105650097922404 0.97383858803135404 -0.72711745544097139 1.5851413794068354 0.38548377147599711 -1.1774361995871707 -0.32905792016932789 -1.6842215436826391 -0.99513527597100726 0.24086982617506703 1.9629549049240684 -0.6791842009426079 0.73509014267495265 1.2539491366675182 -1.1790484137201716 0.78745125378404868 -1.7831311842182971 -1.1496190821878634 -1.5161671756651871 0.76190056701945796 0.18843040456569934 -0.94766085546652534 -0.51589038527298292 -0.22456369155031483 0.033724090436440937 -1.1615307952835083 0.91948770723651041 0.50548892245247445 0.19454876330262638 -0.036627599434561738
leaf_weight=2585 16516 18359 19606 18472 14379 18150 19663 7183 1304 1614 10495 1954 23737 20927 1003 724 10166 5058 4360 3233 17506 18809 23561 14828 801 4517 2327 9536 9372 12743
leaf_count=2585 16516 18359 19606 18472 14379 18150 19663 7183 1304 1614 10495 1954 23737 20927 1003 724 10166 5058 4360 3233 17506 18809 23561 14828 801 4517 2327 9536 9372 12743
internal_value=3.33802e-09 0.793085 -0.78284 1.37726 0.383756 -1.22315 -0.405721 -1.45623 -1.21909 -0.311478 1.72203 -1.01217 0.599286 1.12305 -0.526921 -0.282678 -1.60842 -1.46332 -1.45015 0.156633 0.268751 -1.0605 -0.611828 -0.217361 0.617312 -1.33571 0.476445 0.586697 0.0633456 -0.137702
internal_weight=333488 165660 167828 68253 97407 77427 90401 36787 14380 2918 28967 40640 49979 39286 3681 2678 22407 12241 11462 47428 21540 36959 43167 47234 4034 8877 26242 11863 25888 27571
internal_count=333488 165660 167828 68253 97407 77427 90401 36787 14380 2918 28967 40640 49979 39286 3681 2678 22407 12241 11462 47428 21540 36959 43167 47234 4034 8877 26242 11863 25888 27571
is_linear=0
shrinkage=0.05


Tree=4
num_leaves=31
num_cat=0
split_feature=6 6 6 6 6 6 6 5 5 9 9 6 6 6 6 6 6 6 4 5 5 5 5 4 4 4 9 5 5 4
split_gain=7.4826e+07 1.25272e+07 1.18172e+07 1.87049e+06 1.77194e+06 1.58259e+06 1.32541e+06 513266 1.17802e+06 433131 376139 262032 258703 244696 238455 224905 210434 209316 200532 149384 353431 144936 321596 148617 127447 135819 117548 116127 126431 112874
threshold=47.855902500000006 70.329315000000008 27.968377500000006 58.816327500000007 14.529427499999999 83.970390000000009 39.086512500000005 6.5000000000000009 5.5000000000000009 20.293531619021277 23.65960413437416 76.851495000000014 53.590057500000007 7.6520535000000027 22.001595000000005 64.379647500000019 34.351170000000003 93.75303000000001 9.5000000000000018 7.5000000000000009 5.5000000000000009 5.5000000000000009 6.5000000000000009 22.500000000000004 5.5000000000000009 3.5000000000000004 30.030268250587202 5.5000000000000009 6.5000000000000009 5.5000000000000009
decision_type=2 2 2 2 2 2 2 2 2 2 2 2 2 2 2 2 2 2 2 2 2 2 2 2 2 2 2 2 2 2
left_child=2 3 4 12 7 11 16 8 18 -10 14 -3 27 29 -6 -5 -4 -7 -1 20 -12 -8 23 -23 25 -15 -20 -2 -29 -9
right_child=1 5 6 15 10 17 21 13 9 -11 19 -13 -14 24 -16 -17 -18 -19 26 -21 -22 22 -24 -25 -26 -27 -28 28 -30 -31
leaf_value=-1.7375466538016811 0.060288953244724552 1.0497744340656785 -0.58655877659749767 0.58355789725974183 -1.0627651222365782 1.5953145190833493 -0.196483391250831 -1.5316152652585107 -0.90249698268949341 0.25263625893121688 -0.5583276206374006 1.3175664137900009 0.37285382591436067 -1.4053945492719786 -0.8228668896584761 0.81117856427740598 -0.37735929635586118 1.9158021646299148 -1.3355394616966918 -0.97120048732487207 0.81944224315082725 0.57960796659462266 -0.10559929199159988 -0.21723110106656152 -1.5198397013964657 -0.9509042662863445 -0.89702154263567313 0.59106925568871793 0.18727942534522637 -1.8406596480251356
leaf_weight=2731 16053 19632 26088 22445 21097 14471 23900 6736 1538 1718 1646 17084 23687 3657 20350 21011 22293 7863 8341 776 649 2840 17215 737 5941 2986 1871 2378 10491 5263
leaf_count=2731 16053 19632 26088 22445 21097 14471 23900 6736 1538 1718 1646 17084 23687 3657 20350 21011 22293 7863 8341 776 649 2840 17215 737 5941 2986 1871 2378 10491 5263
internal_value=2.21267e-09 0.803145 -0.698423 0.450857 -1.12353 1.37626 -0.308816 -1.36163 -1.14311 -0.293001 -0.905417 1.17438 0.250336 -1.50562 -0.944978 0.693613 -0.490164 1.70815 -1.35697 -0.371488 -0.16871 -0.1125 -0.0159631 0.415428 -1.35158 -1.2011 -1.2552 0.149994 0.261894 -1.66717
internal_weight=333488 155115 178373 96065 85300 59050 93073 40782 16199 3256 44518 36716 52609 24583 41447 43456 48381 22334 12943 3071 2295 44692 20792 3577 12584 6643 10212 28922 12869 11999
internal_count=333488 155115 178373 96065 85300 59050 93073 40782 16199 3256 44518 36716 52609 24583 41447 43456 48381 22334 12943 3071 2295 44692 20792 3577 12584 6643 10212 28922 12869 11999
is_linear=0
shrinkage=0.05


Tree=5
num_leaves=31
num_cat=0
split_feature=6 6 6 6 6 6 6 5 5 6 9 9 5 5 6 6 6 5 5 4 4 6 4 6 4 9 9 5 5 5
split_gain=6.75357e+07 1.29064e+07 9.07691e+06 2.0442e+06 1.47654e+06 1.25998e+06 1.1363e+06 403216 890405 376144 335233 260365 266694 455592 249693 219692 217019 164432 198889 163802 259092 157766 153268 137402 119524 92326.8 91668 88922.7 108742 85855
threshold=45.812077500000008 67.276492500000018 25.832782500000004 79.865415000000027 55.282027500000005 11.641350000000005 36.371790000000011 7.5000000000000009 5.5000000000000009 89.312947500000021 20.021972825346491 26.67442021891544 7.5000000000000009 5.5000000000000009 61.034242500000012 17.834775000000004 72.784582500000013 5.5000000000000009 6.5000000000000009 5.5000000000000009 3.5000000000000004 30.987495000000003 9.5000000000000018 40.439700000000009 22.500000000000004 17.997550792749184 30.030268250587202 5.5000000000000009 6.5000000000000009 5.5000000000000009
decision_type=2 2 2 2 2 2 2 2 2 2 2 2 2 2 2 2 2 2 2 2 2 2 2 2 2 2 2 2 2 2
left_child=2 4 5 16 17 7 21 8 22 -5 -10 15 13 -13 27 -7 -3 25 24 20 -9 -4 -1 -8 -19 -2 -24 -6 -29 -23
right_child=1 3 6 9 14 11 23 19 10 -11 -12 12 -14 -15 -16 -17 -18 18 -20 -21 -22 29 26 -25 -26 -27 -28 28 -30 -31
leaf_value=-1.6944419547632013 -0.002031111884674528 0.86431084598670227 -0.65683742257728506 1.3870897464971059 0.33801464169406947 -1.1206978947420312 -0.29813827752609384 -1.56504037485015 -0.96902088846951639 1.7375369281494821 0.19503425503631933 -0.67694204011863812 -1.152820088873314 0.68345665810689282 0.65004017226764632 -0.8844126848523427 1.1034350927590777 0.69634472585674123 0.17143800539702647 -1.6510205591337013 -1.064007779982084 -0.56045871293993221 -1.3159524471490316 -0.12513936718707194 0.014089478501182667 0.20744430944784573 -0.86698090107663683 0.84424730517061064 0.451333597861591 -0.36956718391571114
leaf_weight=2338 18545 18302 19606 18400 13684 16230 19663 6255 1061 13114 1483 2458 1439 821 23803 24976 19703 3233 17506 8678 4392 11761 5887 27571 801 7343 1409 2187 9039 11800
leaf_count=2338 18545 18302 19606 18400 13684 16230 19663 6255 1061 13114 1483 2458 1439 821 23803 24976 19703 3233 17506 8678 4392 11761 5887 27571 801 7343 1409 2187 9039 11800
internal_value=9.47967e-10 0.716176 -0.706925 1.23517 0.340891 -1.10425 -0.366621 -1.34778 -1.12244 1.53292 -0.290446 -0.937195 -0.585357 -0.336324 0.534237 -0.977479 0.98828 0.142307 0.244371 -1.48978 -1.35836 -0.552051 -1.34214 -0.197157 0.560875 0.0573855 -1.22925 0.42358 0.527879 -0.464855
internal_weight=333488 165660 167828 69519 96141 77427 90401 31503 12178 31514 2544 45924 4718 3279 48713 41206 38005 47428 21540 19325 10647 43167 9634 47234 4034 25888 7296 24910 11226 23561
internal_count=333488 165660 167828 69519 96141 77427 90401 31503 12178 31514 2544 45924 4718 3279 48713 41206 38005 47428 21540 19325 10647 43167 9634 47234 4034 25888 7296 24910 11226 23561
is_linear=0
shrinkage=0.05


Tree=6
num_leaves=31
num_cat=0
split_feature=6 6 6 6 6 6 6 5 5 9 9 6 6 6 6 6 6 4 6 6 4 4 5 5 4 9 5 5 5 5
split_gain=6.10158e+07 1.02e+07 9.62099e+06 1.52047e+06 1.39636e+06 1.2991e+06 1.12159e+06 418374 970095 347948 322960 216407 215070 213380 184719 180975 175308 163568 152738 151605 130827 133532 120493 289138 106126 103170 92407.7 109490 87930.2 96198.6
threshold=47.855902500000006 70.329315000000008 27.624922500000007 58.816327500000007 14.529427499999999 83.970390000000009 38.294287500000003 6.5000000000000009 5.5000000000000009 20.293531619021277 23.65960413437416 53.033347500000012 77.352607500000019 6.3471239999999947 64.716120000000018 22.001595000000005 93.75303000000001 9.5000000000000018 43.249342500000004 32.89618500000001 5.5000000000000009 3.5000000000000004 7.5000000000000009 5.5000000000000009 22.500000000000004 20.673542708607712 5.5000000000000009 7.5000000000000009 5.5000000000000009 6.5000000000000009
decision_type=2 2 2 2 2 2 2 2 2 2 2 2 2 2 2 2 2 2 2 2 2 2 2 2 2 2 2 2 2 2
left_child=2 3 4 11 7 12 19 8 17 24 15 28 -3 -9 -5 -6 -7 -1 -8 -4 21 -15 23 -12 -10 -19 -13 -28 -2 -30
right_child=1 5 6 14 10 16 18 13 9 -11 22 26 -14 20 -16 -17 -18 25 -20 -21 -22 -23 -24 -25 -26 -27 27 -29 29 -31
leaf_value=-1.5702460297884369 0.043359815100568522 0.95477596972939593 -0.56127800370886938 0.53227636771389375 -0.96047264412884514 1.4398360767943714 -0.2034392076938128 -1.5464012065305557 -0.57602583762302717 0.22803578008192879 -0.49784258110076307 0.24213199358627593 1.1993384732224472 -1.2938460791521393 0.73933580313815084 -0.7479476286517599 1.7331351949830376 -1.2894514104947989 -0.026153594768124889 -0.37852568791201713 -1.399642791327081 -0.88493184736258612 -0.86768770766467529 0.74987525875316541 -1.5532064922031139 -0.9714941647622144 0.73800541700074684 0.35614471021882643 0.52889637561919967 0.1590809774695329
leaf_weight=2731 14612 20995 20880 23737 21097 14471 24928 9435 1174 1718 1638 14317 15721 4328 19719 19073 7863 5239 23699 24859 7114 3706 769 648 364 4973 2329 9676 2157 9518
leaf_count=2731 14612 20995 20880 23737 21097 14471 24928 9435 1174 1718 1638 14317 15721 4328 19719 19073 7863 5239 23699 24859 7114 3706 769 648 364 4973 2329 9676 2157 9518
internal_value=7.76267e-10 0.725252 -0.630687 0.407366 -1.01988 1.2424 -0.284217 -1.22975 -1.03246 -0.261012 -0.821874 0.226577 1.05949 -1.35975 0.626234 -0.859564 1.5431 -1.22653 -0.117037 -0.461953 -1.24349 -1.10522 -0.326284 -0.144159 -0.807296 -1.13461 0.327919 0.430227 0.125101 0.227406
internal_weight=333488 155115 178373 96065 84007 59050 94366 40782 16199 3256 43225 52609 36716 24583 43456 40170 22334 12943 48627 45739 15148 8034 3055 2286 1538 10212 26322 12005 26287 11675
internal_count=333488 155115 178373 96065 84007 59050 94366 40782 16199 3256 43225 52609 36716 24583 43456 40170 22334 12943 48627 45739 15148 8034 3055 2286 1538 10212 26322 12005 26287 11675
is_linear=0
shrinkage=0.05


Tree=7
num_leaves=31
num_cat=0
split_feature=6 6 6 6 6 6 6 5 5 9 9 6 6 6 6 6 4 5 5 4 5 5 4 5 5 4 4 5 5 5
split_gain=5.50747e+07 9.19769e+06 8.73239e+06 1.50892e+06 1.24286e+06 1.17344e+06 903168 377583 875511 314076 294465 236659 199149 192576 177320 171680 147620 132109 356374 200837 129975 282848 136360 126599 161993 118072 120513 114294 267139 94037.5
threshold=48.62870250000001 29.3327475 70.329315000000008 14.529427499999999 59.760330000000003 83.292352500000007 39.363712500000013 6.5000000000000009 5.5000000000000009 19.963260682539794 23.65960413437416 22.763580000000005 54.156165000000009 6.3471239999999947 93.75303000000001 75.928860000000014 9.5000000000000018 5.5000000000000009 6.5000000000000009 22.500000000000004 5.5000000000000009 6.5000000000000009 22.500000000000004 5.5000000000000009 6.5000000000000009 5.5000000000000009 3.5000000000000004 7.5000000000000009 5.5000000000000009 5.5000000000000009
decision_type=2 2 2 2 2 2 2 2 2 2 2 2 2 2 2 2 2 2 2 2 2 2 2 2 2 2 2 2 2 2
left_child=1 3 4 7 12 15 17 8 16 -10 11 -5 29 -9 -7 -4 -1 -3 19 -19 -8 22 -22 -6 -25 26 -15 28 -12 -2
right_child=2 6 5 10 23 14 20 13 9 -11 27 -13 -14 25 -16 -17 -18 18 -20 -21 21 -23 -24 24 -26 -27 -28 -29 -30 -31
leaf_value=-1.4917337269496631 0.066918057640160816 -0.47986301949071886 0.8834196322173089 -0.90096382339819281 0.52892604666428344 1.356060224612166 -0.15751832566081167 -1.4690811568553495 -0.77569044574658796 0.2090000267967016 -0.44932659981003265 -0.67545660166057098 0.34441459534743651 -1.2291537756885724 1.6464784335623137 1.1039867246785116 -1.0778831375436011 0.35616521380000532 -0.39642198590770833 -0.5069105753038925 0.55673418841642908 -0.072793178876632017 -0.18990518381753732 0.99387260244217013 0.63199229675289992 -1.3296606444609964 -0.84068526259527465 -0.80494932768660998 0.7327255480799002 0.25262031700188053
leaf_weight=2731 15306 22355 17030 23570 20914 15852 25314 9435 1511 1745 1693 22975 25017 4328 7863 18305 10212 2749 18555 893 2986 18200 769 3918 14677 7114 3706 807 666 12292
leaf_count=2731 15306 22355 17030 23570 20914 15852 25314 9435 1511 1745 1693 22975 25017 4328 7863 18305 10212 2749 18555 893 2986 18200 769 3918 14677 7114 3706 807 666 12292
internal_value=-1.19217e-09 -0.585106 0.705631 -0.942842 0.401387 1.18028 -0.232544 -1.16826 -0.98084 -0.247962 -0.757914 -0.789652 0.242244 -1.29176 1.45235 0.997683 -1.16521 -0.394068 -0.307662 0.144543 -0.0803039 0.008724 0.403827 0.613321 0.708241 -1.18132 -1.04996 -0.291317 -0.115606 0.149629
internal_weight=333488 182314 151174 90493 92124 59050 91821 40782 16199 3256 49711 46545 52615 24583 23715 35335 12943 44552 22197 3642 47269 21955 3755 39509 18595 15148 8034 3166 2359 27598
internal_count=333488 182314 151174 90493 92124 59050 91821 40782 16199 3256 49711 46545 52615 24583 23715 35335 12943 44552 22197 3642 47269 21955 3755 39509 18595 15148 8034 3166 2359 27598
is_linear=0
shrinkage=0.05


Tree=8
num_leaves=31
num_cat=0
split_feature=6 6 6 6 6 6 6 5 5 6 9 9 5 5 6 6 6 5 5 4 4 4 5 5 5 5 4 4 9 5
split_gain=4.97441e+07 9.67405e+06 6.53359e+06 1.50538e+06 1.11015e+06 910605 845584 293342 650738 283202 251064 200313 198739 330418 174671 157364 148569 136587 344633 171892 132828 207312 127651 151331 116493 294635 178856 112669 93906.9 90500.7
threshold=45.538552500000009 67.276492500000018 25.458457500000009 79.865415000000027 56.989432500000007 11.641350000000005 34.938330000000015 7.5000000000000009 5.5000000000000009 89.312947500000021 20.865348443090586 26.67442021891544 7.5000000000000009 5.5000000000000009 52.780455000000011 73.222747500000011 18.684697500000002 5.5000000000000009 6.5000000000000009 22.500000000000004 5.5000000000000009 3.5000000000000004 5.5000000000000009 6.5000000000000009 5.5000000000000009 6.5000000000000009 22.500000000000004 9.5000000000000018 17.037049408852294 5.5000000000000009
decision_type=2 2 2 2 2 2 2 2 2 2 2 2 2 2 2 2 2 2 2 2 2 2 2 2 2 2 2 2 2 2
left_child=2 4 5 15 14 7 24 8 27 -5 -10 16 13 -13 29 -3 -7 -8 19 28 21 -9 -6 -24 -4 26 -26 -1 -19 -2
right_child=1 3 6 9 22 11 17 20 10 -11 -12 12 -14 -15 -16 -17 -18 18 -20 -21 -22 -23 23 -25 25 -27 -28 -29 -30 -31
leaf_value=-1.4566208819225341 0.0096982373581753004 0.74997667650735766 -0.59485581319170899 1.1892819965544319 0.4050350615392484 -0.94690915332886305 -0.27078776171631957 -1.3465961181585619 -0.82549807359854643 1.4933657163914891 0.17735046062059445 -0.57377804595261961 -0.98983047974013716 0.58913798911565562 0.26501509984424604 0.95357063788973839 -0.75348094674224664 0.25433637206644832 -0.19282224577351226 -0.29935654585512039 -1.4252604671176348 -0.89841791962190509 0.86597988396191572 0.51178325886085574 0.24375043600435031 -0.5044210902825299 -0.61389931418702981 -1.0577702285518682 0.801738131430205 0.16703380070983445
leaf_weight=2338 20204 19625 18304 18400 21920 18668 27612 6255 1098 13114 1446 2438 1429 815 19784 18380 21202 1934 20665 916 8678 4392 3766 15135 2350 16497 820 7296 1317 16690
leaf_count=2338 20204 19625 18304 18400 21920 18668 27612 6255 1098 13114 1446 2438 1429 815 19784 18380 21202 1934 20665 916 8678 4392 3766 15135 2350 16497 820 7296 1317 16690
internal_value=-3.31599e-10 0.609659 -0.611666 1.06031 0.288334 -0.9532 -0.324375 -1.15894 -0.966745 1.31582 -0.255483 -0.807717 -0.498332 -0.282423 0.14515 0.848439 -0.844048 -0.194266 -0.109178 0.305631 -1.28006 -1.16172 0.487139 0.582356 -0.504076 -0.419587 0.0218978 -1.15456 0.476092 0.0808732
internal_weight=333488 167018 166470 69519 97499 76055 90415 31503 12178 31514 2544 44552 4682 3253 56678 38005 39870 52444 24832 4167 19325 10647 40821 18901 37971 19667 3170 9634 3251 36894
internal_count=333488 167018 166470 69519 97499 76055 90415 31503 12178 31514 2544 44552 4682 3253 56678 38005 39870 52444 24832 4167 19325 10647 40821 18901 37971 19667 3170 9634 3251 36894
is_linear=0
shrinkage=0.05


Tree=9
num_leaves=31
num_cat=0
split_feature=6 6 6 6 6 6 6 5 5 9 6 9 6 5 5 6 6 6 6 4 4 5 5 4 4 9 9 5 5 4
split_gain=4.49099e+07 8.0535e+06 6.55531e+06 1.14563e+06 1.05258e+06 956788 784447 271087 609984 228178 198266 179216 172066 170869 295712 154894 148453 137839 128946 123635 194892 109908 274548 164181 103294 81625.4 80296.2 76621.9 198883 87773.2
threshold=46.820550000000004 68.761980000000008 26.908612500000007 83.292352500000007 57.922252500000006 12.056572500000003 36.652035000000005 6.5000000000000009 5.5000000000000009 20.645885062585354 75.450952500000014 26.67442021891544 20.415622500000001 7.5000000000000009 5.5000000000000009 52.780455000000011 93.75303000000001 42.45864000000001 64.049790000000016 5.5000000000000009 3.5000000000000004 5.5000000000000009 6.5000000000000009 22.500000000000004 9.5000000000000018 17.68977110765568 30.030268250587202 5.5000000000000009 6.5000000000000009 22.500000000000004
decision_type=2 2 2 2 2 2 2 2 2 2 2 2 2 2 2 2 2 2 2 2 2 2 2 2 2 2 2 2 2 2
left_child=2 4 5 10 15 7 21 8 24 -10 -3 12 -7 14 -13 -2 -5 27 -6 20 -9 -4 23 25 -1 -23 -26 -8 29 -29
right_child=1 3 6 16 18 11 17 19 9 -11 -12 13 -14 -15 -16 -17 -18 -19 -20 -21 -22 22 -24 -25 26 -27 -28 28 -30 -31
leaf_value=-1.3750061865836125 0.091830311086845154 0.76752957302513658 -0.51723150533610385 1.2237567199611723 0.4279712600608922 -0.87174833961813469 -0.28915565849785141 -1.2722330379579965 -0.76516943315775565 0.17067338000245183 0.98864635094499898 -0.52544540186238231 -0.67387516014773685 -0.91577071050912773 0.58222399443025741 0.26249430923244615 1.4894862301658087 -0.045580322540348564 0.60615280920377312 -1.3449662118633012 -0.84582055720326044 0.047710894971246358 -0.43284669978181667 -0.53604891917110364 -1.0791349759597837 0.63965272583293931 -0.66682861075366995 0.45864692448434047 -0.21113579576277661 -0.2884031230591208
leaf_weight=2425 30298 20964 19848 15852 25047 22518 15019 6476 1156 1492 19631 2387 21454 1356 806 23691 7863 22366 17076 9062 4571 1584 17298 858 6194 921 1459 1814 11500 502
leaf_count=2425 30298 20964 19848 15852 25047 22518 15019 6476 1156 1492 19631 2387 21454 1356 806 23691 7863 22366 17076 9062 4571 1584 17298 858 6194 921 1459 1814 11500 502
internal_value=3.22088e-09 0.602664 -0.558634 1.03576 0.312875 -0.885353 -0.268801 -1.09379 -0.913197 -0.237874 0.874458 -0.744298 -0.775206 -0.445538 -0.24584 0.16672 1.31186 -0.13873 0.500203 -1.20808 -1.09579 -0.433203 -0.352481 0.0608874 -1.09064 0.265347 -1.00053 -0.210983 -0.126003 0.296722
internal_weight=333488 160422 173066 64310 96112 81356 91710 32835 12726 2648 40595 48521 43972 4549 3193 53989 23715 51201 42123 20109 11047 40509 20661 3363 10078 2505 7653 28835 13816 2316
internal_count=333488 160422 173066 64310 96112 81356 91710 32835 12726 2648 40595 48521 43972 4549 3193 53989 23715 51201 42123 20109 11047 40509 20661 3363 10078 2505 7653 28835 13816 2316
is_linear=0
shrinkage=0.05


Tree=10
num_leaves=31
num_cat=0
split_feature=6 6 6 6 6 6 6 5 5 6 9 6 9 5 5 6 6 5 5 5 5 4 4 4 4 5 5 4 9 4
split_gain=4.05468e+07 8.01056e+06 5.20365e+06 1.2824e+06 895475 756196 663198 236590 486936 235957 189990 156422 151127 192770 318930 150592 140261 118580 165059 116677 294518 143538 107695 96310.6 148517 93431.7 234848 143747 87776.3 87203.5
threshold=45.264030000000012 66.917655000000011 25.458457500000009 79.865415000000027 55.004460000000002 10.298909250000003 34.648372500000015 7.5000000000000009 5.5000000000000009 87.564487500000013 20.021972825346491 61.353757500000007 26.67442021891544 7.5000000000000009 5.5000000000000009 17.834775000000004 72.784582500000013 5.5000000000000009 6.5000000000000009 5.5000000000000009 6.5000000000000009 22.500000000000004 22.500000000000004 5.5000000000000009 3.5000000000000004 5.5000000000000009 6.5000000000000009 22.500000000000004 15.888989613473237 9.5000000000000018
decision_type=2 2 2 2 2 2 2 2 2 2 2 2 2 2 2 2 2 2 2 2 2 2 2 2 2 2 2 2 2 2
left_child=2 4 5 16 17 7 25 8 29 -5 -10 -6 15 14 -14 -7 -3 28 22 -8 21 -21 -19 24 -9 -4 27 -27 -2 -1
right_child=1 3 6 9 11 12 19 23 10 -11 -12 -13 13 -15 -16 -17 -18 18 -20 20 -22 -23 -24 -25 -26 26 -28 -29 -30 -31
leaf_value=-1.3365151265048838 -0.082213273060564016 0.66542395566901602 -0.54345432182265696 1.0519593518216312 0.32525007224572255 -0.87656091566300887 -0.25413621233964145 -1.242879754081049 -0.80536120327572247 1.3255906704891218 0.13569017251942275 0.50591412585206486 -0.55252243375332 -0.92523157323705429 0.52660493920366402 -0.68871848047435869 0.85440284599813499 0.59861936686449457 0.12107903806439257 0.43414936828074019 -0.18191155033982481 -0.27557941885305598 -0.041129714914401323 -1.319559524818837 -0.83718378260893367 0.21972085625086654 -0.46077644090769065 -0.55747698675240243 0.10325624602730338 -0.96602604700537675
leaf_weight=2138 10552 19572 17617 15796 27550 19447 27518 5597 881 15718 1371 21201 2832 1769 903 23640 19703 3310 18030 3255 20698 912 821 7521 3779 2272 15970 806 16132 6177
leaf_count=2138 10552 19572 17617 15796 27550 19447 27518 5597 881 15718 1371 21201 2832 1769 903 23640 19703 3310 18030 3255 20698 912 821 7521 3779 2272 15970 806 16132 6177
internal_value=1.08492e-11 0.545926 -0.556779 0.950859 0.252218 -0.860514 -0.297362 -1.07022 -0.884651 1.18844 -0.232456 0.403818 -0.741984 -0.495268 -0.291625 -0.7735 0.760229 0.10091 0.186396 -0.183203 -0.1047 0.278816 0.471475 -1.18628 -1.07936 -0.46046 -0.3837 0.0162051 0.0299136 -1.06129
internal_weight=333488 168385 165103 70789 97596 76055 89048 27464 10567 31514 2252 48751 48591 5504 3735 43087 39275 48845 22161 52383 24865 4167 4131 16897 9376 36665 19048 3078 26684 8315
internal_count=333488 168385 165103 70789 97596 76055 89048 27464 10567 31514 2252 48751 48591 5504 3735 43087 39275 48845 22161 52383 24865 4167 4131 16897 9376 36665 19048 3078 26684 8315
is_linear=0
shrinkage=0.05


Tree=11
num_leaves=31
num_cat=0
split_feature=6 6 6 6 6 6 6 6 9 5 5 4 5 5 6 6 4 4 6 4 9 9 9 5 5 4 6 5 5 4
split_gain=3.66477e+07 6.15241e+06 5.79924e+06 1.00806e+06 995313 647747 612568 283877 224610 212599 607170 192106 144742 168813 137202 128844 115320 129940 111303 108506 93580.4 92265.6 92177.8 91990.1 205289 99461.4 91343 87428.7 235532 132780
threshold=48.62870250000001 29.3327475 71.914710000000014 14.944545000000002 59.760330000000003 85.306462500000023 39.363712500000013 4.3393402499999993 23.65960413437416 6.5000000000000009 5.5000000000000009 22.500000000000004 5.5000000000000009 6.5000000000000009 23.152027500000006 65.813317500000025 5.5000000000000009 3.5000000000000004 77.854507500000011 22.500000000000004 19.074221318855567 20.673542708607712 17.997550792749184 5.5000000000000009 6.5000000000000009 22.500000000000004 95.062170000000023 5.5000000000000009 6.5000000000000009 22.500000000000004
decision_type=2 2 2 2 2 2 2 2 2 2 2 2 2 2 2 2 2 2 2 2 2 2 2 2 2 2 2 2 2 2
left_child=1 3 4 7 12 18 27 -1 14 10 21 20 22 19 -5 -6 17 -11 -4 -14 -12 -9 -2 -8 25 -25 -7 -3 29 -29
right_child=2 6 5 8 15 26 23 9 -10 16 11 -13 13 -15 -16 -17 -18 -19 -20 -21 -22 -23 -24 24 -26 -27 -28 28 -30 -31
leaf_value=-1.2163665100431431 0.071336859606646388 -0.3917587131985758 0.77039826908865294 -0.72425799936610613 0.43912645750788848 1.1438596141952464 -0.12852059421531511 -1.0251259650196205 -0.18535944100472107 -1.0379724412257296 -0.39384618219774742 -1.2187195724516995 0.68461235355304373 0.22467841472522837 -0.55042311296986646 0.60931657779285286 -1.1205037022056326 -0.68833735249149475 0.95074556936857357 0.063350975993674799 0.26747506237650975 -0.73652537124475559 0.27755127103131344 0.47852759258148203 -0.058111664152495981 -0.15913972203536214 1.3721231543319858 0.28802574058246272 -0.32383079209618737 -0.41374284396321415
leaf_weight=8019 21726 22355 17163 23757 23788 13073 25314 6477 2873 5859 772 330 3640 19158 21736 20884 9227 4863 17058 871 1742 4838 7220 2986 18200 769 6593 2749 18555 893
leaf_count=8019 21726 22355 17163 23757 23788 13073 25314 6477 2873 5859 772 330 3640 19158 21736 20884 9227 4863 17058 871 1742 4838 7220 2986 18200 769 6593 2749 18555 893
internal_value=7.94167e-10 -0.477289 0.575605 -0.76987 0.345126 0.991709 -0.18894 -0.948682 -0.614124 -0.885748 -0.737576 -0.0844885 0.197764 0.289474 -0.641202 0.51869 -0.990914 -0.879394 0.860295 0.564657 0.0643963 -0.901728 0.122773 -0.0635617 0.0113356 0.347937 1.22038 -0.321964 -0.251672 0.115956
internal_weight=333488 182314 151174 90493 97287 53887 91821 42127 48366 34108 14159 2844 52615 23669 45493 44672 19949 10722 34221 4511 2514 11315 28946 47269 21955 3755 19666 44552 22197 3642
internal_count=333488 182314 151174 90493 97287 53887 91821 42127 48366 34108 14159 2844 52615 23669 45493 44672 19949 10722 34221 4511 2514 11315 28946 47269 21955 3755 19666 44552 22197 3642
is_linear=0
shrinkage=0.05


Tree=12
num_leaves=31
num_cat=0
split_feature=6 6 6 6 6 6 6 6 9 5 5 9 6 6 5 5 5 5 6 4 4 4 5 5 4 9 9 5 5 4
split_gain=3.30855e+07 5.52078e+06 5.23802e+06 850459 779290 750488 541743 247730 200517 183078 519972 167873 140467 119932 118388 150339 114553 143298 103585 97693.2 112092 91653.5 87910 226317 130044 88446.5 85508.8 81605.8 184949 85031.2
threshold=47.855902500000006 69.549742500000008 28.672140000000006 14.529427499999999 83.970390000000009 57.922252500000006 39.086512500000005 4.3393402499999993 23.65960413437416 6.5000000000000009 5.5000000000000009 20.645885062585354 76.851495000000014 22.001595000000005 5.5000000000000009 6.5000000000000009 5.5000000000000009 6.5000000000000009 95.062170000000023 5.5000000000000009 3.5000000000000004 22.500000000000004 5.5000000000000009 6.5000000000000009 22.500000000000004 15.052068109843901 17.997550792749184 5.5000000000000009 6.5000000000000009 22.500000000000004
decision_type=2 2 2 2 2 2 2 2 2 2 2 2 2 2 2 2 2 2 2 2 2 2 2 2 2 2 2 2 2 2
left_child=2 5 3 7 12 16 22 -1 13 10 -9 -12 -3 -5 -7 -16 26 21 -6 20 -11 -18 -4 24 25 -24 -2 -8 29 -29
right_child=1 4 6 8 18 14 27 9 -10 19 11 -13 -14 -15 15 -17 17 -19 -20 -21 -22 -23 23 -25 -26 -27 -28 28 -30 -31
leaf_value=-1.1555481907661187 0.033207492315404194 0.68452113438192652 -0.3875884075484704 -0.70810582956529422 1.0674450739065591 0.36336958498530558 -0.13651543936423888 -0.86013958773099253 -0.20759965779027342 -0.99096693187329066 -0.49882235980301454 0.28816311588517407 0.87514850144464162 -0.54287246559071878 0.7906207025199955 0.45833655803518963 0.62063800993758866 0.17879852433764781 1.3035169720220292 -1.0658942044407536 -0.66116616432037922 0.027829115619813955 -0.16692289916853936 -0.31848852635592706 -0.40655704012984739 0.45298948545318729 0.23654959219228228 0.45027289751037447 -0.069035050550791621 -0.15246129660302296
leaf_weight=8019 19753 22249 22864 21097 15741 23854 23900 10766 3125 5633 1292 1425 17084 22905 4280 16632 3343 17773 6593 8899 4748 810 806 19162 929 2011 7003 2840 17215 737
leaf_count=8019 19753 22249 22864 21097 15741 23854 23900 10766 3125 5633 1292 1425 17084 22905 4280 16632 3343 17773 6593 8899 4748 810 806 19162 929 2011 7003 2840 17215 737
internal_value=-1.21221e-09 0.534056 -0.46442 -0.73928 0.901255 0.291738 -0.197324 -0.906458 -0.594609 -0.845491 -0.704154 -0.0860677 0.767319 -0.622095 0.439502 0.526344 0.155861 0.240587 1.13713 -0.944332 -0.840125 0.505017 -0.318229 -0.249002 0.106442 0.27562 0.0864294 -0.0734974 -0.00105941 0.326086
internal_weight=333488 155115 178373 87909 61667 93448 90464 40782 47127 32763 13483 2717 39333 44002 44766 20912 48682 21926 22334 19280 10381 4153 45772 22908 3746 2817 26756 44692 20792 3577
internal_count=333488 155115 178373 87909 61667 93448 90464 40782 47127 32763 13483 2717 39333 44002 44766 20912 48682 21926 22334 19280 10381 4153 45772 22908 3746 2817 26756 44692 20792 3577
is_linear=0
shrinkage=0.05


Tree=13
num_leaves=31
num_cat=0
split_feature=6 6 6 6 6 6 6 5 5 6 4 5 5 9 5 5 6 4 6 6 9 5 5 4 4 4 5 5 4 4
split_gain=2.98988e+07 5.89708e+06 3.82063e+06 980349 643388 554372 538063 181995 368089 178624 152137 124525 153499 114746 152503 259679 109260 93111 91863.9 91624.5 86251.9 85524.8 166777 111922 83091 80406.1 77615.1 108130 76724.2 74975.6
threshold=45.264030000000012 66.557610000000025 24.686497500000005 79.865415000000027 54.156165000000009 34.351170000000003 10.298909250000003 7.5000000000000009 5.5000000000000009 89.312947500000021 15.500000000000002 5.5000000000000009 6.5000000000000009 26.67442021891544 7.5000000000000009 5.5000000000000009 72.784582500000013 22.500000000000004 17.834775000000004 40.439700000000009 26.765440607674627 5.5000000000000009 6.5000000000000009 22.500000000000004 9.5000000000000018 22.500000000000004 5.5000000000000009 6.5000000000000009 9.5000000000000018 5.5000000000000009
decision_type=2 2 2 2 2 2 2 2 2 2 2 2 2 2 2 2 2 2 2 2 2 2 2 2 2 2 2 2 2 2
left_child=2 4 6 16 26 20 7 8 28 -5 24 -6 17 18 15 -15 -3 -13 -8 -7 21 -4 23 -23 -10 -12 -2 -28 -1 -9
right_child=1 3 5 9 11 19 13 29 10 -11 25 12 -14 14 -16 -17 -18 -19 -20 -21 -22 22 -24 -25 -26 -27 27 -29 -30 -31
leaf_value=-1.1710124947402498 0.014482053078039925 0.5685478449164838 -0.49672850141509495 0.91952768421637243 0.26131654920166125 -0.22012171349197263 -0.74959666767477673 -0.9294909434582771 -2.3476324157714843 1.1610263086911659 -0.31138328320619907 0.77877533387659015 0.35412991753450268 -0.48064267751810708 -0.81048294505786189 0.50031482262743265 0.73272871923586713 0.20697557549045614 -0.59886431234627657 -0.089149389075919294 0.25971384496122851 0.17153842491195698 -0.40920079638388662 -0.49692034952446112 0.59505407244318853 -1.3658756667865073 0.38887174343423658 0.091601166903786058 -0.82349649452557172 -1.1414188505582172
leaf_weight=2138 24550 20864 17875 18400 27708 28869 19447 9376 25 13114 1427 3840 19073 2798 1754 889 19703 874 21049 24846 476 2282 16491 863 593 207 3755 16504 6177 7521
leaf_count=2138 24550 20864 17875 18400 27708 28869 19447 9376 25 13114 1427 3840 19073 2798 1754 889 19703 874 21049 24846 476 2282 16491 863 593 207 3755 16504 6177 7521
internal_value=-6.0697e-10 0.468794 -0.478113 0.810812 0.212803 -0.262924 -0.746956 -0.922036 -0.759276 1.02002 -0.192231 0.333358 0.417275 -0.642283 -0.426695 -0.244117 0.648289 0.672761 -0.671249 -0.15954 -0.409112 -0.417599 -0.345565 -0.0118892 0.476013 -0.44497 0.0742604 0.1467 -0.912852 -1.02382
internal_weight=333488 168385 165103 72081 96304 91702 73401 27464 10567 31514 2252 51495 23787 45937 5441 3687 40567 4714 40496 53715 37987 37511 19636 3145 618 1634 44809 20259 8315 16897
internal_count=333488 168385 165103 72081 96304 91702 73401 27464 10567 31514 2252 51495 23787 45937 5441 3687 40567 4714 40496 53715 37987 37511 19636 3145 618 1634 44809 20259 8315 16897
is_linear=0
shrinkage=0.05


Tree=14
num_leaves=31
num_cat=0
split_feature=6 6 6 6 6 6 6 6 9 5 5 4 5 5 5 5 4 4 4 4 4 5 5 4 6 5 5 4 9 9
split_gain=2.70028e+07 5.05435e+06 3.819e+06 794987 641523 504402 456830 220224 172521 162436 477377 158205 117591 118177 114690 304498 202029 158463 153381 92089 116929 89175.1 125216 84300 82304.5 80948.3 226799 115809 92298.1 77882.3
threshold=50.199817500000002 30.029685000000004 72.360540000000015 14.944545000000002 61.353757500000007 41.20467750000001 85.986285000000024 3.9080895000000031 23.65960413437416 6.5000000000000009 5.5000000000000009 22.500000000000004 5.5000000000000009 6.5000000000000009 5.5000000000000009 7.5000000000000009 22.500000000000004 5.5000000000000009 3.5000000000000004 5.5000000000000009 3.5000000000000004 5.5000000000000009 6.5000000000000009 22.500000000000004 78.834682500000014 5.5000000000000009 6.5000000000000009 22.500000000000004 17.287727065113767 16.949675118125061
decision_type=2 2 2 2 2 2 2 2 2 2 2 2 2 2 2 2 2 2 2 2 2 2 2 2 2 2 2 2 2 2
left_child=1 3 4 7 12 25 24 -1 14 10 -9 -12 29 23 -5 16 -16 18 -17 20 -11 -6 -23 -14 -4 -3 27 28 -27 -2
right_child=2 5 6 8 21 -7 -8 9 -10 19 11 -13 13 -15 15 17 -18 -19 -20 -21 -22 22 -24 -25 -26 26 -28 -29 -30 -31
leaf_value=-1.0767449662931501 0.073645352129510122 -0.308469852078464 0.67811398699831904 -0.63318687444117461 0.40238062179650785 -0.01799822218645759 1.0589043644371441 -0.77968716508909142 -0.14608565451957295 -0.90336976347218101 0.065517190903314759 -1.0859699632331332 0.62714564775633352 0.2335496088070963 0.13790690224634677 -0.50612327676510438 -0.64205402949694079 -0.68127220775477904 -0.050938859943854935 -0.96870761268447447 -0.57826353637924255 0.80220880481340073 0.48558906396697221 0.081940087070899559 0.83372915436385697 0.075761593063413915 -0.24901744310317456 -0.32036918319256891 0.62452215210682627 0.24558998817261465
leaf_weight=6717 17853 25821 18488 20450 20799 46068 18342 11755 2897 6153 2597 337 3598 18516 2966 10000 1153 11319 2271 9544 5024 3967 14671 883 15723 1848 21010 974 1309 10435
leaf_count=6717 17853 25821 18488 20450 20799 46068 18342 11755 2897 6153 2597 337 3598 18516 2966 10000 1153 11319 2271 9544 5024 3967 14671 883 15723 1848 21010 974 1309 10435
internal_value=2.30265e-10 -0.39048 0.518405 -0.653487 0.321932 -0.137901 0.857575 -0.814264 -0.520828 -0.764474 -0.637283 -0.0667429 0.205338 0.289309 -0.54337 -0.477083 -0.0804216 -0.546343 -0.421882 -0.854639 -0.757236 0.473554 0.55298 0.519711 0.749633 -0.246289 -0.182427 0.15625 0.303296 0.137073
internal_weight=333488 190213 143275 93183 90722 97030 52553 42127 51056 35410 14689 2934 51285 22997 48159 27709 4119 23590 12271 20721 11177 39437 18638 4481 34211 50962 25141 4131 3157 28288
internal_count=333488 190213 143275 93183 90722 97030 52553 42127 51056 35410 14689 2934 51285 22997 48159 27709 4119 23590 12271 20721 11177 39437 18638 4481 34211 50962 25141 4131 3157 28288
is_linear=0
shrinkage=0.05


Tree=15
num_leaves=31
num_cat=0
split_feature=6 6 6 6 6 6 6 6 5 5 4 9 5 5 5 5 9 5 5 4 4 4 5 5 4 5 4 5 5 4
split_gain=2.43976e+07 5.04455e+06 2.95047e+06 855508 524286 471280 374874 162640 155330 301985 130842 93920.7 93442.4 118868 92802.1 147778 89537.5 135979 227284 84181.7 128709 122249 84147.6 163346 114864 83109.5 345607 75490.6 198953 93410.1
threshold=44.497005000000009 65.813317500000025 23.152027500000006 79.323615000000018 54.156165000000009 34.082842500000005 9.864613499999999 91.361287500000017 7.5000000000000009 5.5000000000000009 15.500000000000002 23.65960413437416 5.5000000000000009 6.5000000000000009 5.5000000000000009 6.5000000000000009 24.959460356514835 7.5000000000000009 5.5000000000000009 5.5000000000000009 15.500000000000002 3.5000000000000004 5.5000000000000009 6.5000000000000009 22.500000000000004 5.5000000000000009 18.500000000000004 5.5000000000000009 6.5000000000000009 22.500000000000004
decision_type=2 2 2 2 2 2 2 2 2 2 2 2 2 2 2 2 2 2 2 2 2 2 2 2 2 2 2 2 2 2
left_child=2 4 6 14 -2 11 8 -5 9 -1 -11 22 -6 -14 -3 -16 19 18 -18 21 -21 -8 -4 24 -24 -22 -27 -7 29 -29
right_child=1 3 5 7 12 27 16 -9 -10 10 -12 -13 13 -15 15 -17 17 -19 -20 20 25 -23 23 -25 -26 26 -28 28 -30 -31
leaf_value=-0.82942790758971141 0.060675931171204435 0.50134274732533446 -0.46918338560476536 0.83761200308995543 0.2286596532917832 -0.21518650737073922 -0.63393751894617134 1.0762608702270391 -0.9369156282770762 0.4518941421712776 -0.40892777341868564 0.17646188340605359 0.59924793156700262 0.31042628576975012 0.8964700033061096 0.57602602530038149 -0.45855676719388055 -0.75973320019389312 0.45016717877212209 -0.86208612598554935 -0.69215152664776491 -0.27296869677821933 0.16498681372481555 -0.38590489963658392 -0.4741942256352496 0.06620382926667788 -0.69234994671292471 0.35380397242100547 -0.15719021553469292 -0.22658889627268725
leaf_weight=7937 48675 21719 19367 22327 26326 26749 6676 10495 16074 618 1545 736 4439 18040 4681 15549 2881 1902 904 6850 11788 3616 2525 18235 974 2091 5327 3161 20393 888
leaf_count=7937 48675 21719 19367 22327 26326 26749 6676 10495 16074 618 1545 736 4439 18040 4681 15549 2881 1902 904 6850 11788 3616 2525 18235 974 2091 5327 3161 20393 888
internal_value=-2.58879e-10 0.413766 -0.44203 0.722719 0.176788 -0.258884 -0.691817 0.913921 -0.840363 -0.686702 -0.162979 -0.38337 0.29259 0.367461 0.573117 0.650173 -0.599321 -0.414834 -0.241519 -0.628186 -0.676009 -0.507114 -0.393395 -0.32586 -0.012939 -0.609643 -0.478527 -0.157146 -0.0936264 0.226516
internal_weight=333488 172251 161237 74771 97480 93028 68209 32822 26174 10100 2163 41837 48805 22479 41949 20230 42035 5687 3785 36348 26056 10292 41101 21734 3499 19206 7418 51191 24442 4049
internal_count=333488 172251 161237 74771 97480 93028 68209 32822 26174 10100 2163 41837 48805 22479 41949 20230 42035 5687 3785 36348 26056 10292 41101 21734 3499 19206 7418 51191 24442 4049
is_linear=0
shrinkage=0.05


Tree=16
num_leaves=31
num_cat=0
split_feature=6 6 6 6 6 6 6 6 9 5 5 4 5 5 5 5 4 4 4 6 9 4 4 4 5 5 9 4 9 9
split_gain=2.20347e+07 3.85425e+06 3.37316e+06 611686 578350 394388 392628 195047 139533 134259 409416 141725 94919.3 101989 91677.9 234381 155127 125143 126202 87215.6 84759.9 81248.5 98340.7 78468.2 77253.1 106093 77202.9 66545.9 65494.9 64415.9
threshold=49.151655000000012 29.3327475 71.914710000000014 15.364492500000003 60.382770000000008 87.564487500000013 40.179562500000003 4.3393402499999993 23.65960413437416 6.5000000000000009 5.5000000000000009 22.500000000000004 5.5000000000000009 6.5000000000000009 5.5000000000000009 7.5000000000000009 22.500000000000004 5.5000000000000009 3.5000000000000004 77.854507500000011 20.673542708607712 5.5000000000000009 3.5000000000000004 22.500000000000004 5.5000000000000009 6.5000000000000009 15.107030051300589 22.500000000000004 19.074221318855567 26.839058181045839
decision_type=2 2 2 2 2 2 2 2 2 2 2 2 2 2 2 2 2 2 2 2 2 2 2 2 2 2 2 2 2 2
left_child=1 3 4 7 12 19 29 -1 14 10 20 28 26 23 -5 16 -16 18 -17 -4 -9 22 -11 -14 -6 27 -2 -26 -12 -3
right_child=2 6 5 8 24 -7 -8 9 -10 21 11 -13 13 -15 15 17 -18 -19 -20 -21 -22 -23 -24 -25 25 -27 -28 -29 -30 -31
leaf_value=-0.95524566103590536 -0.016322710957799889 -0.24428801586003324 0.5989567723023218 -0.57706806708657421 0.34797480820053384 0.98016344425055169 -0.03633892157359956 -0.81412969876876495 -0.11503680984895946 -0.80735279910076008 -0.29454111149981893 -0.99255251161284463 0.55260612784551044 0.1867817741432285 0.12673703378256948 -0.45885827574206478 -0.58500231442070716 -0.61904550937063718 -0.028143765851029623 0.75089046858063513 -0.54341007014823883 -0.87165508041764694 -0.50780700438131821 0.029155922829346165 0.7971062291115032 0.42354216748710061 0.15860800713131296 0.27302559214513267 0.24474374948316491 0.58205067495253526
leaf_weight=8019 9287 48174 17163 18780 22248 15718 46081 6835 2582 6090 812 349 3661 19050 2763 9227 1059 10520 2085 21006 5011 9544 4981 890 3488 15601 19658 733 1836 237
leaf_count=8019 9287 48174 17163 18780 22248 15718 46081 6835 2582 6090 812 349 3661 19050 2763 9227 1059 10520 2085 21006 5011 9544 4981 890 3488 15601 19658 733 1836 237
internal_value=8.82249e-11 -0.364152 0.453612 -0.59737 0.273774 0.769375 -0.140805 -0.732552 -0.472363 -0.682189 -0.567528 -0.0454517 0.163163 0.237585 -0.493127 -0.431678 -0.0704717 -0.494912 -0.37947 0.682572 -0.699612 -0.764746 -0.672583 0.450239 0.411929 0.483711 0.102482 0.706097 0.0793739 -0.240243
internal_weight=333488 184985 148503 90493 94616 53887 94492 43477 47016 35458 14843 2997 52546 23601 44434 25654 3822 21832 11312 38169 11846 20615 11071 4551 42070 19822 28945 4221 2648 48411
internal_count=333488 184985 148503 90493 94616 53887 94492 43477 47016 35458 14843 2997 52546 23601 44434 25654 3822 21832 11312 38169 11846 20615 11071 4551 42070 19822 28945 4221 2648 48411
is_linear=0
shrinkage=0.05


Tree=17
num_leaves=31
num_cat=0
split_feature=6 6 6 6 6 6 6 5 5 9 6 9 5 5 6 5 5 5 5 9 4 5 5 4 4 4 4 5 4 9
split_gain=1.991e+07 3.94448e+06 2.57926e+06 601887 478995 383124 351496 126146 250300 116536 110055 81015.9 118075 205544 80408.3 75653.3 91689 75326.6 103903 74252.9 73990.6 73873.8 145486 96313.9 73394.6 112613 106718 80272.9 311449 72047.2
threshold=45.264030000000012 67.276492500000018 24.291435000000011 80.940405000000013 55.868347500000006 36.08970750000001 10.298909250000003 7.5000000000000009 5.5000000000000009 19.963260682539794 93.75303000000001 23.65960413437416 7.5000000000000009 5.5000000000000009 74.055975000000018 5.5000000000000009 6.5000000000000009 5.5000000000000009 6.5000000000000009 26.765440607674627 22.500000000000004 5.5000000000000009 6.5000000000000009 22.500000000000004 5.5000000000000009 15.500000000000002 3.5000000000000004 5.5000000000000009 18.500000000000004 17.980100444700899
decision_type=2 2 2 2 2 2 2 2 2 2 2 2 2 2 2 2 2 2 2 2 2 2 2 2 2 2 2 2 2 2
left_child=2 4 6 14 17 19 7 8 -1 -10 -5 24 13 -13 -3 -6 -17 29 20 21 -19 -4 23 -23 26 -26 -8 -27 -29 -2
right_child=1 3 5 10 15 -7 11 -9 9 -11 -12 12 -14 -15 -16 16 -18 18 -20 -21 -22 22 -24 -25 25 27 -28 28 -30 -31
leaf_value=-0.74646266931506644 -0.029028108498111573 0.48288564612103974 -0.38848673051884941 0.7857283057873663 0.2379580268353991 -0.11316764384850918 -0.55231016183501358 -0.84006710808286877 -0.60301234358177447 0.13476063907109229 1.0048824502369569 -0.39841114385958792 -0.67720683654240477 0.45856558807456199 0.62435833849537969 0.57460768056428602 0.31478937330796758 0.46074534313194859 0.092395110139400702 0.25980864173208934 -0.049264605275303831 0.16950251485324441 -0.31589149524573207 -0.39411535332600278 -0.76936221804492533 -0.61505421912602098 -0.21731946573954686 0.080009074700958749 -0.61086101498164391 0.14381812463596572
leaf_weight=8315 20271 22231 22384 21104 24771 45826 7303 16897 876 1376 7863 2932 1881 919 18321 4238 17083 3587 19448 553 887 2832 20362 1035 7054 13030 3525 2282 5721 8581
leaf_count=8315 20271 22231 22384 21104 24771 45826 7303 16897 876 1376 7863 2932 1881 919 18321 4238 17083 3587 19448 553 887 2832 20362 1035 7054 13030 3525 2282 5721 8581
internal_value=-8.06269e-10 0.382552 -0.390157 0.671145 0.179625 -0.216129 -0.614577 -0.755325 -0.619821 -0.152224 0.845217 -0.527998 -0.352503 -0.193903 0.546802 0.297388 0.366434 0.0767721 0.142375 -0.316166 0.359633 -0.322999 -0.262498 0.0186506 -0.553847 -0.596482 -0.443256 -0.538502 -0.413864 0.0223788
internal_weight=333488 168385 165103 69519 98866 92992 72111 27464 10567 2252 28967 44647 5732 3851 40552 46092 21321 52774 23922 47166 4474 46613 24229 3867 38915 28087 10828 21033 8003 28852
internal_count=333488 168385 165103 69519 98866 92992 72111 27464 10567 2252 28967 44647 5732 3851 40552 46092 21321 52774 23922 47166 4474 46613 24229 3867 38915 28087 10828 21033 8003 28852
is_linear=0
shrinkage=0.05


Tree=18
num_leaves=31
num_cat=0
split_feature=6 6 6 6 6 6 6 6 9 5 5 4 6 5 5 9 4 4 5 5 4 9 4 9 4 6 4 5 5 5
split_gain=1.80002e+07 3.38026e+06 2.54409e+06 593944 416916 327527 294752 168416 119593 113952 347153 123271 88307.6 87029.6 86011.6 72490.1 71545.3 93768.9 71456.3 200433 94367 86618.7 68141.8 67393.8 64442.2 60453.5 60195.9 59810.7 120646 66735.9
threshold=50.199817500000002 30.987495000000003 71.914710000000014 15.364492500000003 61.974622500000009 84.624487500000001 42.45864000000001 3.9080895000000031 23.65960413437416 6.5000000000000009 5.5000000000000009 22.500000000000004 22.763580000000005 5.5000000000000009 6.5000000000000009 20.673542708607712 5.5000000000000009 3.5000000000000004 5.5000000000000009 6.5000000000000009 22.500000000000004 17.287727065113767 22.500000000000004 15.888989613473237 9.5000000000000018 95.062170000000023 3.5000000000000004 5.5000000000000009 6.5000000000000009 4.5000000000000009
decision_type=2 2 2 2 2 2 2 2 2 2 2 2 2 2 2 2 2 2 2 2 2 2 2 2 2 2 2 2 2 2
left_child=1 3 4 7 13 27 18 -1 12 10 15 -12 -5 23 22 -9 17 -11 -3 20 21 -20 -15 -2 -17 -7 -10 29 -29 -4
right_child=2 6 5 8 -6 25 -8 9 26 16 11 -13 -14 14 -16 24 -18 -19 19 -21 -22 -23 -24 -25 -26 -27 -28 28 -30 -31
leaf_value=-0.89287211384529419 0.03153569810044269 -0.23640519418056838 1.2149515847022507 -0.50812699437070163 0.39287746487896369 0.79148729533258755 -8.1958313471718991e-05 -0.74152206902247508 -0.67248160012204705 -0.73863119048652415 0.071328802131602684 -0.9178686670859586 -0.37475565340052563 0.52667345906480512 0.19593856952605665 -0.95729827010613588 -0.7940977223211112 -0.45173404950131268 0.10151665486359998 -0.18243896151351449 -0.2405886627218306 0.61781120067542561 0.049187506031732713 0.18299581153673669 -0.43023984571357388 0.97427930720958489 0.0094757072986372728 0.8960170962680849 0.58404404199989357 0.51522479754585804
leaf_weight=6717 13380 27452 348 21459 35446 14408 39513 6993 377 6384 2731 356 29436 3818 19533 663 9861 5142 1949 21890 983 1393 929 16282 4630 6593 2284 4179 11991 16368
leaf_count=6717 13380 27452 348 21459 35446 14408 39513 6993 377 6384 2731 356 29436 3818 19533 663 9861 5142 1949 21890 983 1393 929 16282 4630 6593 2284 4179 11991 16368
internal_value=6.84439e-10 -0.318812 0.423257 -0.525362 0.259668 0.694618 -0.10372 -0.662658 -0.413905 -0.620592 -0.516758 -0.0427477 -0.430989 0.172135 0.242331 -0.635859 -0.695228 -0.61064 -0.180025 -0.120985 0.19005 0.316717 0.433228 0.114675 -0.496259 0.848873 -0.0871413 0.596112 0.664671 0.529792
internal_weight=333488 190213 143275 97033 89388 53887 93180 43477 53556 36760 15373 3087 50895 53942 24280 12286 21387 11526 53667 26215 4325 3342 4747 29662 5293 21001 2661 32886 16170 16716
internal_count=333488 190213 143275 97033 89388 53887 93180 43477 53556 36760 15373 3087 50895 53942 24280 12286 21387 11526 53667 26215 4325 3342 4747 29662 5293 21001 2661 32886 16170 16716
is_linear=0
shrinkage=0.05


Tree=19
num_leaves=31
num_cat=0
split_feature=6 6 6 6 6 6 6 6 9 5 5 4 5 5 4 4 4 5 5 9 5 5 5 5 5 4 9 9 4 4
split_gain=1.62452e+07 3.05068e+06 2.29795e+06 536034 395108 283537 266013 152258 107932 98587.5 300539 108136 80164.5 193869 133147 114370 112477 78544.2 77625.5 67176 66092.4 82086.8 113635 64489.3 180891 85166.2 78702.7 62650.1 62309.1 76357.3
threshold=50.199817500000002 30.987495000000003 72.360540000000015 15.364492500000003 61.974622500000009 87.564487500000013 42.45864000000001 4.3393402499999993 23.65960413437416 6.5000000000000009 5.5000000000000009 22.500000000000004 5.5000000000000009 6.5000000000000009 22.500000000000004 5.5000000000000009 3.5000000000000004 5.5000000000000009 6.5000000000000009 20.673542708607712 4.5000000000000009 5.5000000000000009 6.5000000000000009 5.5000000000000009 6.5000000000000009 22.500000000000004 16.460402930612794 17.037049408852294 5.5000000000000009 3.5000000000000004
decision_type=2 2 2 2 2 2 2 2 2 2 2 2 2 2 2 2 2 2 2 2 2 2 2 2 2 2 2 2 2 2
left_child=1 3 4 7 17 20 23 -1 12 10 19 -12 -5 14 -14 16 -15 27 -19 -9 -4 -22 -23 -3 25 26 -25 -2 29 -11
right_child=2 6 5 8 -6 -7 -8 9 -10 28 11 -13 13 15 -16 -17 -18 18 -20 -21 21 22 -24 24 -26 -27 -28 -29 -30 -31
leaf_value=-0.82628053777691646 0.057306286027449284 -0.22458493414346453 1.1512216023003408 -0.4816934026706145 0.37605537881292878 0.84297921419341315 -7.7859659671008087e-05 -0.7018884526276532 -0.08278425277757806 -0.6938176570223088 0.069565128706736076 -0.86676164412054435 0.12503364426955818 -0.37441296397680945 -0.49134024221964767 -0.52235048977022192 0.014402034649372689 0.41156682622370522 0.18614164081304604 -0.46088035983976977 0.5058081516808951 0.86346852577392019 0.58105162983995939 0.048460622833014652 -0.17331701348937639 -0.2285592271551293 0.53411877492819593 0.21120421126412472 -0.74939539471417926 -0.42986761854467526
leaf_weight=8019 19710 27452 516 21883 36780 15718 39513 6835 2661 6090 2648 349 3135 10686 1216 11723 2252 4747 19533 5011 18072 4852 13395 1605 21890 983 1737 9952 9544 4981
leaf_count=8019 19710 27452 516 21883 36780 15718 39513 6835 2661 6090 2648 349 3135 10686 1216 11723 2252 4747 19533 5011 18072 4852 13395 1605 21890 983 1737 9952 9544 4981
internal_value=5.49693e-10 -0.302871 0.402094 -0.499094 0.24969 0.665189 -0.0985343 -0.629525 -0.39321 -0.585028 -0.486773 -0.0394699 -0.40944 -0.354941 -0.0472281 -0.409232 -0.306735 0.163528 0.230215 -0.599939 0.589324 0.58134 0.656148 -0.171024 -0.114936 0.180548 0.300881 0.108941 -0.655772 -0.575063
internal_weight=333488 190213 143275 97033 90722 52553 93180 43477 53556 35458 14843 2997 50895 29012 4351 24661 12938 53942 24280 11846 36835 36319 18247 53667 26215 4325 3342 29662 20615 11071
internal_count=333488 190213 143275 97033 90722 52553 93180 43477 53556 35458 14843 2997 50895 29012 4351 24661 12938 53942 24280 11846 36835 36319 18247 53667 26215 4325 3342 29662 20615 11071
is_linear=0
shrinkage=0.05


Tree=20
num_leaves=31
num_cat=0
split_feature=6 6 6 6 6 6 6 5 5 4 6 5 5 4 9 4 9 5 5 4 9 5 5 5 5 9 4 5 5 4
split_gain=1.4673e+07 3.05592e+06 1.80655e+06 520506 329476 287193 238106 100816 180411 101616 88491 72416.4 124024 70056.8 66933.1 62447.4 67821 61454.7 87738.2 66875.2 63138.7 61395.8 75704.8 58541.6 147527 73557.6 66212.1 58183.2 107076 74796.6
threshold=44.497005000000009 65.813317500000025 23.152027500000006 80.40033750000002 54.721957500000009 34.351170000000003 9.4239914999999996 7.5000000000000009 5.5000000000000009 15.500000000000002 95.062170000000023 5.5000000000000009 6.5000000000000009 9.5000000000000018 23.65960413437416 9.5000000000000018 30.030268250587202 5.5000000000000009 6.5000000000000009 22.500000000000004 15.888989613473237 4.5000000000000009 5.5000000000000009 5.5000000000000009 6.5000000000000009 15.107030051300589 22.500000000000004 5.5000000000000009 6.5000000000000009 22.500000000000004
decision_type=2 2 2 2 2 2 2 2 2 2 2 2 2 2 2 2 2 2 2 2 2 2 2 2 2 2 2 2 2 2
left_child=2 4 6 11 17 14 7 8 15 13 21 -3 -13 -10 27 -1 -17 20 19 -19 -2 -5 -23 -7 25 -25 -27 -4 29 -29
right_child=1 3 5 10 -6 23 -8 -9 9 -11 -12 12 -14 -15 -16 16 -18 18 -20 -21 -22 22 -24 24 -26 26 -28 28 -30 -31
leaf_value=-0.88865910075069265 -0.094227187432405657 0.39105161479154454 -0.36411018536093676 1.0787528110747804 0.23341789362078236 -0.16940931751639421 -0.46751127191341513 -0.74138284647743147 -2.177094451904297 -0.34972647485295072 0.88341637317271471 0.7353508036368025 0.45207307626760102 0.52494708223937436 0.17626097572414123 -0.65190942824852927 -0.22081344913417056 0.41185436768496209 0.063129610523043278 -0.080159320037473586 0.059491770849038041 0.56367348579901488 0.74643253955946465 -0.086702117032159576 -0.11668575614077625 0.49000466918262853 -0.15306786994139354 0.14470516465818745 -0.29448027268462401 -0.3661164458126131
leaf_weight=1989 10956 23040 20008 911 46130 26101 43350 15274 25 1454 6593 5051 16440 593 744 4371 1153 3442 18972 864 17116 10735 12001 1323 19786 2147 492 2595 18842 990
leaf_count=1989 10956 23040 20008 911 46130 26101 43350 15274 25 1454 6593 5051 16440 593 744 4371 1153 3442 18972 864 17116 10735 12001 1323 19786 2147 492 2595 18842 990
internal_value=6.54635e-10 0.320879 -0.342798 0.561344 0.136433 -0.199488 -0.538254 -0.661618 -0.534509 -0.121446 0.721431 0.452632 0.518651 0.415641 -0.293882 -0.648428 -0.561929 0.0493077 0.109375 0.313132 -0.000501992 0.676268 0.660141 -0.117725 -0.0609197 0.217573 0.370114 -0.302125 -0.246825 0.00364146
internal_weight=333488 172251 161237 74771 97480 93028 68209 24859 9585 2072 30240 44531 21491 618 43179 7513 5524 51350 23278 4306 28072 23647 22736 49849 23748 3962 2639 42435 22427 3585
internal_count=333488 172251 161237 74771 97480 93028 68209 24859 9585 2072 30240 44531 21491 618 43179 7513 5524 51350 23278 4306 28072 23647 22736 49849 23748 3962 2639 42435 22427 3585
is_linear=0
shrinkage=0.05


Tree=21
num_leaves=31
num_cat=0
split_feature=6 6 6 6 6 6 6 6 6 5 5 9 5 5 9 5 5 5 4 9 9 5 4 9 5 5 5 5 5 9
split_gain=1.32571e+07 2.50127e+06 1.88539e+06 381368 337140 275846 220593 96153.9 84807.3 68143 174005 89596.7 62076.8 86653.5 61896.1 61073 60183.1 138857 74240.6 69855.6 66551.7 59834.7 57471.6 55435.8 83192.9 142930 54513.4 62807.2 91279.2 54268.3
threshold=50.199817500000002 29.3327475 72.784582500000013 11.641350000000005 61.034242500000012 39.363712500000013 87.564487500000013 3.9080895000000031 20.415622500000001 7.5000000000000009 5.5000000000000009 23.65960413437416 5.5000000000000009 6.5000000000000009 23.65960413437416 5.5000000000000009 5.5000000000000009 6.5000000000000009 22.500000000000004 14.617549877941281 17.997550792749184 6.5000000000000009 22.500000000000004 20.865348443090586 7.5000000000000009 5.5000000000000009 4.5000000000000009 5.5000000000000009 6.5000000000000009 17.565675266315314
decision_type=2 2 2 2 2 2 2 2 2 2 2 2 2 2 2 2 2 2 2 2 2 2 2 2 2 2 2 2 2 2
left_child=1 3 4 7 15 -3 26 -1 23 10 -9 -12 -6 22 -10 29 20 18 19 -18 -7 -17 -14 -5 25 -25 -4 -28 -29 -2
right_child=2 5 6 8 12 16 -8 9 14 -11 11 -13 13 -15 -16 21 17 -19 -20 -21 -22 -23 -24 24 -26 -27 27 28 -30 -31
leaf_value=-0.77219400024847185 0.044482128909117645 -0.19341879685178859 1.0480332354318749 -0.48503026658505038 0.27472263799636082 -0.1283139323657265 0.76234960521030803 -0.56551182530953636 -0.34543661437709444 -0.62705316511588416 -0.41644422646553292 0.24118922166108106 0.68012651442796046 0.34192746009983577 0.054739880588891093 0.36815576493521307 0.024889251185597514 -0.023303018570658571 -0.12639703687014023 0.52242740554564504 0.030394343307509619 0.16136921025465384 0.19211438051143478 -0.33649126860828327 -0.60195700457338064 0.45386079105738325 0.46230744725947304 0.78476248679318317 0.52762775304518084 0.19757064045709266
leaf_weight=6717 19329 44552 515 22883 22215 19581 15718 7897 30395 14794 937 1158 3522 15640 998 4341 971 21187 881 2580 9968 18019 728 2453 1515 746 17352 4709 12923 8264
leaf_count=6717 19329 44552 515 22883 22215 19581 15718 7897 30395 14794 937 1158 3522 15640 998 4341 971 21187 881 2580 9968 18019 728 2453 1515 746 17352 4709 12923 8264
internal_value=-3.80747e-10 -0.273602 0.363236 -0.463935 0.227947 -0.10088 0.606406 -0.604394 -0.388925 -0.55892 -0.458042 -0.0529409 0.332169 0.39633 -0.332715 0.1401 -0.0261491 0.0299369 0.284448 0.386379 -0.0747756 0.201515 0.596533 -0.452866 -0.296733 -0.152183 0.537358 0.52984 0.596301 0.0903316
internal_weight=333488 190213 143275 90493 92058 99720 51217 31503 58990 24786 9992 2095 42105 19890 31393 49953 55168 25619 4432 3551 29549 22360 4250 27597 4714 3199 35499 34984 17632 27593
internal_count=333488 190213 143275 90493 92058 99720 51217 31503 58990 24786 9992 2095 42105 19890 31393 49953 55168 25619 4432 3551 29549 22360 4250 27597 4714 3199 35499 34984 17632 27593
is_linear=0
shrinkage=0.05


Tree=22
num_leaves=31
num_cat=0
split_feature=6 6 6 6 6 6 6 5 5 9 6 9 6 5 4 9 5 5 4 9 5 5 9 9 6 4 4 9 4 4
split_gain=1.19863e+07 2.24136e+06 1.71211e+06 321408 314024 278969 205060 84107.1 158015 85395.1 62209.4 60298.7 57324.4 57256 55417.5 61591 54678.1 68506 59777 54392.2 52277 119030 61790.5 54765.6 49371.7 48657.6 76151.1 47627.6 47188.5 47597.5
threshold=46.32300750000001 68.761980000000008 26.908612500000007 56.989432500000007 82.680517500000022 9.864613499999999 36.652035000000005 7.5000000000000009 5.5000000000000009 18.890922449584696 19.548375 17.997550792749184 95.062170000000023 5.5000000000000009 9.5000000000000018 30.030268250587202 5.5000000000000009 6.5000000000000009 22.500000000000004 26.900863398873931 5.5000000000000009 6.5000000000000009 17.287727065113767 17.620772435351217 75.928860000000014 5.5000000000000009 3.5000000000000004 23.65960413437416 9.5000000000000018 15.500000000000002
decision_type=2 2 2 2 2 2 2 2 2 2 2 2 2 2 2 2 2 2 2 2 2 2 2 2 2 2 2 2 2 2
left_child=2 3 5 11 24 7 19 8 14 -10 -7 13 -6 -2 -1 -16 -5 18 -18 -4 23 22 -22 -8 -3 26 -9 -12 -11 -30
right_child=1 4 6 16 12 10 20 25 9 28 27 -13 -14 -15 15 -17 17 -19 -20 -21 21 -23 -24 -25 -26 -27 -28 -29 29 -31
leaf_value=-0.80444418295099229 -0.015680281871993652 0.39908486591767056 -0.23006802021825862 0.20260770724908977 0.62937555082150798 -0.44326981595107551 -0.18369806093992017 -0.70544835979518383 -0.59483308361377574 -2.0559779891967778 -0.3508136816552011 0.16263391926700391 0.80112803311432712 0.1059318034950731 -0.58708422153017092 -0.18551564269192433 0.57554378099393222 0.26686450752168284 0.08709974495023122 0.41351703861193717 0.086458483158224395 -0.069185157797359134 0.50249537761185881 -0.03617418459125156 0.51228105739169683 -0.76168280122211041 -0.40723570523939001 -0.00044047878428733549 0.4850153123031733 -0.089845785712777917
leaf_weight=2091 20860 22290 40178 24626 18463 30299 14880 5372 624 25 23872 13725 6593 18056 4644 1202 3563 17081 760 331 2513 18966 1384 10899 16964 7143 3559 1011 590 924
leaf_count=2091 20860 22290 40178 24626 18463 30299 14880 5372 624 25 23872 13725 6593 18056 4644 1202 3563 17081 760 331 2513 18966 1384 10899 16964 7143 3559 1011 590 924
internal_value=3.5973e-10 0.306602 -0.293069 0.156909 0.536276 -0.458926 -0.141714 -0.593362 -0.480291 -0.101449 -0.39516 0.0725245 0.674569 0.0407445 -0.583533 -0.504517 0.253413 0.311866 0.489673 -0.224809 -0.0725121 -0.0174711 0.234212 -0.121327 0.448004 -0.66441 -0.586611 -0.336578 0.0985978 0.134175
internal_weight=333488 162981 170507 98671 64310 81356 89151 26174 10100 2163 55182 52641 25056 38916 7937 5846 46030 21404 4323 40509 48642 22863 3897 25779 39254 16074 8931 24883 1539 1514
internal_count=333488 162981 170507 98671 64310 81356 89151 26174 10100 2163 55182 52641 25056 38916 7937 5846 46030 21404 4323 40509 48642 22863 3897 25779 39254 16074 8931 24883 1539 1514
is_linear=0
shrinkage=0.05


Tree=23
num_leaves=31
num_cat=0
split_feature=6 6 6 6 6 6 6 6 9 5 5 4 5 5 4 4 4 9 5 9 9 4 4 4 5 5 4 4 5 5
split_gain=1.08328e+07 2.40449e+06 1.24728e+06 380372 227205 213616 154355 111234 84925.5 72732.3 231633 90969.2 71179.6 175725 119132 104047 105960 57870.2 56705.3 56407.7 56191.2 55597 72451.2 52537.2 58027.2 63522.2 49327.3 48215.5 46815.5 125796
threshold=52.780455000000011 31.629727499999998 74.055975000000018 15.364492500000003 42.713107500000007 64.049790000000016 87.564487500000013 3.9080895000000031 23.65960413437416 6.5000000000000009 5.5000000000000009 22.500000000000004 5.5000000000000009 6.5000000000000009 22.500000000000004 5.5000000000000009 3.5000000000000004 17.997550792749184 5.5000000000000009 17.60689595969485 20.645885062585354 5.5000000000000009 3.5000000000000004 3.5000000000000004 5.5000000000000009 6.5000000000000009 9.5000000000000018 24.500000000000004 5.5000000000000009 6.5000000000000009
decision_type=2 2 2 2 2 2 2 2 2 2 2 2 2 2 2 2 2 2 2 2 2 2 2 2 2 2 2 2 2 2
left_child=1 3 5 7 28 -2 -4 -1 12 10 20 -12 -5 14 19 16 -15 18 -6 -14 -9 22 -11 -10 -25 -26 -22 -16 -3 -30
right_child=2 4 6 8 17 -7 -8 9 23 21 11 -13 13 15 27 -17 -18 -19 -20 -21 26 -23 -24 24 25 -27 -28 -29 29 -31
leaf_value=-0.70148947067673573 0.17213286545375786 -0.17873325278635555 0.49739611934069683 -0.39714323289511755 -0.076973848733447356 0.33528693016459843 0.68916123644841032 -0.58874871289827879 -0.58780660426709808 -0.57777620841902777 0.087935860236445187 -0.76183067218850509 -0.0057708450471495179 -0.299406356560182 -0.52163630220387558 -0.43763745932374531 0.072930724828755775 0.097895626843820652 0.048265504249502489 0.41628344172690612 -0.7711429746711953 -0.62699345080711799 -0.32559091052779343 -0.15269531357139665 0.6944339172987305 -0.1730661823773724 -0.31545701812965754 0.40906881600056055 0.16585215771038173 -0.13351121417307846
leaf_weight=6717 48738 26888 31570 23179 19462 34098 15718 6917 380 6384 2731 356 1969 11267 1115 12166 2301 15009 16875 1324 680 9861 5142 1413 551 342 4689 159 4202 21285
leaf_count=6717 48738 26888 31570 23179 19462 34098 15718 6917 380 6384 2731 356 1969 11267 1115 12166 2301 15009 16875 1324 680 9861 5142 1413 551 342 4689 159 4202 21285
internal_value=6.10865e-10 -0.227951 0.356253 -0.403361 -0.0594376 0.239292 0.561137 -0.514396 -0.317412 -0.480209 -0.397254 -0.0100612 -0.33119 -0.280739 0.00508298 -0.331464 -0.236262 0.0153027 -0.0188124 0.163922 -0.494541 -0.539837 -0.465271 -0.043068 0.0466982 0.3622 -0.373171 -0.405481 -0.132709 -0.0841557
internal_weight=333488 203364 130124 99643 103721 82836 47288 43477 56166 36760 15373 3087 53480 30301 4567 25734 13568 51346 36337 3293 12286 21387 11526 2686 2306 893 5369 1274 52375 25487
internal_count=333488 203364 130124 99643 103721 82836 47288 43477 56166 36760 15373 3087 53480 30301 4567 25734 13568 51346 36337 3293 12286 21387 11526 2686 2306 893 5369 1274 52375 25487
is_linear=0
shrinkage=0.05


Tree=24
num_leaves=31
num_cat=0
split_feature=6 6 6 6 6 6 6 6 4 9 5 5 4 4 5 4 5 5 9 5 9 9 5 5 4 4 5 5 5 5
split_gain=9.78503e+06 2.07094e+06 1.18758e+06 367607 217442 189533 157522 74691.4 65234.4 63871.7 211520 139051 79074.4 117435 58522.2 201838 57189.1 92593.4 47858.3 50456.2 46910.7 46876 46433.9 64292 53748.9 46157.9 45013.6 51060.7 43784.9 80616.4
threshold=44.245372500000009 65.44130250000002 22.763580000000005 78.834682500000014 53.87429250000001 32.89618500000001 4.7211675 91.361287500000017 1.5000000000000002 26.900863398873931 7.5000000000000009 5.5000000000000009 5.5000000000000009 15.500000000000002 5.5000000000000009 18.500000000000004 5.5000000000000009 6.5000000000000009 17.037049408852294 5.5000000000000009 23.65960413437416 15.888989613473237 5.5000000000000009 6.5000000000000009 22.500000000000004 22.500000000000004 4.5000000000000009 5.5000000000000009 5.5000000000000009 6.5000000000000009
decision_type=2 2 2 2 2 2 2 2 2 2 2 2 2 2 2 2 2 2 2 2 2 2 2 2 2 2 2 2 2 2
left_child=2 4 6 16 21 20 -1 26 -8 12 11 -11 -10 -14 -15 -16 -3 25 19 -7 28 -2 -6 24 -24 -18 -5 -28 -4 -30
right_child=1 3 5 7 22 18 8 -9 9 10 -12 -13 13 14 15 -17 17 -19 -20 -21 -22 -23 23 -25 -26 -27 27 -29 29 -31
leaf_value=-0.63319177811932192 -0.026713701398126184 0.30031080859536008 -0.31846640733981313 0.92303208902903977 0.13694221502869947 -0.21990692719436084 -0.70722275204187213 0.68843572163859434 -0.32157518304698235 -0.2375151391137803 -0.56863119006935736 0.33278828625088375 -0.60271218686455308 -0.46616663165547484 0.061100517514451169 -0.45814473636568254 0.68156643667687156 0.3586412153922271 -0.059285075043836101 -0.086437476501449215 0.13480418772964348 0.073183782876804424 0.48867762530283676 0.19287176984436968 0.039506627085038451 0.25137887107876117 0.43830648996693589 0.58784087035770027 0.022208440823079115 -0.25353089358803216
leaf_weight=9347 19790 21804 17366 700 26357 14037 1811 10495 13098 3794 3731 1488 10749 13984 2675 6231 3906 15598 26708 14289 766 28880 3604 18004 817 742 10989 11881 3151 16696
leaf_count=9347 19790 21804 17366 700 26357 14037 1811 10495 13098 3794 3731 1488 10749 13984 2675 6231 3906 15598 26708 14289 766 28880 3604 18004 817 742 10989 11881 3151 16696
internal_value=5.52049e-10 0.259974 -0.282158 0.455399 0.107337 -0.166595 -0.442808 0.577483 -0.411893 -0.402299 -0.280429 -0.0768541 -0.425801 -0.466384 -0.402365 -0.302185 0.356499 0.417011 -0.107303 -0.152579 -0.252513 0.0325639 0.181938 0.234824 0.405671 0.612892 0.528078 0.51599 -0.260486 -0.209753
internal_weight=333488 173567 159921 76115 97452 93013 66908 34065 57561 55750 9013 5282 46737 33639 22890 8906 42050 20246 55034 28326 37979 48670 48782 22425 4421 4648 23570 22870 37213 19847
internal_count=333488 173567 159921 76115 97452 93013 66908 34065 57561 55750 9013 5282 46737 33639 22890 8906 42050 20246 55034 28326 37979 48670 48782 22425 4421 4648 23570 22870 37213 19847
is_linear=0
shrinkage=0.05


Tree=25
num_leaves=31
num_cat=0
split_feature=6 6 6 6 6 6 6 5 5 9 9 5 5 6 9 5 5 4 5 5 4 9 5 5 4 5 5 4 9 9
split_gain=8.84192e+06 1.48143e+06 1.44496e+06 234238 213958 205838 186256 65986.7 119153 71937.7 50967.8 50776.3 76137.6 47431.6 46428.1 45235.2 92539 49549.9 46274.7 44705 43998.2 53105.5 41213.1 111021 78179.4 41143 106359 59771.8 56242.8 45674.6
threshold=48.376282500000009 26.908612500000007 68.761980000000008 83.292352500000007 9.864613499999999 38.294287500000003 58.816327500000007 7.5000000000000009 5.5000000000000009 18.890922449584696 17.037049408852294 5.5000000000000009 4.5000000000000009 19.111470000000004 26.900863398873931 5.5000000000000009 6.5000000000000009 15.500000000000002 4.5000000000000009 5.5000000000000009 9.5000000000000018 20.293531619021277 5.5000000000000009 7.5000000000000009 22.500000000000004 5.5000000000000009 6.5000000000000009 22.500000000000004 14.617549877941281 17.590844990067502
decision_type=2 2 2 2 2 2 2 2 2 2 2 2 2 2 2 2 2 2 2 2 2 2 2 2 2 2 2 2 2 2
left_child=1 4 6 15 7 14 10 8 20 -10 19 12 -5 -6 -3 18 17 -17 -4 -2 -1 -22 -15 24 -24 29 27 28 -27 -7
right_child=2 5 3 11 13 25 -8 -9 9 -11 -12 -13 -14 22 -16 16 -18 -19 -20 -21 21 -23 23 -25 -26 26 -28 -29 -30 -31
leaf_value=-0.69871506709221864 -0.0057839085064108706 -0.18517998739711672 0.99179333771081246 0.89836719149382882 -0.38292294276824168 -0.13457248634387436 0.23217459908358393 -0.57530704038164948 -0.53609125493273424 0.10035983974494661 0.15440004874614888 0.65491207968460419 0.46490619660985993 -0.36132291600616845 0.39526138030883651 1.0494882258642435 0.37980612335615715 0.5701841689426751 0.32807751251330719 0.1117910479878854 -0.60496259050698642 -0.30056999628697634 0.25488359583661618 -0.29447186067544256 -0.39697713506449561 0.0068541526985648332 -0.037227419339135051 -0.12938640704607771 0.47114656307417546 -0.0039256984743942618
leaf_weight=2091 17500 48043 266 1126 28951 15740 38196 16074 624 1539 17478 12488 10101 11447 347 617 14800 4277 20635 15027 2514 3332 1719 12437 628 906 19768 853 2329 11635
leaf_count=2091 17500 48043 266 1126 28951 15740 38196 16074 624 1539 17478 12488 10101 11447 347 617 14800 4277 20635 15027 2514 3332 1719 12437 628 906 19768 853 2329 11635
internal_value=4.93797e-10 -0.236343 0.280456 0.460693 -0.394642 -0.107066 0.149039 -0.512376 -0.412223 -0.0832488 0.0855368 0.585542 0.50838 -0.338798 -0.181018 0.387758 0.442132 0.630611 0.336524 0.048534 -0.501876 -0.43147 -0.290098 -0.23495 0.0804616 -0.037216 0.0107827 0.242941 0.341116 -0.0790446
internal_weight=333488 180977 152511 64310 81356 99621 88201 26174 10100 2163 50005 23715 11227 55182 48390 40595 19694 4894 20901 32527 7937 5846 26231 14784 2347 51231 23856 4088 3235 27375
internal_count=333488 180977 152511 64310 81356 99621 88201 26174 10100 2163 50005 23715 11227 55182 48390 40595 19694 4894 20901 32527 7937 5846 26231 14784 2347 51231 23856 4088 3235 27375
is_linear=0
shrinkage=0.05


Tree=26
num_leaves=31
num_cat=0
split_feature=6 6 6 6 6 6 6 6 5 5 4 4 4 5 5 4 4 4 9 9 9 9 5 4 3 5 5 5 5 9
split_gain=7.99078e+06 1.77409e+06 927832 288489 167752 156207 115056 99070.4 71639.9 267673 101620 64383.4 92001.2 56902.8 147922 101907 65055.1 86875.6 63241.6 56029.8 50314.2 46431.5 45984.7 41802.2 43416.3 41583.4 60738.2 37720.4 107679 63409.7
threshold=52.780455000000011 31.629727499999998 74.055975000000018 17.834775000000004 42.713107500000007 63.342457500000009 87.564487500000013 3.9080895000000031 6.5000000000000009 5.5000000000000009 22.500000000000004 5.5000000000000009 3.5000000000000004 5.5000000000000009 6.5000000000000009 22.500000000000004 5.5000000000000009 3.5000000000000004 17.875590858621653 20.865348443090586 17.66815165740589 17.997550792749184 5.5000000000000009 9.5000000000000018 2069.5000000000005 5.5000000000000009 6.5000000000000009 5.5000000000000009 6.5000000000000009 17.287727065113767
decision_type=2 2 2 2 2 2 2 2 2 2 2 2 2 2 2 2 2 2 2 2 2 2 2 2 2 2 2 2 2 2
left_child=1 3 5 7 27 -2 -4 -1 9 19 20 12 -10 -5 15 18 17 -16 -15 -9 -11 22 -6 -21 -25 -7 -27 -3 29 -29
right_child=2 4 6 13 21 25 -8 8 11 10 -12 -13 -14 14 16 -17 -18 -19 -20 23 -22 -23 -24 24 -26 26 -28 28 -30 -31
leaf_value=-0.60818993769003982 0.14385012377409226 -0.15530316061876781 0.42765102342998235 -0.31908684526462211 -0.069744018270301009 0.23166063943128745 0.59321451404194814 -0.50030943331799649 -0.49538416381258055 -0.19790683377808072 -0.63478655006683193 -0.54263983701162921 -0.23256861006863205 0.018798612144111607 -0.23651579568144135 -0.34537514009637627 -0.35228904228613156 0.1502433027641685 0.47458763161059514 -0.67352435833277713 0.24568612918724098 0.087170954504152909 0.043036849662489773 -0.33964251602237844 -0.0078851960837081798 0.51540069562014679 0.28887291377871688 0.011418082157523485 -0.11607166847615691 0.41327985681269275
leaf_weight=6717 46131 26888 31570 21723 19462 19347 15718 9314 7790 850 489 11799 5816 1854 10235 1143 10505 1692 1291 673 2578 15009 16875 3848 1326 3784 13574 2639 21285 1563
leaf_count=6717 46131 26888 31570 21723 19462 19347 15718 9314 7790 850 489 11799 5816 1854 10235 1143 10505 1692 1291 673 2578 15009 16875 3848 1326 3784 13574 2639 21285 1563
internal_value=1.86879e-10 -0.195779 0.305973 -0.34645 -0.0510316 0.205096 0.482682 -0.429205 -0.402178 -0.328956 0.0395066 -0.457165 -0.383041 -0.258986 -0.210125 0.0589509 -0.26156 -0.181649 0.205897 -0.424152 0.135694 0.0131897 -0.0173683 -0.302836 -0.254619 0.28207 0.338255 -0.113991 -0.0704083 0.160897
internal_weight=333488 203364 130124 99643 103721 82836 47288 51200 44483 19078 3917 25405 13606 48443 26720 4288 22432 11927 3145 15161 3428 51346 36337 5847 5174 36705 17358 52375 25487 4202
internal_count=333488 203364 130124 99643 103721 82836 47288 51200 44483 19078 3917 25405 13606 48443 26720 4288 22432 11927 3145 15161 3428 51346 36337 5847 5174 36705 17358 52375 25487 4202
is_linear=0
shrinkage=0.05


Tree=27
num_leaves=31
num_cat=0
split_feature=6 6 6 6 6 6 6 5 5 4 4 6 0 5 5 9 5 5 5 4 4 9 9 4 9 9 7 4 9 5
split_gain=7.21826e+06 1.36804e+06 1.03128e+06 208231 167316 164764 144249 52632 96174.9 64719.3 52971.5 48674.5 47929 42862.3 65438.7 41071 44267.7 40754.2 53432.4 47181.9 39878.6 37964.1 37800.6 37492.2 46189.5 37196 37189 36593.9 36204.3 61680
threshold=50.199817500000002 28.672140000000006 71.513347500000009 10.298909250000003 38.294287500000003 59.760330000000003 84.624487500000001 7.5000000000000009 5.5000000000000009 15.500000000000002 9.5000000000000018 20.415622500000001 8.8215000000000021 5.5000000000000009 4.5000000000000009 17.997550792749184 5.5000000000000009 5.5000000000000009 6.5000000000000009 22.500000000000004 15.500000000000002 26.839058181045839 23.65960413437416 9.5000000000000018 30.030268250587202 17.980100444700899 62.664930800000008 22.500000000000004 20.865348443090586 7.5000000000000009
decision_type=2 2 2 2 2 2 2 2 2 2 2 2 2 2 2 2 2 2 2 2 2 2 2 2 2 2 2 2 2 2
left_child=1 3 5 7 21 12 -4 8 23 10 -10 28 -2 14 -8 16 -6 26 19 -19 -16 -3 -13 -1 -25 -14 -7 -11 -5 -30
right_child=2 4 6 11 15 17 13 -9 9 27 -12 22 25 -15 20 -17 -18 18 -20 -21 -22 -23 -24 24 -26 -27 -28 -29 29 -31
leaf_value=-0.63214442712108143 -0.48085950255640597 -0.15821323153882116 0.37418099180558345 -0.3624847154534015 -0.10258481233428181 0.20841482796409988 0.84003628367414851 -0.51544190421667413 -1.9020026245117188 -0.15805155879125449 0.44756638225526074 -0.25826877087682804 0.073285015303679021 0.60800223387304608 0.65183513665573023 0.035720533711536405 0.001221066560823919 0.51467583822152896 0.24069232408784882 0.081785026853916323 0.37189900515014052 0.45018740835448273 0.06132592700748795 -0.45825633424970258 -0.11844492999498224 0.1800958117974078 0.008057172592676581 -0.8694340750143148 -0.10557093695766016 -0.4545179859180376
leaf_weight=2138 359 41579 34153 25965 21348 20378 1040 16897 25 1427 593 27852 33595 11126 1541 19327 19792 3574 16076 764 7294 258 957 4922 1255 10762 2613 207 3762 1909
leaf_count=2138 359 41579 34153 25965 21348 20378 1040 16897 25 1427 593 27852 33595 11126 1541 19327 19792 3574 16076 764 7294 258 957 4922 1255 10762 2613 207 3762 1909
internal_value=2.19569e-10 -0.201888 0.268029 -0.346542 -0.0775888 0.161902 0.437589 -0.460704 -0.373177 -0.0833284 0.352519 -0.294671 0.0945427 0.540707 0.464886 -0.0244008 -0.0526449 0.231297 0.282713 0.438436 0.420725 -0.154461 -0.247652 -0.451679 -0.389216 0.0991997 0.185644 -0.248172 -0.337487 -0.223035
internal_weight=333488 190213 143275 87909 102304 88121 55154 27464 10567 2252 618 60445 44716 21001 9875 60467 41140 43405 20414 4338 8835 41837 28809 8315 6177 44357 22991 1634 31636 5671
internal_count=333488 190213 143275 87909 102304 88121 55154 27464 10567 2252 618 60445 44716 21001 9875 60467 41140 43405 20414 4338 8835 41837 28809 8315 6177 44357 22991 1634 31636 5671
is_linear=0
shrinkage=0.05


Tree=28
num_leaves=31
num_cat=0
split_feature=6 6 6 6 6 6 6 6 5 5 4 9 5 5 4 4 5 4 4 6 5 5 9 7 4 7 9 5 5 4
split_gain=6.53315e+06 1.38275e+06 792060 268556 137954 129052 110087 57627.7 51753.8 53801.7 50632 47707.2 124614 64624.1 51113.6 80136 49916.1 173926 46255.5 51314.8 43367.3 72874.5 43298.3 41575.8 40593.1 40512.7 40379.1 40316.9 73132.9 60584.7
threshold=44.245372500000009 64.716120000000018 22.001595000000005 78.834682500000014 34.082842500000005 53.32813500000001 4.7211675 96.694185000000019 4.5000000000000009 5.5000000000000009 1.5000000000000002 29.404206760070604 7.5000000000000009 5.5000000000000009 5.5000000000000009 15.500000000000002 5.5000000000000009 18.500000000000004 3.5000000000000004 13.3497 5.5000000000000009 6.5000000000000009 23.65960413437416 62.664930800000008 22.500000000000004 7.2671600000000014 20.865348443090586 5.5000000000000009 6.5000000000000009 22.500000000000004
decision_type=2 2 2 2 2 2 2 2 2 2 2 2 2 2 2 2 2 2 2 2 2 2 2 2 2 2 2 2 2 2
left_child=2 5 6 20 22 -2 -1 8 -5 -10 -8 14 13 -13 18 26 -17 -18 -12 -20 23 24 27 25 -22 -3 -16 -4 29 -29
right_child=1 3 4 7 -6 -7 10 -9 9 -11 11 12 -14 -15 15 16 17 -19 19 -21 21 -23 -24 -25 -26 -27 -28 28 -30 -31
leaf_value=-0.52487126389999406 0.023814835874499007 0.11406046640910257 -0.25968433262495383 0.78533247559985719 -0.081782498560328765 0.14053559472904337 -0.60249215852620919 0.6246162795111061 0.35854981288711513 0.49811107278585309 -0.34934252695080426 -0.14423311823410398 -0.4667616437834739 0.32847261971433933 -0.5208630050317099 -0.38513396878560835 0.08990897759977963 -0.38490249259113307 -0.26384900036383152 0.046263996631934985 0.57017965423530936 0.28782034629846354 0.1364097816971197 0.060660488586980393 0.17760338728715266 0.29744699444936068 -0.18471784713273634 0.16048651046901671 -0.20277690233907314 -0.28261003091355014
leaf_weight=9347 46092 3675 20922 1076 49875 48706 1768 5294 13140 14555 7242 2388 2475 1037 10004 14123 2828 6065 4063 1986 4113 16592 926 2857 784 16683 981 2745 20073 1073
leaf_count=9347 46092 3675 20922 1076 49875 48706 1768 5294 13140 14555 7242 2388 2475 1037 10004 14123 2828 6065 4063 1986 4113 16592 926 2857 784 16683 981 2745 20073 1073
internal_value=1.96207e-10 0.212427 -0.230554 0.367248 -0.139297 0.0837845 -0.366237 0.47301 0.445114 0.431896 -0.339259 -0.330509 -0.196447 -0.00111024 -0.347235 -0.379734 -0.326704 -0.233911 -0.264094 -0.162033 0.286657 0.337843 -0.202012 0.239276 0.507329 0.264342 -0.490844 -0.209005 -0.164625 0.0359599
internal_weight=333488 173567 159921 78769 95614 94798 64307 34065 28771 27695 54960 53192 5900 3425 47292 34001 23016 8893 13291 6049 44704 21489 45739 23215 4897 20358 10985 44813 23891 3818
internal_count=333488 173567 159921 78769 95614 94798 64307 34065 28771 27695 54960 53192 5900 3425 47292 34001 23016 8893 13291 6049 44704 21489 45739 23215 4897 20358 10985 44813 23891 3818
is_linear=0
shrinkage=0.05


Tree=29
num_leaves=31
num_cat=0
split_feature=6 6 6 6 6 6 6 5 5 4 4 5 5 9 4 5 5 4 5 5 4 4 4 9 4 9 5 5 4 9
split_gain=5.89751e+06 1.07301e+06 885936 158958 152028 139573 126158 49830.5 73467.4 59526.7 46690.1 42131.4 61983.5 41968.5 37360.9 37260 46362.5 43533.9 35862.4 246833 118374 74191.5 86858.2 51315.1 36996.9 34846.6 34482.6 94269.6 54986.3 52246.9
threshold=46.820550000000004 68.761980000000008 25.832782500000004 82.096350000000015 56.989432500000007 8.9661600000000039 36.652035000000005 7.5000000000000009 5.5000000000000009 15.500000000000002 9.5000000000000018 5.5000000000000009 4.5000000000000009 15.107030051300589 15.500000000000002 5.5000000000000009 6.5000000000000009 22.500000000000004 5.5000000000000009 6.5000000000000009 22.500000000000004 5.5000000000000009 3.5000000000000004 17.68977110765568 24.500000000000004 26.839058181045839 5.5000000000000009 6.5000000000000009 22.500000000000004 17.287727065113767
decision_type=2 2 2 2 2 2 2 2 2 2 2 2 2 2 2 2 2 2 2 2 2 2 2 2 2 2 2 2 2 2
left_child=2 4 5 -3 13 7 25 8 -1 10 -10 12 -5 -2 -14 -6 17 -17 -7 20 23 22 -21 -20 -22 -4 -8 28 29 -28
right_child=1 3 6 11 15 18 26 -9 9 -11 -12 -13 14 -15 -16 16 -18 -19 19 21 24 -23 -24 -25 -26 -27 27 -29 -30 -31
leaf_value=-0.4132053081229195 -0.015392259965062327 0.31095007840101258 -0.1666265466843854 0.74705573615668719 0.13627041342323265 -0.33488036456575943 -0.085793284650410695 -0.48733016749493424 -1.7787960014343263 -0.2528866301713712 0.4270719657169928 0.53106478144997626 0.57970919229545348 0.083264555073876964 0.32958568362170521 0.44601813803045609 0.18944181736896848 0.029185323112408363 -0.0013609590104843941 -0.30965261456074922 -0.52005034064367617 -0.39137952337459503 -0.043719696034427019 0.37114933372074838 0.39052894368942365 0.28989982735365633 0.15082541160291096 -0.048522337870095494 -0.13536033639821435 0.563984730916541
leaf_weight=7115 15704 37944 44016 1195 24626 20954 27135 14463 25 1376 593 13806 1768 34378 9597 3563 17081 760 1630 10114 868 13616 4409 2136 128 422 1988 19951 883 1244
leaf_count=7115 15704 37944 44016 1195 24626 20954 27135 14463 25 1376 593 13806 1768 34378 9597 3563 17081 760 1630 10114 868 13616 4409 2136 128 422 1988 19951 883 1244
internal_value=7.24676e-11 0.218393 -0.202437 0.376477 0.112616 -0.328167 -0.10065 -0.429637 -0.338033 -0.0698035 0.337838 0.470779 0.404514 0.0523292 0.368496 0.17821 0.226462 0.372737 -0.283754 -0.251192 0.0817179 -0.307531 -0.228919 0.209919 -0.403028 -0.162291 -0.0471505 -0.00357992 0.214317 0.309851
internal_weight=333488 160422 173066 64310 96112 77427 95639 23572 9109 1994 618 26366 12560 50082 11365 46030 21404 4323 53855 32901 4762 28139 14523 3766 996 44438 51201 24066 4115 3232
internal_count=333488 160422 173066 64310 96112 77427 95639 23572 9109 1994 618 26366 12560 50082 11365 46030 21404 4323 53855 32901 4762 28139 14523 3766 996 44438 51201 24066 4115 3232
is_linear=0
shrinkage=0.05


Tree=30
num_leaves=31
num_cat=0
split_feature=6 6 6 6 6 6 6 6 5 4 4 9 5 5 4 4 4 9 9 9 4 4 6 5 5 5 4 4 4 9
split_gain=5.33108e+06 1.13129e+06 650878 183469 136342 126691 85233.8 53832.3 46063.5 48744.1 42233.2 42005.5 104896 47641.2 41120.3 60562.4 42883.3 40369.4 39080.3 38632.1 40320.6 38448.7 38465.7 37971.5 37314.9 64803.4 49898.5 47520.9 51302.2 42801.6
threshold=44.245372500000009 66.557610000000025 20.795197500000004 77.854507500000011 55.004460000000002 32.586172500000011 4.7211675 96.694185000000019 4.5000000000000009 7.5000000000000009 1.5000000000000002 29.404206760070604 7.5000000000000009 5.5000000000000009 5.5000000000000009 15.500000000000002 22.500000000000004 17.037049408852294 20.673542708607712 14.617549877941281 6.5000000000000009 3.5000000000000004 13.3497 5.5000000000000009 5.5000000000000009 6.5000000000000009 22.500000000000004 7.5000000000000009 3.5000000000000004 15.227948194987848
decision_type=2 2 2 2 2 2 2 2 2 2 2 2 2 2 2 2 2 2 2 2 2 2 2 2 2 2 2 2 2 2
left_child=2 4 6 -3 19 18 -1 8 -5 -10 -8 14 13 -13 21 -16 -17 23 24 20 -2 -12 -23 -7 -4 26 29 28 -27 -26
right_child=1 3 5 7 -6 17 10 -9 9 -11 11 12 -14 -15 15 16 -18 -19 -20 -21 -22 22 -24 -25 25 27 -28 -29 -30 -31
leaf_value=-0.47656207296719721 0.12253994432045479 0.26206063856262624 -0.25440306129379991 0.71538184656944459 0.146146147256731 -0.17920966511322564 -0.55818741647642411 0.56913145747631055 0.47908293203438151 0.34245714779297115 -0.32705621065720081 -0.11950334048200431 -0.42623651760999759 0.29164248504302476 -0.44954806171372691 -0.27904278455935355 -0.52920636604335014 -0.036805017814250295 0.066439583019332379 0.054484164500428325 -0.087867602760142383 -0.23670064085691533 0.039843604231190877 -0.064773352707776441 -0.15410995454973575 -0.16481038904549858 -0.261917632496593 -0.28210365073585436 0.17746607363074299 0.28869838850373886
leaf_weight=9347 2894 35357 19076 1095 47459 14363 1689 5294 9509 20826 6575 2330 2444 1010 10451 18784 1885 27386 1392 40455 10678 4063 1821 14635 787 9126 1010 8723 1244 1780
leaf_count=9347 2894 35357 19076 1095 47459 14363 1689 5294 9509 20826 6575 2330 2444 1010 10451 18784 1885 27386 1392 40455 10678 4063 1821 14635 787 9126 1010 8723 1244 1780
internal_value=-7.41671e-12 0.191892 -0.208266 0.343358 0.084312 -0.129684 -0.337749 0.42163 0.396785 0.385285 -0.312334 -0.303922 -0.177318 0.00482519 -0.320725 -0.351456 -0.301858 -0.08034 -0.19418 0.029995 -0.0430017 -0.243965 -0.151115 -0.121455 -0.20287 -0.159507 0.0358015 -0.196097 -0.12375 0.152941
internal_weight=333488 173567 159921 72081 101486 99522 60399 36724 31430 30335 51052 49363 5784 3340 43579 31120 20669 56384 43138 54027 13572 12459 5884 28998 41746 22670 3577 19093 10370 2567
internal_count=333488 173567 159921 72081 101486 99522 60399 36724 31430 30335 51052 49363 5784 3340 43579 31120 20669 56384 43138 54027 13572 12459 5884 28998 41746 22670 3577 19093 10370 2567
is_linear=0
shrinkage=0.05


Tree=31
num_leaves=31
num_cat=0
split_feature=6 6 6 6 6 6 6 0 5 9 4 5 6 9 5 9 5 5 4 4 4 4 5 5 4 4 4 9 9 3
split_gain=4.8134e+06 944615 672076 143648 128436 119444 75927.8 44947.5 43381.8 66422.3 88729.5 42610.3 39314.7 37906.2 38354.7 34184.2 34126.7 76962.9 53380.1 32898.5 49027.6 36168.9 32612.6 46377.5 33609.5 32417.6 43304.9 32170.2 31471.9 31326.9
threshold=50.73794250000001 28.672140000000006 73.635660000000016 8.9661600000000039 61.974622500000009 40.439700000000009 87.564487500000013 8.8215000000000021 7.5000000000000009 20.293531619021277 9.5000000000000018 5.5000000000000009 19.111470000000004 17.997550792749184 5.5000000000000009 26.839058181045839 5.5000000000000009 7.5000000000000009 22.500000000000004 5.5000000000000009 3.5000000000000004 2.5000000000000004 5.5000000000000009 6.5000000000000009 22.500000000000004 5.5000000000000009 3.5000000000000004 17.565675266315314 18.020031075279238 2149.5000000000005
decision_type=2 2 2 2 2 2 2 2 2 2 2 2 2 2 2 2 2 2 2 2 2 2 2 2 2 2 2 2 2 2
left_child=1 3 4 8 7 15 -4 -2 9 -1 -11 29 -5 14 -9 -3 -14 18 27 20 21 -10 -6 24 -24 26 -19 -18 -7 -12
right_child=2 5 6 12 22 28 -8 13 19 10 11 -13 16 -15 -16 -17 17 25 -20 -21 -22 -23 23 -25 -26 -27 -28 -29 -30 -31
leaf_value=-0.46427067001175698 -0.47025612627536068 -0.11734496210332045 0.3295749833756656 -0.28433499614954827 0.16705206520742358 -0.033232514566535899 0.46318417771127751 0.026268344993740311 -0.38961934290235212 -0.60062992274761207 -0.27513714454326821 0.15884182190047466 -0.2635013555229288 0.1758314573711999 0.12464394919942517 0.44058072722375236 0.024616507566366252 -0.1841677190651094 -0.27831332136107273 -0.52736654861665488 -0.22111369893319527 -0.69151672804078401 0.46974470421891978 0.21605392186035799 0.088373194128130869 -0.28165411053114764 0.145062531478276 0.41250881509272253 0.050951004431539451 0.10894121495742699
leaf_weight=3762 355 52072 32870 31553 21548 36570 15718 21535 3556 1056 2372 1235 14481 11145 18351 276 1166 6860 789 6390 3141 1376 3423 15079 695 7332 1169 987 15942 684
leaf_count=3762 355 52072 32870 31553 21548 36570 15718 21535 3556 1056 2372 1235 14481 11145 18351 276 1166 6860 789 6390 3141 1376 3423 15079 695 7332 1169 987 15942 684
internal_value=9.29193e-11 -0.162298 0.22233 -0.283182 0.142977 -0.0609559 0.372797 0.0904085 -0.388775 -0.303303 -0.190051 -0.0890095 -0.244494 0.0943088 0.0715296 -0.114403 -0.206149 -0.160774 0.0735078 -0.442606 -0.375515 -0.473847 0.209274 0.256667 0.40538 -0.205644 -0.136233 0.202438 -0.00767543 -0.189172
internal_weight=333488 192769 140719 87909 92131 104860 48588 51386 23572 9109 5347 4291 64337 51031 39886 52348 32784 18303 2942 14463 8073 4932 40745 19197 4118 15361 8029 2153 52512 3056
internal_count=333488 192769 140719 87909 92131 104860 48588 51386 23572 9109 5347 4291 64337 51031 39886 52348 32784 18303 2942 14463 8073 4932 40745 19197 4118 15361 8029 2153 52512 3056
is_linear=0
shrinkage=0.05


Tree=32
num_leaves=31
num_cat=0
split_feature=6 6 6 6 6 6 6 6 5 5 5 4 9 5 5 5 5 9 4 4 4 5 5 4 9 4 5 5 7 7
split_gain=4.35213e+06 910819 543017 181455 86770.1 83940.8 82923.7 45970 41108 44648.6 40242.1 60013.5 78786.6 39091.3 35263.8 33889.3 82451.7 60536.3 45526 57327.1 40950.5 33430.4 49117.4 44407.6 39698 32884.7 32719.3 54671.4 35394.6 34358.3
threshold=44.497005000000009 64.716120000000018 23.152027500000006 77.854507500000011 35.52407250000001 53.033347500000012 8.5379437500000019 96.694185000000019 4.5000000000000009 5.5000000000000009 7.5000000000000009 9.5000000000000018 23.65960413437416 6.5000000000000009 5.5000000000000009 5.5000000000000009 6.5000000000000009 17.565675266315314 7.5000000000000009 3.5000000000000004 22.500000000000004 5.5000000000000009 6.5000000000000009 22.500000000000004 13.271308630486535 22.500000000000004 5.5000000000000009 6.5000000000000009 62.664930800000008 7.2671600000000014
decision_type=2 2 2 2 2 2 2 2 2 2 2 2 2 2 2 2 2 2 2 2 2 2 2 2 2 2 2 2 2 2
left_child=2 5 6 26 15 -2 10 8 -5 -10 11 -1 25 -11 -14 -4 17 -17 19 -18 -19 -7 23 24 -23 -13 28 -28 29 -3
right_child=1 3 4 7 -6 21 -8 -9 9 13 -12 12 14 -15 -16 16 18 20 -20 -21 -22 22 -24 -25 -26 -27 27 -29 -30 -31
leaf_value=-0.54354304111285756 0.018344217691292554 0.067742889006078666 -0.19825288110490225 0.65922334745730582 -0.057757932137794378 0.075673786826364053 -0.25543241482278084 0.51751566759971601 0.28370675928143568 0.52257258438776422 -0.42632365728724547 -0.33171106355354713 -0.16478712461931566 0.35282959795325408 0.17288865264629383 -0.054789149255297633 -0.12722289981785859 0.45438525128307633 -0.23798602806575034 0.23241446022458964 -0.26537369112683157 0.052348615605960137 0.12142686487202299 -0.017783654286531 0.46294472384201557 -0.76339268129234927 0.42766106270776683 0.23060659282823717 0.017032559473791866 0.24188734166529577
leaf_weight=1819 43423 3453 23091 1095 44557 27060 45911 5294 14431 4904 13670 2584 2591 11000 1102 2643 10782 1271 9215 1235 234 736 18459 863 2941 532 4546 15594 2693 15759
leaf_count=1819 43423 3453 23091 1095 44557 27060 45911 5294 14431 4904 13670 2584 2591 11000 1102 2643 10782 1271 9215 1235 234 736 18459 863 2941 532 4546 15594 2693 15759
internal_value=4.3453e-10 0.174756 -0.186693 0.30001 -0.108123 0.0692156 -0.293853 0.38121 0.358251 0.347387 -0.37296 -0.288411 -0.220254 0.40517 -0.0640239 -0.154422 -0.114543 0.0893487 -0.154377 -0.0902626 0.342476 0.113343 0.157664 0.305 0.380759 -0.405413 0.229086 0.275086 0.186792 0.210588
internal_weight=333488 172251 161237 78769 93028 93482 68209 36724 31430 30335 22298 8628 6809 15904 3693 48471 25380 4148 21232 12017 1505 50059 22999 4540 3677 3116 42045 20140 21905 19212
internal_count=333488 172251 161237 78769 93028 93482 68209 36724 31430 30335 22298 8628 6809 15904 3693 48471 25380 4148 21232 12017 1505 50059 22999 4540 3677 3116 42045 20140 21905 19212
is_linear=0
shrinkage=0.05


Tree=33
num_leaves=31
num_cat=0
split_feature=6 6 6 6 6 6 6 5 5 4 9 9 4 9 5 5 4 4 5 5 3 9 5 4 5 4 9 9 5 5
split_gain=3.9281e+06 836800 480778 122462 117548 84732 71922.8 38602.8 79169.3 59437.4 49905.3 39295.6 38111.8 36417.5 127849 113369 71197.5 59364 36135.8 50778.5 35812.6 35761 36929.4 32046.7 30980 81671.4 29413 29286.1 28611.4 27188.6
