{"learner":{"attributes":{"scikit_learn":"{\"_estimator_type\": \"regressor\"}"},"feature_names":["time_seconds","team_id","player_id","action_id","type_name","result_name","start_x","start_y","is_home","avg_pass_dist","avg_pass_angle","pass_count"],"feature_types":["float","int","int","int","int","int","float","float","i","float","float","int"],"gradient_booster":{"model":{"gbtree_model_param":{"num_parallel_tree":"1","num_trees":"500"},"iteration_indptr":[0,1,2,3,4,5,6,7,8,9,10,11,12,13,14,15,16,17,18,19,20,21,22,23,24,25,26,27,28,29,30,31,32,33,34,35,36,37,38,39,40,41,42,43,44,45,46,47,48,49,50,51,52,53,54,55,56,57,58,59,60,61,62,63,64,65,66,67,68,69,70,71,72,73,74,75,76,77,78,79,80,81,82,83,84,85,86,87,88,89,90,91,92,93,94,95,96,97,98,99,100,101,102,103,104,105,106,107,108,109,110,111,112,113,114,115,116,117,118,119,120,121,122,123,124,125,126,127,128,129,130,131,132,133,134,135,136,137,138,139,140,141,142,143,144,145,146,147,148,149,150,151,152,153,154,155,156,157,158,159,160,161,162,163,164,165,166,167,168,169,170,171,172,173,174,175,176,177,178,179,180,181,182,183,184,185,186,187,188,189,190,191,192,193,194,195,196,197,198,199,200,201,202,203,204,205,206,207,208,209,210,211,212,213,214,215,216,217,218,219,220,221,222,223,224,225,226,227,228,229,230,231,232,233,234,235,236,237,238,239,240,241,242,243,244,245,246,247,248,249,250,251,252,253,254,255,256,257,258,259,260,261,262,263,264,265,266,267,268,269,270,271,272,273,274,275,276,277,278,279,280,281,282,283,284,285,286,287,288,289,290,291,292,293,294,295,296,297,298,299,300,301,302,303,304,305,306,307,308,309,310,311,312,313,314,315,316,317,318,319,320,321,322,323,324,325,326,327,328,329,330,331,332,333,334,335,336,337,338,339,340,341,342,343,344,345,346,347,348,349,350,351,352,353,354,355,356,357,358,359,360,361,362,363,364,365,366,367,368,369,370,371,372,373,374,375,376,377,378,379,380,381,382,383,384,385,386,387,388,389,390,391,392,393,394,395,396,397,398,399,400,401,402,403,404,405,406,407,408,409,410,411,412,413,414,415,416,417,418,419,420,421,422,423,424,425,426,427,428,429,430,431,432,433,434,435,436,437,438,439,440,441,442,443,444,445,446,447,448,449,450,451,452,453,454,455,456,457,458,459,460,461,462,463,464,465,466,467,468,469,470,471,472,473,474,475,476,477,478,479,480,481,482,483,484,485,486,487,488,489,490,491,492,493,494,495,496,497,498,499,500],"tree_info":[0,0,0,0,0,0,0,0,0,0,0,0,0,0,0,0,0,0,0,0,0,0,0,0,0,0,0,0,0,0,0,0,0,0,0,0,0,0,0,0,0,0,0,0,0,0,0,0,0,0,0,0,0,0,0,0,0,0,0,0,0,0,0,0,0,0,0,0,0,0,0,0,0,0,0,0,0,0,0,0,0,0,0,0,0,0,0,0,0,0,0,0,0,0,0,0,0,0,0,0,0,0,0,0,0,0,0,0,0,0,0,0,0,0,0,0,0,0,0,0,0,0,0,0,0,0,0,0,0,0,0,0,0,0,0,0,0,0,0,0,0,0,0,0,0,0,0,0,0,0,0,0,0,0,0,0,0,0,0,0,0,0,0,0,0,0,0,0,0,0,0,0,0,0,0,0,0,0,0,0,0,0,0,0,0,0,0,0,0,0,0,0,0,0,0,0,0,0,0,0,0,0,0,0,0,0,0,0,0,0,0,0,0,0,0,0,0,0,0,0,0,0,0,0,0,0,0,0,0,0,0,0,0,0,0,0,0,0,0,0,0,0,0,0,0,0,0,0,0,0,0,0,0,0,0,0,0,0,0,0,0,0,0,0,0,0,0,0,0,0,0,0,0,0,0,0,0,0,0,0,0,0,0,0,0,0,0,0,0,0,0,0,0,0,0,0,0,0,0,0,0,0,0,0,0,0,0,0,0,0,0,0,0,0,0,0,0,0,0,0,0,0,0,0,0,0,0,0,0,0,0,0,0,0,0,0,0,0,0,0,0,0,0,0,0,0,0,0,0,0,0,0,0,0,0,0,0,0,0,0,0,0,0,0,0,0,0,0,0,0,0,0,0,0,0,0,0,0,0,0,0,0,0,0,0,0,0,0,0,0,0,0,0,0,0,0,0,0,0,0,0,0,0,0,0,0,0,0,0,0,0,0,0,0,0,0,0,0,0,0,0,0,0,0,0,0,0,0,0,0,0,0,0,0,0,0,0,0,0,0,0,0,0,0,0,0,0,0,0,0,0,0,0,0,0,0,0,0,0,0,0,0,0,0,0,0,0,0,0,0,0,0,0,0,0,0,0,0,0,0,0,0,0,0,0,0,0,0,0,0,0,0,0,0,0,0,0,0,0,0],"trees":[{"base_weights":[-1.639626E-6,-1.44112425E1,1.4231049E1,-2.0609219E1,-6.5030904E0,6.706619E0,2.0733114E1,-2.3907743E1,-1.6859701E1,-9.779338E0,-3.1123304E0,3.3769386E0,1.0137478E1,1.7159124E1,2.406821E1,-2.2605795E1,-2.634927E1,-1.8445597E1,-1.4852485E1,-1.1138522E1,-7.853691E0,-4.6100187E0,-1.3793763E0,1.6244162E0,5.007555E0,8.608481E0,1.1881608E1,1.5282999E1,1.8827646E1,2.2846445E1,2.6221539E1,-1.9649036E0,-2.319496E1,-2.8220537E1,-2.4411854E1,-1.714045E1,-2.0346594E1,-1.3649308E1,-1.6540607E1,-1.0099764E1,-1.247971E1,-8.604013E0,-6.795145E0,-5.4995165E0,-3.8280704E0,-2.1102426E0,-7.521999E-1,6.1970824E-1,2.2821343E0,3.9775057E0,6.0314574E0,7.5386214E0,9.918518E0,1.0668617E1,1.3480259E1,1.4108637E1,1.6887106E1,1.7602575E1,2.058148E1,2.8736691E0,2.332871E1,2.4433594E1,2.7931637E1,-7.7016205E-2,-2.4372415E-1,-1.1179587E0,-1.378621E0,-1.4495575E0,-1.368923E0,-1.2733656E0,-1.1741294E0,-5.591565E-2,-8.8221884E-1,-1.0911912E0,-9.7522354E-1,-9.148019E-2,-6.928631E-1,-8.7843937E-1,-7.933485E-1,-5.65744E-1,-4.500876E-1,-6.7426246E-1,-5.8007514E-1,-5.419039E-1,-4.1357532E-1,-3.994409E-1,-2.9918167E-1,-2.3795359E-1,-3.1909668E-1,-2.7301565E-1,-1.7021587E-1,-6.647626E-2,-1.3643318E-1,-6.579416E-2,-1.1395383E-2,-1.0437434E-2,6.103632E-2,7.6279745E-2,1.4406829E-1,1.450442E-1,2.4339803E-1,4.160233E-1,2.829829E-1,3.3878085E-1,4.474008E-1,4.5460978E-1,5.517064E-1,7.4958956E-1,5.2184004E-1,6.434434E-1,7.302627E-1,8.903977E-2,7.1712476E-1,7.903353E-1,8.871851E-1,9.201979E-2,9.0027744E-1,9.989478E-1,1.0899858E0,-3.150816E-2,1.827042E-1,1.126465E0,1.3822753E0,1.172706E0,1.250799E0,1.3620181E0,1.451197E0],"categories":[],"categories_nodes":[],"categories_segments":[],"categories_sizes":[],"default_left":[0,0,0,0,0,0,0,0,0,0,0,0,0,0,0,0,0,0,0,0,0,0,0,0,0,0,0,0,0,0,0,0,0,0,0,0,0,0,0,0,0,0,0,0,0,0,0,0,0,0,0,0,0,0,0,0,0,0,0,0,0,0,0,0,0,0,0,0,0,0,0,0,0,0,0,0,0,0,0,0,0,0,0,0,0,0,0,0,0,0,0,0,0,0,0,0,0,0,0,0,0,0,0,0,0,0,0,0,0,0,0,0,0,0,0,0,0,0,0,0,0,0,0,0,0,0,0],"id":0,"left_children":[1,3,5,7,9,11,13,15,17,19,21,23,25,27,29,31,33,35,37,39,41,43,45,47,49,51,53,55,57,59,61,63,65,67,69,71,73,75,77,79,81,83,85,87,89,91,93,95,97,99,101,103,105,107,109,111,113,115,117,119,121,123,125,-1,-1,-1,-1,-1,-1,-1,-1,-1,-1,-1,-1,-1,-1,-1,-1,-1,-1,-1,-1,-1,-1,-1,-1,-1,-1,-1,-1,-1,-1,-1,-1,-1,-1,-1,-1,-1,-1,-1,-1,-1,-1,-1,-1,-1,-1,-1,-1,-1,-1,-1,-1,-1,-1,-1,-1,-1,-1,-1,-1,-1,-1,-1,-1],"loss_changes":[6.8035384E7,8.07874E6,8.165968E6,1.14244E6,8.045145E5,8.838715E5,1.066856E6,1.55658E5,1.37397E5,9.6316E4,9.2367375E4,1.1220766E5,1.01523E5,1.35023E5,1.21248E5,3.89919E5,6.127E4,5.95845E4,3.8556E4,2.99525E4,1.2049125E4,1.3257531E4,7.562176E3,1.2506484E4,2.1429094E4,2.839075E4,3.437125E4,3.81015E4,4.8784E4,2.84632E5,5.0559E4,1.0931865E3,1.13449E5,4.8435E3,7.6445E3,1.156725E5,1.180075E4,2.739075E4,5.22125E3,1.6138125E4,8.16125E3,6.53425E3,6.082E3,5.8036562E3,7.010828E3,3.6753984E3,2.6246401E3,3.7296575E3,5.1813906E3,9.709797E3,8.6328125E3,1.1966375E4,8.3135E3,9.990625E3,5.091125E3,3.386675E4,7.67575E3,8.554975E4,6.46475E3,1.9109434E3,9.897E4,4.0915E3,5.672E3,0E0,0E0,0E0,0E0,0E0,0E0,0E0,0E0,0E0,0E0,0E0,0E0,0E0,0E0,0E0,0E0,0E0,0E0,0E0,0E0,0E0,0E0,0E0,0E0,0E0,0E0,0E0,0E0,0E0,0E0,0E0,0E0,0E0,0E0,0E0,0E0,0E0,0E0,0E0,0E0,0E0,0E0,0E0,0E0,0E0,0E0,0E0,0E0,0E0,0E0,0E0,0E0,0E0,0E0,0E0,0E0,0E0,0E0,0E0,0E0,0E0,0E0,0E0,0E0],"parents":[2147483647,0,0,1,1,2,2,3,3,4,4,5,5,6,6,7,7,8,8,9,9,10,10,11,11,12,12,13,13,14,14,15,15,16,16,17,17,18,18,19,19,20,20,21,21,22,22,23,23,24,24,25,25,26,26,27,27,28,28,29,29,30,30,31,31,32,32,33,33,34,34,35,35,36,36,37,37,38,38,39,39,40,40,41,41,42,42,43,43,44,44,45,45,46,46,47,47,48,48,49,49,50,50,51,51,52,52,53,53,54,54,55,55,56,56,57,57,58,58,59,59,60,60,61,61,62,62],"right_children":[2,4,6,8,10,12,14,16,18,20,22,24,26,28,30,32,34,36,38,40,42,44,46,48,50,52,54,56,58,60,62,64,66,68,70,72,74,76,78,80,82,84,86,88,90,92,94,96,98,100,102,104,106,108,110,112,114,116,118,120,122,124,126,-1,-1,-1,-1,-1,-1,-1,-1,-1,-1,-1,-1,-1,-1,-1,-1,-1,-1,-1,-1,-1,-1,-1,-1,-1,-1,-1,-1,-1,-1,-1,-1,-1,-1,-1,-1,-1,-1,-1,-1,-1,-1,-1,-1,-1,-1,-1,-1,-1,-1,-1,-1,-1,-1,-1,-1,-1,-1,-1,-1,-1,-1,-1,-1],"split_conditions":[3.404828E1,1.9475744E1,4.9494617E1,1.0351028E1,2.7243383E1,4.160845E1,5.831782E1,7E0,1.5492576E1,2.3976393E1,3.109946E1,3.7526344E1,4.5791607E1,5.364112E1,7E0,6E0,5.588376E0,7E0,7E0,7E0,2.5907389E1,2.9090809E1,3.2554115E1,3.538856E1,3.9532413E1,7E0,7E0,7E0,7E0,6E0,6.2703747E1,9.955071E1,1.9E1,3.088356E0,7.84856E0,6E0,1.2275836E1,6E0,1.7077112E1,2.1614004E1,2.1614004E1,1.213611E1,1.6E1,7E0,1.0004484E1,6E0,-1.289356E-2,-3.6534972E-2,6E0,6E0,9.088663E0,-1.4307407E-2,4.3946224E1,1.3003725E1,4.8208397E1,6E0,5.1323814E1,6E0,5.6743893E1,6E0,2.2E1,5.9946964E1,6.565325E1,-7.7016205E-2,-2.4372415E-1,-1.1179587E0,-1.378621E0,-1.4495575E0,-1.368923E0,-1.2733656E0,-1.1741294E0,-5.591565E-2,-8.8221884E-1,-1.0911912E0,-9.7522354E-1,-9.148019E-2,-6.928631E-1,-8.7843937E-1,-7.933485E-1,-5.65744E-1,-4.500876E-1,-6.7426246E-1,-5.8007514E-1,-5.419039E-1,-4.1357532E-1,-3.994409E-1,-2.9918167E-1,-2.3795359E-1,-3.1909668E-1,-2.7301565E-1,-1.7021587E-1,-6.647626E-2,-1.3643318E-1,-6.579416E-2,-1.1395383E-2,-1.0437434E-2,6.103632E-2,7.6279745E-2,1.4406829E-1,1.450442E-1,2.4339803E-1,4.160233E-1,2.829829E-1,3.3878085E-1,4.474008E-1,4.5460978E-1,5.517064E-1,7.4958956E-1,5.2184004E-1,6.434434E-1,7.302627E-1,8.903977E-2,7.1712476E-1,7.903353E-1,8.871851E-1,9.201979E-2,9.0027744E-1,9.989478E-1,1.0899858E0,-3.150816E-2,1.827042E-1,1.126465E0,1.3822753E0,1.172706E0,1.250799E0,1.3620181E0,1.451197E0],"split_indices":[7,7,7,7,7,7,7,5,7,7,7,7,7,7,5,4,7,5,5,5,7,7,7,7,7,5,5,5,5,4,7,6,4,7,7,4,7,4,7,7,7,6,4,5,6,5,10,10,5,5,6,10,7,6,7,4,7,4,7,5,4,7,7,0,0,0,0,0,0,0,0,0,0,0,0,0,0,0,0,0,0,0,0,0,0,0,0,0,0,0,0,0,0,0,0,0,0,0,0,0,0,0,0,0,0,0,0,0,0,0,0,0,0,0,0,0,0,0,0,0,0,0,0,0,0,0,0],"split_type":[0,0,0,0,0,0,0,0,0,0,0,0,0,0,0,0,0,0,0,0,0,0,0,0,0,0,0,0,0,0,0,0,0,0,0,0,0,0,0,0,0,0,0,0,0,0,0,0,0,0,0,0,0,0,0,0,0,0,0,0,0,0,0,0,0,0,0,0,0,0,0,0,0,0,0,0,0,0,0,0,0,0,0,0,0,0,0,0,0,0,0,0,0,0,0,0,0,0,0,0,0,0,0,0,0,0,0,0,0,0,0,0,0,0,0,0,0,0,0,0,0,0,0,0,0,0,0],"sum_hessian":[3.31737E5,1.64825E5,1.66912E5,9.2403E4,7.2422E4,7.7374E4,8.9538E4,4.9155E4,4.3248E4,3.6832E4,3.559E4,3.9267E4,3.8107E4,4.3224E4,4.6314E4,3.2066E4,1.7089E4,2.4155E4,1.9093E4,2.1589E4,1.5243E4,1.909E4,1.65E4,1.8927E4,2.034E4,2.0309E4,1.7798E4,2.0351E4,2.2873E4,2.9556E4,1.6758E4,8.9E2,3.1176E4,8.686E3,8.403E3,1.4328E4,9.827E3,1.1153E4,7.94E3,1.2171E4,9.418E3,8.916E3,6.327E3,8.928E3,1.0162E4,7.619E3,8.881E3,7.489E3,1.1438E4,1.0142E4,1.0198E4,1.1183E4,9.126E3,1.0124E4,7.674E3,1.1755E4,8.596E3,1.3473E4,9.4E3,6.97E2,2.8859E4,8.2E3,8.558E3,7.78E2,1.12E2,2.6183E4,4.993E3,4.518E3,4.168E3,3.922E3,4.481E3,4.37E2,1.3891E4,3.559E3,6.268E3,1.93E2,1.096E4,3.133E3,4.807E3,5.773E3,6.398E3,4.384E3,5.034E3,1.151E3,7.765E3,2.557E3,3.77E3,4.858E3,4.07E3,2.092E3,8.07E3,3.369E3,4.25E3,4.279E3,4.602E3,3.149E3,4.34E3,5.057E3,6.381E3,4.593E3,5.549E3,1.422E3,8.776E3,7.259E3,3.924E3,5.248E3,3.878E3,5.12E2,9.612E3,4.98E3,2.694E3,2.19E2,1.1536E4,3.81E3,4.786E3,3.36E2,1.3137E4,6.301E3,3.099E3,1.27E2,5.7E2,2.4355E4,4.504E3,3.073E3,5.127E3,5.257E3,3.301E3],"tree_param":{"num_deleted":"0","num_feature":"12","num_nodes":"127","size_leaf_vector":"1"}},{"base_weights":[3.6963943E-8,-1.4021228E1,1.3201523E1,-2.005237E1,-7.0897217E0,6.0503435E0,1.969661E1,-2.2893139E1,-1.6687962E1,-1.0451925E1,-3.8230598E0,2.4475794E0,9.229894E0,1.5995488E1,2.2605612E1,-2.1647068E1,-2.525897E1,-1.8281466E1,-1.5191593E1,-1.212122E1,-8.8926115E0,-5.5202017E0,-2.350613E0,1.0452421E0,4.074641E0,7.369496E0,1.0883194E1,1.45189705E1,1.7571503E1,2.085272E1,2.4235537E1,-2.0449355E0,-2.2194323E1,-2.6809834E1,-2.3434475E1,-1.6994503E1,-2.0167091E1,-1.4003932E1,-1.6875675E1,-1.1196561E1,-1.3365906E1,-7.993128E0,-1.0015254E1,-4.603514E0,-6.304347E0,-3.360941E0,-1.5410864E0,1.7562996E-1,1.9026093E0,3.08557E0,4.8990607E0,6.3869653E0,8.529275E0,9.760874E0,1.2367684E1,1.3403274E1,1.6042946E1,1.6386852E1,1.9260305E1,1.9489208E1,2.2865854E1,2.450867E1,1.1660189E1,-2.3574375E-1,-7.392173E-2,-1.1231084E0,-4.5551354E-1,-1.3911201E0,-1.3108873E0,-1.2097136E0,-1.1285114E0,-1.6638907E-2,-8.782935E-1,-1.0570334E0,-9.6716803E-1,-9.3415335E-2,-7.149436E-1,-8.8192666E-1,-7.9539496E-1,-6.061897E-1,-5.123939E-1,-7.169071E-1,-6.2054867E-1,-4.5692435E-1,-3.5073146E-1,-5.461659E-1,-4.4981146E-1,-2.6921996E-1,-1.6567135E-1,-4.0675005E-1,-2.8722772E-1,-2.3458956E-1,-1.501961E-1,-1.09840356E-1,-4.7099903E-2,-2.7870083E-2,4.031527E-2,6.8695225E-2,1.1646587E-1,1.1839799E-1,2.0683382E-1,2.033737E-1,2.8777045E-1,2.735357E-1,3.9700437E-1,3.77708E-1,4.7635552E-1,4.418738E-1,5.336036E-1,5.482483E-1,6.537222E-1,8.460807E-2,6.812716E-1,7.5082886E-1,8.428351E-1,8.8783264E-2,8.368909E-1,9.116573E-1,9.8888904E-1,9.624588E-2,1.0029535E0,1.0874039E0,1.1838201E0,1.1742972E0,1.3265371E0,9.2147887E-1,2.6262036E-1],"categories":[],"categories_nodes":[],"categories_segments":[],"categories_sizes":[],"default_left":[0,0,0,0,0,0,0,0,0,0,0,0,0,0,0,0,0,0,0,0,0,0,0,0,0,0,0,0,0,0,0,0,0,0,0,0,0,0,0,0,0,0,0,0,0,0,0,0,0,0,0,0,0,0,0,0,0,0,0,0,0,0,0,0,0,0,0,0,0,0,0,0,0,0,0,0,0,0,0,0,0,0,0,0,0,0,0,0,0,0,0,0,0,0,0,0,0,0,0,0,0,0,0,0,0,0,0,0,0,0,0,0,0,0,0,0,0,0,0,0,0,0,0,0,0,0,0],"id":1,"left_children":[1,3,5,7,9,11,13,15,17,19,21,23,25,27,29,31,33,35,37,39,41,43,45,47,49,51,53,55,57,59,61,63,65,67,69,71,73,75,77,79,81,83,85,87,89,91,93,95,97,99,101,103,105,107,109,111,113,115,117,119,121,123,125,-1,-1,-1,-1,-1,-1,-1,-1,-1,-1,-1,-1,-1,-1,-1,-1,-1,-1,-1,-1,-1,-1,-1,-1,-1,-1,-1,-1,-1,-1,-1,-1,-1,-1,-1,-1,-1,-1,-1,-1,-1,-1,-1,-1,-1,-1,-1,-1,-1,-1,-1,-1,-1,-1,-1,-1,-1,-1,-1,-1,-1,-1,-1,-1],"loss_changes":[6.1405404E7,6.725222E6,7.93609E6,8.21792E5,8.220735E5,9.3158025E5,9.63668E5,1.36946E5,9.3637E4,9.5905E4,9.486469E4,8.698972E4,1.3279425E5,9.1448E4,1.42724E5,3.27741E5,4.4882E4,4.5932E4,4.0402E4,2.035025E4,1.9182E4,1.264875E4,1.662329E4,1.5268334E4,1.4376031E4,2.3112E4,3.798425E4,3.4389E4,3.781E4,6.5878E4,8.8917E4,1.2499363E3,1.0397E5,4.4785E3,4.31175E3,1.0795075E5,5.7905E3,4.2642E4,5.9195E3,8.871125E3,6.865875E3,1.181E4,7.7495625E3,8.1774375E3,9.691781E3,4.282586E3,4.4326406E3,4.701167E3,2.3232148E3,6.0440938E3,6.8301094E3,1.56243125E4,8.997375E3,1.086825E4,9.614875E3,3.056275E4,6.92725E3,5.744025E4,3.8125E3,1.44214E5,8.3195E3,5.1942E4,2.393393E4,0E0,0E0,0E0,0E0,0E0,0E0,0E0,0E0,0E0,0E0,0E0,0E0,0E0,0E0,0E0,0E0,0E0,0E0,0E0,0E0,0E0,0E0,0E0,0E0,0E0,0E0,0E0,0E0,0E0,0E0,0E0,0E0,0E0,0E0,0E0,0E0,0E0,0E0,0E0,0E0,0E0,0E0,0E0,0E0,0E0,0E0,0E0,0E0,0E0,0E0,0E0,0E0,0E0,0E0,0E0,0E0,0E0,0E0,0E0,0E0,0E0,0E0,0E0,0E0],"parents":[2147483647,0,0,1,1,2,2,3,3,4,4,5,5,6,6,7,7,8,8,9,9,10,10,11,11,12,12,13,13,14,14,15,15,16,16,17,17,18,18,19,19,20,20,21,21,22,22,23,23,24,24,25,25,26,26,27,27,28,28,29,29,30,30,31,31,32,32,33,33,34,34,35,35,36,36,37,37,38,38,39,39,40,40,41,41,42,42,43,43,44,44,45,45,46,46,47,47,48,48,49,49,50,50,51,51,52,52,53,53,54,54,55,55,56,56,57,57,58,58,59,59,60,60,61,61,62,62],"right_children":[2,4,6,8,10,12,14,16,18,20,22,24,26,28,30,32,34,36,38,40,42,44,46,48,50,52,54,56,58,60,62,64,66,68,70,72,74,76,78,80,82,84,86,88,90,92,94,96,98,100,102,104,106,108,110,112,114,116,118,120,122,124,126,-1,-1,-1,-1,-1,-1,-1,-1,-1,-1,-1,-1,-1,-1,-1,-1,-1,-1,-1,-1,-1,-1,-1,-1,-1,-1,-1,-1,-1,-1,-1,-1,-1,-1,-1,-1,-1,-1,-1,-1,-1,-1,-1,-1,-1,-1,-1,-1,-1,-1,-1,-1,-1,-1,-1,-1,-1,-1,-1,-1,-1,-1,-1,-1],"split_conditions":[3.340126E1,1.8141245E1,4.9494617E1,9.8073E0,2.5907389E1,4.0569614E1,5.7518547E1,7E0,1.3865336E1,2.1873833E1,2.9565992E1,3.7074757E1,4.4726185E1,5.364112E1,6.2703747E1,6E0,5.588376E0,7E0,7E0,7E0,7E0,6E0,3.1345823E1,3.5164703E1,6E0,8E0,7E0,7E0,7E0,7E0,1.02089714E2,2.94E2,1.02089714E2,2.335732E0,7.84856E0,6E0,1.1743192E1,6E0,1.6295248E1,2.0026545E1,2.0026545E1,4.005102E-2,2.3976393E1,1.8811207E1,1.257396E1,1.0004484E1,1.6E1,-1.4307407E-2,6E0,-6.3669193E-3,3.8809437E1,-1.4307407E-2,4.261111E1,4.7133045E1,4.634125E1,6E0,5.1323814E1,6E0,5.4929314E1,6E0,5.9683327E1,7E0,6E0,-2.3574375E-1,-7.392173E-2,-1.1231084E0,-4.5551354E-1,-1.3911201E0,-1.3108873E0,-1.2097136E0,-1.1285114E0,-1.6638907E-2,-8.782935E-1,-1.0570334E0,-9.6716803E-1,-9.3415335E-2,-7.149436E-1,-8.8192666E-1,-7.9539496E-1,-6.061897E-1,-5.123939E-1,-7.169071E-1,-6.2054867E-1,-4.5692435E-1,-3.5073146E-1,-5.461659E-1,-4.4981146E-1,-2.6921996E-1,-1.6567135E-1,-4.0675005E-1,-2.8722772E-1,-2.3458956E-1,-1.501961E-1,-1.09840356E-1,-4.7099903E-2,-2.7870083E-2,4.031527E-2,6.8695225E-2,1.1646587E-1,1.1839799E-1,2.0683382E-1,2.033737E-1,2.8777045E-1,2.735357E-1,3.9700437E-1,3.77708E-1,4.7635552E-1,4.418738E-1,5.336036E-1,5.482483E-1,6.537222E-1,8.460807E-2,6.812716E-1,7.5082886E-1,8.428351E-1,8.8783264E-2,8.368909E-1,9.116573E-1,9.8888904E-1,9.624588E-2,1.0029535E0,1.0874039E0,1.1838201E0,1.1742972E0,1.3265371E0,9.2147887E-1,2.6262036E-1],"split_indices":[7,7,7,7,7,7,7,5,7,7,7,7,7,7,7,4,7,5,5,5,5,5,7,7,5,5,5,5,5,5,6,11,6,7,7,4,7,4,7,7,7,10,7,9,6,6,4,10,5,10,7,10,7,7,7,4,7,4,7,4,7,5,5,0,0,0,0,0,0,0,0,0,0,0,0,0,0,0,0,0,0,0,0,0,0,0,0,0,0,0,0,0,0,0,0,0,0,0,0,0,0,0,0,0,0,0,0,0,0,0,0,0,0,0,0,0,0,0,0,0,0,0,0,0,0,0,0],"split_type":[0,0,0,0,0,0,0,0,0,0,0,0,0,0,0,0,0,0,0,0,0,0,0,0,0,0,0,0,0,0,0,0,0,0,0,0,0,0,0,0,0,0,0,0,0,0,0,0,0,0,0,0,0,0,0,0,0,0,0,0,0,0,0,0,0,0,0,0,0,0,0,0,0,0,0,0,0,0,0,0,0,0,0,0,0,0,0,0,0,0,0,0,0,0,0,0,0,0,0,0,0,0,0,0,0,0,0,0,0,0,0,0,0,0,0,0,0,0,0,0,0,0,0,0,0,0,0],"sum_hessian":[3.31737E5,1.60874E5,1.70863E5,8.6023E4,7.4851E4,8.1325E4,8.9538E4,4.6638E4,3.9385E4,3.6885E4,3.7966E4,3.8126E4,4.3199E4,3.9407E4,5.0131E4,3.0555E4,1.6083E4,1.9068E4,2.0317E4,1.7811E4,1.9074E4,1.7636E4,2.033E4,2.0478E4,1.7648E4,2.0329E4,2.287E4,2.0351E4,1.9056E4,2.4161E4,2.597E4,8.3E2,2.9725E4,8.686E3,7.397E3,1.1339E4,7.729E3,1.192E4,8.397E3,1.0225E4,7.586E3,1.0594E4,8.48E3,8.134E3,9.502E3,9.042E3,1.1288E4,1.0167E4,1.0311E4,8.025E3,9.623E3,1.1009E4,9.32E3,1.3028E4,9.842E3,1.1755E4,8.596E3,1.1206E4,7.85E3,1.4411E4,9.75E3,2.5417E4,5.53E2,1.44E2,6.86E2,2.9128E4,5.97E2,3.188E3,5.498E3,3.922E3,3.475E3,3.76E2,1.0963E4,3.531E3,4.198E3,2.83E2,1.1637E4,4.686E3,3.711E3,5.165E3,5.06E3,3.752E3,3.834E3,4.877E3,5.717E3,4.479E3,4.001E3,5.065E3,3.069E3,2.222E3,7.28E3,1.91E3,7.132E3,5.388E3,5.9E3,4.702E3,5.465E3,4.607E3,5.704E3,4.771E3,3.254E3,4.885E3,4.738E3,6.927E3,4.082E3,4.718E3,4.602E3,6.476E3,6.552E3,3.303E3,6.539E3,2.19E2,1.1536E4,3.81E3,4.786E3,2.63E2,1.0943E4,2.642E3,5.208E3,4.53E2,1.3958E4,4.11E3,5.64E3,1.6888E4,8.529E3,2.68E2,2.85E2],"tree_param":{"num_deleted":"0","num_feature":"12","num_nodes":"127","size_leaf_vector":"1"}},{"base_weights":[-3.9113447E-6,-1.3006861E1,1.2844222E1,-1.8780775E1,-6.090801E0,6.5476117E0,1.9183525E1,-2.174863E1,-1.5575632E1,-9.610904E0,-3.3127322E0,3.0450573E0,9.640089E0,1.6166548E1,2.1898148E1,-2.0564777E1,-2.3996334E1,-1.7367548E1,-1.4158554E1,-1.1193892E1,-8.448076E0,-4.653578E0,-1.2471039E0,1.465261E0,4.514962E0,7.971067E0,1.1403611E1,1.4805111E1,1.761975E1,2.0794556E1,2.3869713E1,-1.9430617E0,-2.1084661E1,-2.5469654E1,-2.2263067E1,-1.6144857E1,-1.9159E1,-1.3080791E1,-1.5695427E1,-1.0275454E1,-1.24013815E1,-7.593548E0,-9.51461E0,-5.566459E0,-3.5408716E0,-2.0445344E0,-7.6781285E-1,6.8840504E-1,2.155395E0,3.5804203E0,5.44393E0,7.010113E0,9.149337E0,1.0261857E1,1.2919844E1,1.3764184E1,1.6255764E1,1.6465368E1,1.9277712E1,2.1895797E0,2.123821E1,2.2426153E1,2.5423405E1,-2.2403781E-1,-7.023105E-2,-1.0141574E0,-1.2569221E0,-1.3087357E0,-1.2349646E0,-1.1492434E0,-1.0721022E0,-1.5809128E-2,-8.3438295E-1,-1.0041968E0,-9.188213E-1,-9.82055E-2,-6.660819E-1,-8.378397E-1,-7.372717E-1,-4.8077416E-1,-5.8248883E-1,-6.642565E-1,-5.828518E-1,-4.340828E-1,-3.3319798E-1,-5.1886374E-1,-4.273266E-1,-3.2484815E-1,-2.4543193E-1,-1.3189177E-1,-2.1398978E-1,-1.507539E-1,-7.356498E-2,-6.594148E-2,-7.05674E-3,1.1342014E-3,6.0269337E-2,6.866225E-2,1.3839638E-1,1.3005981E-1,2.1951628E-1,3.8021192E-1,2.546532E-1,2.9593346E-1,3.9292857E-1,4.1028425E-1,5.067696E-1,5.1130634E-2,5.1896554E-1,5.982536E-1,6.890633E-1,8.673854E-2,7.000511E-1,7.7037346E-1,8.552715E-1,7.730903E-2,8.447033E-1,9.2629063E-1,9.967697E-1,-5.4357804E-2,1.4595461E-1,1.024025E0,1.2597896E0,1.0905272E0,1.1626021E0,1.2422866E0,1.318993E0],"categories":[],"categories_nodes":[],"categories_segments":[],"categories_sizes":[],"default_left":[0,0,0,0,0,0,0,0,0,0,0,0,0,0,0,0,0,0,0,0,0,0,0,0,0,0,0,0,0,0,0,0,0,0,0,0,0,0,0,0,0,0,0,0,0,0,0,0,0,0,0,0,0,0,0,0,0,0,0,0,0,0,0,0,0,0,0,0,0,0,0,0,0,0,0,0,0,0,0,0,0,0,0,0,0,0,0,0,0,0,0,0,0,0,0,0,0,0,0,0,0,0,0,0,0,0,0,0,0,0,0,0,0,0,0,0,0,0,0,0,0,0,0,0,0,0,0],"id":2,"left_children":[1,3,5,7,9,11,13,15,17,19,21,23,25,27,29,31,33,35,37,39,41,43,45,47,49,51,53,55,57,59,61,63,65,67,69,71,73,75,77,79,81,83,85,87,89,91,93,95,97,99,101,103,105,107,109,111,113,115,117,119,121,123,125,-1,-1,-1,-1,-1,-1,-1,-1,-1,-1,-1,-1,-1,-1,-1,-1,-1,-1,-1,-1,-1,-1,-1,-1,-1,-1,-1,-1,-1,-1,-1,-1,-1,-1,-1,-1,-1,-1,-1,-1,-1,-1,-1,-1,-1,-1,-1,-1,-1,-1,-1,-1,-1,-1,-1,-1,-1,-1,-1,-1,-1,-1,-1,-1],"loss_changes":[5.5421316E7,6.581838E6,6.662394E6,8.5416E5,7.3337025E5,9.070065E5,6.80834E5,1.23612E5,1.09431E5,6.079725E4,1.1609403E5,9.117959E4,1.3080925E5,7.7684E4,9.4758E4,2.95776E5,4.0506E4,4.14595E4,3.97535E4,1.540525E4,1.73125E4,2.5799062E4,6.3051367E3,1.0146477E4,1.763975E4,2.5810375E4,3.72985E4,3.05005E4,3.6145E4,2.31691E5,3.4651E4,1.1291829E3,9.6074E4,4.072E3,3.89125E3,9.7426E4,5.2265E3,3.795575E4,9.77425E3,7.1086875E3,3.82225E3,1.0658875E4,6.994E3,8.513719E3,7.6343438E3,3.4415918E3,3.559272E3,3.0651113E3,4.7981406E3,8.0327812E3,7.6919062E3,1.16133125E4,9.4655625E3,1.3379625E4,7.470875E3,3.3745E4,5.85925E3,7.185E4,3.495E3,1.5688982E3,8.1711E4,3.63625E3,3.5195E3,0E0,0E0,0E0,0E0,0E0,0E0,0E0,0E0,0E0,0E0,0E0,0E0,0E0,0E0,0E0,0E0,0E0,0E0,0E0,0E0,0E0,0E0,0E0,0E0,0E0,0E0,0E0,0E0,0E0,0E0,0E0,0E0,0E0,0E0,0E0,0E0,0E0,0E0,0E0,0E0,0E0,0E0,0E0,0E0,0E0,0E0,0E0,0E0,0E0,0E0,0E0,0E0,0E0,0E0,0E0,0E0,0E0,0E0,0E0,0E0,0E0,0E0,0E0,0E0],"parents":[2147483647,0,0,1,1,2,2,3,3,4,4,5,5,6,6,7,7,8,8,9,9,10,10,11,11,12,12,13,13,14,14,15,15,16,16,17,17,18,18,19,19,20,20,21,21,22,22,23,23,24,24,25,25,26,26,27,27,28,28,29,29,30,30,31,31,32,32,33,33,34,34,35,35,36,36,37,37,38,38,39,39,40,40,41,41,42,42,43,43,44,44,45,45,46,46,47,47,48,48,49,49,50,50,51,51,52,52,53,53,54,54,55,55,56,56,57,57,58,58,59,59,60,60,61,61,62,62],"right_children":[2,4,6,8,10,12,14,16,18,20,22,24,26,28,30,32,34,36,38,40,42,44,46,48,50,52,54,56,58,60,62,64,66,68,70,72,74,76,78,80,82,84,86,88,90,92,94,96,98,100,102,104,106,108,110,112,114,116,118,120,122,124,126,-1,-1,-1,-1,-1,-1,-1,-1,-1,-1,-1,-1,-1,-1,-1,-1,-1,-1,-1,-1,-1,-1,-1,-1,-1,-1,-1,-1,-1,-1,-1,-1,-1,-1,-1,-1,-1,-1,-1,-1,-1,-1,-1,-1,-1,-1,-1,-1,-1,-1,-1,-1,-1,-1,-1,-1,-1,-1,-1,-1,-1,-1,-1,-1],"split_conditions":[3.404828E1,1.8938951E1,5.081001E1,9.8073E0,2.5907389E1,4.160845E1,5.8853863E1,7E0,1.3865336E1,2.1873833E1,3.109946E1,3.7526344E1,4.634125E1,5.4929314E1,7E0,6E0,5.588376E0,7E0,7E0,7E0,7E0,2.8818129E1,3.227892E1,3.5632748E1,3.9532413E1,7E0,7E0,7E0,7E0,6E0,6.326998E1,2.94E2,1.9E1,3.088356E0,7.84856E0,6E0,1.1743192E1,6E0,1.6295248E1,5.6312023E1,2.029596E1,4.005102E-2,2.3976393E1,1.5E1,6E0,1.999137E1,1.6804839E-2,-2.7035924E-2,6E0,6E0,9.088663E0,4.3672455E1,4.3946224E1,6E0,4.8461765E1,6E0,5.286993E1,6E0,5.6743893E1,6E0,2.2E1,6.129518E1,6.590493E1,-2.2403781E-1,-7.023105E-2,-1.0141574E0,-1.2569221E0,-1.3087357E0,-1.2349646E0,-1.1492434E0,-1.0721022E0,-1.5809128E-2,-8.3438295E-1,-1.0041968E0,-9.188213E-1,-9.82055E-2,-6.660819E-1,-8.378397E-1,-7.372717E-1,-4.8077416E-1,-5.8248883E-1,-6.642565E-1,-5.828518E-1,-4.340828E-1,-3.3319798E-1,-5.1886374E-1,-4.273266E-1,-3.2484815E-1,-2.4543193E-1,-1.3189177E-1,-2.1398978E-1,-1.507539E-1,-7.356498E-2,-6.594148E-2,-7.05674E-3,1.1342014E-3,6.0269337E-2,6.866225E-2,1.3839638E-1,1.3005981E-1,2.1951628E-1,3.8021192E-1,2.546532E-1,2.9593346E-1,3.9292857E-1,4.1028425E-1,5.067696E-1,5.1130634E-2,5.1896554E-1,5.982536E-1,6.890633E-1,8.673854E-2,7.000511E-1,7.7037346E-1,8.552715E-1,7.730903E-2,8.447033E-1,9.2629063E-1,9.967697E-1,-5.4357804E-2,1.4595461E-1,1.024025E0,1.2597896E0,1.0905272E0,1.1626021E0,1.2422866E0,1.318993E0],"split_indices":[7,7,7,7,7,7,7,5,7,7,7,7,7,7,5,4,7,5,5,5,5,7,7,7,7,5,5,5,5,4,7,11,4,7,7,4,7,4,7,6,7,10,7,4,5,6,10,10,5,5,6,7,7,4,7,4,7,4,7,5,4,7,7,0,0,0,0,0,0,0,0,0,0,0,0,0,0,0,0,0,0,0,0,0,0,0,0,0,0,0,0,0,0,0,0,0,0,0,0,0,0,0,0,0,0,0,0,0,0,0,0,0,0,0,0,0,0,0,0,0,0,0,0,0,0,0,0],"split_type":[0,0,0,0,0,0,0,0,0,0,0,0,0,0,0,0,0,0,0,0,0,0,0,0,0,0,0,0,0,0,0,0,0,0,0,0,0,0,0,0,0,0,0,0,0,0,0,0,0,0,0,0,0,0,0,0,0,0,0,0,0,0,0,0,0,0,0,0,0,0,0,0,0,0,0,0,0,0,0,0,0,0,0,0,0,0,0,0,0,0,0,0,0,0,0,0,0,0,0,0,0,0,0,0,0,0,0,0,0,0,0,0,0,0,0,0,0,0,0,0,0,0,0,0,0,0,0],"sum_hessian":[3.31737E5,1.64825E5,1.66912E5,8.9829E4,7.4996E4,8.3739E4,8.3173E4,4.6638E4,4.3191E4,3.3079E4,4.1917E4,3.9267E4,4.4472E4,3.9396E4,4.3777E4,3.0555E4,1.6083E4,1.9068E4,2.4123E4,1.4005E4,1.9074E4,2.5417E4,1.65E4,1.8927E4,2.034E4,2.2851E4,2.1621E4,2.0346E4,1.905E4,2.8074E4,1.5703E4,8.3E2,2.9725E4,8.686E3,7.397E3,1.1339E4,7.729E3,1.4185E4,9.938E3,7.96E3,6.045E3,1.0594E4,8.48E3,1.396E4,1.1457E4,6.193E3,1.0307E4,8.905E3,1.0022E4,1.0142E4,1.0198E4,1.259E4,1.0261E4,1.2338E4,9.283E3,1.1852E4,8.494E3,1.1237E4,7.813E3,6.54E2,2.742E4,8.148E3,7.555E3,1.44E2,6.86E2,2.4823E4,4.902E3,4.518E3,4.168E3,3.922E3,3.475E3,3.76E2,1.0963E4,3.531E3,4.198E3,3.01E2,1.3884E4,4.686E3,5.252E3,5.383E3,2.577E3,2.756E3,3.289E3,4.877E3,5.717E3,4.479E3,4.001E3,5.778E3,8.182E3,5.158E3,6.299E3,2.298E3,3.895E3,5.484E3,4.823E3,3.893E3,5.012E3,4.403E3,5.619E3,4.593E3,5.549E3,1.422E3,8.776E3,5.51E3,7.08E3,5.248E3,5.013E3,1.55E2,1.2183E4,4.41E3,4.873E3,2.29E2,1.1623E4,4.26E3,4.234E3,3.14E2,1.0923E4,3.659E3,4.154E3,1.19E2,5.35E2,2.3019E4,4.401E3,4.684E3,3.464E3,4.727E3,2.828E3],"tree_param":{"num_deleted":"0","num_feature":"12","num_nodes":"127","size_leaf_vector":"1"}},{"base_weights":[-5.2703517E-6,-1.2655036E1,1.1915191E1,-1.8100082E1,-6.3971233E0,5.4587855E0,1.7779247E1,-2.0913652E1,-1.5308958E1,-9.427168E0,-3.4531825E0,2.2085893E0,8.327183E0,1.471149E1,2.0641949E1,-2.1118208E1,-8.443407E0,-1.6813791E1,-1.380251E1,-1.1039301E1,-8.116494E0,-4.9871283E0,-2.1223257E0,9.4555646E-1,3.674023E0,6.6511674E0,9.8166275E0,1.3106167E1,1.6139172E1,1.903431E1,2.1900536E1,-2.2612047E1,-1.9684494E1,-1.7740911E1,-5.9509273E0,-1.5594238E1,-1.8631264E1,-1.2741948E1,-1.53038225E1,-1.0203303E1,-1.216797E1,-7.301904E0,-9.135547E0,-4.1430607E0,-5.7091637E0,-3.0266266E0,-1.3977516E0,6.702449E-2,1.6405237E0,2.7675564E0,4.429595E0,5.7547846E0,7.7092648E0,8.799271E0,1.1162287E1,1.2099706E1,1.4480932E1,1.5090935E1,1.7639843E1,1.7733303E1,2.0958672E1,2.2157295E1,1.0080674E1,-1.0859841E0,-1.2302908E0,-9.167024E-1,-1.0940189E0,-5.246887E-1,-1.2521805E0,-5.9268016E-1,-5.159354E-2,-2.8810868E-2,-8.062806E-1,-9.791633E-1,-8.910832E-1,-8.125217E-2,-6.5072376E-1,-8.0719197E-1,-7.281925E-1,-5.5548775E-1,-4.6104E-1,-6.463682E-1,-5.647677E-1,-4.1764197E-1,-3.2314837E-1,-4.9707365E-1,-4.0596563E-1,-2.4437225E-1,-1.456678E-1,-3.7206024E-1,-2.5897807E-1,-2.1362863E-1,-1.3462006E-1,-3.6551807E-2,-9.650894E-2,-3.1074202E-2,3.2706972E-2,7.814794E-2,2.1604744E-1,1.0426754E-1,1.8834278E-1,1.8337163E-1,2.6072323E-1,2.4421655E-1,3.6151767E-1,3.417047E-1,4.3024084E-1,4.0998316E-1,5.0809836E-1,5.2287763E-1,6.1481076E-1,7.6524846E-2,6.1501014E-1,6.9218606E-1,7.779673E-1,7.8980826E-2,7.718181E-1,8.2334435E-1,9.047949E-1,8.870436E-2,9.1243106E-1,1.0060331E0,1.0728468E0,1.062624E0,1.1973096E0,8.253046E-1,2.0009696E-1],"categories":[],"categories_nodes":[],"categories_segments":[],"categories_sizes":[],"default_left":[0,0,0,0,0,0,0,0,0,0,0,0,0,0,0,0,0,0,0,0,0,0,0,0,0,0,0,0,0,0,0,0,0,0,0,0,0,0,0,0,0,0,0,0,0,0,0,0,0,0,0,0,0,0,0,0,0,0,0,0,0,0,0,0,0,0,0,0,0,0,0,0,0,0,0,0,0,0,0,0,0,0,0,0,0,0,0,0,0,0,0,0,0,0,0,0,0,0,0,0,0,0,0,0,0,0,0,0,0,0,0,0,0,0,0,0,0,0,0,0,0,0,0,0,0,0,0],"id":3,"left_children":[1,3,5,7,9,11,13,15,17,19,21,23,25,27,29,31,33,35,37,39,41,43,45,47,49,51,53,55,57,59,61,63,65,67,69,71,73,75,77,79,81,83,85,87,89,91,93,95,97,99,101,103,105,107,109,111,113,115,117,119,121,123,125,-1,-1,-1,-1,-1,-1,-1,-1,-1,-1,-1,-1,-1,-1,-1,-1,-1,-1,-1,-1,-1,-1,-1,-1,-1,-1,-1,-1,-1,-1,-1,-1,-1,-1,-1,-1,-1,-1,-1,-1,-1,-1,-1,-1,-1,-1,-1,-1,-1,-1,-1,-1,-1,-1,-1,-1,-1,-1,-1,-1,-1,-1,-1,-1],"loss_changes":[5.0021984E7,5.481636E6,6.468938E6,6.7523E5,6.676675E5,7.5817225E5,7.86034E5,1.09092E5,9.7673E4,7.784975E4,7.7497625E4,7.056542E4,1.077765E5,9.8855E4,9.3294E4,8.9818E4,1.5953898E4,4.7588E4,3.417825E4,1.54805E4,1.6825E4,1.0725156E4,1.33173125E4,1.2503359E4,1.20755625E4,1.9237875E4,3.12125E4,2.79845E4,3.5716E4,5.05645E4,7.8594E4,3.6175E4,6.33935E4,7.464051E3,1.5899271E4,1.0319825E5,6.3325E3,3.8325125E4,5.316875E3,8.3644375E3,4.513875E3,9.92125E3,7.3199375E3,7.4323125E3,8.678469E3,3.7542422E3,4.0059297E3,3.6571045E3,2.370457E3,5.4636914E3,5.737922E3,1.4106094E4,7.246625E3,1.05625E4,7.737125E3,2.489325E4,5.69225E3,6.286125E4,4.731E3,9.984925E4,2.99275E3,4.0634E4,2.15723E4,0E0,0E0,0E0,0E0,0E0,0E0,0E0,0E0,0E0,0E0,0E0,0E0,0E0,0E0,0E0,0E0,0E0,0E0,0E0,0E0,0E0,0E0,0E0,0E0,0E0,0E0,0E0,0E0,0E0,0E0,0E0,0E0,0E0,0E0,0E0,0E0,0E0,0E0,0E0,0E0,0E0,0E0,0E0,0E0,0E0,0E0,0E0,0E0,0E0,0E0,0E0,0E0,0E0,0E0,0E0,0E0,0E0,0E0,0E0,0E0,0E0,0E0,0E0,0E0],"parents":[2147483647,0,0,1,1,2,2,3,3,4,4,5,5,6,6,7,7,8,8,9,9,10,10,11,11,12,12,13,13,14,14,15,15,16,16,17,17,18,18,19,19,20,20,21,21,22,22,23,23,24,24,25,25,26,26,27,27,28,28,29,29,30,30,31,31,32,32,33,33,34,34,35,35,36,36,37,37,38,38,39,39,40,40,41,41,42,42,43,43,44,44,45,45,46,46,47,47,48,48,49,49,50,50,51,51,52,52,53,53,54,54,55,55,56,56,57,57,58,58,59,59,60,60,61,61,62,62],"right_children":[2,4,6,8,10,12,14,16,18,20,22,24,26,28,30,32,34,36,38,40,42,44,46,48,50,52,54,56,58,60,62,64,66,68,70,72,74,76,78,80,82,84,86,88,90,92,94,96,98,100,102,104,106,108,110,112,114,116,118,120,122,124,126,-1,-1,-1,-1,-1,-1,-1,-1,-1,-1,-1,-1,-1,-1,-1,-1,-1,-1,-1,-1,-1,-1,-1,-1,-1,-1,-1,-1,-1,-1,-1,-1,-1,-1,-1,-1,-1,-1,-1,-1,-1,-1,-1,-1,-1,-1,-1,-1,-1,-1,-1,-1,-1,-1,-1,-1,-1,-1,-1,-1,-1,-1,-1,-1],"split_conditions":[3.340126E1,1.8141245E1,4.9494617E1,8.972328E0,2.5907389E1,4.0569614E1,5.831782E1,1.02089714E2,1.3601292E1,2.1614004E1,2.9565992E1,3.7074757E1,4.4726185E1,5.364112E1,6.2703747E1,4.159696E0,1.7E1,7E0,7E0,7E0,7E0,6E0,3.1345823E1,3.49486E1,6E0,8E0,7E0,7E0,7E0,7E0,1.02089714E2,7E0,7E0,6E0,6E0,6E0,1.1185116E1,6E0,1.5748732E1,1.7008965E1,2.0026545E1,3.248277E-2,2.3976393E1,1.8811207E1,1.257396E1,1.0004484E1,6E0,-1.4307407E-2,6.251925E-1,-6.3669193E-3,3.8809437E1,-1.4307407E-2,4.261111E1,-1.4307407E-2,4.76765E1,6E0,5.2103912E1,6E0,5.4929314E1,6E0,5.9946964E1,7E0,6E0,-1.0859841E0,-1.2302908E0,-9.167024E-1,-1.0940189E0,-5.246887E-1,-1.2521805E0,-5.9268016E-1,-5.159354E-2,-2.8810868E-2,-8.062806E-1,-9.791633E-1,-8.910832E-1,-8.125217E-2,-6.5072376E-1,-8.0719197E-1,-7.281925E-1,-5.5548775E-1,-4.6104E-1,-6.463682E-1,-5.647677E-1,-4.1764197E-1,-3.2314837E-1,-4.9707365E-1,-4.0596563E-1,-2.4437225E-1,-1.456678E-1,-3.7206024E-1,-2.5897807E-1,-2.1362863E-1,-1.3462006E-1,-3.6551807E-2,-9.650894E-2,-3.1074202E-2,3.2706972E-2,7.814794E-2,2.1604744E-1,1.0426754E-1,1.8834278E-1,1.8337163E-1,2.6072323E-1,2.4421655E-1,3.6151767E-1,3.417047E-1,4.3024084E-1,4.0998316E-1,5.0809836E-1,5.2287763E-1,6.1481076E-1,7.6524846E-2,6.1501014E-1,6.9218606E-1,7.779673E-1,7.8980826E-2,7.718181E-1,8.2334435E-1,9.047949E-1,8.870436E-2,9.1243106E-1,1.0060331E0,1.0728468E0,1.062624E0,1.1973096E0,8.253046E-1,2.0009696E-1],"split_indices":[7,7,7,7,7,7,7,6,7,7,7,7,7,7,7,7,4,5,5,5,5,5,7,7,5,5,5,5,5,5,6,5,5,4,5,4,7,4,7,9,7,10,7,9,6,6,5,10,10,10,7,10,7,10,7,4,7,4,7,4,7,5,5,0,0,0,0,0,0,0,0,0,0,0,0,0,0,0,0,0,0,0,0,0,0,0,0,0,0,0,0,0,0,0,0,0,0,0,0,0,0,0,0,0,0,0,0,0,0,0,0,0,0,0,0,0,0,0,0,0,0,0,0,0,0,0,0],"split_type":[0,0,0,0,0,0,0,0,0,0,0,0,0,0,0,0,0,0,0,0,0,0,0,0,0,0,0,0,0,0,0,0,0,0,0,0,0,0,0,0,0,0,0,0,0,0,0,0,0,0,0,0,0,0,0,0,0,0,0,0,0,0,0,0,0,0,0,0,0,0,0,0,0,0,0,0,0,0,0,0,0,0,0,0,0,0,0,0,0,0,0,0,0,0,0,0,0,0,0,0,0,0,0,0,0,0,0,0,0,0,0,0,0,0,0,0,0,0,0,0,0,0,0,0,0,0,0],"sum_hessian":[3.31737E5,1.60874E5,1.70863E5,8.6023E4,7.4851E4,8.1325E4,8.9538E4,4.2836E4,4.3187E4,3.6885E4,3.7966E4,3.8126E4,4.3199E4,4.3224E4,4.6314E4,4.2144E4,6.92E2,2.16E4,2.1587E4,1.6537E4,2.0348E4,1.7636E4,2.033E4,2.0478E4,1.7648E4,2.0329E4,2.287E4,2.0351E4,2.2873E4,2.0344E4,2.597E4,2.0632E4,2.1512E4,1.45E2,5.47E2,1.2932E4,8.668E3,1.2656E4,8.931E3,9.506E3,7.031E3,1.1313E4,9.035E3,8.134E3,9.502E3,9.042E3,1.1288E4,9.045E3,1.1433E4,8.025E3,9.623E3,1.1009E4,9.32E3,1.3028E4,9.842E3,1.1755E4,8.596E3,1.3473E4,9.4E3,1.2144E4,8.2E3,2.5417E4,5.53E2,1.4261E4,6.371E3,1.3326E4,8.186E3,7.4E1,7.1E1,2.48E2,2.99E2,4.42E2,1.249E4,3.973E3,4.695E3,3.03E2,1.2353E4,4.173E3,4.758E3,4.939E3,4.567E3,3.752E3,3.279E3,5.018E3,6.295E3,5.034E3,4.001E3,5.065E3,3.069E3,2.222E3,7.28E3,1.91E3,7.132E3,5.013E3,6.275E3,4.163E3,4.882E3,1.1113E4,3.2E2,4.771E3,3.254E3,4.885E3,4.738E3,6.927E3,4.082E3,4.718E3,4.602E3,9.052E3,3.976E3,6.076E3,3.766E3,2.19E2,1.1536E4,5.412E3,3.184E3,3.36E2,1.3137E4,2.642E3,6.758E3,3.8E2,1.1764E4,3.073E3,5.127E3,1.6888E4,8.529E3,2.68E2,2.85E2],"tree_param":{"num_deleted":"0","num_feature":"12","num_nodes":"127","size_leaf_vector":"1"}},{"base_weights":[-9.506803E-6,-1.202239E1,1.1319523E1,-1.7536358E1,-6.4399886E0,4.9034595E0,1.6648237E1,-1.9868128E1,-1.491401E1,-9.297446E0,-3.2805626E0,1.9973173E0,7.534832E0,1.3465668E1,1.9391039E1,-2.00624E1,-8.024731E0,-1.3849233E1,-1.6475592E1,-1.1205531E1,-8.054322E0,-4.941876E0,-2.1644883E0,7.190683E-1,3.1902046E0,5.9655333E0,8.757371E0,1.1605457E1,1.4617642E1,1.7695168E1,2.0676987E1,-2.1481558E1,-1.8700361E1,-1.6866035E1,-5.6545568E0,-9.1860986E-1,-1.4252298E1,-1.7791853E1,-1.5006961E1,-1.0286432E1,-1.2449622E1,-7.286373E0,-9.029073E0,-5.810883E0,-4.3299336E0,-3.0898402E0,-1.4149653E0,6.367347E-2,1.3973272E0,2.3521616E0,3.8816054E0,7.096071E0,5.188266E0,7.7875853E0,1.0017348E1,1.0630434E1,1.2923501E1,1.3635859E1,1.600843E1,1.6493319E1,1.945421E1,2.0897717E1,9.899402E0,-1.0316887E0,-1.1687859E0,-8.708707E-1,-1.0393246E0,-4.9880406E-1,-1.190441E0,-5.631651E-1,-4.9022447E-2,4.5937505E-2,-1.1959368E-1,-7.9552096E-1,-6.634469E-1,-9.302174E-1,-8.506079E-1,-7.7225083E-1,-7.104001E-1,-5.5512136E-1,-4.6684584E-1,-6.4592236E-1,-5.715013E-1,-4.0919828E-1,-3.192677E-1,-4.9244982E-1,-3.9193207E-1,-3.284658E-1,-2.5445634E-1,-2.7941507E-1,-1.8696241E-1,-1.1438912E-1,-1.8738289E-1,-7.630474E-2,8.0220126E-2,-2.9520849E-2,3.107195E-2,6.479177E-2,2.3711526E-1,7.8216866E-2,1.5518577E-1,1.5756568E-1,2.3772025E-1,3.2097623E-1,3.8093314E-1,2.1745615E-1,3.262687E-1,3.5950643E-1,4.544085E-1,4.5687714E-1,5.4551476E-1,5.8108415E-2,5.400318E-1,6.980916E-1,6.311513E-1,6.899179E-2,6.956457E-1,7.4332625E-1,8.365426E-1,7.983297E-2,8.4907436E-1,9.1525936E-1,9.968262E-1,1.0016763E0,1.1286206E0,7.875572E-1,2.2511534E-1],"categories":[],"categories_nodes":[],"categories_segments":[],"categories_sizes":[],"default_left":[0,0,0,0,0,0,0,0,0,0,0,0,0,0,0,0,0,0,0,0,0,0,0,0,0,0,0,0,0,0,0,0,0,0,0,0,0,0,0,0,0,0,0,0,0,0,0,0,0,0,0,0,0,0,0,0,0,0,0,0,0,0,0,0,0,0,0,0,0,0,0,0,0,0,0,0,0,0,0,0,0,0,0,0,0,0,0,0,0,0,0,0,0,0,0,0,0,0,0,0,0,0,0,0,0,0,0,0,0,0,0,0,0,0,0,0,0,0,0,0,0,0,0,0,0,0,0],"id":4,"left_children":[1,3,5,7,9,11,13,15,17,19,21,23,25,27,29,31,33,35,37,39,41,43,45,47,49,51,53,55,57,59,61,63,65,67,69,71,73,75,77,79,81,83,85,87,89,91,93,95,97,99,101,103,105,107,109,111,113,115,117,119,121,123,125,-1,-1,-1,-1,-1,-1,-1,-1,-1,-1,-1,-1,-1,-1,-1,-1,-1,-1,-1,-1,-1,-1,-1,-1,-1,-1,-1,-1,-1,-1,-1,-1,-1,-1,-1,-1,-1,-1,-1,-1,-1,-1,-1,-1,-1,-1,-1,-1,-1,-1,-1,-1,-1,-1,-1,-1,-1,-1,-1,-1,-1,-1,-1,-1],"loss_changes":[4.514561E7,4.95181E6,5.84165E6,4.94584E5,7.21689E5,5.92822E5,8.14528E5,9.84E4,6.3117E4,9.947875E4,7.038584E4,5.6171594E4,7.800325E4,9.2425E4,1.08962E5,8.1062E4,1.4426746E4,1.18078E5,2.958E4,1.8803875E4,1.896325E4,8.0876875E3,1.5748047E4,7.90583E3,1.1032344E4,1.562125E4,2.786325E4,2.110575E4,3.62135E4,4.5401E4,6.7607E4,3.2651E4,5.72155E4,6.746461E3,1.4355262E4,1.8591418E3,3.56165E4,4.83825E3,2.336875E3,7.2786875E3,3.21275E3,1.14514375E4,1.085275E4,3.41575E3,6.6360938E3,5.353508E3,4.2134883E3,3.3006108E3,2.9609785E3,5.097203E3,6.6394688E3,2.5169062E3,1.18235625E4,9.97875E3,7.710875E3,1.5308125E4,2.015125E3,5.31115E4,8.8545E3,9.345575E4,4.497E3,3.9974E4,1.805739E4,0E0,0E0,0E0,0E0,0E0,0E0,0E0,0E0,0E0,0E0,0E0,0E0,0E0,0E0,0E0,0E0,0E0,0E0,0E0,0E0,0E0,0E0,0E0,0E0,0E0,0E0,0E0,0E0,0E0,0E0,0E0,0E0,0E0,0E0,0E0,0E0,0E0,0E0,0E0,0E0,0E0,0E0,0E0,0E0,0E0,0E0,0E0,0E0,0E0,0E0,0E0,0E0,0E0,0E0,0E0,0E0,0E0,0E0,0E0,0E0,0E0,0E0,0E0,0E0],"parents":[2147483647,0,0,1,1,2,2,3,3,4,4,5,5,6,6,7,7,8,8,9,9,10,10,11,11,12,12,13,13,14,14,15,15,16,16,17,17,18,18,19,19,20,20,21,21,22,22,23,23,24,24,25,25,26,26,27,27,28,28,29,29,30,30,31,31,32,32,33,33,34,34,35,35,36,36,37,37,38,38,39,39,40,40,41,41,42,42,43,43,44,44,45,45,46,46,47,47,48,48,49,49,50,50,51,51,52,52,53,53,54,54,55,55,56,56,57,57,58,58,59,59,60,60,61,61,62,62],"right_children":[2,4,6,8,10,12,14,16,18,20,22,24,26,28,30,32,34,36,38,40,42,44,46,48,50,52,54,56,58,60,62,64,66,68,70,72,74,76,78,80,82,84,86,88,90,92,94,96,98,100,102,104,106,108,110,112,114,116,118,120,122,124,126,-1,-1,-1,-1,-1,-1,-1,-1,-1,-1,-1,-1,-1,-1,-1,-1,-1,-1,-1,-1,-1,-1,-1,-1,-1,-1,-1,-1,-1,-1,-1,-1,-1,-1,-1,-1,-1,-1,-1,-1,-1,-1,-1,-1,-1,-1,-1,-1,-1,-1,-1,-1,-1,-1,-1,-1,-1,-1,-1,-1,-1,-1,-1,-1],"split_conditions":[3.340126E1,1.7077112E1,4.872948E1,8.972328E0,2.5907389E1,4.030945E1,5.7518547E1,1.02089714E2,7E0,2.0551504E1,2.9090809E1,3.656503E1,4.3946224E1,5.2103912E1,6.215948E1,4.159696E0,1.7E1,6E0,1.3339356E1,7E0,7E0,1.5E1,3.109946E1,3.49486E1,6E0,1.5E1,7E0,7E0,7E0,7E0,1.02089714E2,7E0,7E0,6E0,6E0,8.792175E1,1.5469878E1,1.1185116E1,1.5748732E1,1.725589E1,1.9475744E1,9.4239585E-2,2.3723024E1,2.7504911E1,-6.0949244E-2,6E0,1.79E3,-1.4307407E-2,6.251925E-1,-4.651128E-2,3.8562866E1,4.187229E1,-1.4307407E-2,-1.4307407E-2,4.634125E1,6E0,2.39043E1,6E0,5.4136295E1,6E0,5.8853863E1,7E0,6E0,-1.0316887E0,-1.1687859E0,-8.708707E-1,-1.0393246E0,-4.9880406E-1,-1.190441E0,-5.631651E-1,-4.9022447E-2,4.5937505E-2,-1.1959368E-1,-7.9552096E-1,-6.634469E-1,-9.302174E-1,-8.506079E-1,-7.7225083E-1,-7.104001E-1,-5.5512136E-1,-4.6684584E-1,-6.4592236E-1,-5.715013E-1,-4.0919828E-1,-3.192677E-1,-4.9244982E-1,-3.9193207E-1,-3.284658E-1,-2.5445634E-1,-2.7941507E-1,-1.8696241E-1,-1.1438912E-1,-1.8738289E-1,-7.630474E-2,8.0220126E-2,-2.9520849E-2,3.107195E-2,6.479177E-2,2.3711526E-1,7.8216866E-2,1.5518577E-1,1.5756568E-1,2.3772025E-1,3.2097623E-1,3.8093314E-1,2.1745615E-1,3.262687E-1,3.5950643E-1,4.544085E-1,4.5687714E-1,5.4551476E-1,5.8108415E-2,5.400318E-1,6.980916E-1,6.311513E-1,6.899179E-2,6.956457E-1,7.4332625E-1,8.365426E-1,7.983297E-2,8.4907436E-1,9.1525936E-1,9.968262E-1,1.0016763E0,1.1286206E0,7.875572E-1,2.2511534E-1],"split_indices":[7,7,7,7,7,7,7,6,5,7,7,7,7,7,7,7,4,4,7,5,5,4,7,7,5,4,5,5,5,5,6,5,5,4,5,6,9,7,7,9,7,10,7,7,10,5,11,10,10,10,7,7,10,10,7,4,6,4,7,4,7,5,5,0,0,0,0,0,0,0,0,0,0,0,0,0,0,0,0,0,0,0,0,0,0,0,0,0,0,0,0,0,0,0,0,0,0,0,0,0,0,0,0,0,0,0,0,0,0,0,0,0,0,0,0,0,0,0,0,0,0,0,0,0,0,0,0],"split_type":[0,0,0,0,0,0,0,0,0,0,0,0,0,0,0,0,0,0,0,0,0,0,0,0,0,0,0,0,0,0,0,0,0,0,0,0,0,0,0,0,0,0,0,0,0,0,0,0,0,0,0,0,0,0,0,0,0,0,0,0,0,0,0,0,0,0,0,0,0,0,0,0,0,0,0,0,0,0,0,0,0,0,0,0,0,0,0,0,0,0,0,0,0,0,0,0,0,0,0,0,0,0,0,0,0,0,0,0,0,0,0,0,0,0,0,0,0,0,0,0,0,0,0,0,0,0,0],"sum_hessian":[3.31737E5,1.60874E5,1.70863E5,8.0932E4,7.9942E4,7.7523E4,9.334E4,4.2836E4,3.8096E4,4.1976E4,3.7966E4,3.6839E4,4.0684E4,4.3209E4,5.0131E4,4.2144E4,6.92E2,2.2657E4,1.5439E4,1.6556E4,2.542E4,1.5255E4,2.2711E4,1.7784E4,1.9055E4,1.7818E4,2.2866E4,1.6529E4,2.668E4,2.1626E4,2.8505E4,2.0632E4,2.1512E4,1.45E2,5.47E2,6.85E2,2.1972E4,8.136E3,7.303E3,9.527E3,7.029E3,1.4223E4,1.1197E4,6.3E3,8.955E3,1.0162E4,1.2549E4,9.045E3,8.739E3,8.616E3,1.0439E4,7.256E3,1.0562E4,1.2925E4,9.941E3,9.506E3,7.023E3,1.5646E4,1.1034E4,1.2854E4,8.772E3,2.7932E4,5.73E2,1.4261E4,6.371E3,1.3326E4,8.186E3,7.4E1,7.1E1,2.48E2,2.99E2,3.05E2,3.8E2,8.174E3,1.3798E4,3.973E3,4.163E3,4.705E3,2.598E3,5.118E3,4.409E3,4.807E3,2.222E3,7.121E3,7.102E3,6.626E3,4.571E3,3.068E3,3.232E3,2.858E3,6.097E3,4.581E3,5.581E3,1.2104E4,4.45E2,4.163E3,4.882E3,8.483E3,2.56E2,4.208E3,4.408E3,5.686E3,4.753E3,3.168E3,4.088E3,6.492E3,4.07E3,8.861E3,4.064E3,5.013E3,4.928E3,1.68E2,9.338E3,1.566E3,5.457E3,3.46E2,1.53E4,4.284E3,6.75E3,4.08E2,1.2446E4,2.605E3,6.167E3,1.8433E4,9.499E3,2.74E2,2.99E2],"tree_param":{"num_deleted":"0","num_feature":"12","num_nodes":"127","size_leaf_vector":"1"}},{"base_weights":[-1.549712E-5,-1.1152686E1,1.1013207E1,-1.5951617E1,-5.0296087E0,5.6091423E0,1.6453915E1,-1.8309774E1,-1.2780597E1,-7.4937153E0,-2.2910955E0,2.6054573E0,8.261158E0,1.4152705E1,1.9099373E1,-1.9599474E1,-1.6609865E1,-1.4036252E1,-1.1443648E1,-8.890801E0,-6.272605E0,-3.4197817E0,-1.0732123E0,1.2495528E0,3.8670447E0,6.9038715E0,9.869899E0,1.2771432E1,1.5458563E1,1.8175585E1,2.0785786E1,-1.9871151E1,-6.8689256E0,-1.5428227E1,-1.8465239E1,-1.3048756E1,-1.5454908E1,-1.0477852E1,-1.2798775E1,-8.11793E0,-9.900277E0,-7.264294E0,-5.6760674E0,-4.4810724E0,-3.0104756E0,-1.7857068E0,-6.449755E-1,5.85445E-1,1.8395253E0,3.0616117E0,4.6676764E0,6.0444517E0,7.960645E0,8.915375E0,1.1139536E1,1.1853324E1,1.4052295E1,1.4419414E1,1.6971285E1,9.924067E-1,1.8577818E1,1.9628471E1,2.2038492E1,-9.489612E-1,-1.0850763E0,-8.5625136E-1,-2.4755295E-1,1.5193035E-2,-8.013856E-1,-9.761526E-1,-8.972904E-1,-6.8866245E-2,-6.704489E-1,-8.04461E-1,-7.3160523E-1,-4.9598183E-2,-5.322394E-1,-6.8009126E-1,-6.1363304E-1,-3.7489036E-1,-4.6174487E-1,-5.324323E-1,-4.6723947E-1,-3.3008704E-1,-4.0369588E-1,-3.7443933E-1,-2.6696023E-1,-2.9312155E-1,-1.9119045E-1,-1.9175889E-1,-1.1056667E-1,-1.3468505E-1,-6.24724E-2,-5.7676744E-2,-3.3298961E-3,-3.232175E-4,5.225559E-2,5.5738706E-2,1.2035674E-1,1.10743344E-1,1.8809757E-1,3.2612267E-1,2.1547249E-1,2.53337E-1,3.367278E-1,3.568608E-1,4.461455E-1,2.1885682E-2,4.513846E-1,5.151615E-1,5.899441E-1,7.122003E-2,6.0330045E-1,6.615447E-1,7.392087E-1,6.422437E-2,7.395436E-1,8.071844E-1,8.9027065E-1,-5.9868574E-1,5.8696E-2,8.928286E-1,1.101758E0,9.467883E-1,1.0019287E0,1.0773941E0,1.1493424E0],"categories":[],"categories_nodes":[],"categories_segments":[],"categories_sizes":[],"default_left":[0,0,0,0,0,0,0,0,0,0,0,0,0,0,0,0,0,0,0,0,0,0,0,0,0,0,0,0,0,0,0,0,0,0,0,0,0,0,0,0,0,0,0,0,0,0,0,0,0,0,0,0,0,0,0,0,0,0,0,0,0,0,0,0,0,0,0,0,0,0,0,0,0,0,0,0,0,0,0,0,0,0,0,0,0,0,0,0,0,0,0,0,0,0,0,0,0,0,0,0,0,0,0,0,0,0,0,0,0,0,0,0,0,0,0,0,0,0,0,0,0,0,0,0,0,0,0],"id":5,"left_children":[1,3,5,7,9,11,13,15,17,19,21,23,25,27,29,31,33,35,37,39,41,43,45,47,49,51,53,55,57,59,61,63,65,67,69,71,73,75,77,79,81,83,85,87,89,91,93,95,97,99,101,103,105,107,109,111,113,115,117,119,121,123,125,-1,-1,-1,-1,-1,-1,-1,-1,-1,-1,-1,-1,-1,-1,-1,-1,-1,-1,-1,-1,-1,-1,-1,-1,-1,-1,-1,-1,-1,-1,-1,-1,-1,-1,-1,-1,-1,-1,-1,-1,-1,-1,-1,-1,-1,-1,-1,-1,-1,-1,-1,-1,-1,-1,-1,-1,-1,-1,-1,-1,-1,-1,-1,-1],"loss_changes":[4.0746452E7,4.843206E6,4.907472E6,6.9074E5,4.8869238E5,6.67036E5,5.06072E5,1.15854E5,6.6004E4,6.49785E4,4.71495E4,6.716672E4,9.703975E4,8.0042E4,5.9897E4,1.04057E5,4.98485E4,2.826475E4,2.485575E4,1.3789125E4,1.19945E4,7.7200156E3,5.0335723E3,7.4150176E3,1.3102719E4,2.18625E4,2.4561875E4,2.52625E4,3.5693E4,1.728075E5,1.9409E4,4.7742E4,1.2326877E4,1.318145E5,4.5355E3,5.0378625E4,4.11425E3,1.7652125E4,3.188E3,6.908625E3,3.1031875E3,4.043875E3,7.7199688E3,4.4744844E3,8.461031E3,3.0126152E3,3.0319116E3,2.4231604E3,4.120535E3,6.0065625E3,6.748422E3,8.945719E3,8.50725E3,1.10614375E4,4.691625E3,2.7935E4,5.228875E3,6.613625E4,6.13525E3,1.3626257E3,6.0532E4,1.644E3,2.5585E3,0E0,0E0,0E0,0E0,0E0,0E0,0E0,0E0,0E0,0E0,0E0,0E0,0E0,0E0,0E0,0E0,0E0,0E0,0E0,0E0,0E0,0E0,0E0,0E0,0E0,0E0,0E0,0E0,0E0,0E0,0E0,0E0,0E0,0E0,0E0,0E0,0E0,0E0,0E0,0E0,0E0,0E0,0E0,0E0,0E0,0E0,0E0,0E0,0E0,0E0,0E0,0E0,0E0,0E0,0E0,0E0,0E0,0E0,0E0,0E0,0E0,0E0,0E0,0E0],"parents":[2147483647,0,0,1,1,2,2,3,3,4,4,5,5,6,6,7,7,8,8,9,9,10,10,11,11,12,12,13,13,14,14,15,15,16,16,17,17,18,18,19,19,20,20,21,21,22,22,23,23,24,24,25,25,26,26,27,27,28,28,29,29,30,30,31,31,32,32,33,33,34,34,35,35,36,36,37,37,38,38,39,39,40,40,41,41,42,42,43,43,44,44,45,45,46,46,47,47,48,48,49,49,50,50,51,51,52,52,53,53,54,54,55,55,56,56,57,57,58,58,59,59,60,60,61,61,62,62],"right_children":[2,4,6,8,10,12,14,16,18,20,22,24,26,28,30,32,34,36,38,40,42,44,46,48,50,52,54,56,58,60,62,64,66,68,70,72,74,76,78,80,82,84,86,88,90,92,94,96,98,100,102,104,106,108,110,112,114,116,118,120,122,124,126,-1,-1,-1,-1,-1,-1,-1,-1,-1,-1,-1,-1,-1,-1,-1,-1,-1,-1,-1,-1,-1,-1,-1,-1,-1,-1,-1,-1,-1,-1,-1,-1,-1,-1,-1,-1,-1,-1,-1,-1,-1,-1,-1,-1,-1,-1,-1,-1,-1,-1,-1,-1,-1,-1,-1,-1,-1,-1,-1,-1,-1,-1,-1,-1],"split_conditions":[3.404828E1,1.9475744E1,5.081001E1,1.1185116E1,2.7504911E1,4.160845E1,5.9946964E1,6.140332E0,1.5492576E1,2.3211733E1,3.109946E1,3.7526344E1,4.660788E1,5.520342E1,7E0,1.02089714E2,7E0,7E0,7E0,7E0,2.4794636E1,5E0,3.227892E1,3.5632748E1,3.9532413E1,7E0,7E0,7E0,7E0,6E0,6.3815327E1,7E0,1.7E1,6E0,7.84856E0,6E0,1.3601292E1,6E0,1.7077112E1,5.410356E1,2.1096252E1,7E0,1.257396E1,1.257396E1,1.3958431E-2,1.999137E1,1.6804839E-2,-2.7035924E-2,6E0,6E0,1.085742E1,4.3672455E1,4.4209927E1,6E0,4.8461765E1,6E0,5.286993E1,6E0,5.7518547E1,-1.1871232E0,1.9E1,6.129518E1,5E0,-9.489612E-1,-1.0850763E0,-8.5625136E-1,-2.4755295E-1,1.5193035E-2,-8.013856E-1,-9.761526E-1,-8.972904E-1,-6.8866245E-2,-6.704489E-1,-8.04461E-1,-7.3160523E-1,-4.9598183E-2,-5.322394E-1,-6.8009126E-1,-6.1363304E-1,-3.7489036E-1,-4.6174487E-1,-5.324323E-1,-4.6723947E-1,-3.3008704E-1,-4.0369588E-1,-3.7443933E-1,-2.6696023E-1,-2.9312155E-1,-1.9119045E-1,-1.9175889E-1,-1.1056667E-1,-1.3468505E-1,-6.24724E-2,-5.7676744E-2,-3.3298961E-3,-3.232175E-4,5.225559E-2,5.5738706E-2,1.2035674E-1,1.10743344E-1,1.8809757E-1,3.2612267E-1,2.1547249E-1,2.53337E-1,3.367278E-1,3.568608E-1,4.461455E-1,2.1885682E-2,4.513846E-1,5.151615E-1,5.899441E-1,7.122003E-2,6.0330045E-1,6.615447E-1,7.392087E-1,6.422437E-2,7.395436E-1,8.071844E-1,8.9027065E-1,-5.9868574E-1,5.8696E-2,8.928286E-1,1.101758E0,9.467883E-1,1.0019287E0,1.0773941E0,1.1493424E0],"split_indices":[7,7,7,7,7,7,7,7,7,7,7,7,7,7,5,6,5,5,5,5,7,4,7,7,7,5,5,5,5,4,7,5,4,4,7,4,7,4,7,6,7,5,6,6,10,6,10,10,5,5,6,7,7,4,7,4,7,4,7,10,4,7,4,0,0,0,0,0,0,0,0,0,0,0,0,0,0,0,0,0,0,0,0,0,0,0,0,0,0,0,0,0,0,0,0,0,0,0,0,0,0,0,0,0,0,0,0,0,0,0,0,0,0,0,0,0,0,0,0,0,0,0,0,0,0,0,0],"split_type":[0,0,0,0,0,0,0,0,0,0,0,0,0,0,0,0,0,0,0,0,0,0,0,0,0,0,0,0,0,0,0,0,0,0,0,0,0,0,0,0,0,0,0,0,0,0,0,0,0,0,0,0,0,0,0,0,0,0,0,0,0,0,0,0,0,0,0,0,0,0,0,0,0,0,0,0,0,0,0,0,0,0,0,0,0,0,0,0,0,0,0,0,0,0,0,0,0,0,0,0,0,0,0,0,0,0,0,0,0,0,0,0,0,0,0,0,0,0,0,0,0,0,0,0,0,0,0],"sum_hessian":[3.31737E5,1.64825E5,1.66912E5,9.2403E4,7.2422E4,8.3739E4,8.3173E4,5.2991E4,3.9412E4,3.812E4,3.4302E4,3.9267E4,4.4472E4,4.4484E4,3.8689E4,3.0125E4,2.2866E4,2.0319E4,1.9093E4,1.7776E4,2.0344E4,1.7802E4,1.65E4,1.8927E4,2.034E4,2.4124E4,2.0348E4,2.1623E4,2.2861E4,2.5004E4,1.3685E4,2.9495E4,6.3E2,1.3975E4,8.891E3,1.1986E4,8.333E3,1.1153E4,7.94E3,1.0073E4,7.703E3,7.637E3,1.2707E4,4.952E3,1.285E4,6.193E3,1.0307E4,8.905E3,1.0022E4,1.0142E4,1.0198E4,1.3308E4,1.0816E4,1.162E4,8.728E3,1.2601E4,9.022E3,1.3558E4,9.303E3,5.72E2,2.4432E4,7.122E3,6.563E3,1.9839E4,9.656E3,9.8E1,5.32E2,5.13E2,1.3462E4,2.916E3,5.975E3,3.59E2,1.1627E4,4.695E3,3.638E3,1.93E2,1.096E4,3.133E3,4.807E3,6.482E3,3.591E3,3.274E3,4.429E3,4.205E3,3.432E3,1.988E3,1.0719E4,1.594E3,3.358E3,6.322E3,6.528E3,2.298E3,3.895E3,5.484E3,4.823E3,3.893E3,5.012E3,4.403E3,5.619E3,4.593E3,5.549E3,1.648E3,8.55E3,5.51E3,7.798E3,5.833E3,4.983E3,1.52E2,1.1468E4,3.855E3,4.873E3,2.52E2,1.2349E4,4.26E3,4.762E3,3.73E2,1.3185E4,4.68E3,4.623E3,7E0,5.65E2,2.022E4,4.212E3,2.666E3,4.456E3,4.341E3,2.222E3],"tree_param":{"num_deleted":"0","num_feature":"12","num_nodes":"127","size_leaf_vector":"1"}},{"base_weights":[-1.478846E-5,-1.0850941E1,1.0216548E1,-1.5828904E1,-5.811196E0,4.4236245E0,1.5027728E1,-1.7937094E1,-1.3458E1,-8.390465E0,-2.9593568E0,1.8023584E0,6.797055E0,1.2153628E1,1.7504686E1,-1.8112106E1,-7.267716E0,-1.2497854E1,-1.4866131E1,-9.751759E0,-6.9431305E0,-4.468921E0,-1.9452285E0,6.50411E-1,2.8773785E0,5.6237893E0,8.126736E0,1.0474436E1,1.3193502E1,1.56899395E1,1.8503115E1,-1.9416641E1,-1.6860092E1,-1.5323228E1,-5.1082773E0,-8.3433276E-1,-1.2861423E1,-1.6221237E1,-1.3696328E1,-8.953667E0,-1.0830623E1,-6.2263556E0,-7.839838E0,-3.8428981E0,-5.2250853E0,-2.6815693E0,-1.1999098E0,5.8231007E-2,1.2632496E0,2.1129096E0,3.5080826E0,4.8547826E0,6.5300612E0,7.2324724E0,9.303107E0,9.597074E0,1.1660457E1,1.2305543E1,1.4451385E1,1.4564337E1,1.731057E1,1.8684004E1,8.8883915E0,-9.3266314E-1,-1.0561105E0,-7.8499067E-1,-9.373383E-1,-4.4502026E-1,-1.0900424E0,-5.224584E-1,-3.2915555E-2,3.234315E-2,-1.2456228E-1,-7.014269E-1,-5.799926E-1,-8.4902567E-1,-7.836525E-1,-7.0820016E-1,-6.460975E-1,-3.355517E-2,-4.5242906E-1,-5.829578E-1,-4.959848E-1,-4.776307E-1,-2.990085E-1,-4.259011E-1,-3.4923214E-1,-2.3313363E-1,-1.4403662E-1,-3.0581546E-1,-2.3968755E-1,-9.823893E-2,-1.6341929E-1,-9.97034E-2,-3.9015487E-2,-2.6860429E-2,2.8299142E-2,5.8361143E-2,2.21417E-1,6.818941E-2,1.413785E-1,1.4618146E-1,2.2160529E-1,2.2798896E-1,4.4046685E-1,2.8863198E-1,3.7018585E-1,3.328791E-1,4.2583027E-1,4.2423993E-1,4.924874E-1,5.2950073E-2,4.875276E-1,6.323647E-1,5.687499E-1,6.2177755E-2,6.2778026E-1,6.706594E-1,7.554104E-1,8.1818685E-2,7.490972E-1,8.2501745E-1,8.8787776E-1,8.9335316E-1,1.0059794E0,7.1984625E-1,1.9213787E-1],"categories":[],"categories_nodes":[],"categories_segments":[],"categories_sizes":[],"default_left":[0,0,0,0,0,0,0,0,0,0,0,0,0,0,0,0,0,0,0,0,0,0,0,0,0,0,0,0,0,0,0,0,0,0,0,0,0,0,0,0,0,0,0,0,0,0,0,0,0,0,0,0,0,0,0,0,0,0,0,0,0,0,0,0,0,0,0,0,0,0,0,0,0,0,0,0,0,0,0,0,0,0,0,0,0,0,0,0,0,0,0,0,0,0,0,0,0,0,0,0,0,0,0,0,0,0,0,0,0,0,0,0,0,0,0,0,0,0,0,0,0,0,0,0,0,0,0],"id":6,"left_children":[1,3,5,7,9,11,13,15,17,19,21,23,25,27,29,31,33,35,37,39,41,43,45,47,49,51,53,55,57,59,61,63,65,67,69,71,73,75,77,79,81,83,85,87,89,91,93,95,97,99,101,103,105,107,109,111,113,115,117,119,121,123,125,-1,-1,-1,-1,-1,-1,-1,-1,-1,-1,-1,-1,-1,-1,-1,-1,-1,-1,-1,-1,-1,-1,-1,-1,-1,-1,-1,-1,-1,-1,-1,-1,-1,-1,-1,-1,-1,-1,-1,-1,-1,-1,-1,-1,-1,-1,-1,-1,-1,-1,-1,-1,-1,-1,-1,-1,-1,-1,-1,-1,-1,-1,-1,-1],"loss_changes":[3.677631E7,4.035888E6,4.762048E6,4.04288E5,5.8800875E5,4.82295E5,6.64284E5,7.9856E4,5.1322E4,8.263725E4,5.8114656E4,4.5619562E4,6.342575E4,7.53125E4,9.0544E4,6.8508E4,1.1976723E4,9.607E4,2.42535E4,1.8526375E4,1.303025E4,7.20175E3,1.246132E4,6.4542954E3,9.1805E3,1.503375E4,1.9993E4,1.7088875E4,2.96235E4,3.22165E4,5.6069E4,2.647E4,4.67995E4,5.8802344E3,1.3017316E4,1.6852012E3,3.219025E4,2.709E3,2.82025E3,9.7719375E3,6.821875E3,9.207656E3,5.18125E3,6.572711E3,2.6258281E3,4.798797E3,3.7602637E3,2.7352317E3,2.65121E3,4.60941E3,5.6251406E3,1.36068125E4,6.5215938E3,7.94425E3,3.5988125E3,1.24476875E4,1.8348125E3,4.326675E4,7.32225E3,5.671725E4,2.347E3,3.686E4,1.6593312E4,0E0,0E0,0E0,0E0,0E0,0E0,0E0,0E0,0E0,0E0,0E0,0E0,0E0,0E0,0E0,0E0,0E0,0E0,0E0,0E0,0E0,0E0,0E0,0E0,0E0,0E0,0E0,0E0,0E0,0E0,0E0,0E0,0E0,0E0,0E0,0E0,0E0,0E0,0E0,0E0,0E0,0E0,0E0,0E0,0E0,0E0,0E0,0E0,0E0,0E0,0E0,0E0,0E0,0E0,0E0,0E0,0E0,0E0,0E0,0E0,0E0,0E0,0E0,0E0],"parents":[2147483647,0,0,1,1,2,2,3,3,4,4,5,5,6,6,7,7,8,8,9,9,10,10,11,11,12,12,13,13,14,14,15,15,16,16,17,17,18,18,19,19,20,20,21,21,22,22,23,23,24,24,25,25,26,26,27,27,28,28,29,29,30,30,31,31,32,32,33,33,34,34,35,35,36,36,37,37,38,38,39,39,40,40,41,41,42,42,43,43,44,44,45,45,46,46,47,47,48,48,49,49,50,50,51,51,52,52,53,53,54,54,55,55,56,56,57,57,58,58,59,59,60,60,61,61,62,62],"right_children":[2,4,6,8,10,12,14,16,18,20,22,24,26,28,30,32,34,36,38,40,42,44,46,48,50,52,54,56,58,60,62,64,66,68,70,72,74,76,78,80,82,84,86,88,90,92,94,96,98,100,102,104,106,108,110,112,114,116,118,120,122,124,126,-1,-1,-1,-1,-1,-1,-1,-1,-1,-1,-1,-1,-1,-1,-1,-1,-1,-1,-1,-1,-1,-1,-1,-1,-1,-1,-1,-1,-1,-1,-1,-1,-1,-1,-1,-1,-1,-1,-1,-1,-1,-1,-1,-1,-1,-1,-1,-1,-1,-1,-1,-1,-1,-1,-1,-1,-1,-1,-1,-1,-1,-1,-1,-1],"split_conditions":[3.340126E1,1.7077112E1,4.872948E1,8.972328E0,2.5907389E1,4.030945E1,5.7518547E1,1.02089714E2,7E0,2.1614004E1,2.9090809E1,3.656503E1,4.4726185E1,5.2103912E1,6.129518E1,4.159696E0,1.7E1,6E0,1.2807664E1,7E0,7E0,7E0,3.1345823E1,3.49486E1,6E0,8E0,7E0,7E0,7E0,7E0,1.02089714E2,7E0,7E0,6E0,6E0,9.074478E1,1.6670101E1,1.0634112E1,1.5492576E1,6E0,1.9475744E1,1.213611E1,2.3976393E1,5.63325E-2,2.69671E1,6E0,8E0,-1.4307407E-2,6.251925E-1,-4.651128E-2,3.8809437E1,2.662977E1,4.261111E1,-1.4307407E-2,4.634125E1,6E0,2.39043E1,6E0,5.4136295E1,6E0,5.8853863E1,6.565325E1,6E0,-9.3266314E-1,-1.0561105E0,-7.8499067E-1,-9.373383E-1,-4.4502026E-1,-1.0900424E0,-5.224584E-1,-3.2915555E-2,3.234315E-2,-1.2456228E-1,-7.014269E-1,-5.799926E-1,-8.4902567E-1,-7.836525E-1,-7.0820016E-1,-6.460975E-1,-3.355517E-2,-4.5242906E-1,-5.829578E-1,-4.959848E-1,-4.776307E-1,-2.990085E-1,-4.259011E-1,-3.4923214E-1,-2.3313363E-1,-1.4403662E-1,-3.0581546E-1,-2.3968755E-1,-9.823893E-2,-1.6341929E-1,-9.97034E-2,-3.9015487E-2,-2.6860429E-2,2.8299142E-2,5.8361143E-2,2.21417E-1,6.818941E-2,1.413785E-1,1.4618146E-1,2.2160529E-1,2.2798896E-1,4.4046685E-1,2.8863198E-1,3.7018585E-1,3.328791E-1,4.2583027E-1,4.2423993E-1,4.924874E-1,5.2950073E-2,4.875276E-1,6.323647E-1,5.687499E-1,6.2177755E-2,6.2778026E-1,6.706594E-1,7.554104E-1,8.1818685E-2,7.490972E-1,8.2501745E-1,8.8787776E-1,8.9335316E-1,1.0059794E0,7.1984625E-1,1.9213787E-1],"split_indices":[7,7,7,7,7,7,7,6,5,7,7,7,7,7,7,7,4,4,7,5,5,5,7,7,5,5,5,5,5,5,6,5,5,4,5,6,9,7,7,4,7,6,7,10,7,5,4,10,10,10,7,9,7,10,7,4,6,4,7,4,7,7,5,0,0,0,0,0,0,0,0,0,0,0,0,0,0,0,0,0,0,0,0,0,0,0,0,0,0,0,0,0,0,0,0,0,0,0,0,0,0,0,0,0,0,0,0,0,0,0,0,0,0,0,0,0,0,0,0,0,0,0,0,0,0,0,0],"split_type":[0,0,0,0,0,0,0,0,0,0,0,0,0,0,0,0,0,0,0,0,0,0,0,0,0,0,0,0,0,0,0,0,0,0,0,0,0,0,0,0,0,0,0,0,0,0,0,0,0,0,0,0,0,0,0,0,0,0,0,0,0,0,0,0,0,0,0,0,0,0,0,0,0,0,0,0,0,0,0,0,0,0,0,0,0,0,0,0,0,0,0,0,0,0,0,0,0,0,0,0,0,0,0,0,0,0,0,0,0,0,0,0,0,0,0,0,0,0,0,0,0,0,0,0,0,0,0],"sum_hessian":[3.31737E5,1.60874E5,1.70863E5,8.0932E4,7.9942E4,7.7523E4,9.334E4,4.2836E4,3.8096E4,4.1976E4,3.7966E4,3.6839E4,4.0684E4,4.3209E4,5.0131E4,4.2144E4,6.92E2,2.2657E4,1.5439E4,2.1628E4,2.0348E4,1.5255E4,2.2711E4,1.7784E4,1.9055E4,2.1616E4,1.9068E4,1.6529E4,2.668E4,1.7798E4,3.2333E4,2.0632E4,2.1512E4,1.45E2,5.47E2,6.85E2,2.1972E4,7.147E3,8.292E3,1.2437E4,9.191E3,1.1313E4,9.035E3,8.349E3,6.906E3,1.1423E4,1.1288E4,9.045E3,8.739E3,8.616E3,1.0439E4,1.1697E4,9.919E3,1.0837E4,8.231E3,9.506E3,7.023E3,1.5646E4,1.1034E4,1.0509E4,7.289E3,3.1735E4,5.98E2,1.4261E4,6.371E3,1.3326E4,8.186E3,7.4E1,7.1E1,2.48E2,2.99E2,3.62E2,3.23E2,1.1408E4,1.0564E4,2.984E3,4.163E3,5.159E3,3.133E3,1.41E2,1.2296E4,4.807E3,4.384E3,7.77E2,1.0536E4,5.034E3,4.001E3,4.506E3,3.843E3,2.248E3,4.658E3,5.144E3,6.279E3,3.901E3,7.387E3,4.163E3,4.882E3,8.483E3,2.56E2,4.208E3,4.408E3,6.397E3,4.042E3,1.0887E4,8.1E2,5.317E3,4.602E3,7.49E3,3.347E3,3.303E3,4.928E3,1.68E2,9.338E3,1.566E3,5.457E3,3.46E2,1.53E4,4.284E3,6.75E3,3.29E2,1.018E4,2.605E3,4.684E3,2.0234E4,1.1501E4,2.85E2,3.13E2],"tree_param":{"num_deleted":"0","num_feature":"12","num_nodes":"127","size_leaf_vector":"1"}},{"base_weights":[-1.838266E-5,-1.0065752E1,9.939858E0,-1.4266061E1,-4.3594356E0,5.06045E0,1.485235E1,-1.6534147E1,-1.1400632E1,-6.5714087E0,-2.0647323E0,2.3475223E0,7.4557505E0,1.2774458E1,1.7241087E1,-1.775947E1,-1.5068803E1,-1.266403E1,-1.0213279E1,-7.447355E0,-5.2175508E0,-3.0802696E0,-9.689393E-1,1.1976486E0,3.5628679E0,6.0843234E0,8.751167E0,1.1443083E1,1.3896158E1,1.6370825E1,1.8829838E1,-1.801698E1,-6.1379013E0,-1.4007857E1,-1.6732014E1,-1.1772031E1,-1.3945496E1,-9.380731E0,-1.1370501E1,-8.515609E0,-6.860224E0,-4.423964E0,-5.8977222E0,-2.4083877E0,-3.6419213E0,-1.0696459E0,1.7203352E0,5.276334E-1,1.726827E0,4.377022E0,2.9401853E0,5.3345523E0,7.0052657E0,7.8820086E0,9.898456E0,1.0620221E1,1.2589869E1,1.2957487E1,1.5260743E1,2.6015827E-1,1.6747982E1,1.7758604E1,1.9989431E1,-8.608556E-1,-9.841018E-1,-5.433966E-1,-1.1449213E-1,3.573931E-2,-7.282199E-1,-8.844369E-1,-8.090765E-1,-6.327511E-2,-6.0481495E-1,-7.262942E-1,-6.5963477E-1,-6.9003224E-2,-4.7565457E-1,-5.988984E-1,-5.255288E-1,-4.6423823E-1,-3.9269468E-1,-3.836833E-1,-3.0262122E-1,-3.147862E-1,-1.862273E-1,-4.1265222E-1,-2.7992952E-1,-1.5605704E-1,-4.8689123E-2,-2.5291094E-1,-1.5350391E-1,-8.189138E-2,-2.6108015E-2,-1.0009141E-1,1.3168429E-1,-8.191468E-4,4.7505468E-2,5.436979E-2,1.1146628E-1,1.677302E-1,2.4690838E-1,1.14639975E-1,1.9890498E-1,2.3571323E-1,3.2465097E-1,3.038294E-1,3.7656227E-1,6.7901784E-3,3.989507E-1,4.538458E-1,5.2817523E-1,6.8854615E-2,5.401099E-1,5.976943E-1,6.613392E-1,5.543251E-2,6.6473407E-1,7.372348E-1,8.195224E-1,-3.1807724E-2,1.4309818E-1,8.037875E-1,9.985246E-1,8.5508937E-1,9.073824E-1,9.759626E-1,1.0449401E0],"categories":[],"categories_nodes":[],"categories_segments":[],"categories_sizes":[],"default_left":[0,0,0,0,0,0,0,0,0,0,0,0,0,0,0,0,0,0,0,0,0,0,0,0,0,0,0,0,0,0,0,0,0,0,0,0,0,0,0,0,0,0,0,0,0,0,0,0,0,0,0,0,0,0,0,0,0,0,0,0,0,0,0,0,0,0,0,0,0,0,0,0,0,0,0,0,0,0,0,0,0,0,0,0,0,0,0,0,0,0,0,0,0,0,0,0,0,0,0,0,0,0,0,0,0,0,0,0,0,0,0,0,0,0,0,0,0,0,0,0,0,0,0,0,0,0,0],"id":7,"left_children":[1,3,5,7,9,11,13,15,17,19,21,23,25,27,29,31,33,35,37,39,41,43,45,47,49,51,53,55,57,59,61,63,65,67,69,71,73,75,77,79,81,83,85,87,89,91,93,95,97,99,101,103,105,107,109,111,113,115,117,119,121,123,125,-1,-1,-1,-1,-1,-1,-1,-1,-1,-1,-1,-1,-1,-1,-1,-1,-1,-1,-1,-1,-1,-1,-1,-1,-1,-1,-1,-1,-1,-1,-1,-1,-1,-1,-1,-1,-1,-1,-1,-1,-1,-1,-1,-1,-1,-1,-1,-1,-1,-1,-1,-1,-1,-1,-1,-1,-1,-1,-1,-1,-1,-1,-1,-1],"loss_changes":[3.3191198E7,3.950536E6,4.000838E6,6.16836E5,3.5471525E5,5.4414825E5,4.12618E5,9.488E4,6.28E4,4.2160375E4,3.8170047E4,5.487253E4,7.895625E4,6.6275E4,5.3185E4,8.6239E4,4.2361E4,2.306275E4,2.073375E4,1.3491E4,7.5210625E3,6.7094375E3,4.4707656E3,7.153705E3,9.664953E3,1.48815625E4,2.2725375E4,1.90665E4,3.0722E4,1.51932E5,1.6646E4,3.7256E4,1.1387414E4,1.20819E5,4.662E3,4.08235E4,3.449625E3,1.3315125E4,4.5995E3,3.82475E3,9.117375E3,8.4296875E3,5.2562344E3,8.288566E3,7.836453E3,4.947047E3,2.0314576E3,2.0469153E3,3.6200586E3,4.72875E3,7.261172E3,8.530594E3,4.6889375E3,9.7794375E3,5.2874375E3,1.9922375E4,3.283E3,5.715075E4,5.49025E3,1.3380746E3,5.2607E4,1.50975E3,2.39875E3,0E0,0E0,0E0,0E0,0E0,0E0,0E0,0E0,0E0,0E0,0E0,0E0,0E0,0E0,0E0,0E0,0E0,0E0,0E0,0E0,0E0,0E0,0E0,0E0,0E0,0E0,0E0,0E0,0E0,0E0,0E0,0E0,0E0,0E0,0E0,0E0,0E0,0E0,0E0,0E0,0E0,0E0,0E0,0E0,0E0,0E0,0E0,0E0,0E0,0E0,0E0,0E0,0E0,0E0,0E0,0E0,0E0,0E0,0E0,0E0,0E0,0E0,0E0,0E0],"parents":[2147483647,0,0,1,1,2,2,3,3,4,4,5,5,6,6,7,7,8,8,9,9,10,10,11,11,12,12,13,13,14,14,15,15,16,16,17,17,18,18,19,19,20,20,21,21,22,22,23,23,24,24,25,25,26,26,27,27,28,28,29,29,30,30,31,31,32,32,33,33,34,34,35,35,36,36,37,37,38,38,39,39,40,40,41,41,42,42,43,43,44,44,45,45,46,46,47,47,48,48,49,49,50,50,51,51,52,52,53,53,54,54,55,55,56,56,57,57,58,58,59,59,60,60,61,61,62,62],"right_children":[2,4,6,8,10,12,14,16,18,20,22,24,26,28,30,32,34,36,38,40,42,44,46,48,50,52,54,56,58,60,62,64,66,68,70,72,74,76,78,80,82,84,86,88,90,92,94,96,98,100,102,104,106,108,110,112,114,116,118,120,122,124,126,-1,-1,-1,-1,-1,-1,-1,-1,-1,-1,-1,-1,-1,-1,-1,-1,-1,-1,-1,-1,-1,-1,-1,-1,-1,-1,-1,-1,-1,-1,-1,-1,-1,-1,-1,-1,-1,-1,-1,-1,-1,-1,-1,-1,-1,-1,-1,-1,-1,-1,-1,-1,-1,-1,-1,-1,-1,-1,-1,-1,-1,-1,-1,-1],"split_conditions":[3.404828E1,2.0026545E1,5.081001E1,1.1185116E1,2.7504911E1,4.160845E1,5.9946964E1,5.870304E0,1.5492576E1,2.4508968E1,3.109946E1,3.7791817E1,4.6071426E1,5.4929314E1,7E0,1.02089714E2,7E0,7E0,7E0,1.6E1,6E0,6E0,1.79E3,3.5632748E1,1.5E1,7E0,7E0,7E0,7E0,6E0,6.3815327E1,7E0,6E0,6E0,7.84856E0,6E0,1.3601292E1,6E0,1.8141245E1,2.2130123E1,9.4239585E-2,1.5483236E1,7.7887845E0,1.2747E-1,1.257396E1,4.792879E-3,1.874691E1,-2.7035924E-2,6E0,3.9075928E1,-6.3669193E-3,-1.4307407E-2,4.31494E1,6E0,4.8208397E1,6E0,5.286993E1,6E0,5.831782E1,-1.7397162E-1,1.9E1,6.129518E1,5E0,-8.608556E-1,-9.841018E-1,-5.433966E-1,-1.1449213E-1,3.573931E-2,-7.282199E-1,-8.844369E-1,-8.090765E-1,-6.327511E-2,-6.0481495E-1,-7.262942E-1,-6.5963477E-1,-6.9003224E-2,-4.7565457E-1,-5.988984E-1,-5.255288E-1,-4.6423823E-1,-3.9269468E-1,-3.836833E-1,-3.0262122E-1,-3.147862E-1,-1.862273E-1,-4.1265222E-1,-2.7992952E-1,-1.5605704E-1,-4.8689123E-2,-2.5291094E-1,-1.5350391E-1,-8.189138E-2,-2.6108015E-2,-1.0009141E-1,1.3168429E-1,-8.191468E-4,4.7505468E-2,5.436979E-2,1.1146628E-1,1.677302E-1,2.4690838E-1,1.14639975E-1,1.9890498E-1,2.3571323E-1,3.2465097E-1,3.038294E-1,3.7656227E-1,6.7901784E-3,3.989507E-1,4.538458E-1,5.2817523E-1,6.8854615E-2,5.401099E-1,5.976943E-1,6.613392E-1,5.543251E-2,6.6473407E-1,7.372348E-1,8.195224E-1,-3.1807724E-2,1.4309818E-1,8.037875E-1,9.985246E-1,8.5508937E-1,9.073824E-1,9.759626E-1,1.0449401E0],"split_indices":[7,7,7,7,7,7,7,7,7,7,7,7,7,7,5,6,5,5,5,4,5,5,11,7,4,5,5,5,5,4,7,5,5,4,7,4,7,4,7,7,10,9,6,10,6,10,6,10,5,7,10,10,7,4,7,4,7,4,7,10,4,7,4,0,0,0,0,0,0,0,0,0,0,0,0,0,0,0,0,0,0,0,0,0,0,0,0,0,0,0,0,0,0,0,0,0,0,0,0,0,0,0,0,0,0,0,0,0,0,0,0,0,0,0,0,0,0,0,0,0,0,0,0,0,0,0,0],"split_type":[0,0,0,0,0,0,0,0,0,0,0,0,0,0,0,0,0,0,0,0,0,0,0,0,0,0,0,0,0,0,0,0,0,0,0,0,0,0,0,0,0,0,0,0,0,0,0,0,0,0,0,0,0,0,0,0,0,0,0,0,0,0,0,0,0,0,0,0,0,0,0,0,0,0,0,0,0,0,0,0,0,0,0,0,0,0,0,0,0,0,0,0,0,0,0,0,0,0,0,0,0,0,0,0,0,0,0,0,0,0,0,0,0,0,0,0,0,0,0,0,0,0,0,0,0,0,0],"sum_hessian":[3.31737E5,1.64825E5,1.66912E5,9.494E4,6.9885E4,8.3739E4,8.3173E4,5.2991E4,4.1949E4,3.5583E4,3.4302E4,3.9267E4,4.4472E4,4.4484E4,3.8689E4,2.8853E4,2.4138E4,2.0319E4,2.163E4,2.1602E4,1.3981E4,1.7802E4,1.65E4,2.0178E4,1.9089E4,2.1605E4,2.2867E4,2.0346E4,2.4138E4,2.5004E4,1.3685E4,2.8227E4,6.26E2,1.4743E4,9.395E3,1.1986E4,8.333E3,1.2585E4,9.045E3,7.657E3,1.3945E4,6.456E3,7.525E3,8.108E3,9.694E3,1.5905E4,5.95E2,8.905E3,1.1273E4,8.27E3,1.0819E4,1.1913E4,9.692E3,1.3015E4,9.852E3,1.1852E4,8.494E3,1.4307E4,9.831E3,5.72E2,2.4432E4,7.122E3,6.563E3,1.9075E4,9.152E3,2.8E2,3.46E2,5.37E2,1.4206E4,3.42E3,5.975E3,3.59E2,1.1627E4,4.695E3,3.638E3,2.05E2,1.238E4,5.293E3,3.752E3,3.535E3,4.122E3,6.944E3,7.001E3,1.754E3,4.702E3,8.45E2,6.68E3,5.416E3,2.692E3,2.786E3,6.908E3,7.804E3,8.101E3,1.17E2,4.78E2,3.893E3,5.012E3,4.962E3,6.311E3,2.933E3,5.337E3,6.665E3,4.154E3,7.762E3,4.151E3,3.509E3,6.183E3,1.61E2,1.2854E4,4.414E3,5.438E3,2.29E2,1.1623E4,4.26E3,4.234E3,3.96E2,1.3911E4,6.758E3,3.073E3,4.26E2,1.46E2,2.022E4,4.212E3,2.666E3,4.456E3,4.341E3,2.222E3],"tree_param":{"num_deleted":"0","num_feature":"12","num_nodes":"127","size_leaf_vector":"1"}},{"base_weights":[-1.3551608E-5,-9.794133E0,9.221525E0,-1.428834E1,-5.2441487E0,4.219583E0,1.3764559E1,-1.6450481E1,-1.2397185E1,-7.5714355E0,-2.6709201E0,1.7053491E0,6.4384713E0,1.1170631E1,1.5803331E1,-1.6634405E1,-6.260058E0,-1.3560844E1,-1.1232574E1,-8.8018E0,-6.263306E0,-4.039755E0,-1.751335E0,7.287239E-1,2.8384786E0,5.2792935E0,7.741489E0,1.0061821E1,1.2212143E1,1.4761365E1,1.7259743E1,-1.5839394E1,-1.8184948E1,-1.0693913E1,-2.7317505E0,-1.2618082E1,-1.4978939E1,-1.0396015E1,-1.2440739E1,-8.077817E0,-9.780487E0,-5.6034765E0,-7.0887876E0,-4.7970657E0,-3.5064974E0,-2.333752E0,-1.0124508E0,1.2686129E-1,1.3221111E0,2.1094759E0,3.4461405E0,4.578258E0,6.114652E0,6.9312687E0,8.81697E0,9.260605E0,1.1151324E1,1.1397015E1,1.3376056E1,1.3765493E1,1.624264E1,1.7539858E1,6.583675E0,1.0994481E-1,-8.1436104E-1,-9.5172065E-1,-8.5887843E-1,-6.833407E-1,-1.6804287E-1,-1.75496E-2,-9.87586E-1,1.1816762E-2,-6.545802E-1,-7.765756E-1,-7.107941E-1,-7.1504526E-2,-5.316967E-1,-6.429399E-1,-5.838676E-1,-2.3174975E-2,-4.0825436E-1,-5.2589697E-1,-4.4848338E-1,-4.3848568E-1,-2.6845828E-1,-3.850126E-1,-3.15886E-1,-2.3537421E-1,-5.239032E-1,-2.3358722E-1,-1.4974026E-1,-1.7747103E-1,-1.01675704E-1,-8.0437504E-2,-2.00497E-2,-2.0259192E-2,2.9230747E-2,5.5169214E-2,9.930407E-2,7.6720975E-2,1.4759454E-1,2.0508711E-1,1.4266263E-1,1.9151153E-1,2.932695E-1,2.6599577E-1,3.3850792E-1,5.4432195E-1,3.3591947E-1,4.149576E-1,4.7487694E-1,6.1971452E-2,4.7071075E-1,5.2381724E-1,5.875147E-1,6.3018225E-2,5.8177847E-1,6.3288003E-1,6.904253E-1,3.1665668E-2,7.0903635E-1,7.63565E-1,8.4354603E-1,8.4290725E-1,9.488638E-1,6.2594527E-1,4.099983E-2],"categories":[],"categories_nodes":[],"categories_segments":[],"categories_sizes":[],"default_left":[0,0,0,0,0,0,0,0,0,0,0,0,0,0,0,0,0,0,0,0,0,0,0,0,0,0,0,0,0,0,0,0,0,0,0,0,0,0,0,0,0,0,0,0,0,0,0,0,0,0,0,0,0,0,0,0,0,0,0,0,0,0,0,0,0,0,0,0,0,0,0,0,0,0,0,0,0,0,0,0,0,0,0,0,0,0,0,0,0,0,0,0,0,0,0,0,0,0,0,0,0,0,0,0,0,0,0,0,0,0,0,0,0,0,0,0,0,0,0,0,0,0,0,0,0,0,0],"id":8,"left_children":[1,3,5,7,9,11,13,15,17,19,21,23,25,27,29,31,33,35,37,39,41,43,45,47,49,51,53,55,57,59,61,63,65,67,69,71,73,75,77,79,81,83,85,87,89,91,93,95,97,99,101,103,105,107,109,111,113,115,117,119,121,123,125,-1,-1,-1,-1,-1,-1,-1,-1,-1,-1,-1,-1,-1,-1,-1,-1,-1,-1,-1,-1,-1,-1,-1,-1,-1,-1,-1,-1,-1,-1,-1,-1,-1,-1,-1,-1,-1,-1,-1,-1,-1,-1,-1,-1,-1,-1,-1,-1,-1,-1,-1,-1,-1,-1,-1,-1,-1,-1,-1,-1,-1,-1,-1,-1],"loss_changes":[2.9961622E7,3.289587E6,3.882653E6,3.30727E5,4.7872975E5,4.5369075E5,4.73344E5,7.0664E4,5.836E4,6.750575E4,4.778425E4,4.21909E4,6.520975E4,4.5387E4,7.5822E4,4.543E4,1.0467912E4,2.8678E4,2.16865E4,1.524625E4,1.10439375E4,6.1441875E3,9.771484E3,7.3136533E3,7.8110156E3,1.3362125E4,1.7659125E4,1.6563375E4,1.9122E4,4.2897E4,6.23925E4,1.981495E5,1.04245E4,6.428801E3,1.5188231E4,7.8986E4,3.412625E3,2.7204E4,2.666625E3,8.2613125E3,5.4019375E3,8.3465625E3,4.2116875E3,3.1573281E3,5.326008E3,4.6281484E3,3.650208E3,2.4766086E3,1.4954023E3,3.8835508E3,3.7291406E3,1.1951016E4,5.3975625E3,9.69625E3,2.999125E3,1.35516875E4,3.146E3,2.8894375E4,2.423125E3,9.5341E4,6.9105E3,1.9638E4,1.8325625E4,0E0,0E0,0E0,0E0,0E0,0E0,0E0,0E0,0E0,0E0,0E0,0E0,0E0,0E0,0E0,0E0,0E0,0E0,0E0,0E0,0E0,0E0,0E0,0E0,0E0,0E0,0E0,0E0,0E0,0E0,0E0,0E0,0E0,0E0,0E0,0E0,0E0,0E0,0E0,0E0,0E0,0E0,0E0,0E0,0E0,0E0,0E0,0E0,0E0,0E0,0E0,0E0,0E0,0E0,0E0,0E0,0E0,0E0,0E0,0E0,0E0,0E0,0E0,0E0],"parents":[2147483647,0,0,1,1,2,2,3,3,4,4,5,5,6,6,7,7,8,8,9,9,10,10,11,11,12,12,13,13,14,14,15,15,16,16,17,17,18,18,19,19,20,20,21,21,22,22,23,23,24,24,25,25,26,26,27,27,28,28,29,29,30,30,31,31,32,32,33,33,34,34,35,35,36,36,37,37,38,38,39,39,40,40,41,41,42,42,43,43,44,44,45,45,46,46,47,47,48,48,49,49,50,50,51,51,52,52,53,53,54,54,55,55,56,56,57,57,58,58,59,59,60,60,61,61,62,62],"right_children":[2,4,6,8,10,12,14,16,18,20,22,24,26,28,30,32,34,36,38,40,42,44,46,48,50,52,54,56,58,60,62,64,66,68,70,72,74,76,78,80,82,84,86,88,90,92,94,96,98,100,102,104,106,108,110,112,114,116,118,120,122,124,126,-1,-1,-1,-1,-1,-1,-1,-1,-1,-1,-1,-1,-1,-1,-1,-1,-1,-1,-1,-1,-1,-1,-1,-1,-1,-1,-1,-1,-1,-1,-1,-1,-1,-1,-1,-1,-1,-1,-1,-1,-1,-1,-1,-1,-1,-1,-1,-1,-1,-1,-1,-1,-1,-1,-1,-1,-1,-1,-1,-1,-1,-1,-1,-1],"split_conditions":[3.340126E1,1.7077112E1,4.9494617E1,7.84856E0,2.5907389E1,4.0569614E1,5.7518547E1,1.02089714E2,1.2535392E1,2.1614004E1,2.9090809E1,3.7074757E1,4.525808E1,5.338136E1,6.3815327E1,7E0,6E0,7E0,7E0,7E0,7E0,1.5E1,3.1593548E1,3.5164703E1,6E0,8E0,7E0,7E0,7E0,7E0,1.02089714E2,6E0,4.43666E0,1.6110231E1,7E0,6E0,1.0634112E1,6E0,1.5492576E1,6E0,1.9475744E1,1.213611E1,2.3976393E1,3.450867E1,-7.381362E-2,9.542526E0,4.792879E-3,-1.4307407E-2,1.381428E-1,-6.3669193E-3,2.5773195E1,-1.4307407E-2,4.261111E1,1.3003725E1,4.76765E1,6E0,5.1323814E1,6E0,5.4929314E1,6E0,5.9946964E1,7E0,6E0,1.0994481E-1,-8.1436104E-1,-9.5172065E-1,-8.5887843E-1,-6.833407E-1,-1.6804287E-1,-1.75496E-2,-9.87586E-1,1.1816762E-2,-6.545802E-1,-7.765756E-1,-7.107941E-1,-7.1504526E-2,-5.316967E-1,-6.429399E-1,-5.838676E-1,-2.3174975E-2,-4.0825436E-1,-5.2589697E-1,-4.4848338E-1,-4.3848568E-1,-2.6845828E-1,-3.850126E-1,-3.15886E-1,-2.3537421E-1,-5.239032E-1,-2.3358722E-1,-1.4974026E-1,-1.7747103E-1,-1.01675704E-1,-8.0437504E-2,-2.00497E-2,-2.0259192E-2,2.9230747E-2,5.5169214E-2,9.930407E-2,7.6720975E-2,1.4759454E-1,2.0508711E-1,1.4266263E-1,1.9151153E-1,2.932695E-1,2.6599577E-1,3.3850792E-1,5.4432195E-1,3.3591947E-1,4.149576E-1,4.7487694E-1,6.1971452E-2,4.7071075E-1,5.2381724E-1,5.875147E-1,6.3018225E-2,5.8177847E-1,6.3288003E-1,6.904253E-1,3.1665668E-2,7.0903635E-1,7.63565E-1,8.4354603E-1,8.4290725E-1,9.488638E-1,6.2594527E-1,4.099983E-2],"split_indices":[7,7,7,7,7,7,7,6,7,7,7,7,7,7,7,5,5,5,5,5,5,4,7,7,5,5,5,5,5,5,6,4,7,9,5,4,7,4,7,4,7,6,7,9,10,6,10,10,10,10,6,10,7,6,7,4,7,4,7,4,7,5,5,0,0,0,0,0,0,0,0,0,0,0,0,0,0,0,0,0,0,0,0,0,0,0,0,0,0,0,0,0,0,0,0,0,0,0,0,0,0,0,0,0,0,0,0,0,0,0,0,0,0,0,0,0,0,0,0,0,0,0,0,0,0,0,0],"split_type":[0,0,0,0,0,0,0,0,0,0,0,0,0,0,0,0,0,0,0,0,0,0,0,0,0,0,0,0,0,0,0,0,0,0,0,0,0,0,0,0,0,0,0,0,0,0,0,0,0,0,0,0,0,0,0,0,0,0,0,0,0,0,0,0,0,0,0,0,0,0,0,0,0,0,0,0,0,0,0,0,0,0,0,0,0,0,0,0,0,0,0,0,0,0,0,0,0,0,0,0,0,0,0,0,0,0,0,0,0,0,0,0,0,0,0,0,0,0,0,0,0,0,0,0,0,0,0],"sum_hessian":[3.31737E5,1.60874E5,1.70863E5,8.0932E4,7.9942E4,8.1325E4,8.9538E4,3.7757E4,4.3175E4,4.1976E4,3.7966E4,3.8126E4,4.3199E4,3.9407E4,5.0131E4,3.7087E4,6.7E2,2.1591E4,2.1584E4,2.1628E4,2.0348E4,1.5255E4,2.2711E4,2.0478E4,1.7648E4,2.2864E4,2.0335E4,1.9092E4,2.0315E4,2.923E4,2.0901E4,2.4524E4,1.2563E4,2.96E2,3.74E2,1.2975E4,8.616E3,1.2759E4,8.825E3,1.2437E4,9.191E3,1.1313E4,9.035E3,6.3E3,8.955E3,1.2699E4,1.0012E4,1.0167E4,1.0311E4,8.025E3,9.623E3,1.2435E4,1.0429E4,1.1602E4,8.733E3,1.1007E4,8.085E3,1.1954E4,8.361E3,1.7485E4,1.1745E4,2.0366E4,5.35E2,5.94E2,2.393E4,6.806E3,5.757E3,2.1E2,8.6E1,3.29E2,4.5E1,4.61E2,1.2514E4,4.986E3,3.63E3,3.3E2,1.2429E4,5.692E3,3.133E3,1.41E2,1.2296E4,4.807E3,4.384E3,7.77E2,1.0536E4,5.034E3,4.001E3,6.204E3,9.6E1,2.73E3,6.225E3,2.513E3,1.0186E4,5.068E3,4.944E3,4.702E3,5.465E3,7.758E3,2.553E3,4.771E3,3.254E3,4.567E3,5.056E3,7.867E3,4.568E3,4.718E3,5.711E3,5.9E2,1.1012E4,4.967E3,3.766E3,2.07E2,1.08E4,3.81E3,4.275E3,2.75E2,1.1679E4,3.153E3,5.208E3,5.36E2,1.6949E4,4.623E3,7.122E3,1.3823E4,6.543E3,2.63E2,2.72E2],"tree_param":{"num_deleted":"0","num_feature":"12","num_nodes":"127","size_leaf_vector":"1"}},{"base_weights":[-1.4906318E-5,-9.304505E0,8.760519E0,-1.3312839E1,-4.697785E0,3.7892733E0,1.2889274E1,-1.5387375E1,-1.1254854E1,-6.921342E0,-2.5374136E0,1.5415132E0,5.824512E0,1.0211813E1,1.4844518E1,-1.5536944E1,-6.2690663E0,-1.2407743E1,-1.0100749E1,-8.045818E0,-5.8709564E0,-3.6847935E0,-1.541945E0,6.9229585E-1,2.604316E0,4.602734E0,6.776322E0,8.983829E0,1.1098969E1,1.328761E1,1.5884645E1,-1.7047283E1,-1.4654114E1,-1.3800714E1,-4.25102E0,-1.1542887E1,-1.3696565E1,-9.284138E0,-1.1256789E1,-7.434241E0,-8.869061E0,-5.2408037E0,-6.6574907E0,-3.0034564E0,-4.2676616E0,-2.1046994E0,-9.618385E-1,1.2051874E-1,1.2560214E0,1.8823693E0,3.2052422E0,5.964059E0,4.1224337E0,6.0198402E0,7.7591734E0,8.235028E0,9.996054E0,1.0331055E1,1.2181266E1,1.2353988E1,1.4635258E1,1.60459E1,7.314584E0,-8.2468265E-1,-9.2012024E-1,-6.817456E-1,-8.164486E-1,-3.9739275E-1,-9.8528826E-1,-1.5032823E-1,-9.586078E-1,-2.1499371E-2,-5.968044E-1,-7.124732E-1,-6.4688885E-1,-5.764423E-2,-4.7417375E-1,-5.8693904E-1,-5.2879137E-1,-4.2364866E-1,-3.402849E-1,-4.7030616E-1,-4.082379E-1,-3.0776328E-1,-2.2298817E-1,-3.6208174E-1,-3.0009565E-1,-1.8449867E-1,-9.348065E-2,-2.893177E-1,-1.9016977E-1,-8.8480674E-2,-1.4674067E-1,-8.89978E-2,-2.6278948E-2,-1.9246416E-2,2.7769415E-2,9.269929E-2,5.098937E-2,6.286765E-2,1.24695435E-1,1.2128203E-1,1.8436325E-1,2.1229926E-1,3.2011494E-1,1.7493959E-1,2.5221643E-1,2.7478382E-1,3.5805377E-1,3.541122E-1,4.223101E-1,4.281954E-2,4.1838357E-1,5.4675364E-1,4.862314E-1,4.9019042E-2,5.2639335E-1,5.7503575E-1,6.3697547E-1,7.315936E-2,6.352522E-1,6.9854355E-1,7.6106805E-1,7.656039E-1,8.667745E-1,6.1310124E-1,1.3925104E-1],"categories":[],"categories_nodes":[],"categories_segments":[],"categories_sizes":[],"default_left":[0,0,0,0,0,0,0,0,0,0,0,0,0,0,0,0,0,0,0,0,0,0,0,0,0,0,0,0,0,0,0,0,0,0,0,0,0,0,0,0,0,0,0,0,0,0,0,0,0,0,0,0,0,0,0,0,0,0,0,0,0,0,0,0,0,0,0,0,0,0,0,0,0,0,0,0,0,0,0,0,0,0,0,0,0,0,0,0,0,0,0,0,0,0,0,0,0,0,0,0,0,0,0,0,0,0,0,0,0,0,0,0,0,0,0,0,0,0,0,0,0,0,0,0,0,0,0],"id":9,"left_children":[1,3,5,7,9,11,13,15,17,19,21,23,25,27,29,31,33,35,37,39,41,43,45,47,49,51,53,55,57,59,61,63,65,67,69,71,73,75,77,79,81,83,85,87,89,91,93,95,97,99,101,103,105,107,109,111,113,115,117,119,121,123,125,-1,-1,-1,-1,-1,-1,-1,-1,-1,-1,-1,-1,-1,-1,-1,-1,-1,-1,-1,-1,-1,-1,-1,-1,-1,-1,-1,-1,-1,-1,-1,-1,-1,-1,-1,-1,-1,-1,-1,-1,-1,-1,-1,-1,-1,-1,-1,-1,-1,-1,-1,-1,-1,-1,-1,-1,-1,-1,-1,-1,-1,-1,-1,-1],"loss_changes":[2.7040808E7,2.970539E6,3.506944E6,3.67095E5,3.5954962E5,3.5464225E5,4.88498E5,5.8325E4,5.7339E4,4.352025E4,4.3359484E4,3.3248164E4,4.7281375E4,4.2821E4,8.7144E4,5.5945E4,1.0474389E4,2.39195E4,2.02755E4,8.901875E3,9.4193125E3,6.9913594E3,6.6351836E3,6.600748E3,7.0923984E3,1.1626281E4,1.695525E4,1.2446625E4,1.8881E4,2.701E4,4.4567E4,1.1356E4,4.51925E4,4.8893496E3,1.0117997E4,5.6506625E4,3.452625E3,2.050425E4,2.8075E3,6.6188125E3,2.7929375E3,7.5398125E3,3.2044062E3,6.3254062E3,6.678328E3,2.8651367E3,3.5728193E3,2.235176E3,1.4547793E3,2.8386855E3,3.3460781E3,3.4701562E3,7.557078E3,7.692875E3,4.563875E3,9.2975625E3,1.6839375E3,2.4620625E4,3.45725E3,4.8816125E4,3.22925E3,2.97675E4,1.3389295E4,0E0,0E0,0E0,0E0,0E0,0E0,0E0,0E0,0E0,0E0,0E0,0E0,0E0,0E0,0E0,0E0,0E0,0E0,0E0,0E0,0E0,0E0,0E0,0E0,0E0,0E0,0E0,0E0,0E0,0E0,0E0,0E0,0E0,0E0,0E0,0E0,0E0,0E0,0E0,0E0,0E0,0E0,0E0,0E0,0E0,0E0,0E0,0E0,0E0,0E0,0E0,0E0,0E0,0E0,0E0,0E0,0E0,0E0,0E0,0E0,0E0,0E0,0E0,0E0],"parents":[2147483647,0,0,1,1,2,2,3,3,4,4,5,5,6,6,7,7,8,8,9,9,10,10,11,11,12,12,13,13,14,14,15,15,16,16,17,17,18,18,19,19,20,20,21,21,22,22,23,23,24,24,25,25,26,26,27,27,28,28,29,29,30,30,31,31,32,32,33,33,34,34,35,35,36,36,37,37,38,38,39,39,40,40,41,41,42,42,43,43,44,44,45,45,46,46,47,47,48,48,49,49,50,50,51,51,52,52,53,53,54,54,55,55,56,56,57,57,58,58,59,59,60,60,61,61,62,62],"right_children":[2,4,6,8,10,12,14,16,18,20,22,24,26,28,30,32,34,36,38,40,42,44,46,48,50,52,54,56,58,60,62,64,66,68,70,72,74,76,78,80,82,84,86,88,90,92,94,96,98,100,102,104,106,108,110,112,114,116,118,120,122,124,126,-1,-1,-1,-1,-1,-1,-1,-1,-1,-1,-1,-1,-1,-1,-1,-1,-1,-1,-1,-1,-1,-1,-1,-1,-1,-1,-1,-1,-1,-1,-1,-1,-1,-1,-1,-1,-1,-1,-1,-1,-1,-1,-1,-1,-1,-1,-1,-1,-1,-1,-1,-1,-1,-1,-1,-1,-1,-1,-1,-1,-1,-1,-1,-1],"split_conditions":[3.340126E1,1.8141245E1,4.872948E1,8.972328E0,2.5907389E1,4.030945E1,5.6743893E1,1.02089714E2,1.3601292E1,2.1873833E1,2.9565992E1,3.7074757E1,4.3946224E1,5.2103912E1,6.129518E1,3.088356E0,1.7E1,7E0,7E0,7E0,7E0,6E0,3.1593548E1,3.5164703E1,6E0,2.117955E1,7E0,7E0,7E0,7E0,1.02089714E2,7E0,7E0,6E0,1.9E1,6E0,1.1743192E1,6E0,1.6295248E1,-4.9186256E-3,2.029596E1,4.005102E-2,2.3976393E1,1.8811207E1,1.257396E1,4.9643475E1,8E0,-1.4307407E-2,8.47367E2,-4.651128E-2,4E0,4E0,7E0,-1.4307407E-2,4.634125E1,6E0,2.39043E1,6E0,5.4136295E1,6E0,5.8853863E1,6.565325E1,6E0,-8.2468265E-1,-9.2012024E-1,-6.817456E-1,-8.164486E-1,-3.9739275E-1,-9.8528826E-1,-1.5032823E-1,-9.586078E-1,-2.1499371E-2,-5.968044E-1,-7.124732E-1,-6.4688885E-1,-5.764423E-2,-4.7417375E-1,-5.8693904E-1,-5.2879137E-1,-4.2364866E-1,-3.402849E-1,-4.7030616E-1,-4.082379E-1,-3.0776328E-1,-2.2298817E-1,-3.6208174E-1,-3.0009565E-1,-1.8449867E-1,-9.348065E-2,-2.893177E-1,-1.9016977E-1,-8.8480674E-2,-1.4674067E-1,-8.89978E-2,-2.6278948E-2,-1.9246416E-2,2.7769415E-2,9.269929E-2,5.098937E-2,6.286765E-2,1.24695435E-1,1.2128203E-1,1.8436325E-1,2.1229926E-1,3.2011494E-1,1.7493959E-1,2.5221643E-1,2.7478382E-1,3.5805377E-1,3.541122E-1,4.223101E-1,4.281954E-2,4.1838357E-1,5.4675364E-1,4.862314E-1,4.9019042E-2,5.2639335E-1,5.7503575E-1,6.3697547E-1,7.315936E-2,6.352522E-1,6.9854355E-1,7.6106805E-1,7.656039E-1,8.667745E-1,6.1310124E-1,1.3925104E-1],"split_indices":[7,7,7,7,7,7,7,6,7,7,7,7,7,7,7,7,4,5,5,5,5,5,7,7,5,6,5,5,5,5,6,5,5,4,4,4,7,4,7,10,7,10,7,9,6,6,4,10,0,10,4,4,5,10,7,4,6,4,7,4,7,7,5,0,0,0,0,0,0,0,0,0,0,0,0,0,0,0,0,0,0,0,0,0,0,0,0,0,0,0,0,0,0,0,0,0,0,0,0,0,0,0,0,0,0,0,0,0,0,0,0,0,0,0,0,0,0,0,0,0,0,0,0,0,0,0,0],"split_type":[0,0,0,0,0,0,0,0,0,0,0,0,0,0,0,0,0,0,0,0,0,0,0,0,0,0,0,0,0,0,0,0,0,0,0,0,0,0,0,0,0,0,0,0,0,0,0,0,0,0,0,0,0,0,0,0,0,0,0,0,0,0,0,0,0,0,0,0,0,0,0,0,0,0,0,0,0,0,0,0,0,0,0,0,0,0,0,0,0,0,0,0,0,0,0,0,0,0,0,0,0,0,0,0,0,0,0,0,0,0,0,0,0,0,0,0,0,0,0,0,0,0,0,0,0,0,0],"sum_hessian":[3.31737E5,1.60874E5,1.70863E5,8.6023E4,7.4851E4,7.7523E4,9.334E4,4.2836E4,4.3187E4,3.6885E4,3.7966E4,3.6839E4,4.0684E4,3.9397E4,5.3943E4,4.2144E4,6.92E2,2.16E4,2.1587E4,1.7811E4,1.9074E4,1.7636E4,2.033E4,2.0478E4,1.6361E4,1.7818E4,2.2866E4,1.6529E4,2.2868E4,2.161E4,3.2333E4,1.554E4,2.6604E4,1.45E2,5.47E2,1.2932E4,8.668E3,1.2656E4,8.931E3,1.0225E4,7.586E3,1.0594E4,8.48E3,8.134E3,9.502E3,1.0318E4,1.0012E4,1.0167E4,1.0311E4,7.434E3,8.927E3,4.644E3,1.3174E4,1.2925E4,9.941E3,9.506E3,7.023E3,1.3383E4,9.485E3,1.2772E4,8.838E3,3.1735E4,5.98E2,1.1042E4,4.498E3,1.6545E4,1.0059E4,7.4E1,7.1E1,5.06E2,4.1E1,4.42E2,1.249E4,5.004E3,3.664E3,3.03E2,1.2353E4,5.22E3,3.711E3,3.85E3,6.375E3,4.297E3,3.289E3,4.877E3,5.717E3,4.479E3,4.001E3,5.065E3,3.069E3,2.222E3,7.28E3,7.353E3,2.965E3,3.481E3,6.531E3,4.702E3,5.465E3,2.918E3,7.393E3,3.678E3,3.756E3,3.413E3,5.514E3,9.46E2,3.698E3,7.861E3,5.313E3,8.861E3,4.064E3,5.013E3,4.928E3,1.68E2,9.338E3,1.566E3,5.457E3,2.76E2,1.3107E4,4.284E3,5.201E3,3.99E2,1.2373E4,4.154E3,4.684E3,2.0234E4,1.1501E4,2.85E2,3.13E2],"tree_param":{"num_deleted":"0","num_feature":"12","num_nodes":"127","size_leaf_vector":"1"}},{"base_weights":[-2.1619775E-5,-8.839362E0,8.3225565E0,-1.2897604E1,-4.730754E0,3.5998483E0,1.2244893E1,-1.49178915E1,-1.1239004E1,-7.1168337E0,-2.6866918E0,1.3935207E0,5.4737196E0,9.901867E0,1.4264161E1,-1.5091447E1,-5.400981E0,-1.2276919E1,-1.0139019E1,-8.253053E0,-6.191087E0,-4.008057E0,-1.6378866E0,3.9157248E-1,2.1423566E0,4.240758E0,6.380248E0,8.614891E0,1.0802982E1,1.3102796E1,1.5344084E1,-1.4378186E1,-1.6498068E1,-9.613231E0,-2.089761E0,-1.1413352E1,-1.3573621E1,-9.384822E0,-1.1228234E1,-7.578194E0,-9.166538E0,-7.079293E0,-5.696818E0,-3.4652443E0,-4.6684036E0,-2.2227323E0,-9.7881246E-1,-6.363834E-2,7.882816E-1,1.4607768E0,2.7021863E0,5.155903E0,3.6020422E0,5.696908E0,7.2609897E0,7.8997107E0,9.574581E0,1.0077778E1,1.1838085E1,1.2201464E1,1.4433621E1,1.5541084E1,6.277831E0,1.3868383E-1,-7.399737E-1,-8.5989994E-1,-7.7931E-1,-6.203765E-1,-1.5074106E-1,-8.873094E-4,-8.874962E-1,2.591956E-2,-5.9274703E-1,-7.033427E-1,-6.4110434E-1,-6.554171E-2,-4.799535E-1,-5.9636474E-1,-5.422047E-1,-4.1760382E-1,-3.3390877E-1,-4.7478348E-1,-4.2252785E-1,-3.5707924E-1,-5.469337E-2,-3.234073E-1,-2.4630761E-1,-2.1662287E-1,-1.2492504E-1,-2.658929E-1,-1.9711578E-1,-1.5983945E-1,-9.190707E-2,-1.8799929E-2,-7.3012725E-2,-6.731379E-2,1.5767781E-2,-4.3465797E-2,6.606975E-2,1.5142554E-2,8.817434E-2,1.0894294E-1,1.6958298E-1,2.1372883E-1,2.7565724E-1,1.3863494E-1,2.351548E-1,3.3251676E-1,2.5528285E-1,3.112655E-1,3.8792E-1,3.7797794E-2,4.0150395E-1,4.4985262E-1,5.005229E-1,5.2243005E-2,5.141121E-1,5.493036E-1,6.1524665E-1,4.106821E-2,6.285357E-1,6.853375E-1,7.480393E-1,7.4271506E-1,8.449532E-1,5.639831E-1,7.7568136E-2],"categories":[],"categories_nodes":[],"categories_segments":[],"categories_sizes":[],"default_left":[0,0,0,0,0,0,0,0,0,0,0,0,0,0,0,0,0,0,0,0,0,0,0,0,0,0,0,0,0,0,0,0,0,0,0,0,0,0,0,0,0,0,0,0,0,0,0,0,0,0,0,0,0,0,0,0,0,0,0,0,0,0,0,0,0,0,0,0,0,0,0,0,0,0,0,0,0,0,0,0,0,0,0,0,0,0,0,0,0,0,0,0,0,0,0,0,0,0,0,0,0,0,0,0,0,0,0,0,0,0,0,0,0,0,0,0,0,0,0,0,0,0,0,0,0,0,0],"id":10,"left_children":[1,3,5,7,9,11,13,15,17,19,21,23,25,27,29,31,33,35,37,39,41,43,45,47,49,51,53,55,57,59,61,63,65,67,69,71,73,75,77,79,81,83,85,87,89,91,93,95,97,99,101,103,105,107,109,111,113,115,117,119,121,123,125,-1,-1,-1,-1,-1,-1,-1,-1,-1,-1,-1,-1,-1,-1,-1,-1,-1,-1,-1,-1,-1,-1,-1,-1,-1,-1,-1,-1,-1,-1,-1,-1,-1,-1,-1,-1,-1,-1,-1,-1,-1,-1,-1,-1,-1,-1,-1,-1,-1,-1,-1,-1,-1,-1,-1,-1,-1,-1,-1,-1,-1,-1,-1,-1],"loss_changes":[2.4404744E7,2.682324E6,3.165049E6,2.71027E5,3.898865E5,3.2050562E5,4.41474E5,6.0181E4,5.06225E4,3.874625E4,5.9666938E4,2.6713414E4,4.6827625E4,5.0018E4,6.2673E4,3.57115E4,9.115646E3,2.544925E4,1.76265E4,1.01375E4,8.8844375E3,6.8132812E3,9.251484E3,2.75038E3,7.7708906E3,1.0365375E4,1.449675E4,1.2141375E4,1.895575E4,2.88065E4,4.6288E4,1.718935E5,7.422E3,5.2727188E3,1.1940582E4,7.2353625E4,3.205875E3,2.2060125E4,2.24075E3,6.580625E3,1.576375E3,2.7004688E3,7.7350312E3,8.759391E3,4.0311719E3,4.758832E3,3.2757432E3,3.448416E3,7.192597E3,3.2210586E3,4.02875E3,2.2748281E3,9.544016E3,7.6365E3,5.386625E3,9.498E3,1.822125E3,2.7598625E4,4.02675E3,6.055025E4,3.5315E3,2.3455E4,1.3079609E4,0E0,0E0,0E0,0E0,0E0,0E0,0E0,0E0,0E0,0E0,0E0,0E0,0E0,0E0,0E0,0E0,0E0,0E0,0E0,0E0,0E0,0E0,0E0,0E0,0E0,0E0,0E0,0E0,0E0,0E0,0E0,0E0,0E0,0E0,0E0,0E0,0E0,0E0,0E0,0E0,0E0,0E0,0E0,0E0,0E0,0E0,0E0,0E0,0E0,0E0,0E0,0E0,0E0,0E0,0E0,0E0,0E0,0E0,0E0,0E0,0E0,0E0,0E0,0E0],"parents":[2147483647,0,0,1,1,2,2,3,3,4,4,5,5,6,6,7,7,8,8,9,9,10,10,11,11,12,12,13,13,14,14,15,15,16,16,17,17,18,18,19,19,20,20,21,21,22,22,23,23,24,24,25,25,26,26,27,27,28,28,29,29,30,30,31,31,32,32,33,33,34,34,35,35,36,36,37,37,38,38,39,39,40,40,41,41,42,42,43,43,44,44,45,45,46,46,47,47,48,48,49,49,50,50,51,51,52,52,53,53,54,54,55,55,56,56,57,57,58,58,59,59,60,60,61,61,62,62],"right_children":[2,4,6,8,10,12,14,16,18,20,22,24,26,28,30,32,34,36,38,40,42,44,46,48,50,52,54,56,58,60,62,64,66,68,70,72,74,76,78,80,82,84,86,88,90,92,94,96,98,100,102,104,106,108,110,112,114,116,118,120,122,124,126,-1,-1,-1,-1,-1,-1,-1,-1,-1,-1,-1,-1,-1,-1,-1,-1,-1,-1,-1,-1,-1,-1,-1,-1,-1,-1,-1,-1,-1,-1,-1,-1,-1,-1,-1,-1,-1,-1,-1,-1,-1,-1,-1,-1,-1,-1,-1,-1,-1,-1,-1,-1,-1,-1,-1,-1,-1,-1,-1,-1,-1,-1,-1,-1],"split_conditions":[3.340126E1,1.7077112E1,4.872948E1,7.571392E0,2.4794636E1,4.0063152E1,5.7518547E1,1.02089714E2,1.2535392E1,2.0551504E1,2.8818129E1,3.607808E1,4.3672455E1,5.235626E1,6.2703747E1,7E0,6E0,7E0,7E0,7E0,1.6E1,7E0,3.1345823E1,-1.4307407E-2,6E0,1.5E1,7E0,7E0,7E0,7E0,1.02089714E2,6E0,4.43666E0,1.6110231E1,7E0,6E0,1.0634112E1,6E0,1.4139444E1,1.725589E1,1.9475744E1,9.7624275E1,9.4239585E-2,5.63325E-2,2.69671E1,7E0,6E0,7.37E2,4E0,-2.6501957E-1,3.8318E1,4.107608E1,-3.570342E-2,1.6139664E1,4.525808E1,6E0,5.0289467E1,6E0,5.4136295E1,6E0,5.9683327E1,7E0,6E0,1.3868383E-1,-7.399737E-1,-8.5989994E-1,-7.7931E-1,-6.203765E-1,-1.5074106E-1,-8.873094E-4,-8.874962E-1,2.591956E-2,-5.9274703E-1,-7.033427E-1,-6.4110434E-1,-6.554171E-2,-4.799535E-1,-5.9636474E-1,-5.422047E-1,-4.1760382E-1,-3.3390877E-1,-4.7478348E-1,-4.2252785E-1,-3.5707924E-1,-5.469337E-2,-3.234073E-1,-2.4630761E-1,-2.1662287E-1,-1.2492504E-1,-2.658929E-1,-1.9711578E-1,-1.5983945E-1,-9.190707E-2,-1.8799929E-2,-7.3012725E-2,-6.731379E-2,1.5767781E-2,-4.3465797E-2,6.606975E-2,1.5142554E-2,8.817434E-2,1.0894294E-1,1.6958298E-1,2.1372883E-1,2.7565724E-1,1.3863494E-1,2.351548E-1,3.3251676E-1,2.5528285E-1,3.112655E-1,3.8792E-1,3.7797794E-2,4.0150395E-1,4.4985262E-1,5.005229E-1,5.2243005E-2,5.141121E-1,5.493036E-1,6.1524665E-1,4.106821E-2,6.285357E-1,6.853375E-1,7.480393E-1,7.4271506E-1,8.449532E-1,5.639831E-1,7.7568136E-2],"split_indices":[7,7,7,7,7,7,7,6,7,7,7,7,7,7,7,5,5,5,5,5,4,5,7,10,5,4,5,5,5,5,6,4,7,9,5,4,7,4,7,9,7,6,10,10,7,4,5,3,4,10,7,7,10,9,7,4,7,4,7,4,7,5,5,0,0,0,0,0,0,0,0,0,0,0,0,0,0,0,0,0,0,0,0,0,0,0,0,0,0,0,0,0,0,0,0,0,0,0,0,0,0,0,0,0,0,0,0,0,0,0,0,0,0,0,0,0,0,0,0,0,0,0,0,0,0,0,0],"split_type":[0,0,0,0,0,0,0,0,0,0,0,0,0,0,0,0,0,0,0,0,0,0,0,0,0,0,0,0,0,0,0,0,0,0,0,0,0,0,0,0,0,0,0,0,0,0,0,0,0,0,0,0,0,0,0,0,0,0,0,0,0,0,0,0,0,0,0,0,0,0,0,0,0,0,0,0,0,0,0,0,0,0,0,0,0,0,0,0,0,0,0,0,0,0,0,0,0,0,0,0,0,0,0,0,0,0,0,0,0,0,0,0,0,0,0,0,0,0,0,0,0,0,0,0,0,0,0],"sum_hessian":[3.31737E5,1.60874E5,1.70863E5,8.0932E4,7.9942E4,7.7523E4,9.334E4,3.6484E4,4.4448E4,3.6884E4,4.3058E4,3.5604E4,4.1919E4,4.3209E4,5.0131E4,3.583E4,6.54E2,2.2864E4,2.1584E4,1.6556E4,2.0328E4,1.9052E4,2.4006E4,1.5229E4,2.0375E4,1.7764E4,2.4155E4,1.7799E4,2.541E4,2.4161E4,2.597E4,2.3782E4,1.2048E4,2.87E2,3.67E2,1.373E4,9.134E3,1.2759E4,8.825E3,9.527E3,7.029E3,7.263E3,1.3065E4,1.046E4,8.592E3,1.2718E4,1.1288E4,7.092E3,8.137E3,9.19E3,1.1185E4,7.299E3,1.0465E4,1.3606E4,1.0549E4,1.0204E4,7.595E3,1.4948E4,1.0462E4,1.4411E4,9.75E3,2.5417E4,5.53E2,5.7E2,2.3212E4,6.806E3,5.242E3,2.01E2,8.6E1,3.25E2,4.2E1,4.9E2,1.324E4,5.504E3,3.63E3,3.3E2,1.2429E4,3.119E3,5.706E3,5.118E3,4.409E3,4.807E3,2.222E3,7.188E3,7.5E1,6.526E3,6.539E3,5.512E3,4.948E3,4.532E3,4.06E3,3.598E3,9.12E3,5.013E3,6.275E3,1.617E3,5.475E3,1.98E3,6.157E3,1.905E3,7.285E3,6.361E3,4.824E3,2.109E3,5.19E3,5.971E3,4.494E3,5.204E3,8.402E3,3.427E3,7.122E3,1.83E2,1.0021E4,3.276E3,4.319E3,3.31E2,1.4617E4,3.712E3,6.75E3,4.53E2,1.3958E4,4.11E3,5.64E3,1.6888E4,8.529E3,2.68E2,2.85E2],"tree_param":{"num_deleted":"0","num_feature":"12","num_nodes":"127","size_leaf_vector":"1"}},{"base_weights":[-2.440898E-5,-8.200111E0,8.097532E0,-1.1624941E1,-3.54732E0,4.1779065E0,1.2163849E1,-1.3476249E1,-9.286059E0,-5.293188E0,-1.5990605E0,1.9059933E0,6.128946E0,1.0466841E1,1.405985E1,-1.4510261E1,-1.2239707E1,-1.0323947E1,-8.310645E0,-6.0610647E0,-4.2054305E0,-2.404473E0,-7.921357E-1,9.657644E-1,2.8997583E0,5.066009E0,7.315854E0,9.450747E0,1.1371854E1,1.3324635E1,1.5402097E1,-1.4721018E1,-4.998685E0,-1.1369793E1,-1.3603454E1,-9.601712E0,-1.1361517E1,-7.6281548E0,-9.259299E0,-6.968616E0,-5.5622773E0,-4.3077803E0,5.3360425E-2,-1.6951188E0,-2.9953218E0,-8.890211E-1,1.7948626E0,3.4869802E-1,1.3298985E0,3.7857342E0,2.4452376E0,4.4169607E0,5.864115E0,6.6162176E0,8.249601E0,8.77378E0,1.0394555E1,1.0608185E1,1.248355E1,-1.078749E0,1.3661876E1,1.4491784E1,1.6387587E1,-7.166117E-1,-8.491422E-1,-6.9073504E-1,-1.6894063E-1,4.870681E-2,-5.918221E-1,-7.180783E-1,-6.583595E-1,-5.4687303E-2,-4.9321452E-1,-5.918116E-1,-5.372896E-1,-4.4818065E-1,-3.4839997E-1,-4.879209E-1,-4.2763862E-1,-3.5168403E-1,-6.458364E-2,-5.002341E-1,-2.7150106E-1,-2.8108194E-1,-2.0359373E-1,4.8070207E-2,-1.3157216E-1,-1.2915842E-1,-2.2352206E-2,-2.1578375E-1,-1.22474924E-1,-6.9947086E-2,-1.9884165E-2,-8.629804E-2,1.3292292E-1,-2.6975637E-2,3.5449192E-2,4.0863164E-2,8.683803E-2,1.0306746E-1,2.1021722E-1,8.098992E-2,1.484386E-1,2.1281631E-1,3.8215145E-1,2.6310357E-1,3.2838297E-1,3.083898E-1,4.1520795E-1,3.7436926E-1,4.33462E-1,5.318073E-2,4.4663987E-1,4.8998937E-1,5.429823E-1,4.670586E-2,5.4408854E-1,6.021389E-1,6.686468E-1,1.0358497E-1,-1.0085831E-1,6.5244657E-1,8.3002806E-1,7.380573E-1,6.821456E-1,7.967677E-1,8.6317617E-1],"categories":[],"categories_nodes":[],"categories_segments":[],"categories_sizes":[],"default_left":[0,0,0,0,0,0,0,0,0,0,0,0,0,0,0,0,0,0,0,0,0,0,0,0,0,0,0,0,0,0,0,0,0,0,0,0,0,0,0,0,0,0,0,0,0,0,0,0,0,0,0,0,0,0,0,0,0,0,0,0,0,0,0,0,0,0,0,0,0,0,0,0,0,0,0,0,0,0,0,0,0,0,0,0,0,0,0,0,0,0,0,0,0,0,0,0,0,0,0,0,0,0,0,0,0,0,0,0,0,0,0,0,0,0,0,0,0,0,0,0,0,0,0,0,0,0,0],"id":11,"left_children":[1,3,5,7,9,11,13,15,17,19,21,23,25,27,29,31,33,35,37,39,41,43,45,47,49,51,53,55,57,59,61,63,65,67,69,71,73,75,77,79,81,83,85,87,89,91,93,95,97,99,101,103,105,107,109,111,113,115,117,119,121,123,125,-1,-1,-1,-1,-1,-1,-1,-1,-1,-1,-1,-1,-1,-1,-1,-1,-1,-1,-1,-1,-1,-1,-1,-1,-1,-1,-1,-1,-1,-1,-1,-1,-1,-1,-1,-1,-1,-1,-1,-1,-1,-1,-1,-1,-1,-1,-1,-1,-1,-1,-1,-1,-1,-1,-1,-1,-1,-1,-1,-1,-1,-1,-1,-1],"loss_changes":[2.2027692E7,2.626464E6,2.660283E6,4.10968E5,2.3770219E5,3.7671875E5,2.63442E5,6.7579E4,4.2383E4,3.0759688E4,2.146454E4,3.668789E4,5.7648625E4,3.96495E4,3.79755E4,5.7768E4,2.84825E4,1.511825E4,1.393425E4,9.740375E3,6.6496562E3,6.923E3,4.1374453E3,4.5336543E3,7.6781875E3,1.2471125E4,1.4056375E4,1.2925625E4,1.927675E4,1.214745E5,1.204025E4,2.4579E4,8.907398E3,8.494075E4,2.9185E3,2.676825E4,2.30875E3,1.10335E4,3.1065625E3,2.8195E3,8.1394375E3,4.594375E3,8.7774274E2,8.327002E3,6.487789E3,3.984583E3,1.8167666E3,2.3972554E3,2.6453594E3,4.6623906E3,5.448867E3,6.8643906E3,4.547125E3,9.2989375E3,2.893125E3,1.45436875E4,2.246E3,3.5876125E4,3.486125E3,1.6982166E3,4.37935E4,1.427375E3,2.325E3,0E0,0E0,0E0,0E0,0E0,0E0,0E0,0E0,0E0,0E0,0E0,0E0,0E0,0E0,0E0,0E0,0E0,0E0,0E0,0E0,0E0,0E0,0E0,0E0,0E0,0E0,0E0,0E0,0E0,0E0,0E0,0E0,0E0,0E0,0E0,0E0,0E0,0E0,0E0,0E0,0E0,0E0,0E0,0E0,0E0,0E0,0E0,0E0,0E0,0E0,0E0,0E0,0E0,0E0,0E0,0E0,0E0,0E0,0E0,0E0,0E0,0E0,0E0,0E0],"parents":[2147483647,0,0,1,1,2,2,3,3,4,4,5,5,6,6,7,7,8,8,9,9,10,10,11,11,12,12,13,13,14,14,15,15,16,16,17,17,18,18,19,19,20,20,21,21,22,22,23,23,24,24,25,25,26,26,27,27,28,28,29,29,30,30,31,31,32,32,33,33,34,34,35,35,36,36,37,37,38,38,39,39,40,40,41,41,42,42,43,43,44,44,45,45,46,46,47,47,48,48,49,49,50,50,51,51,52,52,53,53,54,54,55,55,56,56,57,57,58,58,59,59,60,60,61,61,62,62],"right_children":[2,4,6,8,10,12,14,16,18,20,22,24,26,28,30,32,34,36,38,40,42,44,46,48,50,52,54,56,58,60,62,64,66,68,70,72,74,76,78,80,82,84,86,88,90,92,94,96,98,100,102,104,106,108,110,112,114,116,118,120,122,124,126,-1,-1,-1,-1,-1,-1,-1,-1,-1,-1,-1,-1,-1,-1,-1,-1,-1,-1,-1,-1,-1,-1,-1,-1,-1,-1,-1,-1,-1,-1,-1,-1,-1,-1,-1,-1,-1,-1,-1,-1,-1,-1,-1,-1,-1,-1,-1,-1,-1,-1,-1,-1,-1,-1,-1,-1,-1,-1,-1,-1,-1,-1,-1,-1],"split_conditions":[3.404828E1,2.0026545E1,5.1052902E1,1.1185116E1,2.7753656E1,4.160845E1,5.9946964E1,5.870304E0,1.5492576E1,2.4508968E1,3.109946E1,3.7791817E1,4.660788E1,5.520342E1,7E0,1.02089714E2,7E0,7E0,7E0,1.6E1,9.074478E1,6E0,1.79E3,3.538856E1,2.39043E1,7E0,7E0,7E0,7E0,6E0,6.3815327E1,2.1E1,1.7E1,6E0,7.84856E0,6E0,1.3601292E1,1.5469878E1,1.8141245E1,9.7624275E1,7.36344E0,1.213611E1,7E0,9.5444016E-2,1.257396E1,4.792879E-3,1.874691E1,9.24E2,6E0,4E0,3.9289654E1,2.662977E1,4.4209927E1,4.5457806E-2,4.8208397E1,6E0,5.286993E1,6E0,5.831782E1,6.129518E1,1.9E1,1.5E1,5E0,-7.166117E-1,-8.491422E-1,-6.9073504E-1,-1.6894063E-1,4.870681E-2,-5.918221E-1,-7.180783E-1,-6.583595E-1,-5.4687303E-2,-4.9321452E-1,-5.918116E-1,-5.372896E-1,-4.4818065E-1,-3.4839997E-1,-4.879209E-1,-4.2763862E-1,-3.5168403E-1,-6.458364E-2,-5.002341E-1,-2.7150106E-1,-2.8108194E-1,-2.0359373E-1,4.8070207E-2,-1.3157216E-1,-1.2915842E-1,-2.2352206E-2,-2.1578375E-1,-1.22474924E-1,-6.9947086E-2,-1.9884165E-2,-8.629804E-2,1.3292292E-1,-2.6975637E-2,3.5449192E-2,4.0863164E-2,8.683803E-2,1.0306746E-1,2.1021722E-1,8.098992E-2,1.484386E-1,2.1281631E-1,3.8215145E-1,2.6310357E-1,3.2838297E-1,3.083898E-1,4.1520795E-1,3.7436926E-1,4.33462E-1,5.318073E-2,4.4663987E-1,4.8998937E-1,5.429823E-1,4.670586E-2,5.4408854E-1,6.021389E-1,6.686468E-1,1.0358497E-1,-1.0085831E-1,6.5244657E-1,8.3002806E-1,7.380573E-1,6.821456E-1,7.967677E-1,8.6317617E-1],"split_indices":[7,7,7,7,7,7,7,7,7,7,7,7,7,7,5,6,5,5,5,4,6,5,11,7,6,5,5,5,5,4,7,4,4,4,7,4,7,9,7,6,6,6,5,10,6,10,6,3,5,4,7,9,7,10,7,4,7,4,7,7,4,4,4,0,0,0,0,0,0,0,0,0,0,0,0,0,0,0,0,0,0,0,0,0,0,0,0,0,0,0,0,0,0,0,0,0,0,0,0,0,0,0,0,0,0,0,0,0,0,0,0,0,0,0,0,0,0,0,0,0,0,0,0,0,0,0,0],"split_type":[0,0,0,0,0,0,0,0,0,0,0,0,0,0,0,0,0,0,0,0,0,0,0,0,0,0,0,0,0,0,0,0,0,0,0,0,0,0,0,0,0,0,0,0,0,0,0,0,0,0,0,0,0,0,0,0,0,0,0,0,0,0,0,0,0,0,0,0,0,0,0,0,0,0,0,0,0,0,0,0,0,0,0,0,0,0,0,0,0,0,0,0,0,0,0,0,0,0,0,0,0,0,0,0,0,0,0,0,0,0,0,0,0,0,0,0,0,0,0,0,0,0,0,0,0,0,0],"sum_hessian":[3.31737E5,1.64825E5,1.66912E5,9.494E4,6.9885E4,8.499E4,8.1922E4,5.2991E4,4.1949E4,3.6856E4,3.3029E4,3.9267E4,4.5723E4,4.3233E4,3.8689E4,2.8853E4,2.4138E4,2.0319E4,2.163E4,2.1602E4,1.5254E4,1.6529E4,1.65E4,2.0178E4,1.9089E4,2.4124E4,2.1599E4,2.0372E4,2.2861E4,2.5004E4,1.3685E4,2.8227E4,6.26E2,1.4743E4,9.395E3,1.1986E4,8.333E3,1.2585E4,9.045E3,7.657E3,1.3945E4,1.4896E4,3.58E2,7.513E3,9.016E3,1.5905E4,5.95E2,7.489E3,1.2689E4,6.47E3,1.2619E4,1.3308E4,1.0816E4,1.2352E4,9.247E3,1.1869E4,8.503E3,1.3558E4,9.303E3,5.72E2,2.4432E4,7.122E3,6.563E3,2.4093E4,4.134E3,9.6E1,5.3E2,5.37E2,1.4206E4,3.42E3,5.975E3,3.59E2,1.1627E4,4.695E3,3.638E3,4.159E3,8.426E3,5.293E3,3.752E3,7.57E3,8.7E1,4.01E2,1.3544E4,2.264E3,1.2632E4,2.68E2,9E1,4.389E3,3.124E3,2.635E3,6.381E3,7.804E3,8.101E3,1.17E2,4.78E2,2.161E3,5.328E3,5.616E3,7.073E3,1.265E3,5.205E3,4.899E3,7.72E3,1.2679E4,6.29E2,5.833E3,4.983E3,9.763E3,2.589E3,3.29E3,5.957E3,2.4E2,1.1629E4,3.741E3,4.762E3,3.73E2,1.3185E4,6.23E3,3.073E3,1.31E2,4.41E2,2.022E4,4.212E3,5.394E3,1.728E3,4.341E3,2.222E3],"tree_param":{"num_deleted":"0","num_feature":"12","num_nodes":"127","size_leaf_vector":"1"}},{"base_weights":[-1.931667E-5,-7.978452E0,7.511981E0,-1.1641934E1,-4.269503E0,3.2480571E0,1.1053286E1,-1.3467702E1,-1.014303E1,-6.16633E0,-2.172225E0,1.2576952E0,4.938505E0,8.750281E0,1.273508E1,-1.3624261E1,-4.8827624E0,-1.1135687E1,-9.206005E0,-7.120174E0,-5.0207434E0,-3.2943919E0,-1.4183524E0,4.773695E-1,2.0363739E0,3.8216395E0,5.759675E0,7.7045774E0,9.505747E0,1.1386442E1,1.3636071E1,-1.3262495E1,-1.6160051E1,-8.897649E0,-1.7274084E0,-1.03396225E1,-1.2345457E1,-8.52559E0,-1.0179838E1,-6.524596E0,-7.923385E0,-6.891811E0,-4.7987294E0,-3.957493E0,-2.8274987E0,-1.8862808E0,-8.247133E-1,3.8273852E-2,9.317839E-1,1.4395506E0,2.526261E0,4.680684E0,3.2220938E0,5.1450047E0,6.5519085E0,7.0651965E0,8.568884E0,8.845491E0,1.0436314E1,1.0582863E1,1.2546386E1,1.3779757E1,6.0006485E0,-6.102564E-1,-7.4781984E-1,-9.2885685E-1,-7.359087E-1,-5.7655734E-1,-1.3404098E-1,1.01731E-2,-8.162964E-1,2.0803636E-2,-5.36766E-1,-6.323878E-1,-5.720905E-1,-4.4359516E-2,-4.3670377E-1,-5.3880566E-1,-4.8959455E-1,3.3524808E-2,-3.302693E-1,-4.2831764E-1,-3.647997E-1,-2.7803805E-1,-3.702886E-1,-2.1255116E-1,-2.7729166E-1,-1.9363984E-1,-4.6673203E-1,-1.9415884E-1,-1.1819887E-1,-1.4960589E-1,-8.0659576E-2,-7.934301E-2,-2.091555E-2,-2.105311E-2,2.1498343E-2,4.213497E-2,1.9344935E-1,1.5685546E-1,5.9601594E-2,9.9397086E-2,1.5396708E-1,2.7811155E-1,2.1851814E-1,1.21880054E-1,2.1318221E-1,3.0242333E-1,2.2923844E-1,2.9675815E-1,3.6270186E-1,6.268682E-1,3.454381E-1,4.7370154E-1,4.1571227E-1,4.1486636E-2,4.5071036E-1,4.9299905E-1,5.454523E-1,6.4103626E-2,5.441332E-1,5.9972864E-1,6.5165484E-1,6.493466E-1,7.3886704E-1,7.1337277E-1,1.8280818E-1],"categories":[],"categories_nodes":[],"categories_segments":[],"categories_sizes":[],"default_left":[0,0,0,0,0,0,0,0,0,0,0,0,0,0,0,0,0,0,0,0,0,0,0,0,0,0,0,0,0,0,0,0,0,0,0,0,0,0,0,0,0,0,0,0,0,0,0,0,0,0,0,0,0,0,0,0,0,0,0,0,0,0,0,0,0,0,0,0,0,0,0,0,0,0,0,0,0,0,0,0,0,0,0,0,0,0,0,0,0,0,0,0,0,0,0,0,0,0,0,0,0,0,0,0,0,0,0,0,0,0,0,0,0,0,0,0,0,0,0,0,0,0,0,0,0,0,0],"id":12,"left_children":[1,3,5,7,9,11,13,15,17,19,21,23,25,27,29,31,33,35,37,39,41,43,45,47,49,51,53,55,57,59,61,63,65,67,69,71,73,75,77,79,81,83,85,87,89,91,93,95,97,99,101,103,105,107,109,111,113,115,117,119,121,123,125,-1,-1,-1,-1,-1,-1,-1,-1,-1,-1,-1,-1,-1,-1,-1,-1,-1,-1,-1,-1,-1,-1,-1,-1,-1,-1,-1,-1,-1,-1,-1,-1,-1,-1,-1,-1,-1,-1,-1,-1,-1,-1,-1,-1,-1,-1,-1,-1,-1,-1,-1,-1,-1,-1,-1,-1,-1,-1,-1,-1,-1,-1,-1,-1],"loss_changes":[1.9882444E7,2.185866E6,2.579987E6,2.21349E5,3.1801375E5,2.6083138E5,3.61415E5,4.8971E4,4.12415E4,4.5833E4,3.2114297E4,2.163345E4,3.842425E4,3.105075E4,6.5392E4,3.26555E4,8.282424E3,2.0654E4,1.506775E4,1.0904375E4,7.89075E3,4.7120156E3,6.3073984E3,3.5486301E3,5.206797E3,9.134531E3,1.17293125E4,9.0743125E3,1.3958625E4,2.001125E4,3.5391E4,5.5991E4,1.5301625E4,4.6842285E3,1.0376449E4,5.5421625E4,2.193375E3,2.1443125E4,2.06925E3,7.6524375E3,3.869375E3,1.3413984E3,6.95525E3,2.8334844E3,4.37325E3,3.8304727E3,3.100745E3,1.6277257E3,2.283641E3,3.3728066E3,2.9075E3,1.9727031E3,8.541266E3,6.8594688E3,4.5254688E3,8.0517812E3,1.5401562E3,1.8092875E4,2.4769375E3,3.5602E4,2.217625E3,2.4908E4,1.1557299E4,0E0,0E0,0E0,0E0,0E0,0E0,0E0,0E0,0E0,0E0,0E0,0E0,0E0,0E0,0E0,0E0,0E0,0E0,0E0,0E0,0E0,0E0,0E0,0E0,0E0,0E0,0E0,0E0,0E0,0E0,0E0,0E0,0E0,0E0,0E0,0E0,0E0,0E0,0E0,0E0,0E0,0E0,0E0,0E0,0E0,0E0,0E0,0E0,0E0,0E0,0E0,0E0,0E0,0E0,0E0,0E0,0E0,0E0,0E0,0E0,0E0,0E0,0E0,0E0],"parents":[2147483647,0,0,1,1,2,2,3,3,4,4,5,5,6,6,7,7,8,8,9,9,10,10,11,11,12,12,13,13,14,14,15,15,16,16,17,17,18,18,19,19,20,20,21,21,22,22,23,23,24,24,25,25,26,26,27,27,28,28,29,29,30,30,31,31,32,32,33,33,34,34,35,35,36,36,37,37,38,38,39,39,40,40,41,41,42,42,43,43,44,44,45,45,46,46,47,47,48,48,49,49,50,50,51,51,52,52,53,53,54,54,55,55,56,56,57,57,58,58,59,59,60,60,61,61,62,62],"right_children":[2,4,6,8,10,12,14,16,18,20,22,24,26,28,30,32,34,36,38,40,42,44,46,48,50,52,54,56,58,60,62,64,66,68,70,72,74,76,78,80,82,84,86,88,90,92,94,96,98,100,102,104,106,108,110,112,114,116,118,120,122,124,126,-1,-1,-1,-1,-1,-1,-1,-1,-1,-1,-1,-1,-1,-1,-1,-1,-1,-1,-1,-1,-1,-1,-1,-1,-1,-1,-1,-1,-1,-1,-1,-1,-1,-1,-1,-1,-1,-1,-1,-1,-1,-1,-1,-1,-1,-1,-1,-1,-1,-1,-1,-1,-1,-1,-1,-1,-1,-1,-1,-1,-1,-1,-1,-1],"split_conditions":[3.340126E1,1.7077112E1,4.872948E1,7.571392E0,2.5907389E1,4.0063152E1,5.6743893E1,1.02089714E2,1.2275836E1,2.1873833E1,2.9090809E1,3.656503E1,4.3672455E1,5.2103912E1,6.129518E1,2.1E1,6E0,7E0,7E0,7E0,1.213611E1,1.5E1,3.1593548E1,3.49486E1,6E0,1.5E1,7E0,7E0,7E0,7E0,1.02089714E2,7E0,2.5E1,1.6110231E1,7E0,6E0,1.5E1,6E0,1.4139444E1,6E0,1.9475744E1,6E0,7E0,3.450867E1,-7.381362E-2,9.542526E0,8E0,-1.4307407E-2,6.251925E-1,3.35734E2,3.8318E1,-2.9518718E-1,-3.570342E-2,1.6139664E1,4.634125E1,1.085742E1,2.3538795E1,6E0,5.4136295E1,6E0,5.8853863E1,6.514598E1,1.7E1,-6.102564E-1,-7.4781984E-1,-9.2885685E-1,-7.359087E-1,-5.7655734E-1,-1.3404098E-1,1.01731E-2,-8.162964E-1,2.0803636E-2,-5.36766E-1,-6.323878E-1,-5.720905E-1,-4.4359516E-2,-4.3670377E-1,-5.3880566E-1,-4.8959455E-1,3.3524808E-2,-3.302693E-1,-4.2831764E-1,-3.647997E-1,-2.7803805E-1,-3.702886E-1,-2.1255116E-1,-2.7729166E-1,-1.9363984E-1,-4.6673203E-1,-1.9415884E-1,-1.1819887E-1,-1.4960589E-1,-8.0659576E-2,-7.934301E-2,-2.091555E-2,-2.105311E-2,2.1498343E-2,4.213497E-2,1.9344935E-1,1.5685546E-1,5.9601594E-2,9.9397086E-2,1.5396708E-1,2.7811155E-1,2.1851814E-1,1.21880054E-1,2.1318221E-1,3.0242333E-1,2.2923844E-1,2.9675815E-1,3.6270186E-1,6.268682E-1,3.454381E-1,4.7370154E-1,4.1571227E-1,4.1486636E-2,4.5071036E-1,4.9299905E-1,5.454523E-1,6.4103626E-2,5.441332E-1,5.9972864E-1,6.5165484E-1,6.493466E-1,7.3886704E-1,7.1337277E-1,1.8280818E-1],"split_indices":[7,7,7,7,7,7,7,6,7,7,7,7,7,7,7,4,5,5,5,5,6,4,7,7,5,4,5,5,5,5,6,5,4,9,5,4,4,4,7,4,7,5,5,9,10,6,4,10,10,0,7,10,10,9,7,6,6,4,7,4,7,7,4,0,0,0,0,0,0,0,0,0,0,0,0,0,0,0,0,0,0,0,0,0,0,0,0,0,0,0,0,0,0,0,0,0,0,0,0,0,0,0,0,0,0,0,0,0,0,0,0,0,0,0,0,0,0,0,0,0,0,0,0,0,0,0,0],"split_type":[0,0,0,0,0,0,0,0,0,0,0,0,0,0,0,0,0,0,0,0,0,0,0,0,0,0,0,0,0,0,0,0,0,0,0,0,0,0,0,0,0,0,0,0,0,0,0,0,0,0,0,0,0,0,0,0,0,0,0,0,0,0,0,0,0,0,0,0,0,0,0,0,0,0,0,0,0,0,0,0,0,0,0,0,0,0,0,0,0,0,0,0,0,0,0,0,0,0,0,0,0,0,0,0,0,0,0,0,0,0,0,0,0,0,0,0,0,0,0,0,0,0,0,0,0,0,0],"sum_hessian":[3.31737E5,1.60874E5,1.70863E5,8.0932E4,7.9942E4,7.7523E4,9.334E4,3.6484E4,4.4448E4,4.1976E4,3.7966E4,3.5604E4,4.1919E4,3.9397E4,5.3943E4,3.583E4,6.54E2,2.1578E4,2.287E4,2.2902E4,1.9074E4,1.5255E4,2.2711E4,1.7784E4,1.782E4,1.7764E4,2.4155E4,1.6529E4,2.2868E4,2.161E4,3.2333E4,3.1362E4,4.468E3,2.87E2,3.67E2,1.302E4,8.558E3,1.3469E4,9.401E3,1.3156E4,9.746E3,2.02E3,1.7054E4,6.3E3,8.955E3,1.2699E4,1.0012E4,9.045E3,8.739E3,8.035E3,9.785E3,7.299E3,1.0465E4,1.3606E4,1.0549E4,9.506E3,7.023E3,1.3383E4,9.485E3,1.2772E4,8.838E3,3.1735E4,5.98E2,1.9314E4,1.2048E4,1.665E3,2.803E3,2.01E2,8.6E1,3.25E2,4.2E1,4.62E2,1.2558E4,6.403E3,2.155E3,3.58E2,1.3111E4,3.695E3,5.706E3,1.46E2,1.301E4,4.807E3,4.939E3,5.66E2,1.454E3,9.844E3,7.21E3,6.204E3,9.6E1,2.73E3,6.225E3,2.513E3,1.0186E4,3.481E3,6.531E3,4.163E3,4.882E3,8.483E3,2.56E2,1.021E3,7.014E3,4.961E3,4.824E3,1.896E3,5.403E3,5.971E3,4.494E3,5.204E3,8.402E3,5.621E3,4.928E3,2.62E2,9.244E3,1.534E3,5.489E3,2.76E2,1.3107E4,4.284E3,5.201E3,3.99E2,1.2373E4,4.154E3,4.684E3,1.769E4,1.4045E4,1.31E2,4.67E2],"tree_param":{"num_deleted":"0","num_feature":"12","num_nodes":"127","size_leaf_vector":"1"}},{"base_weights":[-2.1283291E-5,-7.5796003E0,7.1364427E0,-1.069458E1,-3.6409373E0,3.2617705E0,1.0655629E1,-1.2402709E1,-8.849884E0,-5.161641E0,-1.7468156E0,1.3158278E0,4.9791245E0,8.91169E0,1.2478359E1,-1.2063025E1,-1.5291755E1,-9.583752E0,-7.664453E0,-6.188396E0,-4.314032E0,-2.304353E0,-8.9855313E-1,5.5897087E-1,2.1939716E0,4.069538E0,6.0015826E0,7.988729E0,9.943573E0,1.1778114E1,1.3729435E1,-1.1016957E1,-1.3730755E1,-1.70348E1,-1.3988487E1,-8.936477E0,-1.0529225E1,-7.0209727E0,-8.575219E0,-5.602057E0,-6.957253E0,-5.886817E0,-4.0856757E0,-3.1244292E0,-1.9910187E0,-9.958812E-1,1.745066E0,3.6359604E-2,9.7238547E-1,1.6106389E0,2.6802177E0,3.4945822E0,4.7546844E0,5.384223E0,6.8210497E0,7.3532424E0,8.856341E0,1.074665E1,9.149116E0,-1.301311E0,1.2090111E1,1.2801831E1,1.472802E1,1.3393213E-1,-5.737492E-1,-7.3387605E-1,-6.308586E-1,-9.320062E-1,-7.6458377E-1,-7.480646E-1,-6.812315E-1,-2.3448452E-2,-4.6053654E-1,-5.629095E-1,-4.998304E-1,-1.1329208E-2,-3.5748017E-1,-4.4030443E-1,-3.8885197E-1,-2.5522062E-1,-3.3425352E-1,-3.7974015E-1,-3.30034E-1,-2.8713897E-1,-4.8932624E-1,-1.7840314E-1,-2.39184E-1,-1.3310163E-1,-2.3532239E-1,-1.2631457E-1,-6.1749607E-2,-7.65726E-2,-2.4894116E-2,3.0252254E-1,6.113757E-2,-2.0000696E-2,2.0423582E-2,4.558738E-2,1.5344124E-1,5.5142086E-2,1.1773007E-1,1.6349922E-1,1.0734751E-1,1.4190254E-1,2.3121953E-1,2.0581181E-1,2.640655E-1,4.552345E-1,2.59204E-1,3.46566E-1,2.0994222E-1,3.9621145E-2,3.7379083E-1,4.052573E-1,4.6511355E-1,5.3115976E-1,6.728531E-1,4.0883788E-1,5.298265E-1,6.858255E-2,-1.296258E-1,5.7640624E-1,7.513118E-1,6.190791E-1,6.683177E-1,7.158799E-1,7.7490157E-1],"categories":[],"categories_nodes":[],"categories_segments":[],"categories_sizes":[],"default_left":[0,0,0,0,0,0,0,0,0,0,0,0,0,0,0,0,0,0,0,0,0,0,0,0,0,0,0,0,0,0,0,0,0,0,0,0,0,0,0,0,0,0,0,0,0,0,0,0,0,0,0,0,0,0,0,0,0,0,0,0,0,0,0,0,0,0,0,0,0,0,0,0,0,0,0,0,0,0,0,0,0,0,0,0,0,0,0,0,0,0,0,0,0,0,0,0,0,0,0,0,0,0,0,0,0,0,0,0,0,0,0,0,0,0,0,0,0,0,0,0,0,0,0,0,0,0,0],"id":13,"left_children":[1,3,5,7,9,11,13,15,17,19,21,23,25,27,29,31,33,35,37,39,41,43,45,47,49,51,53,55,57,59,61,63,65,67,69,71,73,75,77,79,81,83,85,87,89,91,93,95,97,99,101,103,105,107,109,111,113,115,117,119,121,123,125,-1,-1,-1,-1,-1,-1,-1,-1,-1,-1,-1,-1,-1,-1,-1,-1,-1,-1,-1,-1,-1,-1,-1,-1,-1,-1,-1,-1,-1,-1,-1,-1,-1,-1,-1,-1,-1,-1,-1,-1,-1,-1,-1,-1,-1,-1,-1,-1,-1,-1,-1,-1,-1,-1,-1,-1,-1,-1,-1,-1,-1,-1,-1,-1],"loss_changes":[1.7944224E7,1.973713E6,