{"learner":{"attributes":{"scikit_learn":"{\"_estimator_type\": \"regressor\"}"},"feature_names":["time_seconds","team_id","player_id","action_id","type_name","result_name","start_x","start_y","is_home","avg_pass_dist","avg_pass_angle","pass_count"],"feature_types":["float","int","int","int","int","int","float","float","i","float","float","int"],"gradient_booster":{"model":{"gbtree_model_param":{"num_parallel_tree":"1","num_trees":"500"},"iteration_indptr":[0,1,2,3,4,5,6,7,8,9,10,11,12,13,14,15,16,17,18,19,20,21,22,23,24,25,26,27,28,29,30,31,32,33,34,35,36,37,38,39,40,41,42,43,44,45,46,47,48,49,50,51,52,53,54,55,56,57,58,59,60,61,62,63,64,65,66,67,68,69,70,71,72,73,74,75,76,77,78,79,80,81,82,83,84,85,86,87,88,89,90,91,92,93,94,95,96,97,98,99,100,101,102,103,104,105,106,107,108,109,110,111,112,113,114,115,116,117,118,119,120,121,122,123,124,125,126,127,128,129,130,131,132,133,134,135,136,137,138,139,140,141,142,143,144,145,146,147,148,149,150,151,152,153,154,155,156,157,158,159,160,161,162,163,164,165,166,167,168,169,170,171,172,173,174,175,176,177,178,179,180,181,182,183,184,185,186,187,188,189,190,191,192,193,194,195,196,197,198,199,200,201,202,203,204,205,206,207,208,209,210,211,212,213,214,215,216,217,218,219,220,221,222,223,224,225,226,227,228,229,230,231,232,233,234,235,236,237,238,239,240,241,242,243,244,245,246,247,248,249,250,251,252,253,254,255,256,257,258,259,260,261,262,263,264,265,266,267,268,269,270,271,272,273,274,275,276,277,278,279,280,281,282,283,284,285,286,287,288,289,290,291,292,293,294,295,296,297,298,299,300,301,302,303,304,305,306,307,308,309,310,311,312,313,314,315,316,317,318,319,320,321,322,323,324,325,326,327,328,329,330,331,332,333,334,335,336,337,338,339,340,341,342,343,344,345,346,347,348,349,350,351,352,353,354,355,356,357,358,359,360,361,362,363,364,365,366,367,368,369,370,371,372,373,374,375,376,377,378,379,380,381,382,383,384,385,386,387,388,389,390,391,392,393,394,395,396,397,398,399,400,401,402,403,404,405,406,407,408,409,410,411,412,413,414,415,416,417,418,419,420,421,422,423,424,425,426,427,428,429,430,431,432,433,434,435,436,437,438,439,440,441,442,443,444,445,446,447,448,449,450,451,452,453,454,455,456,457,458,459,460,461,462,463,464,465,466,467,468,469,470,471,472,473,474,475,476,477,478,479,480,481,482,483,484,485,486,487,488,489,490,491,492,493,494,495,496,497,498,499,500],"tree_info":[0,0,0,0,0,0,0,0,0,0,0,0,0,0,0,0,0,0,0,0,0,0,0,0,0,0,0,0,0,0,0,0,0,0,0,0,0,0,0,0,0,0,0,0,0,0,0,0,0,0,0,0,0,0,0,0,0,0,0,0,0,0,0,0,0,0,0,0,0,0,0,0,0,0,0,0,0,0,0,0,0,0,0,0,0,0,0,0,0,0,0,0,0,0,0,0,0,0,0,0,0,0,0,0,0,0,0,0,0,0,0,0,0,0,0,0,0,0,0,0,0,0,0,0,0,0,0,0,0,0,0,0,0,0,0,0,0,0,0,0,0,0,0,0,0,0,0,0,0,0,0,0,0,0,0,0,0,0,0,0,0,0,0,0,0,0,0,0,0,0,0,0,0,0,0,0,0,0,0,0,0,0,0,0,0,0,0,0,0,0,0,0,0,0,0,0,0,0,0,0,0,0,0,0,0,0,0,0,0,0,0,0,0,0,0,0,0,0,0,0,0,0,0,0,0,0,0,0,0,0,0,0,0,0,0,0,0,0,0,0,0,0,0,0,0,0,0,0,0,0,0,0,0,0,0,0,0,0,0,0,0,0,0,0,0,0,0,0,0,0,0,0,0,0,0,0,0,0,0,0,0,0,0,0,0,0,0,0,0,0,0,0,0,0,0,0,0,0,0,0,0,0,0,0,0,0,0,0,0,0,0,0,0,0,0,0,0,0,0,0,0,0,0,0,0,0,0,0,0,0,0,0,0,0,0,0,0,0,0,0,0,0,0,0,0,0,0,0,0,0,0,0,0,0,0,0,0,0,0,0,0,0,0,0,0,0,0,0,0,0,0,0,0,0,0,0,0,0,0,0,0,0,0,0,0,0,0,0,0,0,0,0,0,0,0,0,0,0,0,0,0,0,0,0,0,0,0,0,0,0,0,0,0,0,0,0,0,0,0,0,0,0,0,0,0,0,0,0,0,0,0,0,0,0,0,0,0,0,0,0,0,0,0,0,0,0,0,0,0,0,0,0,0,0,0,0,0,0,0,0,0,0,0,0,0,0,0,0,0,0,0,0,0,0,0,0,0,0,0,0,0,0,0,0,0,0,0,0,0,0,0,0,0,0,0,0,0,0,0,0],"trees":[{"base_weights":[5.0623427E-8,-1.761868E1,1.902322E1,-2.8030483E1,-8.513796E0,1.0065043E1,3.2882782E1,-3.3693512E1,-2.3041983E1,-1.3749215E1,-4.460387E0,5.392571E0,1.5988741E1,2.7264593E1,4.0589306E1,-2.8308443E1,-3.7237762E1,-2.402086E1,-1.1602107E1,-1.6150576E1,-1.1496005E1,-6.553964E0,-1.6266621E0,3.0614882E0,8.4849615E0,1.36129055E1,1.8840708E1,2.4543116E1,3.0888556E1,3.7544735E1,4.5930862E1,-3.3619637E1,-7.2851124E0,-3.38898E1,-4.1209637E1,-2.663981E1,-2.1150717E1,-6.213252E0,-2.6245083E1,-1.8115955E1,-1.4374039E1,-1.3543316E1,-9.475114E0,-8.495764E0,-4.406593E0,-3.5161579E0,5.828151E-1,9.653353E-1,5.6404724E0,6.554517E0,1.078264E1,1.1845428E1,1.5693894E1,1.7196428E1,2.0674572E1,2.3172943E1,2.682787E1,2.9468988E1,3.2304695E1,3.609571E1,3.9865532E1,4.3709293E1,4.7440006E1,-2.1352758E0,-1.5559503E0,-1.1032519E0,3.0270272E-1,-1.9480804E0,-1.327392E0,-2.2518814E0,-1.9174632E0,-1.190803E0,-1.3849047E0,-1.1506108E0,-9.8504794E-1,-7.6747555E-1,9.111452E-1,-1.5430645E0,-1.0070409E0,-9.1613656E-1,-5.0136622E-2,-3.007327E-1,-7.996476E-1,-7.4726355E-1,-5.995317E-1,-1.1601868E-2,-5.623352E-1,-4.9576864E-1,-3.4907278E-1,2.7245545E-1,-3.1774142E-1,-2.3820527E-1,-6.0667273E-2,4.539023E-1,-6.205017E-2,-8.264699E-2,1.3309836E-1,6.994768E-1,1.8922317E-1,2.5318986E-1,4.432424E-1,8.937454E-1,4.560065E-1,5.291683E-1,6.669629E-1,1.0990708E0,7.0548505E-1,8.889533E-1,6.325447E-1,1.3252527E0,9.5610905E-1,1.0821823E0,1.2455355E0,1.2688255E0,1.4181027E0,2.2020204E0,1.4573463E0,1.8500668E0,1.5283524E0,2.237209E0,1.791144E0,1.8995707E0,2.0783098E0,2.5314407E0,2.1591518E0,2.2854877E0,2.4396484E0],"categories":[],"categories_nodes":[],"categories_segments":[],"categories_sizes":[],"default_left":[0,0,0,0,0,0,0,0,0,0,0,0,0,0,0,0,0,0,0,0,0,0,0,0,0,0,0,0,0,0,0,0,0,0,0,0,0,0,0,0,0,0,0,0,0,0,0,0,0,0,0,0,0,0,0,0,0,0,0,0,0,0,0,0,0,0,0,0,0,0,0,0,0,0,0,0,0,0,0,0,0,0,0,0,0,0,0,0,0,0,0,0,0,0,0,0,0,0,0,0,0,0,0,0,0,0,0,0,0,0,0,0,0,0,0,0,0,0,0,0,0,0,0,0,0,0,0],"id":0,"left_children":[1,3,5,7,9,11,13,15,17,19,21,23,25,27,29,31,33,35,37,39,41,43,45,47,49,51,53,55,57,59,61,63,65,67,69,71,73,75,77,79,81,83,85,87,89,91,93,95,97,99,101,103,105,107,109,111,113,115,117,119,121,123,125,-1,-1,-1,-1,-1,-1,-1,-1,-1,-1,-1,-1,-1,-1,-1,-1,-1,-1,-1,-1,-1,-1,-1,-1,-1,-1,-1,-1,-1,-1,-1,-1,-1,-1,-1,-1,-1,-1,-1,-1,-1,-1,-1,-1,-1,-1,-1,-1,-1,-1,-1,-1,-1,-1,-1,-1,-1,-1,-1,-1,-1,-1,-1,-1],"loss_changes":[1.11177576E8,1.6325256E7,1.9802368E7,2.268828E6,1.949624E6,2.681416E6,2.710048E6,7.17036E5,4.78076E5,2.167365E5,3.0720425E5,3.9040738E5,2.89206E5,3.56454E5,4.27612E5,1.667718E6,3.00288E5,2.95216E5,2.6568094E5,6.74935E4,8.546225E4,1.24142375E5,9.18643E4,1.6695178E5,1.0318425E5,8.5547E4,5.81795E4,6.4148E4,3.0268E4,5.5128E4,3.0046E4,2.69612E5,5.943494E5,4.57576E5,1.1184E5,6.0815E4,5.0226E4,5.503801E5,2.4908188E4,3.25685E4,1.3790125E5,2.2185125E4,1.7052612E5,3.354825E4,2.716168E5,3.4080234E4,1.5717997E5,7.569144E4,2.1451925E5,4.3532812E4,1.25139625E5,2.362875E4,1.062885E5,2.68975E4,8.25105E4,3.38525E4,1.65365E4,3.51665E4,6.2232E4,2.2856E4,1.8998E4,1.19715E4,1.1096E4,0E0,0E0,0E0,0E0,0E0,0E0,0E0,0E0,0E0,0E0,0E0,0E0,0E0,0E0,0E0,0E0,0E0,0E0,0E0,0E0,0E0,0E0,0E0,0E0,0E0,0E0,0E0,0E0,0E0,0E0,0E0,0E0,0E0,0E0,0E0,0E0,0E0,0E0,0E0,0E0,0E0,0E0,0E0,0E0,0E0,0E0,0E0,0E0,0E0,0E0,0E0,0E0,0E0,0E0,0E0,0E0,0E0,0E0,0E0,0E0,0E0,0E0,0E0,0E0],"parents":[2147483647,0,0,1,1,2,2,3,3,4,4,5,5,6,6,7,7,8,8,9,9,10,10,11,11,12,12,13,13,14,14,15,15,16,16,17,17,18,18,19,19,20,20,21,21,22,22,23,23,24,24,25,25,26,26,27,27,28,28,29,29,30,30,31,31,32,32,33,33,34,34,35,35,36,36,37,37,38,38,39,39,40,40,41,41,42,42,43,43,44,44,45,45,46,46,47,47,48,48,49,49,50,50,51,51,52,52,53,53,54,54,55,55,56,56,57,57,58,58,59,59,60,60,61,61,62,62],"right_children":[2,4,6,8,10,12,14,16,18,20,22,24,26,28,30,32,34,36,38,40,42,44,46,48,50,52,54,56,58,60,62,64,66,68,70,72,74,76,78,80,82,84,86,88,90,92,94,96,98,100,102,104,106,108,110,112,114,116,118,120,122,124,126,-1,-1,-1,-1,-1,-1,-1,-1,-1,-1,-1,-1,-1,-1,-1,-1,-1,-1,-1,-1,-1,-1,-1,-1,-1,-1,-1,-1,-1,-1,-1,-1,-1,-1,-1,-1,-1,-1,-1,-1,-1,-1,-1,-1,-1,-1,-1,-1,-1,-1,-1,-1,-1,-1,-1,-1,-1,-1,-1,-1,-1,-1,-1,-1],"split_conditions":[4.6892056E1,2.6776365E1,6.901272E1,1.376025E1,3.6550816E1,5.804799E1,8.185485E1,7E0,2.6719069E1,3.1824974E1,4.259325E1,5.296116E1,6.3714523E1,7.5679276E1,9.191228E1,6E0,5E0,2.1077385E1,7E0,6E0,6E0,6E0,6E0,6E0,6E0,6E0,6E0,7.300335E1,6E0,8.7175514E1,9.609001E1,8E0,2.3590693E1,4E0,6.8955917E0,5E0,6E0,6E0,1.7395035E1,2.7658543E1,7E0,1.7853603E1,7E0,1.7379818E1,7E0,1.7988352E1,7E0,1.5894773E1,7E0,1.6962502E1,7E0,1.6293705E1,7E0,6.2752563E1,7E0,6E0,6E0,5E0,7E0,5E0,6E0,5E0,6E0,-2.1352758E0,-1.5559503E0,-1.1032519E0,3.0270272E-1,-1.9480804E0,-1.327392E0,-2.2518814E0,-1.9174632E0,-1.190803E0,-1.3849047E0,-1.1506108E0,-9.8504794E-1,-7.6747555E-1,9.111452E-1,-1.5430645E0,-1.0070409E0,-9.1613656E-1,-5.0136622E-2,-3.007327E-1,-7.996476E-1,-7.4726355E-1,-5.995317E-1,-1.1601868E-2,-5.623352E-1,-4.9576864E-1,-3.4907278E-1,2.7245545E-1,-3.1774142E-1,-2.3820527E-1,-6.0667273E-2,4.539023E-1,-6.205017E-2,-8.264699E-2,1.3309836E-1,6.994768E-1,1.8922317E-1,2.5318986E-1,4.432424E-1,8.937454E-1,4.560065E-1,5.291683E-1,6.669629E-1,1.0990708E0,7.0548505E-1,8.889533E-1,6.325447E-1,1.3252527E0,9.5610905E-1,1.0821823E0,1.2455355E0,1.2688255E0,1.4181027E0,2.2020204E0,1.4573463E0,1.8500668E0,1.5283524E0,2.237209E0,1.791144E0,1.8995707E0,2.0783098E0,2.5314407E0,2.1591518E0,2.2854877E0,2.4396484E0],"split_indices":[6,6,6,6,6,6,6,5,9,6,6,6,6,6,6,5,4,6,5,5,5,5,5,5,5,5,5,6,5,6,6,4,9,4,6,4,5,5,6,9,5,9,5,9,5,9,5,9,5,9,5,9,5,7,5,5,5,5,5,5,5,5,5,0,0,0,0,0,0,0,0,0,0,0,0,0,0,0,0,0,0,0,0,0,0,0,0,0,0,0,0,0,0,0,0,0,0,0,0,0,0,0,0,0,0,0,0,0,0,0,0,0,0,0,0,0,0,0,0,0,0,0,0,0,0,0,0],"split_type":[0,0,0,0,0,0,0,0,0,0,0,0,0,0,0,0,0,0,0,0,0,0,0,0,0,0,0,0,0,0,0,0,0,0,0,0,0,0,0,0,0,0,0,0,0,0,0,0,0,0,0,0,0,0,0,0,0,0,0,0,0,0,0,0,0,0,0,0,0,0,0,0,0,0,0,0,0,0,0,0,0,0,0,0,0,0,0,0,0,0,0,0,0,0,0,0,0,0,0,0,0,0,0,0,0,0,0,0,0,0,0,0,0,0,0,0,0,0,0,0,0,0,0,0,0,0,0],"sum_hessian":[3.31709E5,1.72212E5,1.59497E5,8.0339E4,9.1873E4,9.688E4,6.2617E4,3.7623E4,4.2716E4,4.009E4,5.1783E4,5.4161E4,4.2719E4,3.6218E4,2.6399E4,1.4937E4,2.2686E4,3.9348E4,3.368E3,1.9404E4,2.0686E4,2.978E4,2.2003E4,3.0883E4,2.3278E4,2.3308E4,1.9411E4,2.0689E4,1.5529E4,1.682E4,9.579E3,1.1924E4,3.013E3,1.2315E4,1.0371E4,2.057E4,1.8778E4,2.463E3,9.05E2,9.208E3,1.0196E4,1.0273E4,1.0413E4,1.5637E4,1.4143E4,1.186E4,1.0143E4,1.7037E4,1.3846E4,1.2652E4,1.0626E4,1.2607E4,1.0701E4,1.024E4,9.171E3,1.294E4,7.749E3,7.766E3,7.763E3,1.0365E4,6.455E3,3.887E3,5.692E3,2.57E3,9.354E3,1.429E3,1.584E3,7.281E3,5.034E3,4.429E3,5.942E3,5.614E3,1.4956E4,8.215E3,1.0563E4,1.793E3,6.7E2,5.13E2,3.92E2,9.098E3,1.1E2,1.655E3,8.541E3,5.394E3,4.879E3,1.675E3,8.738E3,8.068E3,7.569E3,2.334E3,1.1809E4,7.691E3,4.169E3,1.792E3,8.351E3,6.699E3,1.0338E4,2.517E3,1.1329E4,7.692E3,4.96E3,2.016E3,8.61E3,6.838E3,5.769E3,2.151E3,8.55E3,9.074E3,1.166E3,1.925E3,7.246E3,6.89E3,6.05E3,3.991E3,3.758E3,1.65E2,7.601E3,2.091E3,5.672E3,3.12E2,1.0053E4,3.082E3,3.373E3,2.68E2,3.619E3,2.513E3,3.179E3],"tree_param":{"num_deleted":"0","num_feature":"12","num_nodes":"127","size_leaf_vector":"1"}},{"base_weights":[4.6430683E-5,-1.6737883E1,1.8072304E1,-2.6629196E1,-8.088158E0,9.5618925E0,3.1239113E1,-3.200915E1,-2.189005E1,-1.3061852E1,-4.2373834E0,4.875028E0,1.4895622E1,2.5901697E1,3.85605E1,-2.689332E1,-3.5376205E1,-2.2819939E1,-1.1022716E1,-1.5343152E1,-1.0921297E1,-6.680569E0,-2.024992E0,2.9084432E0,7.810885E0,1.2216648E1,1.7424755E1,2.33162E1,2.9344582E1,3.535318E1,4.3149597E1,-3.1938965E1,-6.921123E0,-3.2195576E1,-3.914956E1,-2.5472227E1,-2.0252186E1,-5.902531E0,-2.4935642E1,-1.7210262E1,-1.3655444E1,-1.2866281E1,-9.001412E0,-8.527747E0,-4.6581516E0,-3.836883E0,9.0511404E-2,9.1707075E-1,5.358512E0,5.973996E0,9.99771E0,1.0513527E1,1.4223603E1,1.5839879E1,1.9208916E1,2.2014475E1,2.5486824E1,2.8170815E1,3.0985603E1,3.3710484E1,3.6911037E1,4.039267E1,4.466616E1,-2.0285537E0,-1.4781612E0,-1.0481279E0,2.8757706E-1,-1.8506898E0,-1.2610354E0,-2.1261492E0,-1.8110026E0,-1.1387411E0,-1.3249825E0,-1.102095E0,-9.430545E-1,-7.291232E-1,8.656559E-1,-1.5177997E0,-1.0083983E0,-8.7033474E-1,-4.7652375E-2,-2.8570518E-1,-7.5966996E-1,-7.0990723E-1,-5.695612E-1,-1.1022191E-2,-5.342216E-1,-4.977264E-1,-3.577999E-1,2.198051E-1,-3.2224533E-1,-2.5496542E-1,-9.23819E-2,4.3441463E-1,-8.6487226E-2,-3.0842735E-2,1.7827584E-1,6.6451675E-1,1.797628E-1,2.2402339E-1,4.1191784E-1,8.3414423E-1,4.2066622E-1,4.7662947E-1,6.198498E-1,1.0168265E0,6.358686E-1,8.223282E-1,5.946813E-1,1.2424824E0,8.857586E-1,1.0280808E0,1.1832689E0,1.2054002E0,1.3472165E0,1.3366165E0,1.4799329E0,2.0883052E0,1.5403128E0,2.1694515E0,1.6478637E0,1.981552E0,1.7838053E0,2.1345153E0,1.9568567E0,2.1517024E0,2.2999682E0],"categories":[],"categories_nodes":[],"categories_segments":[],"categories_sizes":[],"default_left":[0,0,0,0,0,0,0,0,0,0,0,0,0,0,0,0,0,0,0,0,0,0,0,0,0,0,0,0,0,0,0,0,0,0,0,0,0,0,0,0,0,0,0,0,0,0,0,0,0,0,0,0,0,0,0,0,0,0,0,0,0,0,0,0,0,0,0,0,0,0,0,0,0,0,0,0,0,0,0,0,0,0,0,0,0,0,0,0,0,0,0,0,0,0,0,0,0,0,0,0,0,0,0,0,0,0,0,0,0,0,0,0,0,0,0,0,0,0,0,0,0,0,0,0,0,0,0],"id":1,"left_children":[1,3,5,7,9,11,13,15,17,19,21,23,25,27,29,31,33,35,37,39,41,43,45,47,49,51,53,55,57,59,61,63,65,67,69,71,73,75,77,79,81,83,85,87,89,91,93,95,97,99,101,103,105,107,109,111,113,115,117,119,121,123,125,-1,-1,-1,-1,-1,-1,-1,-1,-1,-1,-1,-1,-1,-1,-1,-1,-1,-1,-1,-1,-1,-1,-1,-1,-1,-1,-1,-1,-1,-1,-1,-1,-1,-1,-1,-1,-1,-1,-1,-1,-1,-1,-1,-1,-1,-1,-1,-1,-1,-1,-1,-1,-1,-1,-1,-1,-1,-1,-1,-1,-1,-1,-1,-1],"loss_changes":[1.0033998E8,1.4733836E7,1.7872248E7,2.04768E6,1.7595685E6,2.421803E6,2.445948E6,6.47128E5,4.3142E5,1.95607E5,2.7989356E5,2.9771675E5,3.06805E5,3.21722E5,3.87048E5,1.50512E6,2.71022E5,2.67468E5,2.3984944E5,6.0913E4,7.713225E4,9.189E4,1.04171445E5,1.5067812E5,8.3035E4,7.507575E4,6.5597E4,5.79E4,2.904E4,3.8536E4,4.3584E4,2.43355E5,5.3643894E5,4.12964E5,1.00961E5,5.3028E4,4.93725E4,4.9677375E5,2.2801062E4,2.939175E4,1.24453375E5,2.0022375E4,1.5390131E5,2.5098188E4,1.9010055E5,3.6753125E4,1.962524E5,6.921939E4,1.9361403E5,3.7992406E4,9.986831E4,2.18845E4,9.2736875E4,2.936725E4,9.189825E4,3.05525E4,1.4925E4,1.7828E4,1.1215E4,5.3813E4,2.5351E4,9.473E3,1.3239E4,0E0,0E0,0E0,0E0,0E0,0E0,0E0,0E0,0E0,0E0,0E0,0E0,0E0,0E0,0E0,0E0,0E0,0E0,0E0,0E0,0E0,0E0,0E0,0E0,0E0,0E0,0E0,0E0,0E0,0E0,0E0,0E0,0E0,0E0,0E0,0E0,0E0,0E0,0E0,0E0,0E0,0E0,0E0,0E0,0E0,0E0,0E0,0E0,0E0,0E0,0E0,0E0,0E0,0E0,0E0,0E0,0E0,0E0,0E0,0E0,0E0,0E0,0E0,0E0],"parents":[2147483647,0,0,1,1,2,2,3,3,4,4,5,5,6,6,7,7,8,8,9,9,10,10,11,11,12,12,13,13,14,14,15,15,16,16,17,17,18,18,19,19,20,20,21,21,22,22,23,23,24,24,25,25,26,26,27,27,28,28,29,29,30,30,31,31,32,32,33,33,34,34,35,35,36,36,37,37,38,38,39,39,40,40,41,41,42,42,43,43,44,44,45,45,46,46,47,47,48,48,49,49,50,50,51,51,52,52,53,53,54,54,55,55,56,56,57,57,58,58,59,59,60,60,61,61,62,62],"right_children":[2,4,6,8,10,12,14,16,18,20,22,24,26,28,30,32,34,36,38,40,42,44,46,48,50,52,54,56,58,60,62,64,66,68,70,72,74,76,78,80,82,84,86,88,90,92,94,96,98,100,102,104,106,108,110,112,114,116,118,120,122,124,126,-1,-1,-1,-1,-1,-1,-1,-1,-1,-1,-1,-1,-1,-1,-1,-1,-1,-1,-1,-1,-1,-1,-1,-1,-1,-1,-1,-1,-1,-1,-1,-1,-1,-1,-1,-1,-1,-1,-1,-1,-1,-1,-1,-1,-1,-1,-1,-1,-1,-1,-1,-1,-1,-1,-1,-1,-1,-1,-1,-1,-1,-1,-1,-1],"split_conditions":[4.6892056E1,2.6776365E1,6.901272E1,1.376025E1,3.6550816E1,5.7460514E1,8.185485E1,7E0,2.6719069E1,3.1824974E1,4.158588E1,5.296116E1,6.2694134E1,7.5679276E1,9.083802E1,6E0,5E0,2.0703375E1,7E0,6E0,6E0,6E0,6E0,6E0,6E0,6E0,6E0,7.300335E1,7.91154E1,6E0,9.450735E1,8E0,2.3590693E1,4E0,7.32585E0,5E0,6E0,6E0,1.611813E1,2.7658543E1,7E0,1.7853603E1,7E0,1.7065134E1,7E0,1.7853603E1,7E0,1.7511272E1,7E0,1.6962502E1,7E0,1.6962502E1,7E0,6.1639484E1,7E0,6E0,6E0,6E0,5E0,5E0,7E0,8E0,6E0,-2.0285537E0,-1.4781612E0,-1.0481279E0,2.8757706E-1,-1.8506898E0,-1.2610354E0,-2.1261492E0,-1.8110026E0,-1.1387411E0,-1.3249825E0,-1.102095E0,-9.430545E-1,-7.291232E-1,8.656559E-1,-1.5177997E0,-1.0083983E0,-8.7033474E-1,-4.7652375E-2,-2.8570518E-1,-7.5966996E-1,-7.0990723E-1,-5.695612E-1,-1.1022191E-2,-5.342216E-1,-4.977264E-1,-3.577999E-1,2.198051E-1,-3.2224533E-1,-2.5496542E-1,-9.23819E-2,4.3441463E-1,-8.6487226E-2,-3.0842735E-2,1.7827584E-1,6.6451675E-1,1.797628E-1,2.2402339E-1,4.1191784E-1,8.3414423E-1,4.2066622E-1,4.7662947E-1,6.198498E-1,1.0168265E0,6.358686E-1,8.223282E-1,5.946813E-1,1.2424824E0,8.857586E-1,1.0280808E0,1.1832689E0,1.2054002E0,1.3472165E0,1.3366165E0,1.4799329E0,2.0883052E0,1.5403128E0,2.1694515E0,1.6478637E0,1.981552E0,1.7838053E0,2.1345153E0,1.9568567E0,2.1517024E0,2.2999682E0],"split_indices":[6,6,6,6,6,6,6,5,9,6,6,6,6,6,6,5,4,6,5,5,5,5,5,5,5,5,5,6,6,5,6,4,9,4,6,4,5,5,6,9,5,9,5,9,5,9,5,9,5,9,5,9,5,7,5,5,5,5,5,5,5,4,5,0,0,0,0,0,0,0,0,0,0,0,0,0,0,0,0,0,0,0,0,0,0,0,0,0,0,0,0,0,0,0,0,0,0,0,0,0,0,0,0,0,0,0,0,0,0,0,0,0,0,0,0,0,0,0,0,0,0,0,0,0,0,0,0],"split_type":[0,0,0,0,0,0,0,0,0,0,0,0,0,0,0,0,0,0,0,0,0,0,0,0,0,0,0,0,0,0,0,0,0,0,0,0,0,0,0,0,0,0,0,0,0,0,0,0,0,0,0,0,0,0,0,0,0,0,0,0,0,0,0,0,0,0,0,0,0,0,0,0,0,0,0,0,0,0,0,0,0,0,0,0,0,0,0,0,0,0,0,0,0,0,0,0,0,0,0,0,0,0,0,0,0,0,0,0,0,0,0,0,0,0,0,0,0,0,0,0,0,0,0,0,0,0,0],"sum_hessian":[3.31709E5,1.72212E5,1.59497E5,8.0339E4,9.1873E4,9.688E4,6.2617E4,3.7623E4,4.2716E4,4.009E4,5.1783E4,5.1568E4,4.5312E4,3.6218E4,2.6399E4,1.4937E4,2.2686E4,3.9348E4,3.368E3,1.9404E4,2.0686E4,2.4607E4,2.7176E4,3.0883E4,2.0685E4,2.2007E4,2.3305E4,2.0689E4,1.5529E4,1.5544E4,1.0855E4,1.1924E4,3.013E3,1.2315E4,1.0371E4,1.9351E4,1.9997E4,2.463E3,9.05E2,9.208E3,1.0196E4,1.0273E4,1.0413E4,1.2859E4,1.1748E4,1.4638E4,1.2538E4,1.7037E4,1.3846E4,1.1244E4,9.441E3,1.1908E4,1.0099E4,1.2347E4,1.0958E4,1.294E4,7.749E3,9.064E3,6.465E3,7.577E3,7.967E3,3.862E3,6.993E3,2.57E3,9.354E3,1.429E3,1.584E3,7.281E3,5.034E3,4.814E3,5.557E3,5.344E3,1.4007E4,8.739E3,1.1258E4,1.793E3,6.7E2,4.21E2,4.84E2,9.098E3,1.1E2,1.655E3,8.541E3,5.394E3,4.879E3,1.675E3,8.738E3,6.3E3,6.559E3,1.936E3,9.812E3,8.954E3,5.684E3,2.19E3,1.0348E4,1.0789E4,6.248E3,2.517E3,1.1329E4,6.777E3,4.467E3,1.807E3,7.634E3,7.834E3,4.074E3,1.994E3,8.105E3,1.0699E4,1.648E3,2.291E3,8.667E3,6.89E3,6.05E3,3.991E3,3.758E3,4.525E3,4.539E3,1.02E2,6.363E3,5.43E2,7.034E3,2.478E3,5.489E3,1.353E3,2.509E3,3.159E3,3.834E3],"tree_param":{"num_deleted":"0","num_feature":"12","num_nodes":"127","size_leaf_vector":"1"}},{"base_weights":[8.484446E-5,-1.5415574E1,1.7715034E1,-2.4882555E1,-6.853012E0,9.827839E0,3.0108377E1,-3.0082743E1,-2.0131296E1,-1.0934992E1,-2.5364242E0,5.5255885E0,1.5027685E1,2.5414824E1,3.724322E1,-2.5292873E1,-3.329052E1,-2.0913036E1,-9.232877E0,-1.3063829E1,-8.432632E0,-4.2518773E0,-2.4890473E-1,3.4618456E0,8.302598E0,1.2814181E1,1.7681816E1,2.2500975E1,2.8324535E1,3.4714497E1,4.1983746E1,-3.0025177E1,-6.3924437E0,-3.0296432E1,-3.6819492E1,-2.312028E1,-1.7984861E1,-4.5566816E0,-2.1956764E1,-1.4900876E1,-1.1342314E1,-1.0148779E1,-6.6468167E0,-6.0018682E0,-2.2226717E0,-1.9397218E0,1.6485293E0,1.5296715E0,5.893304E0,6.5926433E0,1.0333044E1,1.1186659E1,1.4729972E1,1.6230198E1,1.9273283E1,2.121674E1,2.4212812E1,2.697161E1,3.0129086E1,3.324703E1,3.6769665E1,4.0420197E1,4.3286236E1,-1.9137554E0,-1.392475E0,-9.681277E-1,2.860218E-1,-1.7415965E0,-1.1868178E0,-1.9877294E0,-1.6698984E0,-1.0309836E0,-1.2010505E0,-9.868154E-1,-8.286008E-1,-6.42497E-1,8.6689645E-1,-1.3060435E0,-8.172064E-1,-7.533176E-1,3.0458394E-2,-1.7282733E-1,-6.4309156E-1,-5.7267827E-1,-4.2807552E-1,6.7877986E-2,-4.1080353E-1,-3.6031267E-1,-2.1977769E-1,3.5570726E-1,-2.0365958E-1,-1.5425609E-1,-2.0449827E-3,4.5577246E-1,1.0522165E-3,-4.4258177E-2,1.5802859E-1,6.5304136E-1,2.1381879E-1,2.6748866E-1,4.2901707E-1,8.369175E-1,4.416206E-1,5.849649E-1,3.595679E-1,1.0254564E0,6.6226286E-1,8.377885E-1,6.080672E-1,1.2272793E0,8.92688E-1,9.948454E-1,1.1369051E0,1.1451453E0,1.2798735E0,1.2803762E0,1.4160662E0,2.0109775E0,1.4952865E0,1.5860236E0,1.7350296E0,1.754723E0,1.9133322E0,2.3843107E0,1.9690479E0,2.0811017E0,2.2311676E0],"categories":[],"categories_nodes":[],"categories_segments":[],"categories_sizes":[],"default_left":[0,0,0,0,0,0,0,0,0,0,0,0,0,0,0,0,0,0,0,0,0,0,0,0,0,0,0,0,0,0,0,0,0,0,0,0,0,0,0,0,0,0,0,0,0,0,0,0,0,0,0,0,0,0,0,0,0,0,0,0,0,0,0,0,0,0,0,0,0,0,0,0,0,0,0,0,0,0,0,0,0,0,0,0,0,0,0,0,0,0,0,0,0,0,0,0,0,0,0,0,0,0,0,0,0,0,0,0,0,0,0,0,0,0,0,0,0,0,0,0,0,0,0,0,0,0,0],"id":2,"left_children":[1,3,5,7,9,11,13,15,17,19,21,23,25,27,29,31,33,35,37,39,41,43,45,47,49,51,53,55,57,59,61,63,65,67,69,71,73,75,77,79,81,83,85,87,89,91,93,95,97,99,101,103,105,107,109,111,113,115,117,119,121,123,125,-1,-1,-1,-1,-1,-1,-1,-1,-1,-1,-1,-1,-1,-1,-1,-1,-1,-1,-1,-1,-1,-1,-1,-1,-1,-1,-1,-1,-1,-1,-1,-1,-1,-1,-1,-1,-1,-1,-1,-1,-1,-1,-1,-1,-1,-1,-1,-1,-1,-1,-1,-1,-1,-1,-1,-1,-1,-1,-1,-1,-1,-1,-1,-1],"loss_changes":[9.058616E7,1.43774E7,1.5086728E7,2.0806E6,1.6409965E6,2.109976E6,2.00916E6,6.17056E5,3.74846E5,2.54883E5,1.7763262E5,2.9578988E5,2.50662E5,3.0637E5,2.84036E5,1.442874E6,2.53334E5,2.65046E5,1.7530408E5,8.16195E4,6.737475E4,9.184631E4,6.2242547E4,1.3911281E5,7.6332625E4,7.245025E4,4.4544E4,3.927E4,4.3411E4,4.5636E4,1.5111E4,2.30532E5,5.078753E5,3.86977E5,1.09632E5,5.2247E4,4.3368E4,3.9188575E5,1.8083375E4,3.21115E4,1.5998275E5,2.3139125E4,1.3550547E5,2.6838219E4,2.0701895E5,2.2312277E4,1.1109615E5,6.499354E4,1.5190397E5,2.9471094E4,9.652975E4,2.571425E4,9.148725E4,2.15255E4,6.884275E4,2.0326E4,1.34705E4,1.83525E4,1.62705E4,1.9037E4,1.4865E4,2.6651E4,8.164E3,0E0,0E0,0E0,0E0,0E0,0E0,0E0,0E0,0E0,0E0,0E0,0E0,0E0,0E0,0E0,0E0,0E0,0E0,0E0,0E0,0E0,0E0,0E0,0E0,0E0,0E0,0E0,0E0,0E0,0E0,0E0,0E0,0E0,0E0,0E0,0E0,0E0,0E0,0E0,0E0,0E0,0E0,0E0,0E0,0E0,0E0,0E0,0E0,0E0,0E0,0E0,0E0,0E0,0E0,0E0,0E0,0E0,0E0,0E0,0E0,0E0,0E0,0E0,0E0],"parents":[2147483647,0,0,1,1,2,2,3,3,4,4,5,5,6,6,7,7,8,8,9,9,10,10,11,11,12,12,13,13,14,14,15,15,16,16,17,17,18,18,19,19,20,20,21,21,22,22,23,23,24,24,25,25,26,26,27,27,28,28,29,29,30,30,31,31,32,32,33,33,34,34,35,35,36,36,37,37,38,38,39,39,40,40,41,41,42,42,43,43,44,44,45,45,46,46,47,47,48,48,49,49,50,50,51,51,52,52,53,53,54,54,55,55,56,56,57,57,58,58,59,59,60,60,61,61,62,62],"right_children":[2,4,6,8,10,12,14,16,18,20,22,24,26,28,30,32,34,36,38,40,42,44,46,48,50,52,54,56,58,60,62,64,66,68,70,72,74,76,78,80,82,84,86,88,90,92,94,96,98,100,102,104,106,108,110,112,114,116,118,120,122,124,126,-1,-1,-1,-1,-1,-1,-1,-1,-1,-1,-1,-1,-1,-1,-1,-1,-1,-1,-1,-1,-1,-1,-1,-1,-1,-1,-1,-1,-1,-1,-1,-1,-1,-1,-1,-1,-1,-1,-1,-1,-1,-1,-1,-1,-1,-1,-1,-1,-1,-1,-1,-1,-1,-1,-1,-1,-1,-1,-1,-1,-1,-1,-1,-1],"split_conditions":[4.789638E1,2.783697E1,6.977323E1,1.4486325E1,3.897117E1,5.8623493E1,8.307211E1,7E0,2.6719069E1,3.426108E1,4.4106403E1,5.3793285E1,6.437476E1,7.5679276E1,9.313196E1,6E0,5E0,2.263947E1,7E0,6E0,6E0,6E0,6E0,6E0,6E0,6E0,6E0,7.300335E1,7.9626434E1,8.79774E1,6E0,8E0,2.3590693E1,4E0,8.650666E0,5E0,6E0,6E0,1.866333E1,2.662977E1,7E0,1.7853603E1,7E0,1.7633423E1,7E0,1.7853603E1,7E0,1.5894773E1,7E0,1.6962502E1,7E0,6.220281E1,7E0,6.2752563E1,7E0,6E0,6E0,6E0,5E0,6E0,6E0,5E0,9.769053E1,-1.9137554E0,-1.392475E0,-9.681277E-1,2.860218E-1,-1.7415965E0,-1.1868178E0,-1.9877294E0,-1.6698984E0,-1.0309836E0,-1.2010505E0,-9.868154E-1,-8.286008E-1,-6.42497E-1,8.6689645E-1,-1.3060435E0,-8.172064E-1,-7.533176E-1,3.0458394E-2,-1.7282733E-1,-6.4309156E-1,-5.7267827E-1,-4.2807552E-1,6.7877986E-2,-4.1080353E-1,-3.6031267E-1,-2.1977769E-1,3.5570726E-1,-2.0365958E-1,-1.5425609E-1,-2.0449827E-3,4.5577246E-1,1.0522165E-3,-4.4258177E-2,1.5802859E-1,6.5304136E-1,2.1381879E-1,2.6748866E-1,4.2901707E-1,8.369175E-1,4.416206E-1,5.849649E-1,3.595679E-1,1.0254564E0,6.6226286E-1,8.377885E-1,6.080672E-1,1.2272793E0,8.92688E-1,9.948454E-1,1.1369051E0,1.1451453E0,1.2798735E0,1.2803762E0,1.4160662E0,2.0109775E0,1.4952865E0,1.5860236E0,1.7350296E0,1.754723E0,1.9133322E0,2.3843107E0,1.9690479E0,2.0811017E0,2.2311676E0],"split_indices":[6,6,6,6,6,6,6,5,9,6,6,6,6,6,6,5,4,6,5,5,5,5,5,5,5,5,5,6,6,6,5,4,9,4,6,4,5,5,6,9,5,9,5,9,5,9,5,9,5,9,5,7,5,7,5,5,5,5,5,5,5,5,6,0,0,0,0,0,0,0,0,0,0,0,0,0,0,0,0,0,0,0,0,0,0,0,0,0,0,0,0,0,0,0,0,0,0,0,0,0,0,0,0,0,0,0,0,0,0,0,0,0,0,0,0,0,0,0,0,0,0,0,0,0,0,0,0],"split_type":[0,0,0,0,0,0,0,0,0,0,0,0,0,0,0,0,0,0,0,0,0,0,0,0,0,0,0,0,0,0,0,0,0,0,0,0,0,0,0,0,0,0,0,0,0,0,0,0,0,0,0,0,0,0,0,0,0,0,0,0,0,0,0,0,0,0,0,0,0,0,0,0,0,0,0,0,0,0,0,0,0,0,0,0,0,0,0,0,0,0,0,0,0,0,0,0,0,0,0,0,0,0,0,0,0,0,0,0,0,0,0,0,0,0,0,0,0,0,0,0,0,0,0,0,0,0,0],"sum_hessian":[3.31709E5,1.77365E5,1.54344E5,8.4233E4,9.3132E4,9.432E4,6.0024E4,4.0214E4,4.4019E4,4.7866E4,4.5266E4,5.1616E4,4.2704E4,3.6209E4,2.3815E4,1.6133E4,2.4081E4,4.1072E4,2.947E3,2.5861E4,2.2005E4,2.5867E4,1.9399E4,2.9612E4,2.2004E4,2.3288E4,1.9416E4,1.8096E4,1.8113E4,1.5536E4,8.279E3,1.2902E4,3.231E3,1.3033E4,1.1048E4,2.3415E4,1.7657E4,2.156E3,7.91E2,1.2507E4,1.3354E4,1.1219E4,1.0786E4,1.3888E4,1.1979E4,1.0258E4,9.141E3,1.6501E4,1.3111E4,1.1947E4,1.0057E4,1.2595E4,1.0693E4,1.016E4,9.256E3,1.0347E4,7.749E3,1.0361E4,7.752E3,9.074E3,6.462E3,3.777E3,4.502E3,2.689E3,1.0213E4,1.56E3,1.671E3,7.703E3,5.33E3,5.941E3,5.107E3,6.207E3,1.7208E4,7.878E3,9.779E3,1.564E3,5.92E2,4.52E2,3.39E2,1.2375E4,1.32E2,2.158E3,1.1196E4,6.154E3,5.065E3,1.768E3,9.018E3,7.935E3,5.953E3,1.981E3,9.998E3,6.398E3,3.86E3,1.635E3,7.506E3,6.652E3,9.849E3,2.412E3,1.0699E4,7.353E3,4.594E3,1.907E3,8.15E3,1.1161E4,1.434E3,2.183E3,8.51E3,8.995E3,1.165E3,1.96E3,7.296E3,5.548E3,4.799E3,3.991E3,3.758E3,5.163E3,5.198E3,1.64E2,7.588E3,4.437E3,4.637E3,3.061E3,3.401E3,4.67E2,3.31E3,2.02E3,2.482E3],"tree_param":{"num_deleted":"0","num_feature":"12","num_nodes":"127","size_leaf_vector":"1"}},{"base_weights":[1.2903936E-4,-1.4644906E1,1.6829514E1,-2.3638624E1,-6.5103936E0,9.068514E0,2.8198195E1,-2.9421263E1,-1.9767973E1,-1.0388302E1,-2.4096062E0,5.018721E0,1.3714282E1,2.3381018E1,3.480596E1,-2.4655647E1,-3.249912E1,-2.0506765E1,-1.1862173E1,-1.3064624E1,-8.56427E0,-4.350959E0,-5.7540536E-1,2.980959E0,7.2709064E0,1.1663275E1,1.6176327E1,2.0485222E1,2.5885489E1,3.1905085E1,3.89566E1,-2.9350393E1,-6.3394604E0,-2.9618046E1,-3.595181E1,-2.3524364E1,-1.7966072E1,-6.674532E0,-2.4075773E1,-1.4725331E1,-1.1527516E1,-1.0271667E1,-6.8145E0,-6.0690937E0,-2.3797867E0,-2.1607828E0,1.2315319E0,1.1106833E0,5.3435054E0,5.6159816E0,9.240653E0,1.015045E1,1.3444441E1,1.4768692E1,1.774626E1,1.9190174E1,2.1936186E1,2.4440851E1,2.7538843E1,3.040949E1,3.332347E1,3.7006783E1,4.07184E1,-1.8480726E0,-1.3527036E0,-9.8351794E-1,2.358429E-1,-1.7048782E0,-1.1629604E0,-1.9447292E0,-1.6832768E0,-1.0491289E0,-1.2261968E0,-9.9752635E-1,-8.460914E-1,-7.1132064E-1,7.620658E-1,-1.4133116E0,-8.842886E-1,-7.449698E-1,6.110439E-3,-2.0690794E-1,-6.477342E-1,-5.757312E-1,-4.4000325E-1,4.247075E-2,-4.1542068E-1,-4.026322E-1,-2.592924E-1,3.4159184E-1,-2.0817216E-1,-1.589749E-1,-4.0677227E-3,4.1433412E-1,-1.5749184E-2,-6.4247526E-2,1.358093E-1,6.213735E-1,1.8760924E-1,2.1652186E-1,3.8041684E-1,7.661173E-1,3.907517E-1,4.5016456E-1,5.754191E-1,9.411165E-1,6.0447174E-1,7.635442E-1,5.425409E-1,1.1369156E0,8.2085484E-1,9.871832E-1,7.770538E-1,1.3480076E0,1.0199356E0,1.1558934E0,1.2896974E0,1.9332608E0,1.369121E0,1.9764576E0,1.4849983E0,1.795291E0,1.6075672E0,2.1831515E0,1.8265774E0,1.9630814E0,2.0928633E0],"categories":[],"categories_nodes":[],"categories_segments":[],"categories_sizes":[],"default_left":[0,0,0,0,0,0,0,0,0,0,0,0,0,0,0,0,0,0,0,0,0,0,0,0,0,0,0,0,0,0,0,0,0,0,0,0,0,0,0,0,0,0,0,0,0,0,0,0,0,0,0,0,0,0,0,0,0,0,0,0,0,0,0,0,0,0,0,0,0,0,0,0,0,0,0,0,0,0,0,0,0,0,0,0,0,0,0,0,0,0,0,0,0,0,0,0,0,0,0,0,0,0,0,0,0,0,0,0,0,0,0,0,0,0,0,0,0,0,0,0,0,0,0,0,0,0,0],"id":3,"left_children":[1,3,5,7,9,11,13,15,17,19,21,23,25,27,29,31,33,35,37,39,41,43,45,47,49,51,53,55,57,59,61,63,65,67,69,71,73,75,77,79,81,83,85,87,89,91,93,95,97,99,101,103,105,107,109,111,113,115,117,119,121,123,125,-1,-1,-1,-1,-1,-1,-1,-1,-1,-1,-1,-1,-1,-1,-1,-1,-1,-1,-1,-1,-1,-1,-1,-1,-1,-1,-1,-1,-1,-1,-1,-1,-1,-1,-1,-1,-1,-1,-1,-1,-1,-1,-1,-1,-1,-1,-1,-1,-1,-1,-1,-1,-1,-1,-1,-1,-1,-1,-1,-1,-1,-1,-1,-1],"loss_changes":[8.1755784E7,1.2975856E7,1.361796E7,1.884792E6,1.4810208E6,1.7257375E6,1.992372E6,4.94576E5,2.94492E5,2.3356E5,1.6118566E5,2.2490112E5,2.15534E5,2.62146E5,3.16626E5,1.139781E6,2.03028E5,3.53384E5,2.732368E5,4.934975E4,8.4982625E4,7.446331E4,6.668376E4,1.13689375E5,7.5832625E4,6.26715E4,4.2637E4,3.1151E4,4.5708E4,3.1961E4,3.5785E4,1.83423E5,3.9893188E5,3.17948E5,6.1449E4,5.3071E4,5.1589E4,5.0169962E5,3.3935375E4,2.4091375E4,1.06238125E5,2.6251125E4,1.610175E5,2.0542062E4,1.6832472E5,2.6265102E4,1.1870228E5,5.524641E4,1.2811447E5,3.2374719E4,9.201825E4,1.953675E4,7.775875E4,1.998375E4,6.0485E4,1.764075E4,6.06025E4,1.79705E4,1.4687E4,4.78605E4,2.2963E4,1.474E4,7.802E3,0E0,0E0,0E0,0E0,0E0,0E0,0E0,0E0,0E0,0E0,0E0,0E0,0E0,0E0,0E0,0E0,0E0,0E0,0E0,0E0,0E0,0E0,0E0,0E0,0E0,0E0,0E0,0E0,0E0,0E0,0E0,0E0,0E0,0E0,0E0,0E0,0E0,0E0,0E0,0E0,0E0,0E0,0E0,0E0,0E0,0E0,0E0,0E0,0E0,0E0,0E0,0E0,0E0,0E0,0E0,0E0,0E0,0E0,0E0,0E0,0E0,0E0,0E0,0E0],"parents":[2147483647,0,0,1,1,2,2,3,3,4,4,5,5,6,6,7,7,8,8,9,9,10,10,11,11,12,12,13,13,14,14,15,15,16,16,17,17,18,18,19,19,20,20,21,21,22,22,23,23,24,24,25,25,26,26,27,27,28,28,29,29,30,30,31,31,32,32,33,33,34,34,35,35,36,36,37,37,38,38,39,39,40,40,41,41,42,42,43,43,44,44,45,45,46,46,47,47,48,48,49,49,50,50,51,51,52,52,53,53,54,54,55,55,56,56,57,57,58,58,59,59,60,60,61,61,62,62],"right_children":[2,4,6,8,10,12,14,16,18,20,22,24,26,28,30,32,34,36,38,40,42,44,46,48,50,52,54,56,58,60,62,64,66,68,70,72,74,76,78,80,82,84,86,88,90,92,94,96,98,100,102,104,106,108,110,112,114,116,118,120,122,124,126,-1,-1,-1,-1,-1,-1,-1,-1,-1,-1,-1,-1,-1,-1,-1,-1,-1,-1,-1,-1,-1,-1,-1,-1,-1,-1,-1,-1,-1,-1,-1,-1,-1,-1,-1,-1,-1,-1,-1,-1,-1,-1,-1,-1,-1,-1,-1,-1,-1,-1,-1,-1,-1,-1,-1,-1,-1,-1,-1,-1,-1,-1,-1,-1],"split_conditions":[4.789638E1,2.783697E1,6.901272E1,1.2498675E1,3.897117E1,5.804799E1,8.185485E1,7E0,2.6719069E1,3.276903E1,4.337172E1,5.296116E1,6.3714523E1,7.428509E1,9.083802E1,6E0,5E0,2.031246E1,7E0,6E0,6E0,6E0,6E0,6E0,6E0,6E0,6E0,6E0,7.807632E1,6E0,9.609001E1,8E0,2.3590693E1,4E0,6.4773765E0,5E0,2.303721E1,6E0,1.611813E1,2.662977E1,7E0,1.7853603E1,7E0,1.5894773E1,7E0,1.8005241E1,7E0,1.5894773E1,7E0,1.6962502E1,7E0,1.6293705E1,7E0,6.2752563E1,7E0,6.2475414E1,7E0,6E0,5E0,5E0,7E0,5E0,6E0,-1.8480726E0,-1.3527036E0,-9.8351794E-1,2.358429E-1,-1.7048782E0,-1.1629604E0,-1.9447292E0,-1.6832768E0,-1.0491289E0,-1.2261968E0,-9.9752635E-1,-8.460914E-1,-7.1132064E-1,7.620658E-1,-1.4133116E0,-8.842886E-1,-7.449698E-1,6.110439E-3,-2.0690794E-1,-6.477342E-1,-5.757312E-1,-4.4000325E-1,4.247075E-2,-4.1542068E-1,-4.026322E-1,-2.592924E-1,3.4159184E-1,-2.0817216E-1,-1.589749E-1,-4.0677227E-3,4.1433412E-1,-1.5749184E-2,-6.4247526E-2,1.358093E-1,6.213735E-1,1.8760924E-1,2.1652186E-1,3.8041684E-1,7.661173E-1,3.907517E-1,4.5016456E-1,5.754191E-1,9.411165E-1,6.0447174E-1,7.635442E-1,5.425409E-1,1.1369156E0,8.2085484E-1,9.871832E-1,7.770538E-1,1.3480076E0,1.0199356E0,1.1558934E0,1.2896974E0,1.9332608E0,1.369121E0,1.9764576E0,1.4849983E0,1.795291E0,1.6075672E0,2.1831515E0,1.8265774E0,1.9630814E0,2.0928633E0],"split_indices":[6,6,6,6,6,6,6,5,9,6,6,6,6,6,6,5,4,6,5,5,5,5,5,5,5,5,5,5,6,5,6,4,9,4,6,4,6,5,6,9,5,9,5,9,5,9,5,9,5,9,5,9,5,7,5,7,5,5,5,5,5,5,5,0,0,0,0,0,0,0,0,0,0,0,0,0,0,0,0,0,0,0,0,0,0,0,0,0,0,0,0,0,0,0,0,0,0,0,0,0,0,0,0,0,0,0,0,0,0,0,0,0,0,0,0,0,0,0,0,0,0,0,0,0,0,0,0],"split_type":[0,0,0,0,0,0,0,0,0,0,0,0,0,0,0,0,0,0,0,0,0,0,0,0,0,0,0,0,0,0,0,0,0,0,0,0,0,0,0,0,0,0,0,0,0,0,0,0,0,0,0,0,0,0,0,0,0,0,0,0,0,0,0,0,0,0,0,0,0,0,0,0,0,0,0,0,0,0,0,0,0,0,0,0,0,0,0,0,0,0,0,0,0,0,0,0,0,0,0,0,0,0,0,0,0,0,0,0,0,0,0,0,0,0,0,0,0,0,0,0,0,0,0,0,0,0,0],"sum_hessian":[3.31709E5,1.77365E5,1.54344E5,8.4233E4,9.3132E4,9.1727E4,6.2617E4,3.3772E4,5.0461E4,4.7866E4,4.5266E4,4.9008E4,4.2719E4,3.6218E4,2.6399E4,1.3256E4,2.0516E4,4.6147E4,4.314E3,1.9398E4,2.8468E4,2.199E4,2.3276E4,2.573E4,2.3278E4,2.3308E4,1.9411E4,1.6801E4,1.9417E4,1.5544E4,1.0855E4,1.0551E4,2.705E3,1.1189E4,9.327E3,2.109E4,2.5057E4,3.029E3,1.285E3,9.32E3,1.0078E4,1.4406E4,1.4062E4,1.1748E4,1.0242E4,1.2398E4,1.0878E4,1.4362E4,1.1368E4,1.2652E4,1.0626E4,1.2607E4,1.0701E4,1.024E4,9.171E3,8.885E3,7.916E3,1.0371E4,9.046E3,7.577E3,7.967E3,5.163E3,5.692E3,2.442E3,8.109E3,1.226E3,1.479E3,6.562E3,4.627E3,4.071E3,5.256E3,5.959E3,1.5131E4,8.633E3,1.6424E4,2.253E3,7.76E2,7.74E2,5.11E2,9.212E3,1.08E2,1.632E3,8.446E3,7.806E3,6.6E3,2.294E3,1.1768E4,3.617E3,8.131E3,1.661E3,8.581E3,8.321E3,4.077E3,1.955E3,8.923E3,5.763E3,8.599E3,2.084E3,9.284E3,7.692E3,4.96E3,2.016E3,8.61E3,6.838E3,5.769E3,2.151E3,8.55E3,9.074E3,1.166E3,1.925E3,7.246E3,7.711E3,1.174E3,1.851E3,6.065E3,5.253E3,5.118E3,1.22E2,8.924E3,5.43E2,7.034E3,2.478E3,5.489E3,3.38E2,4.825E3,2.513E3,3.179E3],"tree_param":{"num_deleted":"0","num_feature":"12","num_nodes":"127","size_leaf_vector":"1"}},{"base_weights":[1.6226042E-4,-1.4354573E1,1.5499241E1,-2.2838945E1,-6.9351854E0,7.6929193E0,2.605565E1,-2.795051E1,-1.913134E1,-1.121557E1,-3.621192E0,3.6182632E0,1.1640979E1,2.1389732E1,3.280829E1,-2.3423164E1,-3.0874477E1,-1.9910192E1,-1.1371498E1,-1.332844E1,-9.470324E0,-5.9485526E0,-1.898484E0,1.9283828E0,5.6745844E0,9.417991E0,1.3863373E1,1.8390297E1,2.386322E1,2.9809029E1,3.6641136E1,-2.7883177E1,-6.0227647E0,-2.8137398E1,-3.415461E1,-2.2851248E1,-1.7849224E1,-6.3939333E0,-2.3191597E1,-1.3495089E1,1.4572718E0,-1.1152028E1,-7.801183E0,-7.5198073E0,-4.233377E0,-3.463168E0,-7.771583E-2,7.922949E-1,4.430935E0,1.2108941E1,4.2150435E0,7.932744E0,1.1179625E1,1.2474578E1,1.5446628E1,1.7148825E1,1.978922E1,2.236092E1,2.5544897E1,2.8185057E1,3.0974407E1,3.4352726E1,3.8325863E1,-1.7557068E0,-1.2850767E0,-9.458494E-1,2.1551743E-1,-1.6196473E0,-1.104825E0,-1.8375072E0,-1.5900291E0,-1.0186294E0,-1.1926146E0,-9.725596E-1,-8.320311E-1,-6.8059224E-1,7.2262865E-1,-1.3427372E0,-8.645148E-1,-7.567269E-1,-6.016652E-1,-6.657733E-1,2.9966938E-1,-6.239895E-1,-4.986628E-1,-7.7073337E-3,-4.6304265E-1,-4.3999997E-1,-3.1478035E-1,1.6744824E-1,-2.860904E-1,-2.2320282E-1,-8.190048E-2,3.7160215E-1,-8.320179E-2,-2.8821638E-2,1.577759E-1,1.560195E-1,3.1934372E-1,7.4794954E-1,2.1312485E-2,1.114094E-1,2.9969856E-1,3.4544468E-1,4.8428398E-1,8.342681E-1,4.925804E-1,6.508078E-1,4.419368E-1,1.0204304E0,7.08843E-1,8.873224E-1,7.177488E-1,1.2279606E0,9.175561E-1,1.0595258E0,1.1795033E0,1.2136396E0,1.3400183E0,1.8215436E0,1.3977714E0,1.4760278E0,1.6165485E0,2.0371602E0,1.6980717E0,1.8459281E0,1.9737738E0],"categories":[],"categories_nodes":[],"categories_segments":[],"categories_sizes":[],"default_left":[0,0,0,0,0,0,0,0,0,0,0,0,0,0,0,0,0,0,0,0,0,0,0,0,0,0,0,0,0,0,0,0,0,0,0,0,0,0,0,0,0,0,0,0,0,0,0,0,0,0,0,0,0,0,0,0,0,0,0,0,0,0,0,0,0,0,0,0,0,0,0,0,0,0,0,0,0,0,0,0,0,0,0,0,0,0,0,0,0,0,0,0,0,0,0,0,0,0,0,0,0,0,0,0,0,0,0,0,0,0,0,0,0,0,0,0,0,0,0,0,0,0,0,0,0,0,0],"id":4,"left_children":[1,3,5,7,9,11,13,15,17,19,21,23,25,27,29,31,33,35,37,39,41,43,45,47,49,51,53,55,57,59,61,63,65,67,69,71,73,75,77,79,81,83,85,87,89,91,93,95,97,99,101,103,105,107,109,111,113,115,117,119,121,123,125,-1,-1,-1,-1,-1,-1,-1,-1,-1,-1,-1,-1,-1,-1,-1,-1,-1,-1,-1,-1,-1,-1,-1,-1,-1,-1,-1,-1,-1,-1,-1,-1,-1,-1,-1,-1,-1,-1,-1,-1,-1,-1,-1,-1,-1,-1,-1,-1,-1,-1,-1,-1,-1,-1,-1,-1,-1,-1,-1,-1,-1,-1,-1,-1],"loss_changes":[7.3800776E7,1.0840452E7,1.3143512E7,1.52204E6,1.3032075E6,1.4750375E6,2.135648E6,4.46358E5,2.8122E5,1.47709E5,2.0760962E5,1.5679562E5,2.299415E5,2.97074E5,3.17394E5,1.028654E6,1.8324E5,2.56106E5,2.4990181E5,4.469925E4,6.1551875E4,5.9327688E4,8.478095E4,7.042338E4,1.9110694E5,6.0835625E4,5.10095E4,3.1144E4,5.4944E4,2.8553E4,4.5556E4,1.655595E5,3.6062212E5,2.8695E5,5.5824E4,4.277E4,4.7861E4,4.5039766E5,2.6751875E4,4.279E4,1.3683006E4,1.6991625E4,1.2305006E5,1.7958125E4,1.1889242E5,2.9230297E4,1.6387403E5,5.5113074E4,1.9805E4,1.25287375E5,5.8634125E4,2.261325E4,7.7698125E4,2.4321125E4,6.824175E4,1.5794E4,5.79735E4,1.62075E4,1.5897E4,1.1302E4,1.6879E4,1.1532E4,9.857E3,0E0,0E0,0E0,0E0,0E0,0E0,0E0,0E0,0E0,0E0,0E0,0E0,0E0,0E0,0E0,0E0,0E0,0E0,0E0,0E0,0E0,0E0,0E0,0E0,0E0,0E0,0E0,0E0,0E0,0E0,0E0,0E0,0E0,0E0,0E0,0E0,0E0,0E0,0E0,0E0,0E0,0E0,0E0,0E0,0E0,0E0,0E0,0E0,0E0,0E0,0E0,0E0,0E0,0E0,0E0,0E0,0E0,0E0,0E0,0E0,0E0,0E0,0E0,0E0],"parents":[2147483647,0,0,1,1,2,2,3,3,4,4,5,5,6,6,7,7,8,8,9,9,10,10,11,11,12,12,13,13,14,14,15,15,16,16,17,17,18,18,19,19,20,20,21,21,22,22,23,23,24,24,25,25,26,26,27,27,28,28,29,29,30,30,31,31,32,32,33,33,34,34,35,35,36,36,37,37,38,38,39,39,40,40,41,41,42,42,43,43,44,44,45,45,46,46,47,47,48,48,49,49,50,50,51,51,52,52,53,53,54,54,55,55,56,56,57,57,58,58,59,59,60,60,61,61,62,62],"right_children":[2,4,6,8,10,12,14,16,18,20,22,24,26,28,30,32,34,36,38,40,42,44,46,48,50,52,54,56,58,60,62,64,66,68,70,72,74,76,78,80,82,84,86,88,90,92,94,96,98,100,102,104,106,108,110,112,114,116,118,120,122,124,126,-1,-1,-1,-1,-1,-1,-1,-1,-1,-1,-1,-1,-1,-1,-1,-1,-1,-1,-1,-1,-1,-1,-1,-1,-1,-1,-1,-1,-1,-1,-1,-1,-1,-1,-1,-1,-1,-1,-1,-1,-1,-1,-1,-1,-1,-1,-1,-1,-1,-1,-1,-1,-1,-1,-1,-1,-1,-1,-1,-1,-1,-1,-1,-1],"split_conditions":[4.6892056E1,2.6776365E1,6.752886E1,1.2498675E1,3.6550816E1,5.603052E1,8.12701E1,7E0,2.6719069E1,3.1508295E1,4.107054E1,6E0,6.142038E1,7.300335E1,8.982918E1,6E0,5E0,1.9069574E1,7E0,2.7658543E1,6E0,6E0,6E0,5.296116E1,7E0,6E0,6E0,6E0,7.710349E1,8.4355E1,9.450735E1,8E0,2.0644669E1,4E0,6.8955917E0,5E0,6E0,6E0,1.611813E1,6E0,1.4E1,1.7379818E1,7E0,1.7065134E1,7E0,1.7988352E1,7E0,1.7511272E1,1.6964493E1,1.9E1,5.09628E1,1.6929491E1,7E0,6.1639484E1,7E0,5.9725826E1,7E0,6E0,6E0,5E0,6E0,5E0,6E0,-1.7557068E0,-1.2850767E0,-9.458494E-1,2.1551743E-1,-1.6196473E0,-1.104825E0,-1.8375072E0,-1.5900291E0,-1.0186294E0,-1.1926146E0,-9.725596E-1,-8.320311E-1,-6.8059224E-1,7.2262865E-1,-1.3427372E0,-8.645148E-1,-7.567269E-1,-6.016652E-1,-6.657733E-1,2.9966938E-1,-6.239895E-1,-4.986628E-1,-7.7073337E-3,-4.6304265E-1,-4.3999997E-1,-3.1478035E-1,1.6744824E-1,-2.860904E-1,-2.2320282E-1,-8.190048E-2,3.7160215E-1,-8.320179E-2,-2.8821638E-2,1.577759E-1,1.560195E-1,3.1934372E-1,7.4794954E-1,2.1312485E-2,1.114094E-1,2.9969856E-1,3.4544468E-1,4.8428398E-1,8.342681E-1,4.925804E-1,6.508078E-1,4.419368E-1,1.0204304E0,7.08843E-1,8.873224E-1,7.177488E-1,1.2279606E0,9.175561E-1,1.0595258E0,1.1795033E0,1.2136396E0,1.3400183E0,1.8215436E0,1.3977714E0,1.4760278E0,1.6165485E0,2.0371602E0,1.6980717E0,1.8459281E0,1.9737738E0],"split_indices":[6,6,6,6,6,6,6,5,9,6,6,5,6,6,6,5,4,6,5,9,5,5,5,6,5,5,5,5,6,6,6,4,9,4,6,4,5,5,6,5,4,9,5,9,5,9,5,9,9,4,6,9,5,7,5,7,5,5,5,5,5,5,5,0,0,0,0,0,0,0,0,0,0,0,0,0,0,0,0,0,0,0,0,0,0,0,0,0,0,0,0,0,0,0,0,0,0,0,0,0,0,0,0,0,0,0,0,0,0,0,0,0,0,0,0,0,0,0,0,0,0,0,0,0,0,0,0],"split_type":[0,0,0,0,0,0,0,0,0,0,0,0,0,0,0,0,0,0,0,0,0,0,0,0,0,0,0,0,0,0,0,0,0,0,0,0,0,0,0,0,0,0,0,0,0,0,0,0,0,0,0,0,0,0,0,0,0,0,0,0,0,0,0,0,0,0,0,0,0,0,0,0,0,0,0,0,0,0,0,0,0,0,0,0,0,0,0,0,0,0,0,0,0,0,0,0,0,0,0,0,0,0,0,0,0,0,0,0,0,0,0,0,0,0,0,0,0,0,0,0,0,0,0,0,0,0,0],"sum_hessian":[3.31709E5,1.72212E5,1.59497E5,8.0339E4,9.1873E4,9.1693E4,6.7804E4,3.3772E4,4.6567E4,4.009E4,5.1783E4,4.5124E4,4.6569E4,4.01E4,2.7704E4,1.3256E4,2.0516E4,4.2318E4,4.249E3,1.8132E4,2.1958E4,2.2025E4,2.9758E4,2.477E4,2.0354E4,2.3284E4,2.3285E4,1.8127E4,2.1973E4,1.5547E4,1.2157E4,1.0551E4,2.705E3,1.1189E4,9.327E3,1.7432E4,2.4886E4,2.991E3,1.258E3,1.793E4,2.02E2,1.0935E4,1.1023E4,1.1493E4,1.0532E4,1.6004E4,1.3754E4,1.7037E4,7.733E3,3.762E3,1.6592E4,1.2636E4,1.0648E4,1.2409E4,1.0876E4,9.611E3,8.516E3,1.1613E4,1.036E4,6.506E3,9.041E3,5.164E3,6.993E3,2.442E3,8.109E3,1.203E3,1.502E3,6.562E3,4.627E3,4.429E3,4.898E3,5.021E3,1.2411E4,1.0695E4,1.4191E4,2.222E3,7.69E2,7.74E2,4.84E2,8.447E3,9.483E3,4.7E1,1.55E2,5.138E3,5.797E3,1.767E3,9.256E3,5.615E3,5.878E3,1.728E3,8.804E3,1.0335E4,5.669E3,2.398E3,1.1356E4,1.0789E4,6.248E3,4.632E3,3.101E3,3.024E3,7.38E2,7.839E3,8.753E3,7.98E3,4.656E3,2.067E3,8.581E3,1.0798E4,1.611E3,2.213E3,8.663E3,7.913E3,1.698E3,1.969E3,6.547E3,5.958E3,5.655E3,5.156E3,5.204E3,1.72E2,6.334E3,4.375E3,4.666E3,2.92E2,4.872E3,3.159E3,3.834E3],"tree_param":{"num_deleted":"0","num_feature":"12","num_nodes":"127","size_leaf_vector":"1"}},{"base_weights":[1.809775E-4,-1.3219506E1,1.5191623E1,-2.087885E1,-5.4343624E0,8.540838E0,2.6012403E1,-2.5827818E1,-1.6832508E1,-8.799276E0,-2.073378E0,5.023506E0,1.3407181E1,2.2147354E1,3.2237164E1,-2.1710735E1,-2.858503E1,-1.7444197E1,-7.484873E0,-1.0588899E1,-7.0058293E0,-3.572502E0,-1.7162475E-1,3.0379462E0,7.523115E0,1.1833461E1,1.59014225E1,1.9812645E1,2.4838388E1,3.0032196E1,3.602139E1,-2.5798508E1,-5.3845496E0,-3.1790798E1,-2.5933147E1,-1.9697605E1,-1.4862454E1,-3.4158049E0,-1.8449272E1,-1.2145831E1,-9.105898E0,-8.49652E0,-5.4470043E0,-5.094816E0,-1.8000813E0,-1.6185201E0,1.452076E0,1.375452E0,5.119747E0,6.1101875E0,9.211541E0,1.0473564E1,1.3405672E1,1.4621962E1,1.730891E1,1.8359425E1,2.1086302E1,2.3653519E1,2.6220818E1,2.8958504E1,3.1908255E1,4.137584E1,3.569605E1,-1.6434788E0,-1.1966858E0,-8.3928394E-1,2.2618528E-1,-1.474608E0,-1.7344322E0,-1.1465923E0,-1.4637474E0,-1.0783083E0,-9.3304724E-1,-8.248512E-1,-6.754326E-1,-5.2541226E-1,7.621231E-1,-1.0487893E0,-5.189256E-1,-6.133733E-1,1.9938363E-2,-1.1490851E-1,-5.2053124E-1,-5.197919E-1,-3.8537097E-1,6.9389366E-2,-3.4009564E-1,-3.0749932E-1,-1.8418044E-1,3.1667045E-1,-1.7053267E-1,-1.7314821E-1,-3.361994E-2,3.9058793E-1,3.2958668E-3,1.8908307E-3,1.8947802E-1,5.616651E-1,1.8692642E-1,2.686124E-1,4.3314385E-1,7.3278207E-1,3.970498E-1,5.458017E-1,3.41755E-1,9.1078347E-1,6.079876E-1,7.501319E-1,5.2174234E-1,1.0766288E0,8.0573267E-1,8.6017174E-1,9.8436636E-1,9.9886316E-1,1.1124972E0,1.1228677E0,1.2420791E0,1.7296498E0,1.3012125E0,1.7957773E0,1.4348568E0,1.6969217E0,1.5416267E0,1.9152564E0,2.1589477E0,1.6836065E0,1.8588141E0],"categories":[],"categories_nodes":[],"categories_segments":[],"categories_sizes":[],"default_left":[0,0,0,0,0,0,0,0,0,0,0,0,0,0,0,0,0,0,0,0,0,0,0,0,0,0,0,0,0,0,0,0,0,0,0,0,0,0,0,0,0,0,0,0,0,0,0,0,0,0,0,0,0,0,0,0,0,0,0,0,0,0,0,0,0,0,0,0,0,0,0,0,0,0,0,0,0,0,0,0,0,0,0,0,0,0,0,0,0,0,0,0,0,0,0,0,0,0,0,0,0,0,0,0,0,0,0,0,0,0,0,0,0,0,0,0,0,0,0,0,0,0,0,0,0,0,0],"id":5,"left_children":[1,3,5,7,9,11,13,15,17,19,21,23,25,27,29,31,33,35,37,39,41,43,45,47,49,51,53,55,57,59,61,63,65,67,69,71,73,75,77,79,81,83,85,87,89,91,93,95,97,99,101,103,105,107,109,111,113,115,117,119,121,123,125,-1,-1,-1,-1,-1,-1,-1,-1,-1,-1,-1,-1,-1,-1,-1,-1,-1,-1,-1,-1,-1,-1,-1,-1,-1,-1,-1,-1,-1,-1,-1,-1,-1,-1,-1,-1,-1,-1,-1,-1,-1,-1,-1,-1,-1,-1,-1,-1,-1,-1,-1,-1,-1,-1,-1,-1,-1,-1,-1,-1,-1,-1,-1,-1],"loss_changes":[6.661623E7,1.0576058E7,1.1107472E7,1.78992E6,9.94781E5,1.6361545E6,1.412824E6,4.55888E5,2.81135E5,1.4100325E5,1.2546461E5,2.7537588E5,1.57234E5,2.27258E5,1.86694E5,1.076608E6,2.03904E5,2.68305E5,1.348078E5,5.068375E4,5.097575E4,6.6390375E4,4.5579258E4,1.0702731E5,5.854425E4,5.24425E4,2.768125E4,3.55475E4,2.6958E4,2.773E4,1.2946E4,1.69353E5,3.6517975E5,7.1569E4,1.3157E5,4.7344E4,4.74005E4,2.9208594E5,1.6462031E4,1.637575E4,1.00087625E5,1.6738875E4,9.943031E4,1.9689531E4,1.4898995E5,1.790032E4,8.059105E4,5.552912E4,1.1590472E5,2.5150219E4,7.7277625E4,2.116325E4,6.811525E4,1.2805375E4,3.6884E4,1.35935E4,1.29E4,1.23405E4,1.18715E4,1.544E4,1.024E4,9.373125E2,2.2156E4,0E0,0E0,0E0,0E0,0E0,0E0,0E0,0E0,0E0,0E0,0E0,0E0,0E0,0E0,0E0,0E0,0E0,0E0,0E0,0E0,0E0,0E0,0E0,0E0,0E0,0E0,0E0,0E0,0E0,0E0,0E0,0E0,0E0,0E0,0E0,0E0,0E0,0E0,0E0,0E0,0E0,0E0,0E0,0E0,0E0,0E0,0E0,0E0,0E0,0E0,0E0,0E0,0E0,0E0,0E0,0E0,0E0,0E0,0E0,0E0,0E0,0E0,0E0,0E0],"parents":[2147483647,0,0,1,1,2,2,3,3,4,4,5,5,6,6,7,7,8,8,9,9,10,10,11,11,12,12,13,13,14,14,15,15,16,16,17,17,18,18,19,19,20,20,21,21,22,22,23,23,24,24,25,25,26,26,27,27,28,28,29,29,30,30,31,31,32,32,33,33,34,34,35,35,36,36,37,37,38,38,39,39,40,40,41,41,42,42,43,43,44,44,45,45,46,46,47,47,48,48,49,49,50,50,51,51,52,52,53,53,54,54,55,55,56,56,57,57,58,58,59,59,60,60,61,61,62,62],"right_children":[2,4,6,8,10,12,14,16,18,20,22,24,26,28,30,32,34,36,38,40,42,44,46,48,50,52,54,56,58,60,62,64,66,68,70,72,74,76,78,80,82,84,86,88,90,92,94,96,98,100,102,104,106,108,110,112,114,116,118,120,122,124,126,-1,-1,-1,-1,-1,-1,-1,-1,-1,-1,-1,-1,-1,-1,-1,-1,-1,-1,-1,-1,-1,-1,-1,-1,-1,-1,-1,-1,-1,-1,-1,-1,-1,-1,-1,-1,-1,-1,-1,-1,-1,-1,-1,-1,-1,-1,-1,-1,-1,-1,-1,-1,-1,-1,-1,-1,-1,-1,-1,-1,-1,-1,-1,-1],"split_conditions":[4.789638E1,2.9202286E1,7.015124E1,1.4486325E1,3.922359E1,5.954256E1,8.369602E1,7E0,2.6719069E1,3.4550144E1,4.4106403E1,5.406576E1,6.575562E1,7.661021E1,9.313196E1,6E0,7.32585E0,2.303721E1,7E0,6E0,6E0,6E0,6E0,6E0,6E0,6E0,6E0,7.300335E1,8.0177895E1,8.888019E1,5E0,8E0,2.0033327E1,5E0,5E0,1.7810835E1,6E0,6E0,2.187339E1,2.662977E1,7E0,1.5894773E1,7E0,1.7633423E1,7E0,1.5894773E1,7E0,1.7511272E1,7E0,1.8005241E1,7E0,6.2752563E1,7E0,6.439452E1,7E0,6E0,6E0,6E0,5E0,5E0,8E0,4E0,6E0,-1.6434788E0,-1.1966858E0,-8.3928394E-1,2.2618528E-1,-1.474608E0,-1.7344322E0,-1.1465923E0,-1.4637474E0,-1.0783083E0,-9.3304724E-1,-8.248512E-1,-6.754326E-1,-5.2541226E-1,7.621231E-1,-1.0487893E0,-5.189256E-1,-6.133733E-1,1.9938363E-2,-1.1490851E-1,-5.2053124E-1,-5.197919E-1,-3.8537097E-1,6.9389366E-2,-3.4009564E-1,-3.0749932E-1,-1.8418044E-1,3.1667045E-1,-1.7053267E-1,-1.7314821E-1,-3.361994E-2,3.9058793E-1,3.2958668E-3,1.8908307E-3,1.8947802E-1,5.616651E-1,1.8692642E-1,2.686124E-1,4.3314385E-1,7.3278207E-1,3.970498E-1,5.458017E-1,3.41755E-1,9.1078347E-1,6.079876E-1,7.501319E-1,5.2174234E-1,1.0766288E0,8.0573267E-1,8.6017174E-1,9.8436636E-1,9.9886316E-1,1.1124972E0,1.1228677E0,1.2420791E0,1.7296498E0,1.3012125E0,1.7957773E0,1.4348568E0,1.6969217E0,1.5416267E0,1.9152564E0,2.1589477E0,1.6836065E0,1.8588141E0],"split_indices":[6,6,6,6,6,6,6,5,9,6,6,6,6,6,6,5,6,6,5,5,5,5,5,5,5,5,5,6,6,6,5,4,9,4,4,6,5,5,6,9,5,9,5,9,5,9,5,9,5,9,5,7,5,7,5,5,5,5,5,5,4,5,5,0,0,0,0,0,0,0,0,0,0,0,0,0,0,0,0,0,0,0,0,0,0,0,0,0,0,0,0,0,0,0,0,0,0,0,0,0,0,0,0,0,0,0,0,0,0,0,0,0,0,0,0,0,0,0,0,0,0,0,0,0,0,0,0],"split_type":[0,0,0,0,0,0,0,0,0,0,0,0,0,0,0,0,0,0,0,0,0,0,0,0,0,0,0,0,0,0,0,0,0,0,0,0,0,0,0,0,0,0,0,0,0,0,0,0,0,0,0,0,0,0,0,0,0,0,0,0,0,0,0,0,0,0,0,0,0,0,0,0,0,0,0,0,0,0,0,0,0,0,0,0,0,0,0,0,0,0,0,0,0,0,0,0,0,0,0,0,0,0,0,0,0,0,0,0,0,0,0,0,0,0,0,0,0,0,0,0,0,0,0,0,0,0,0],"sum_hessian":[3.31709E5,1.77365E5,1.54344E5,8.9404E4,8.7961E4,9.5592E4,5.8752E4,4.0214E4,4.919E4,4.3954E4,4.4007E4,5.5488E4,4.0104E4,3.6249E4,2.2503E4,1.6133E4,2.4081E4,4.6168E4,3.022E3,2.1998E4,2.1956E4,2.4608E4,1.9399E4,3.0925E4,2.4563E4,2.4593E4,1.5511E4,1.9414E4,1.6835E4,1.4224E4,8.279E3,1.2902E4,3.231E3,1.0897E4,1.3184E4,2.4648E4,2.152E4,2.205E3,8.17E2,1.0728E4,1.127E4,1.1221E4,1.0735E4,1.3237E4,1.1371E4,1.0258E4,9.141E3,1.7195E4,1.373E4,1.3375E4,1.1188E4,1.3191E4,1.1402E4,8.131E3,7.38E3,9.075E3,1.0339E4,9.075E3,7.76E3,9.057E3,5.167E3,4.67E2,7.812E3,2.689E3,1.0213E4,1.502E3,1.729E3,6.083E3,4.814E3,6.95E3,6.234E3,8.788E3,1.586E4,9.744E3,1.1776E4,1.598E3,6.07E2,6.21E2,1.96E2,1.0625E4,1.03E2,1.813E3,9.457E3,3.29E3,7.931E3,1.776E3,8.959E3,7.572E3,5.665E3,1.879E3,9.492E3,3.477E3,6.781E3,1.635E3,7.506E3,1.1065E4,6.13E3,2.529E3,1.1201E4,1.0378E4,2.997E3,2.115E3,9.073E3,1.1759E4,1.432E3,2.343E3,9.059E3,7.451E3,6.8E2,1.623E3,5.757E3,4.859E3,4.216E3,5.303E3,5.036E3,4.532E3,4.543E3,1.74E2,7.586E3,3.23E2,8.734E3,1.779E3,3.388E3,1.81E2,2.86E2,3.31E3,4.502E3],"tree_param":{"num_deleted":"0","num_feature":"12","num_nodes":"127","size_leaf_vector":"1"}},{"base_weights":[2.17459E-4,-1.2267531E1,1.4778329E1,-1.9729788E1,-4.7918696E0,8.414085E0,2.4712181E1,-2.4536657E1,-1.5900906E1,-8.135982E0,-1.6351813E0,5.0543847E0,1.273696E1,2.1040245E1,3.062593E1,-2.0625412E1,-2.715602E1,-1.646282E1,-7.105977E0,-9.906415E0,-6.560883E0,-3.0809567E0,3.5962042E-1,3.3311508E0,7.375732E0,1.1241885E1,1.5106553E1,1.8822216E1,2.3596788E1,2.8531042E1,3.422124E1,-2.4508802E1,-5.115512E0,-3.0671583E1,-2.496185E1,-1.8712805E1,-1.403082E1,-3.2468636E0,-1.7521624E1,-1.135715E1,-8.520904E0,-7.9879084E0,-5.065351E0,-4.4901514E0,-1.4486619E0,-1.037423E0,1.9496622E0,1.741497E0,5.333487E0,6.0136356E0,8.99938E0,9.949952E0,1.2735523E1,1.3891018E1,1.644372E1,1.7441656E1,2.0032192E1,2.2471102E1,2.4910168E1,2.7100882E1,2.9849012E1,3.3232502E1,3.585844E1,-1.5613353E0,-1.1368574E0,-7.790073E-1,2.3287296E-1,-1.4268367E0,-1.6689638E0,-1.1080636E0,-1.4055613E0,-1.024399E0,-8.863978E-1,-7.803027E-1,-6.359785E-1,-4.9910423E-1,7.265523E-1,-1.073506E0,-6.3661104E-1,-5.734133E-1,1.1842598E-1,-1.044563E-1,-4.8817012E-1,-4.91115E-1,-3.6151776E-1,7.422349E-2,-3.1831077E-1,-2.76707E-1,-1.5320784E-1,3.0110443E-1,-1.458551E-1,-9.896484E-2,2.8024867E-2,4.002125E-1,3.1463303E-2,-4.9847297E-2,1.4647512E-1,5.489953E-1,2.0211506E-1,2.6628393E-1,4.2223904E-1,7.074512E-1,3.8890913E-1,4.589679E-1,5.950046E-1,8.6526376E-1,5.7759166E-1,7.2177094E-1,5.614277E-1,1.0228305E0,7.6545304E-1,8.17172E-1,9.351596E-1,9.489294E-1,1.0568835E0,1.0667367E0,1.1799887E0,1.1842593E0,1.3070058E0,1.7554191E0,1.3179063E0,1.4271053E0,1.5686898E0,1.9536085E0,1.637556E0,1.7202972E0,1.8459456E0],"categories":[],"categories_nodes":[],"categories_segments":[],"categories_sizes":[],"default_left":[0,0,0,0,0,0,0,0,0,0,0,0,0,0,0,0,0,0,0,0,0,0,0,0,0,0,0,0,0,0,0,0,0,0,0,0,0,0,0,0,0,0,0,0,0,0,0,0,0,0,0,0,0,0,0,0,0,0,0,0,0,0,0,0,0,0,0,0,0,0,0,0,0,0,0,0,0,0,0,0,0,0,0,0,0,0,0,0,0,0,0,0,0,0,0,0,0,0,0,0,0,0,0,0,0,0,0,0,0,0,0,0,0,0,0,0,0,0,0,0,0,0,0,0,0,0,0],"id":6,"left_children":[1,3,5,7,9,11,13,15,17,19,21,23,25,27,29,31,33,35,37,39,41,43,45,47,49,51,53,55,57,59,61,63,65,67,69,71,73,75,77,79,81,83,85,87,89,91,93,95,97,99,101,103,105,107,109,111,113,115,117,119,121,123,125,-1,-1,-1,-1,-1,-1,-1,-1,-1,-1,-1,-1,-1,-1,-1,-1,-1,-1,-1,-1,-1,-1,-1,-1,-1,-1,-1,-1,-1,-1,-1,-1,-1,-1,-1,-1,-1,-1,-1,-1,-1,-1,-1,-1,-1,-1,-1,-1,-1,-1,-1,-1,-1,-1,-1,-1,-1,-1,-1,-1,-1,-1,-1,-1],"loss_changes":[6.0137268E7,1.011099E7,9.512154E6,1.669052E6,9.5580875E5,1.3318775E6,1.275172E6,4.1144E5,2.49414E5,1.225415E5,1.343366E5,2.06407E5,1.41911E5,2.0511E5,1.68518E5,9.71642E5,1.84996E5,2.59432E5,1.2189522E5,4.1506375E4,4.9621375E4,6.2113266E4,4.3482875E4,9.427178E4,4.856925E4,4.7332E4,2.498425E4,3.2083E4,2.4332E4,2.6003E4,1.2211E4,1.52858E5,3.3061103E5,5.2517E4,1.30205E5,4.273E4,4.6918E4,2.6536506E5,1.5233609E4,1.5443125E4,8.461725E4,1.6474188E4,9.684416E4,2.1559094E4,1.3730052E5,1.5683621E4,7.318419E4,5.3724406E4,9.552047E4,1.9956688E4,6.2953375E4,1.971525E4,6.1480875E4,1.1624875E4,3.3294625E4,1.22685E4,1.164225E4,1.11375E4,1.1074E4,3.9715E4,1.3837E4,1.32705E4,3.51225E3,0E0,0E0,0E0,0E0,0E0,0E0,0E0,0E0,0E0,0E0,0E0,0E0,0E0,0E0,0E0,0E0,0E0,0E0,0E0,0E0,0E0,0E0,0E0,0E0,0E0,0E0,0E0,0E0,0E0,0E0,0E0,0E0,0E0,0E0,0E0,0E0,0E0,0E0,0E0,0E0,0E0,0E0,0E0,0E0,0E0,0E0,0E0,0E0,0E0,0E0,0E0,0E0,0E0,0E0,0E0,0E0,0E0,0E0,0E0,0E0,0E0,0E0,0E0,0E0],"parents":[2147483647,0,0,1,1,2,2,3,3,4,4,5,5,6,6,7,7,8,8,9,9,10,10,11,11,12,12,13,13,14,14,15,15,16,16,17,17,18,18,19,19,20,20,21,21,22,22,23,23,24,24,25,25,26,26,27,27,28,28,29,29,30,30,31,31,32,32,33,33,34,34,35,35,36,36,37,37,38,38,39,39,40,40,41,41,42,42,43,43,44,44,45,45,46,46,47,47,48,48,49,49,50,50,51,51,52,52,53,53,54,54,55,55,56,56,57,57,58,58,59,59,60,60,61,61,62,62],"right_children":[2,4,6,8,10,12,14,16,18,20,22,24,26,28,30,32,34,36,38,40,42,44,46,48,50,52,54,56,58,60,62,64,66,68,70,72,74,76,78,80,82,84,86,88,90,92,94,96,98,100,102,104,106,108,110,112,114,116,118,120,122,124,126,-1,-1,-1,-1,-1,-1,-1,-1,-1,-1,-1,-1,-1,-1,-1,-1,-1,-1,-1,-1,-1,-1,-1,-1,-1,-1,-1,-1,-1,-1,-1,-1,-1,-1,-1,-1,-1,-1,-1,-1,-1,-1,-1,-1,-1,-1,-1,-1,-1,-1,-1,-1,-1,-1,-1,-1,-1,-1,-1,-1,-1,-1,-1,-1],"split_conditions":[4.865175E1,2.9533875E1,7.015124E1,1.4486325E1,3.948504E1,5.954256E1,8.369602E1,7E0,2.6719069E1,3.4550144E1,4.482282E1,5.4613335E1,6.575562E1,7.661021E1,9.313196E1,6E0,6.4773765E0,2.303721E1,7E0,6E0,6E0,6E0,6E0,6E0,6E0,6E0,6E0,7.300335E1,8.0177895E1,6E0,9.953674E1,8E0,2.3590693E1,5E0,5E0,1.7810835E1,6E0,6E0,4E0,2.7658543E1,7E0,1.5894773E1,7E0,1.7633423E1,7E0,1.7853603E1,7E0,1.5139288E1,7E0,1.8005241E1,7E0,1.7065134E1,7E0,5.9725826E1,7E0,6E0,6E0,6E0,6E0,5E0,8.79774E1,5E0,6E0,-1.5613353E0,-1.1368574E0,-7.790073E-1,2.3287296E-1,-1.4268367E0,-1.6689638E0,-1.1080636E0,-1.4055613E0,-1.024399E0,-8.863978E-1,-7.803027E-1,-6.359785E-1,-4.9910423E-1,7.265523E-1,-1.073506E0,-6.3661104E-1,-5.734133E-1,1.1842598E-1,-1.044563E-1,-4.8817012E-1,-4.91115E-1,-3.6151776E-1,7.422349E-2,-3.1831077E-1,-2.76707E-1,-1.5320784E-1,3.0110443E-1,-1.458551E-1,-9.896484E-2,2.8024867E-2,4.002125E-1,3.1463303E-2,-4.9847297E-2,1.4647512E-1,5.489953E-1,2.0211506E-1,2.6628393E-1,4.2223904E-1,7.074512E-1,3.8890913E-1,4.589679E-1,5.950046E-1,8.6526376E-1,5.7759166E-1,7.2177094E-1,5.614277E-1,1.0228305E0,7.6545304E-1,8.17172E-1,9.351596E-1,9.489294E-1,1.0568835E0,1.0667367E0,1.1799887E0,1.1842593E0,1.3070058E0,1.7554191E0,1.3179063E0,1.4271053E0,1.5686898E0,1.9536085E0,1.637556E0,1.7202972E0,1.8459456E0],"split_indices":[6,6,6,6,6,6,6,5,9,6,6,6,6,6,6,5,6,6,5,5,5,5,5,5,5,5,5,6,6,5,6,4,9,4,4,6,5,5,4,9,5,9,5,9,5,9,5,9,5,9,5,9,5,7,5,5,5,5,5,5,6,5,5,0,0,0,0,0,0,0,0,0,0,0,0,0,0,0,0,0,0,0,0,0,0,0,0,0,0,0,0,0,0,0,0,0,0,0,0,0,0,0,0,0,0,0,0,0,0,0,0,0,0,0,0,0,0,0,0,0,0,0,0,0,0,0,0],"split_type":[0,0,0,0,0,0,0,0,0,0,0,0,0,0,0,0,0,0,0,0,0,0,0,0,0,0,0,0,0,0,0,0,0,0,0,0,0,0,0,0,0,0,0,0,0,0,0,0,0,0,0,0,0,0,0,0,0,0,0,0,0,0,0,0,0,0,0,0,0,0,0,0,0,0,0,0,0,0,0,0,0,0,0,0,0,0,0,0,0,0,0,0,0,0,0,0,0,0,0,0,0,0,0,0,0,0,0,0,0,0,0,0,0,0,0,0,0,0,0,0,0,0,0,0,0,0,0],"sum_hessian":[3.31709E5,1.81249E5,1.5046E5,9.0705E4,9.0544E4,9.1708E4,5.8752E4,4.0214E4,5.0491E4,4.3966E4,4.6578E4,5.1604E4,4.0104E4,3.6249E4,2.2503E4,1.6133E4,2.4081E4,4.7458E4,3.033E3,2.0697E4,2.3269E4,2.7005E4,1.9573E4,2.9619E4,2.1985E4,2.4593E4,1.5511E4,1.9414E4,1.6835E4,1.4224E4,8.279E3,1.2902E4,3.231E3,9.249E3,1.4832E4,2.4648E4,2.281E4,2.214E3,8.19E2,1.0107E4,1.059E4,1.1905E4,1.1364E4,1.4492E4,1.2513E4,1.0419E4,9.154E3,1.6512E4,1.3107E4,1.1958E4,1.0027E4,1.3191E4,1.1402E4,8.131E3,7.38E3,9.075E3,1.0339E4,9.075E3,7.76E3,6.832E3,7.392E3,5.175E3,3.104E3,2.689E3,1.0213E4,1.56E3,1.671E3,5.178E3,4.071E3,7.855E3,6.977E3,8.788E3,1.586E4,1.0357E4,1.2453E4,1.606E3,6.08E2,4.47E2,3.72E2,1.0026E4,8.1E1,1.715E3,8.875E3,3.476E3,8.429E3,1.883E3,9.481E3,8.365E3,6.127E3,2.055E3,1.0458E4,6.555E3,3.864E3,1.638E3,7.516E3,4.996E3,1.1516E4,2.438E3,1.0669E4,9.323E3,2.635E3,1.92E3,8.107E3,9.459E3,3.732E3,2.343E3,9.059E3,6.747E3,1.384E3,1.623E3,5.757E3,4.859E3,4.216E3,5.303E3,5.036E3,4.532E3,4.543E3,3.898E3,3.862E3,5.76E2,6.256E3,3.991E3,3.401E3,3.88E2,4.787E3,1.324E3,1.78E3],"tree_param":{"num_deleted":"0","num_feature":"12","num_nodes":"127","size_leaf_vector":"1"}},{"base_weights":[2.4935653E-4,-1.280157E1,1.2783018E1,-1.9925037E1,-6.701104E0,6.1761327E0,2.2348953E1,-2.4320133E1,-1.6902107E1,-1.0229823E1,-3.821736E0,2.7360785E0,9.988055E0,1.8350126E1,2.8136162E1,-2.0320461E1,-2.69001E1,-1.7628122E1,-1.0563366E1,-1.18342705E1,-8.51738E0,-5.6108346E0,-2.3700414E0,1.3099982E0,4.4579573E0,8.167024E0,1.202057E1,1.609106E1,2.0757452E1,2.5550781E1,3.1440107E1,-2.4196608E1,-5.5167894E0,-2.45815E1,-2.970685E1,-1.9999842E1,-1.5888353E1,-5.8776174E0,-2.0874414E1,-1.2021001E1,-1.2272991E-1,-1.0022123E1,-7.036218E0,-6.92266E0,-4.2020183E0,-3.710951E0,-8.133215E-1,3.6858803E-1,3.804675E0,9.931661E0,3.209622E0,6.891897E0,9.676946E0,1.0838347E1,1.336767E1,1.5028936E1,1.728242E1,1.9599398E1,2.208207E1,2.4268719E1,2.6785372E1,2.946986E1,3.289062E1,-1.5260938E0,-1.1115618E0,-8.4415275E-1,1.7539135E-1,-1.4258202E0,-9.4372016E-1,-1.6095642E0,-1.4043086E0,-8.79107E-1,-1.0512052E0,-8.6908513E-1,-7.394783E-1,-6.0311484E-1,6.103353E-1,-1.1772383E0,-7.505018E-1,-6.709885E-1,-5.395754E-1,-1.7115515E-1,4.9510702E-1,-5.594323E-1,-4.381659E-1,-2.3833176E-2,-4.1521144E-1,-4.0406948E-1,-2.90924E-1,1.0024201E-1,-2.7120858E-1,-2.6990658E-1,-1.4573732E-1,3.0762112E-1,-1.1108619E-1,-7.756769E-2,7.818581E-2,1.4758609E-1,3.1007475E-1,6.4018095E-1,-6.810352E-2,6.6620305E-2,2.500945E-1,2.9850718E-1,4.2392746E-1,7.193871E-1,4.2670438E-1,5.6391805E-1,3.523621E-1,8.807373E-1,6.141898E-1,7.801447E-1,6.1789054E-1,1.0817436E0,7.9763174E-1,9.2963886E-1,1.031747E0,1.6528758E0,1.0975983E0,1.609848E0,1.1849068E0,1.4736449E0,1.2790335E0,1.5757625E0,1.4180846E0,1.892116E0,1.6301787E0],"categories":[],"categories_nodes":[],"categories_segments":[],"categories_sizes":[],"default_left":[0,0,0,0,0,0,0,0,0,0,0,0,0,0,0,0,0,0,0,0,0,0,0,0,0,0,0,0,0,0,0,0,0,0,0,0,0,0,0,0,0,0,0,0,0,0,0,0,0,0,0,0,0,0,0,0,0,0,0,0,0,0,0,0,0,0,0,0,0,0,0,0,0,0,0,0,0,0,0,0,0,0,0,0,0,0,0,0,0,0,0,0,0,0,0,0,0,0,0,0,0,0,0,0,0,0,0,0,0,0,0,0,0,0,0,0,0,0,0,0,0,0,0,0,0,0,0],"id":7,"left_children":[1,3,5,7,9,11,13,15,17,19,21,23,25,27,29,31,33,35,37,39,41,43,45,47,49,51,53,55,57,59,61,63,65,67,69,71,73,75,77,79,81,83,85,87,89,91,93,95,97,99,101,103,105,107,109,111,113,115,117,119,121,123,125,-1,-1,-1,-1,-1,-1,-1,-1,-1,-1,-1,-1,-1,-1,-1,-1,-1,-1,-1,-1,-1,-1,-1,-1,-1,-1,-1,-1,-1,-1,-1,-1,-1,-1,-1,-1,-1,-1,-1,-1,-1,-1,-1,-1,-1,-1,-1,-1,-1,-1,-1,-1,-1,-1,-1,-1,-1,-1,-1,-1,-1,-1,-1,-1],"loss_changes":[5.4282084E7,7.201994E6,1.048991E7,1.015376E6,9.07068E5,1.2873635E6,1.568628E6,3.20934E5,2.08295E5,1.10116E5,1.2767669E5,1.26714625E5,1.7227E5,2.17748E5,2.35852E5,7.010645E5,1.22493E5,1.67393E5,2.249285E5,4.5285E4,4.31855E4,4.0670188E4,5.6655844E4,6.62948E4,1.5971038E5,4.723125E4,3.489925E4,2.5923E4,2.93415E4,2.396E4,3.3777E4,1.197085E5,2.60295E5,2.32452E5,3.35665E4,4.22115E4,3.8223E4,3.58501E5,2.2431875E4,3.490925E4,1.0819871E4,1.40355625E4,8.137534E4,1.454125E4,8.057892E4,1.957286E4,1.2325403E5,4.7032066E4,1.5792898E4,1.4081831E5,6.4046203E4,1.9432812E4,6.041775E4,1.94795E4,4.711025E4,1.659025E4,5.60635E4,1.0421E4,1.21915E4,3.3789E4,2.48595E4,1.08135E4,8.707E3,0E0,0E0,0E0,0E0,0E0,0E0,0E0,0E0,0E0,0E0,0E0,0E0,0E0,0E0,0E0,0E0,0E0,0E0,0E0,0E0,0E0,0E0,0E0,0E0,0E0,0E0,0E0,0E0,0E0,0E0,0E0,0E0,0E0,0E0,0E0,0E0,0E0,0E0,0E0,0E0,0E0,0E0,0E0,0E0,0E0,0E0,0E0,0E0,0E0,0E0,0E0,0E0,0E0,0E0,0E0,0E0,0E0,0E0,0E0,0E0,0E0,0E0,0E0,0E0],"parents":[2147483647,0,0,1,1,2,2,3,3,4,4,5,5,6,6,7,7,8,8,9,9,10,10,11,11,12,12,13,13,14,14,15,15,16,16,17,17,18,18,19,19,20,20,21,21,22,22,23,23,24,24,25,25,26,26,27,27,28,28,29,29,30,30,31,31,32,32,33,33,34,34,35,35,36,36,37,37,38,38,39,39,40,40,41,41,42,42,43,43,44,44,45,45,46,46,47,47,48,48,49,49,50,50,51,51,52,52,53,53,54,54,55,55,56,56,57,57,58,58,59,59,60,60,61,61,62,62],"right_children":[2,4,6,8,10,12,14,16,18,20,22,24,26,28,30,32,34,36,38,40,42,44,46,48,50,52,54,56,58,60,62,64,66,68,70,72,74,76,78,80,82,84,86,88,90,92,94,96,98,100,102,104,106,108,110,112,114,116,118,120,122,124,126,-1,-1,-1,-1,-1,-1,-1,-1,-1,-1,-1,-1,-1,-1,-1,-1,-1,-1,-1,-1,-1,-1,-1,-1,-1,-1,-1,-1,-1,-1,-1,-1,-1,-1,-1,-1,-1,-1,-1,-1,-1,-1,-1,-1,-1,-1,-1,-1,-1,-1,-1,-1,-1,-1,-1,-1,-1,-1,-1,-1,-1,-1,-1,-1],"split_conditions":[4.5637306E1,2.5707676E1,6.752886E1,1.166802E1,3.567858E1,5.603052E1,8.12701E1,7E0,2.6719069E1,3.1186365E1,4.031076E1,6E0,6.171039E1,7.382876E1,8.982918E1,6E0,5E0,1.822254E1,7E0,2.662977E1,6E0,6E0,6E0,5.296116E1,7E0,6E0,6E0,6E0,7.76098E1,6E0,9.450735E1,8E0,2.3590693E1,4E0,5.6598883E0,5E0,6E0,6E0,1.611813E1,6E0,1.7E1,1.7828796E1,7E0,1.7319563E1,7E0,1.5894773E1,7E0,1.5894773E1,1.7988352E1,1.9E1,5.042856E1,1.6929491E1,7E0,6.3039333E1,7E0,5.9725826E1,7E0,6E0,5E0,5E0,7E0,8E0,5E0,-1.5260938E0,-1.1115618E0,-8.4415275E-1,1.7539135E-1,-1.4258202E0,-9.4372016E-1,-1.6095642E0,-1.4043086E0,-8.79107E-1,-1.0512052E0,-8.6908513E-1,-7.394783E-1,-6.0311484E-1,6.103353E-1,-1.1772383E0,-7.505018E-1,-6.709885E-1,-5.395754E-1,-1.7115515E-1,4.9510702E-1,-5.594323E-1,-4.381659E-1,-2.3833176E-2,-4.1521144E-1,-4.0406948E-1,-2.90924E-1,1.0024201E-1,-2.7120858E-1,-2.6990658E-1,-1.4573732E-1,3.0762112E-1,-1.1108619E-1,-7.756769E-2,7.818581E-2,1.4758609E-1,3.1007475E-1,6.4018095E-1,-6.810352E-2,6.6620305E-2,2.500945E-1,2.9850718E-1,4.2392746E-1,7.193871E-1,4.2670438E-1,5.6391805E-1,3.523621E-1,8.807373E-1,6.141898E-1,7.801447E-1,6.1789054E-1,1.0817436E0,7.9763174E-1,9.2963886E-1,1.031747E0,1.6528758E0,1.0975983E0,1.609848E0,1.1849068E0,1.4736449E0,1.2790335E0,1.5757625E0,1.4180846E0,1.892116E0,1.6301787E0],"split_indices":[6,6,6,6,6,6,6,5,9,6,6,5,6,6,6,5,4,6,5,9,5,5,5,6,5,5,5,5,6,5,6,4,9,4,6,4,5,5,6,5,4,9,5,9,5,9,5,9,9,4,6,9,5,7,5,7,5,5,5,5,5,4,5,0,0,0,0,0,0,0,0,0,0,0,0,0,0,0,0,0,0,0,0,0,0,0,0,0,0,0,0,0,0,0,0,0,0,0,0,0,0,0,0,0,0,0,0,0,0,0,0,0,0,0,0,0,0,0,0,0,0,0,0,0,0,0,0],"split_type":[0,0,0,0,0,0,0,0,0,0,0,0,0,0,0,0,0,0,0,0,0,0,0,0,0,0,0,0,0,0,0,0,0,0,0,0,0,0,0,0,0,0,0,0,0,0,0,0,0,0,0,0,0,0,0,0,0,0,0,0,0,0,0,0,0,0,0,0,0,0,0,0,0,0,0,0,0,0,0,0,0,0,0,0,0,0,0,0,0,0,0,0,0,0,0,0,0,0,0,0,0,0,0,0,0,0,0,0,0,0,0,0,0,0,0,0,0,0,0,0,0,0,0,0,0,0,0],"sum_hessian":[3.31709E5,1.65731E5,1.65978E5,7.6454E4,8.9277E4,9.8174E4,6.7804E4,3.1153E4,4.5301E4,4.0114E4,4.9163E4,5.1605E4,4.6569E4,4.01E4,2.7704E4,1.2219E4,1.8934E4,4.0644E4,4.657E3,2.0707E4,1.9407E4,2.2021E4,2.7142E4,2.8228E4,2.3377E4,2.4565E4,2.2004E4,2.0691E4,1.9409E4,1.5547E4,1.2157E4,9.683E3,2.536E3,1.0374E4,8.56E3,1.7194E4,2.345E4,3.203E3,1.454E3,2.0382E4,3.25E2,9.624E3,9.783E3,1.1401E4,1.062E4,1.4581E4,1.2561E4,2.0495E4,7.733E3,4.34E3,1.9037E4,1.3321E4,1.1244E4,1.1724E4,1.028E4,1.0946E4,9.745E3,1.0364E4,9.045E3,7.637E3,7.91E3,5.164E3,6.993E3,2.292E3,7.391E3,1.122E3,1.414E3,6.138E3,4.236E3,3.372E3,5.188E3,5.122E3,1.2072E4,9.934E3,1.3516E4,2.387E3,8.16E2,9.97E2,4.57E2,9.53E3,1.0852E4,2.45E2,8E1,4.991E3,4.633E3,1.585E3,8.198E3,5.56E3,5.841E3,1.747E3,8.873E3,4.673E3,9.908E3,2.112E3,1.0449E4,7.863E3,1.2632E4,5.705E3,2.028E3,3.46E3,8.8E2,9.299E3,9.738E3,8.429E3,4.892E3,2.193E3,9.051E3,1.0503E4,1.221E3,2.087E3,8.193E3,9.006E3,1.94E3,2.277E3,7.468E3,5.265E3,5.099E3,1.03E2,8.942E3,5.09E2,7.128E3,2.441E3,5.469E3,1.805E3,3.359E3,3.76E2,6.617E3],"tree_param":{"num_deleted":"0","num_feature":"12","num_nodes":"127","size_leaf_vector":"1"}},{"base_weights":[2.6137574E-4,-1.1075851E1,1.3342892E1,-1.7811152E1,-4.328454E0,7.596921E0,2.2311691E1,-2.2159098E1,-1.4347821E1,-7.430202E0,-1.5658568E0,4.5663514E0,1.1496309E1,1.8992302E1,2.7657654E1,-1.862063E1,-2.452881E1,-1.4858846E1,-6.349445E0,-9.029171E0,-6.0972366E0,-2.8574274E0,3.028235E-1,2.851285E0,6.454247E0,9.725179E0,1.3157991E1,1.6696665E1,2.0979591E1,2.577243E1,3.089312E1,-2.2145163E1,-4.5440063E0,-2.681633E1,-2.1666855E1,-1.7011782E1,-1.2761524E1,-2.8357325E0,-1.5833011E1,-1.0387435E1,-7.734684E0,-7.333533E0,-4.808762E0,-4.138421E0,-1.3779708E0,-9.6606755E-1,1.7470117E0,1.3910295E0,4.696197E0,5.238347E0,7.9072294E0,8.4845705E0,1.1176924E1,1.212522E1,1.4295431E1,1.5701293E1,1.7799276E1,1.9671991E1,2.2121498E1,2.7645844E1,2.4905249E1,3.240956E1,2.9888323E1,-1.4105852E0,-1.0272644E0,-7.133232E-1,1.952678E-1,-1.2397772E0,-1.4670855E0,-9.483272E-1,-1.2310451E0,-7.44004E-1,-8.889894E-1,-7.0675796E-1,-5.812096E-1,-4.461967E-1,6.6170883E-1,-9.7737306E-1,-5.6646204E-1,-5.238203E-1,2.1070321E-1,-8.981418E-2,-4.4463548E-1,-4.177827E-1,-3.041366E-1,5.1033724E-2,-2.976668E-1,-2.567049E-1,-1.4634924E-1,2.6871446E-1,-1.3539413E-1,-9.157319E-2,2.510547E-2,3.5782054E-1,2.8365934E-2,-5.914382E-2,1.2588887E-1,4.9338418E-1,1.7499168E-1,2.297829E-1,3.7307867E-1,6.296904E-1,3.406739E-1,4.4524273E-1,2.6387095E-1,7.690266E-1,5.036269E-1,6.2653345E-1,4.4992653E-1,8.997812E-1,6.642154E-1,6.0927546E-1,8.1330293E-1,1.130689E0,8.168141E-1,1.647238E0,9.7877216E-1,1.507914E0,1.0976545E0,1.3235209E0,1.4974792E0,1.5907874E0,1.2233566E0,1.5803511E0,1.6620797E0,1.3545748E0,1.6081676E0],"categories":[],"categories_nodes":[],"categories_segments":[],"categories_sizes":[],"default_left":[0,0,0,0,0,0,0,0,0,0,0,0,0,0,0,0,0,0,0,0,0,0,0,0,0,0,0,0,0,0,0,0,0,0,0,0,0,0,0,0,0,0,0,0,0,0,0,0,0,0,0,0,0,0,0,0,0,0,0,0,0,0,0,0,0,0,0,0,0,0,0,0,0,0,0,0,0,0,0,0,0,0,0,0,0,0,0,0,0,0,0,0,0,0,0,0,0,0,0,0,0,0,0,0,0,0,0,0,0,0,0,0,0,0,0,0,0,0,0,0,0,0,0,0,0,0,0],"id":8,"left_children":[1,3,5,7,9,11,13,15,17,19,21,23,25,27,29,31,33,35,37,39,41,43,45,47,49,51,53,55,57,59,61,63,65,67,69,71,73,75,77,79,81,83,85,87,89,91,93,95,97,99,101,103,105,107,109,111,113,115,117,119,121,123,125,-1,-1,-1,-1,-1,-1,-1,-1,-1,-1,-1,-1,-1,-1,-1,-1,-1,-1,-1,-1,-1,-1,-1,-1,-1,-1,-1,-1,-1,-1,-1,-1,-1,-1,-1,-1,-1,-1,-1,-1,-1,-1,-1,-1,-1,-1,-1,-1,-1,-1,-1,-1,-1,-1,-1,-1,-1,-1,-1,-1,-1,-1,-1,-1],"loss_changes":[4.902174E7,8.236964E6,7.753756E6,1.365568E6,7.758574E5,1.0837065E6,1.042066E6,3.36754E5,2.06285E5,9.08565E4,1.1558977E5,1.6707175E5,1.17904E5,1.65025E5,1.36468E5,8.003635E5,1.57077E5,2.1408E5,1.0105565E5,3.401225E4,3.7024312E4,5.3663734E4,3.5871383E4,7.284575E4,4.3355375E4,3.4876E4,2.413025E4,1.8186E4,2.8571E4,2.2421E4,1.16475E4,1.246535E5,2.6555984E5,6.7555E4,8.4909E4,3.80705E4,3.7399E4,2.168267E5,1.3496328E4,1.23324375E4,6.828456E4,1.51259375E4,7.603603E4,1.8291438E4,1.1803749E5,1.32401E4,5.841793E4,4.378354E4,7.388128E4,1.9077906E4,5.72685E4,1.40710625E4,4.136675E4,1.3641875E4,3.6575875E4,1.73765E4,5.580325E4,1.09715E4,1.33625E4,1.137125E4,2.8692E4,1.145E3,3.0899E4,0E0,0E0,0E0,0E0,0E0,0E0,0E0,0E0,0E0,0E0,0E0,0E0,0E0,0E0,0E0,0E0,0E0,0E0,0E0,0E0,0E0,0E0,0E0,0E0,0E0,0E0,0E0,0E0,0E0,0E0,0E0,0E0,0E0,0E0,0E0,0E0,0E0,0E0,0E0,0E0,0E0,0E0,0E0,0E0,0E0,0E0,0E0,0E0,0E0,0E0,0E0,0E0,0E0,0E0,0E0,0E0,0E0,0E0,0E0,0E0,0E0,0E0,0E0,0E0],"parents":[2147483647,0,0,1,1,2,2,3,3,4,4,5,5,6,6,7,7,8,8,9,9,10,10,11,11,12,12,13,13,14,14,15,15,16,16,17,17,18,18,19,19,20,20,21,21,22,22,23,23,24,24,25,25,26,26,27,27,28,28,29,29,30,30,31,31,32,32,33,33,34,34,35,35,36,36,37,37,38,38,39,39,40,40,41,41,42,42,43,43,44,44,45,45,46,46,47,47,48,48,49,49,50,50,51,51,52,52,53,53,54,54,55,55,56,56,57,57,58,58,59,59,60,60,61,61,62,62],"right_children":[2,4,6,8,10,12,14,16,18,20,22,24,26,28,30,32,34,36,38,40,42,44,46,48,50,52,54,56,58,60,62,64,66,68,70,72,74,76,78,80,82,84,86,88,90,92,94,96,98,100,102,104,106,108,110,112,114,116,118,120,122,124,126,-1,-1,-1,-1,-1,-1,-1,-1,-1,-1,-1,-1,-1,-1,-1,-1,-1,-1,-1,-1,-1,-1,-1,-1,-1,-1,-1,-1,-1,-1,-1,-1,-1,-1,-1,-1,-1,-1,-1,-1,-1,-1,-1,-1,-1,-1,-1,-1,-1,-1,-1,-1,-1,-1,-1,-1,-1,-1,-1,-1,-1,-1,-1,-1],"split_conditions":[4.865175E1,2.9533875E1,7.015124E1,1.4486325E1,3.922359E1,5.954256E1,8.369602E1,7E0,2.6719069E1,3.426108E1,4.482282E1,5.406576E1,6.437476E1,7.5679276E1,9.313196E1,6E0,8.650666E0,2.263947E1,7E0,6E0,6E0,6E0,6E0,6E0,6E0,6E0,6E0,6E0,7.91154E1,8E0,1.5E1,8E0,2.0033327E1,5E0,5E0,5E0,6E0,6E0,4E0,3.0524418E1,7E0,1.7853603E1,7E0,1.7511272E1,7E0,1.7853603E1,7E0,1.5139288E1,7E0,1.8005241E1,7E0,6.220281E1,7E0,6.2752563E1,7E0,5.609728E0,7E0,5E0,5E0,3E0,5E0,9.769053E1,1.7E1,-1.4105852E0,-1.0272644E0,-7.133232E-1,1.952678E-1,-1.2397772E0,-1.4670855E0,-9.483272E-1,-1.2310451E0,-7.44004E-1,-8.889894E-1,-7.0675796E-1,-5.812096E-1,-4.461967E-1,6.6170883E-1,-9.7737306E-1,-5.6646204E-1,-5.238203E-1,2.1070321E-1,-8.981418E-2,-4.4463548E-1,-4.177827E-1,-3.041366E-1,5.1033724E-2,-2.976668E-1,-2.567049E-1,-1.4634924E-1,2.6871446E-1,-1.3539413E-1,-9.157319E-2,2.510547E-2,3.5782054E-1,2.8365934E-2,-5.914382E-2,1.2588887E-1,4.9338418E-1,1.7499168E-1,2.297829E-1,3.7307867E-1,6.296904E-1,3.406739E-1,4.4524273E-1,2.6387095E-1,7.690266E-1,5.036269E-1,6.2653345E-1,4.4992653E-1,8.997812E-1,6.642154E-1,6.0927546E-1,8.1330293E-1,1.130689E0,8.168141E-1,1.647238E0,9.7877216E-1,1.507914E0,1.0976545E0,1.3235209E0,1.4974792E0,1.5907874E0,1.2233566E0,1.5803511E0,1.6620797E0,1.3545748E0,1.6081676E0],"split_indices":[6,6,6,6,6,6,6,5,9,6,6,6,6,6,6,5,6,6,5,5,5,5,5,5,5,5,5,5,6,4,4,4,9,4,4,4,5,5,4,9,5,9,5,9,5,9,5,9,5,9,5,7,5,7,5,7,5,5,5,4,5,6,4,0,0,0,0,0,0,0,0,0,0,0,0,0,0,0,0,0,0,0,0,0,0,0,0,0,0,0,0,0,0,0,0,0,0,0,0,0,0,0,0,0,0,0,0,0,0,0,0,0,0,0,0,0,0,0,0,0,0,0,0,0,0,0,0],"split_type":[0,0,0,0,0,0,0,0,0,0,0,0,0,0,0,0,0,0,0,0,0,0,0,0,0,0,0,0,0,0,0,0,0,0,0,0,0,0,0,0,0,0,0,0,0,0,0,0,0,0,0,0,0,0,0,0,0,0,0,0,0,0,0,0,0,0,0,0,0,0,0,0,0,0,0,0,0,0,0,0,0,0,0,0,0,0,0,0,0,0,0,0,0,0,0,0,0,0,0,0,0,0,0,0,0,0,0,0,0,0,0,0,0,0,0,0,0,0,0,0,0,0,0,0,0,0,0],"sum_hessian":[3.31709E5,1.81249E5,1.5046E5,9.0705E4,9.0544E4,9.1708E4,5.8752E4,4.0214E4,5.0491E4,4.2653E4,4.7891E4,5.1604E4,4.0104E4,3.6249E4,2.2503E4,1.6133E4,2.4081E4,4.7458E4,3.033E3,1.9389E4,2.3264E4,2.8318E4,1.9573E4,2.7041E4,2.4563E4,1.9416E4,2.0688E4,1.6824E4,1.9425E4,1.4224E4,8.279E3,1.2902E4,3.231E3,1.3379E4,1.0702E4,2.3415E4,2.4043E4,2.214E3,8.19E2,9.458E3,9.931E3,1.187E4,1.1394E4,1.5176E4,1.3142E4,1.0419E4,9.154E3,1.5095E4,1.1946E4,1.3375E4,1.1188E4,1.0473E4,8.943E3,1.0849E4,9.839E3,8.85E3,7.974E3,9.064E3,1.0361E4,4.491E3,9.733E3,3.287E3,4.992E3,2.689E3,1.0213E4,1.502E3,1.729E3,7.438E3,5.941E3,5.595E3,5.107E3,6.207E3,1.7208E4,1.0885E4,1.3158E4,1.606E3,6.08E2,4.47E2,3.72E2,9.401E3,5.7E1,1.621E3,8.31E3,6.529E3,5.341E3,1.87E3,9.524E3,8.328E3,6.848E3,2.162E3,1.098E4,6.555E3,3.864E3,1.638E3,7.516E3,4.596E3,1.0499E4,2.243E3,9.703E3,1.0378E4,2.997E3,2.115E3,9.073E3,9.258E3,1.215E3,1.858E3,7.085E3,9.601E3,1.248E3,2.108E3,7.731E3,1.228E3,7.622E3,1.855E3,6.119E3,6.3E1,9.001E3,2.09E2,1.0152E4,2.982E3,1.509E3,5.76E2,9.157E3,1.693E3,1.594E3,2.245E3,2.747E3],"tree_param":{"num_deleted":"0","num_feature":"12","num_nodes":"127","size_leaf_vector":"1"}},{"base_weights":[2.8896632E-4,-1.0522136E1,1.2675929E1,-1.7398046E1,-4.5520897E0,7.119394E0,2.1047503E1,-2.1687603E1,-1.4526804E1,-7.802041E0,-1.709244E0,4.083413E0,1.0512657E1,1.776151E1,2.6042662E1,-1.820766E1,-2.39351E1,-1.5082239E1,-8.583173E0,-9.5996275E0,-6.453741E0,-3.3912659E0,-1.8631382E-1,2.7087476E0,5.879741E0,8.9461565E0,1.2390998E1,1.5742926E1,1.977722E1,2.4042948E1,2.9011751E1,-2.1651379E1,-4.7722178E0,-2.1801744E1,-2.649174E1,-1.7097881E1,-1.2982746E1,-4.678642E0,-1.7776134E1,-9.732669E0,3.5524683E0,-7.7728987E0,-5.1193137E0,-4.6353965E0,-1.9613557E0,-1.3297977E0,1.1229777E0,1.3214822E0,4.461443E0,4.680239E0,7.3092694E0,7.805545E0,1.0288797E1,1.1385912E1,1.3492898E1,1.4664068E1,1.6817427E1,2.9543575E1,1.964443E1,2.276453E1,2.5235722E1,2.7796532E1,3.044813E1,-1.3625046E0,-9.981095E-1,-7.5103366E-1,1.5692906E-1,-1.2801927E0,-8.202616E-1,-1.4557772E0,-1.250069E0,-7.5282186E-1,-8.9418185E-1,-7.141158E-1,-5.978659E-1,-5.105836E-1,5.689077E-1,-1.0131713E0,-5.398006E-1,-5.4703414E-1,-4.3077064E-1,-8.178398E-2,7.488099E-1,-4.3602952E-1,-3.3345717E-1,2.9324839E-2,-3.1163228E-1,-2.8610334E-1,-1.7519127E-1,2.3620103E-1,-1.6276374E-1,-1.06860474E-1,1.6597979E-2,3.0833814E-1,1.8920823E-3,1.053298E-2,1.8892412E-1,4.687259E-1,1.66243E-1,1.636594E-1,2.803262E-1,5.915022E-1,3.1248912E-1,4.113702E-1,2.2593604E-1,7.164067E-1,4.6255293E-1,5.882505E-1,4.2256504E-1,8.578089E-1,6.2532884E-1,6.8563884E-1,7.875146E-1,7.9678315E-1,8.885094E-1,1.1057438E0,1.9477447E0,9.206266E-1,1.042338E0,1.4942427E0,1.1077992E0,1.3645656E0,1.2144941E0,1.484711E0,1.3180516E0,1.4559015E0,1.5726297E0],"categories":[],"categories_nodes":[],"categories_segments":[],"categories_sizes":[],"default_left":[0,0,0,0,0,0,0,0,0,0,0,0,0,0,0,0,0,0,0,0,0,0,0,0,0,0,0,0,0,0,0,0,0,0,0,0,0,0,0,0,0,0,0,0,0,0,0,0,0,0,0,0,0,0,0,0,0,0,0,0,0,0,0,0,0,0,0,0,0,0,0,0,0,0,0,0,0,0,0,0,0,0,0,0,0,0,0,0,0,0,0,0,0,0,0,0,0,0,0,0,0,0,0,0,0,0,0,0,0,0,0,0,0,0,0,0,0,0,0,0,0,0,0,0,0,0,0],"id":9,"left_children":[1,3,5,7,9,11,13,15,17,19,21,23,25,27,29,31,33,35,37,39,41,43,45,47,49,51,53,55,57,59,61,63,65,67,69,71,73,75,77,79,81,83,85,87,89,91,93,95,97,99,101,103,105,107,109,111,113,115,117,119,121,123,125,-1,-1,-1,-1,-1,-1,-1,-1,-1,-1,-1,-1,-1,-1,-1,-1,-1,-1,-1,-1,-1,-1,-1,-1,-1,-1,-1,-1,-1,-1,-1,-1,-1,-1,-1,-1,-1,-1,-1,-1,-1,-1,-1,-1,-1,-1,-1,-1,-1,-1,-1,-1,-1,-1,-1,-1,-1,-1,-1,-1,-1,-1,-1,-1],"loss_changes":[4.4243104E7,7.440142E6,6.998836E6,1.037142E6,8.963375E5,9.316285E5,9.8479E5,2.63708E5,1.66461E5,1.09651E5,1.3256483E5,1.178535E5,1.255455E5,1.47023E5,1.40706E5,6.132695E5,1.11327E5,1.95069E5,1.5480031E5,3.3978375E4,4.5497875E4,4.3738156E4,4.0665688E4,6.5745484E4,3.5446875E4,3.5585375E4,2.13505E4,2.0732E4,2.2911E4,2.1135E4,1.58755E4,9.92495E4,2.1943195E5,2.29178E5,3.57485E4,3.7492E4,2.995675E4,2.693097E5,2.2108281E4,2.5825875E4,1.1581756E4,1.35475E4,8.171534E4,1.61485625E4,9.900118E4,1.945434E4,6.9306805E4,4.1200586E4,6.66823E4,1.4649328E4,4.5136094E4,1.7428E4,4.469425E4,1.1204875E4,3.3232625E4,9.123125E3,7.32825E3,1.5987766E4,2.60905E4,2.915775E4,1.3639E4,1.33855E4,4.93625E3,0E0,0E0,0E0,0E0,0E0,0E0,0E0,0E0,0E0,0E0,0E0,0E0,0E0,0E0,0E0,0E0,0E0,0E0,0E0,0E0,0E0,0E0,0E0,0E0,0E0,0E0,0E0,0E0,0E0,0E0,0E0,0E0,0E0,0E0,0E0,0E0,0E0,0E0,0E0,0E0,0E0,0E0,0E0,0E0,0E0,0E0,0E0,0E0,0E0,0E0,0E0,0E0,0E0,0E0,0E0,0E0,0E0,0E0,0E0,0E0,0E0,0E0,0E0,0E0],"parents":[2147483647,0,0,1,1,2,2,3,3,4,4,5,5,6,6,7,7,8,8,9,9,10,10,11,11,12,12,13,13,14,14,15,15,16,16,17,17,18,18,19,19,20,20,21,21,22,22,23,23,24,24,25,25,26,26,27,27,28,28,29,29,30,30,31,31,32,32,33,33,34,34,35,35,36,36,37,37,38,38,39,39,40,40,41,41,42,42,43,43,44,44,45,45,46,46,47,47,48,48,49,49,50,50,51,51,52,52,53,53,54,54,55,55,56,56,57,57,58,58,59,59,60,60,61,61,62,62],"right_children":[2,4,6,8,10,12,14,16,18,20,22,24,26,28,30,32,34,36,38,40,42,44,46,48,50,52,54,56,58,60,62,64,66,68,70,72,74,76,78,80,82,84,86,88,90,92,94,96,98,100,102,104,106,108,110,112,114,116,118,120,122,124,126,-1,-1,-1,-1,-1,-1,-1,-1,-1,-1,-1,-1,-1,-1,-1,-1,-1,-1,-1,-1,-1,-1,-1,-1,-1,-1,-1,-1,-1,-1,-1,-1,-1,-1,-1,-1,-1,-1,-1,-1,-1,-1,-1,-1,-1,-1,-1,-1,-1,-1,-1,-1,-1,-1,-1,-1,-1,-1,-1,-1,-1,-1,-1,-1],"split_conditions":[4.865175E1,2.783697E1,6.977323E1,1.2498675E1,3.845541E1,5.8623493E1,8.307211E1,7E0,2.6719069E1,3.276903E1,4.337172E1,5.406576E1,6.437476E1,7.5679276E1,9.191228E1,6E0,5E0,2.1077385E1,7E0,2.7658543E1,6E0,6E0,6E0,6E0,6E0,6E0,6E0,7.259248E1,5E0,6E0,9.769053E1,8E0,2.0033327E1,4E0,5.6598883E0,5E0,6E0,6E0,1.866333E1,6E0,1.7E1,1.7853603E1,7E0,1.7319563E1,7E0,1.8005241E1,7E0,1.7853603E1,7E0,1.5613477E1,7E0,6.220281E1,7E0,6.2752563E1,7E0,6E0,6E0,4E0,6E0,5E0,8E0,1.5E1,6E0,-1.3625046E0,-9.981095E-1,-7.5103366E-1,1.5692906E-1,-1.2801927E0,-8.202616E-1,-1.4557772E0,-1.250069E0,-7.5282186E-1,-8.9418185E-1,-7.141158E-1,-5.978659E-1,-5.105836E-1,5.689077E-1,-1.0131713E0,-5.398006E-1,-5.4703414E-1,-4.3077064E-1,-8.178398E-2,7.488099E-1,-4.3602952E-1,-3.3345717E-1,2.9324839E-2,-3.1163228E-1,-2.8610334E-1,-1.7519127E-1,2.3620103E-1,-1.6276374E-1,-1.06860474E-1,1.6597979E-2,3.0833814E-1,1.8920823E-3,1.053298E-2,1.8892412E-1,4.687259E-1,1.66243E-1,1.636594E-1,2.803262E-1,5.915022E-1,3.1248912E-1,4.113702E-1,2.2593604E-1,7.164067E-1,4.6255293E-1,5.882505E-1,4.2256504E-1,8.578089E-1,6.2532884E-1,6.8563884E-1,7.875146E-1,7.9678315E-1,8.885094E-1,1.1057438E0,1.9477447E0,9.206266E-1,1.042338E0,1.4942427E0,1.1077992E0,1.3645656E0,1.2144941E0,1.484711E0,1.3180516E0,1.4559015E0,1.5726297E0],"split_indices":[6,6,6,6,6,6,6,5,9,6,6,6,6,6,6,5,4,6,5,9,5,5,5,5,5,5,5,6,5,5,6,4,9,4,6,4,5,5,6,5,4,9,5,9,5,9,5,9,5,9,5,7,5,7,5,5,5,5,5,5,5,4,5,0,0,0,0,0,0,0,0,0,0,0,0,0,0,0,0,0,0,0,0,0,0,0,0,0,0,0,0,0,0,0,0,0,0,0,0,0,0,0,0,0,0,0,0,0,0,0,0,0,0,0,0,0,0,0,0,0,0,0,0,0,0,0,0],"split_type":[0,0,0,0,0,0,0,0,0,0,0,0,0,0,0,0,0,0,0,0,0,0,0,0,0,0,0,0,0,0,0,0,0,0,0,0,0,0,0,0,0,0,0,0,0,0,0,0,0,0,0,0,0,0,0,0,0,0,0,0,0,0,0,0,0,0,0,0,0,0,0,0,0,0,0,0,0,0,0,0,0,0,0,0,0,0,0,0,0,0,0,0,0,0,0,0,0,0,0,0,0,0,0,0,0,0,0,0,0,0,0,0,0,0,0,0,0,0,0,0,0,0,0,0,0,0,0],"sum_hessian":[3.31709E5,1.81249E5,1.5046E5,8.4233E4,9.7016E4,9.0436E4,6.0024E4,3.3772E4,5.0461E4,4.5266E4,5.175E4,4.7732E4,4.2704E4,3.6209E4,2.3815E4,1.3256E4,2.0516E4,4.6147E4,4.314E3,1.9398E4,2.5868E4,2.459E4,2.716E4,2.7041E4,2.0691E4,2.3288E4,1.9416E4,1.8096E4,1.8113E4,1.4236E4,9.579E3,1.0551E4,2.705E3,1.1189E4,9.327E3,2.354E4,2.2607E4,3.029E3,1.285E3,1.9204E4,1.94E2,1.3006E4,1.2862E4,1.3148E4,1.1442E4,1.4498E4,1.2662E4,1.5095E4,1.1946E4,1.1253E4,9.438E3,1.2595E4,1.0693E4,1.016E4,9.256E3,9.037E3,9.059E3,2.4E2,1.7873E4,6.881E3,7.355E3,5.2E3,4.379E3,2.442E3,8.109E3,1.178E3,1.527E3,6.562E3,4.627E3,3.372E3,5.955E3,6.548E3,1.6992E4,9.965E3,1.2642E4,2.253E3,7.76E2,9.46E2,3.39E2,9.223E3,9.981E3,1.34E2,6E1,6.994E3,6.012E3,2.1E3,1.0762E4,6.705E3,6.443E3,1.855E3,9.587E3,9.757E3,4.741E3,2.241E3,1.0421E4,1.0396E4,4.699E3,2.243E3,9.703E3,4.469E3,6.784E3,1.79E3,7.648E3,1.1161E4,1.434E3,2.183E3,8.51E3,8.995E3,1.165E3,1.96E3,7.296E3,4.825E3,4.212E3,4.714E3,4.345E3,1.36E2,1.04E2,8.836E3,9.037E3,5.38E2,6.343E3,2.309E3,5.046E3,2.231E3,2.969E3,1.897E3,2.482E3],"tree_param":{"num_deleted":"0","num_feature":"12","num_nodes":"127","size_leaf_vector":"1"}},{"base_weights":[3.1064366E-4,-1.0560808E1,1.140335E1,-1.6815542E1,-5.091188E0,5.6564984E0,1.9174759E1,-2.0887579E1,-1.4236057E1,-8.235752E0,-2.6565793E0,2.8974082E0,8.823045E0,1.546583E1,2.377499E1,-1.7472427E1,-2.3090498E1,-1.4812045E1,-8.852006E0,-9.767894E0,-6.9701858E0,-3.9012616E0,-8.109108E-1,1.7558331E0,4.637082E0,7.244929E0,1.0306453E1,1.355655E1,1.724775E1,2.1606339E1,2.7002825E1,-2.078492E1,-4.8213973E0,-2.1103188E1,-2.5496206E1,-1.695228E1,-1.3130531E1,-4.82124E0,-1.7753428E1,-9.902768E0,2.1936994E0,-8.221645E0,-5.7280836E0,-5.0747337E0,-2.5966122E0,-1.92482E0,4.852871E-1,5.2180123E-1,3.2627378E0,3.4028575E0,6.11486E0,6.1568856E0,8.539424E0,9.29476E0,1.1459238E1,1.2647083E1,1.4581352E1,1.6444777E1,1.8440836E1,2.0434237E1,2.2779161E1,2.564157E1,2.8544168E1,-1.1715095E0,-8.6480826E-1,-7.323887E-1,1.490306E-1,-1.2321308E0,-7.984961E-1,-1.3992566E0,-1.212233E0,-7.4212015E-1,-8.9110756E-1,-7.19718E-1,-6.0885525E-1,-5.037811E-1,5.30965E-1,-1.0104481E0,-6.1096007E-1,-5.5531687E-1,-4.4148144E-1,-1.16212726E-1,6.764329E-1,-3.8955083E-1,-5.3937775E-1,1.2123538E-3,-3.413053E-1,-3.264859E-1,-2.218809E-1,1.6840439E-1,-1.8890105E-1,-1.3808256E-1,-1.9006535E-2,2.6720837E-1,-2.7964314E-2,-2.8322065E-2,1.1857551E-1,4.1708684E-1,1.0765896E-1,1.1448323E-1,2.5454518E-1,5.1581466E-1,2.552829E-1,2.2635677E-1,3.4697568E-1,6.192555E-1,3.7977526E-1,4.3998942E-1,5.96182E-1,7.5527096E-1,5.264359E-1,6.573965E-1,5.15334E-1,9.2018235E-1,6.714584E-1,8.404676E-1,6.91624E-1,8.7065136E-1,9.72582E-1,9.6740526E-1,1.0759966E0,1.2383822E0,1.1025597E0,1.5612758E0,1.2634596E0,1.6614761E0,1.4152838E0],"categories":[],"categories_nodes":[],"categories_segments":[],"categories_sizes":[],"default_left":[0,0,0,0,0,0,0,0,0,0,0,0,0,0,0,0,0,0,0,0,0,0,0,0,0,0,0,0,0,0,0,0,0,0,0,0,0,0,0,0,0,0,0,0,0,0,0,0,0,0,0,0,0,0,0,0,0,0,0,0,0,0,0,0,0,0,0,0,0,0,0,0,0,0,0,0,0,0,0,0,0,0,0,0,0,0,0,0,0,0,0,0,0,0,0,0,0,0,0,0,0,0,0,0,0,0,0,0,0,0,0,0,0,0,0,0,0,0,0,0,0,0,0,0,0,0,0],"id":10,"left_children":[1,3,5,7,9,11,13,15,17,19,21,23,25,27,29,31,33,35,37,39,41,43,45,47,49,51,53,55,57,59,61,63,65,67,69,71,73,75,77,79,81,83,85,87,89,91,93,95,97,99,101,103,105,107,109,111,113,115,117,119,121,123,125,-1,-1,-1,-1,-1,-1,-1,-1,-1,-1,-1,-1,-1,-1,-1,-1,-1,-1,-1,-1,-1,-1,-1,-1,-1,-1,-1,-1,-1,-1,-1,-1,-1,-1,-1,-1,-1,-1,-1,-1,-1,-1,-1,-1,-1,-1,-1,-1,-1,-1,-1,-1,-1,-1,-1,-1,-1,-1,-1,-1,-1,-1,-1,-1],"loss_changes":[3.9947572E7,5.891496E6,7.123254E6,8.43574E5,7.0334525E5,8.0108525E5,1.156518E6,2.33978E5,1.52406E5,7.76695E4,1.1895872E5,9.730628E4,9.98715E4,1.2749E5,2.11264E5,5.1199675E5,8.9989E4,1.5968E5,1.705575E5,2.9275875E4,3.4086875E4,4.7335094E4,3.0116686E4,5.5019203E4,3.5388594E4,2.9088625E4,2.5557E4,1.67115E4,1.8297E4,2.4426E4,2.4777E4,8.89655E4,1.9454397E5,1.88108E5,2.5989E4,3.5609E4,2.9813E4,2.658093E5,1.9892688E4,2.3061625E4,1.042724E4,1.199975E4,6.962978E4,1.5063406E4,1.0322646E5,1.449984E4,4.8935473E4,3.2747719E4,7.505181E4,1.987132E4,3.7404312E4,1.43114375E4,3.4195062E4,1.5151875E4,3.472275E4,1.11315E4,3.72615E4,1.08285E4,7.76675E3,1.02745E4,1.25425E4,1.2656E4,5.421E3,0E0,0E0,0E0,0E0,0E0,0E0,0E0,0E0,0E0,0E0,0E0,0E0,0E0,0E0,0E0,0E0,0E0,0E0,0E0,0E0,0E0,0E0,0E0,0E0,0E0,0E0,0E0,0E0,0E0,0E0,0E0,0E0,0E0,0E0,0E0,0E0,0E0,0E0,0E0,0E0,0E0,0E0,0E0,0E0,0E0,0E0,0E0,0E0,0E0,0E0,0E0,0E0,0E0,0E0,0E0,0E0,0E0,0E0,0E0,0E0,0E0,0E0,0E0,0E0],"parents":[2147483647,0,0,1,1,2,2,3,3,4,4,5,5,6,6,7,7,8,8,9,9,10,10,11,11,12,12,13,13,14,14,15,15,16,16,17,17,18,18,19,19,20,20,21,21,22,22,23,23,24,24,25,25,26,26,27,27,28,28,29,29,30,30,31,31,32,32,33,33,34,34,35,35,36,36,37,37,38,38,39,39,40,40,41,41,42,42,43,43,44,44,45,45,46,46,47,47,48,48,49,49,50,50,51,51,52,52,53,53,54,54,55,55,56,56,57,57,58,58,59,59,60,60,61,61,62,62],"right_children":[2,4,6,8,10,12,14,16,18,20,22,24,26,28,30,32,34,36,38,40,42,44,46,48,50,52,54,56,58,60,62,64,66,68,70,72,74,76,78,80,82,84,86,88,90,92,94,96,98,100,102,104,106,108,110,112,114,116,118,120,122,124,126,-1,-1,-1,-1,-1,-1,-1,-1,-1,-1,-1,-1,-1,-1,-1,-1,-1,-1,-1,-1,-1,-1,-1,-1,-1,-1,-1,-1,-1,-1,-1,-1,-1,-1,-1,-1,-1,-1,-1,-1,-1,-1,-1,-1,-1,-1,-1,-1,-1,-1,-1,-1,-1,-1,-1,-1,-1,-1,-1,-1,-1,-1,-1,-1],"split_conditions":[4.6892056E1,2.6776365E1,6.752886E1,1.166802E1,3.6550816E1,5.685666E1,8.0177895E1,7E0,2.6719069E1,3.1508295E1,4.282047E1,5.271E1,6.171039E1,7.300335E1,8.982918E1,6E0,5E0,1.9069574E1,7E0,2.7658543E1,6E0,6E0,6E0,6E0,6E0,6E0,6E0,6E0,7.710349E1,8.4355E1,9.609001E1,2.662977E1,2.3590693E1,4E0,5.029059E0,5E0,6E0,6E0,1.6537395E1,6E0,1.7E1,5.6476448E1,7E0,1.5894773E1,7E0,1.7988352E1,7E0,1.7511272E1,7E0,1.6962502E1,7E0,1.5006472E1,7E0,1.8005241E1,7E0,5.9725826E1,7E0,6.2752563E1,6E0,6E0,6E0,5E0,5E0,-1.1715095E0,-8.6480826E-1,-7.323887E-1,1.490306E-1,-1.2321308E0,-7.984961E-1,-1.3992566E0,-1.212233E0,-7.4212015E-1,-8.9110756E-1,-7.19718E-1,-6.0885525E-1,-5.037811E-1,5.30965E-1,-1.0104481E0,-6.1096007E-1,-5.5531687E-1,-4.4148144E-1,-1.16212726E-1,6.764329E-1,-3.8955083E-1,-5.3937775E-1,1.2123538E-3,-3.413053E-1,-3.264859E-1,-2.218809E-1,1.6840439E-1,-1.8890105E-1,-1.3808256E-1,-1.9006535E-2,2.6720837E-1,-2.7964314E-2,-2.8322065E-2,1.1857551E-1,4.1708684E-1,1.0765896E-1,1.1448323E-1,2.5454518E-1,5.1581466E-1,2.552829E-1,2.2635677E-1,3.4697568E-1,6.192555E-1,3.7977526E-1,4.3998942E-1,5.96182E-1,7.5527096E-1,5.264359E-1,6.573965E-1,5.15334E-1,9.2018235E-1,6.714584E-1,8.404676E-1,6.91624E-1,8.7065136E-1,9.72582E-1,9.6740526E-1,1.0759966E0,1.2383822E0,1.1025597E0,1.5612758E0,1.2634596E0,1.6614761E0,1.4152838E0],"split_indices":[6,6,6,6,6,6,6,5,9,6,6,6,6,6,6,5,4,6,5,9,5,5,5,5,5,5,5,5,6,6,6,9,9,4,6,4,5,5,6,5,4,7,5,9,5,9,5,9,5,9,5,9,5,9,5,7,5,7,5,5,4,5,5,0,0,0,0,0,0,0,0,0,0,0,0,0,0,0,0,0,0,0,0,0,0,0,0,0,0,0,0,0,0,0,0,0,0,0,0,0,0,0,0,0,0,0,0,0,0,0,0,0,0,0,0,0,0,0,0,0,0,0,0,0,0,0,0],"split_type":[0,0,0,0,0,0,0,0,0,0,0,0,0,0,0,0,0,0,0,0,0,0,0,0,0,0,0,0,0,0,0,0,0,0,0,0,0,0,0,0,0,0,0,0,0,0,0,0,0,0,0,0,0,0,0,0,0,0,0,0,0,0,0,0,0,0,0,0,0,0,0,0,0,0,0,0,0,0,0,0,0,0,0,0,0,0,0,0,0,0,0,0,0,0,0,0,0,0,0,0,0,0,0,0,0,0,0,0,0,0,0,0,0,0,0,0,0,0,0,0,0,0,0,0,0,0,0],"sum_hessian":[3.31709E5,1.72212E5,1.59497E5,8.0339E4,9.1873E4,9.1693E4,6.7804E4,3.1153E4,4.9186E4,4.009E4,5.1783E4,4.9E4,4.2693E4,3.7541E4,3.0263E4,1.2219E4,1.8934E4,4.4431E4,4.755E3,1.8132E4,2.1958E4,3.0926E4,2.0857E4,2.9587E4,1.9413E4,2.0689E4,2.2004E4,1.8127E4,1.9414E4,1.8106E4,1.2157E4,9.683E3,2.536E3,1.0374E4,8.56E3,1.9545E4,2.4886E4,3.274E3,1.481E3,1.793E4,2.02E2,1.0935E4,1.1023E4,1.628E4,1.4646E4,1.1217E4,9.64E3,1.6267E4,1.332E4,1.058E4,8.833E3,1.1244E4,9.445E3,1.1724E4,1.028E4,9.611E3,8.516E3,1.1613E4,7.801E3,9.065E3,9.041E3,6.465E3,5.692E3,5.504E3,4.179E3,1.122E3,1.414E3,6.138E3,4.236E3,2.857E3,5.703E3,5.711E3,1.3834E4,1.0695E4,1.4191E4,2.443E3,8.31E2,1.024E3,4.57E2,8.447E3,9.483E3,1.45E2,5.7E1,9.367E3,1.568E3,1.767E3,9.256E3,4.955E3,1.1325E4,2.421E3,1.2225E4,7.275E3,3.942E3,1.705E3,7.935E3,1.0242E4,6.025E3,2.387E3,1.0933E4,6.377E3,4.203E3,1.709E3,7.124E3,3.65E3,7.594E3,1.859E3,7.586E3,9.87E3,1.854E3,2.087E3,8.193E3,7.913E3,1.698E3,1.969E3,6.547E3,1.0186E4,1.427E3,3.877E3,3.924E3,4.541E3,4.524E3,2.414E3,6.627E3,3.99E2,6.066E3,2.69E2,5.423E3],"tree_param":{"num_deleted":"0","num_feature":"12","num_nodes":"127","size_leaf_vector":"1"}},{"base_weights":[3.1918832E-4,-9.725723E0,1.1177029E1,-1.5882755E1,-4.4728594E0,6.018496E0,1.8733494E1,-1.9843433E1,-1.3439152E1,-7.2121105E0,-1.7347164E0,3.2417905E0,9.029339E0,1.5536138E1,2.3119339E1,-1.659902E1,-2.1936218E1,-1.3965053E1,-8.405844E0,-9.025699E0,-5.977081E0,-3.0423396E0,-3.5320264E-1,1.9683553E0,4.7316513E0,7.3784747E0,1.0495433E1,1.3628174E1,1.7186258E1,2.0954807E1,2.565317E1,-1.9745886E1,-4.580557E0,-2.0048222E1,-2.42217E1,-1.5995346E1,-1.227551E1,-4.58771E0,-1.683341E1,-9.182769E0,1.0291257E0,-7.1530395E0,-4.7948203E0,-4.1678505E0,-1.7487642E0,-1.3880899E0,8.2631016E-1,7.3566306E-1,3.525501E0,3.6047435E0,6.071711E0,6.3793936E0,8.556441E0,9.555751E0,1.1553258E1,1.2762632E1,1.4597933E1,1.6210114E1,1.8303469E1,2.2812325E1,2.0292393E1,2.460821E1,2.7503191E1,-1.2588315E0,-9.029298E-1,-9.014582E-2,-1.5048187E0,-1.1705341E0,-7.5858074E-1,-1.3293183E0,-1.1516317E0,-7.020756E-1,-8.39598E-1,-6.7289686E-1,-5.6868696E-1,-4.7818667E-1,5.053461E-1,-9.6504366E-1,-5.902141E-1,-5.155744E-1,-4.076534E-1,-1.24191284E-1,5.3384393E-1,-4.0340218E-1,-3.0510074E-1,1.8392961E-2,-2.90317E-1,-2.5696644E-1,-1.5478262E-1,2.1549454E-1,-1.460694E-1,-1.055639E-1,4.4032615E-3,2.682221E-1,-8.423467E-3,-4.106671E-1,4.963073E-2,4.1322637E-1,1.2304729E-1,1.4528069E-1,2.8280208E-1,5.079488E-1,2.5544205E-1,2.4026048E-1,3.5465786E-1,6.028177E-1,3.8432738E-1,3.544534E-1,5.0169015E-1,7.4531966E-1,5.3326434E-1,4.7580156E-1,6.625635E-1,9.247947E-1,6.7027235E-1,7.628167E-1,8.5929394E-1,1.3653139E0,9.088673E-1,1.0671303E0,1.4366931E0,1.3245575E0,9.9958736E-1,1.3216633E0,1.170542E0,1.3114647E0,1.4232941E0],"categories":[],"categories_nodes":[],"categories_segments":[],"categories_sizes":[],"default_left":[0,0,0,0,0,0,0,0,0,0,0,0,0,0,0,0,0,0,0,0,0,0,0,0,0,0,0,0,0,0,0,0,0,0,0,0,0,0,0,0,0,0,0,0,0,0,0,0,0,0,0,0,0,0,0,0,0,0,0,0,0,0,0,0,0,0,0,0,0,0,0,0,0,0,0,0,0,0,0,0,0,0,0,0,0,0,0,0,0,0,0,0,0,0,0,0,0,0,0,0,0,0,0,0,0,0,0,0,0,0,0,0,0,0,0,0,0,0,0,0,0,0,0,0,0,0,0],"id":11,"left_children":[1,3,5,7,9,11,13,15,17,19,21,23,25,27,29,31,33,35,37,39,41,43,45,47,49,51,53,55,57,59,61,63,65,67,69,71,73,75,77,79,81,83,85,87,89,91,93,95,97,99,101,103,105,107,109,111,113,115,117,119,121,123,125,-1,-1,-1,-1,-1,-1,-1,-1,-1,-1,-1,-1,-1,-1,-1,-1,-1,-1,-1,-1,-1,-1,-1,-1,-1,-1,-1,-1,-1,-1,-1,-1,-1,-1,-1,-1,-1,-1,-1,-1,-1,-1,-1,-1,-1,-1,-1,-1,-1,-1,-1,-1,-1,-1,-1,-1,-1,-1,-1,-1,-1,-1,-1,-1],"loss_changes":[3.6058696E7,5.73631E6,6.016296E6,7.90018E5,7.1787175E5,7.6683725E5,8.7774E5,2.11168E5,1.33562E5,1.07113E5,8.647064E4,9.052891E4,1.06436E5,1.13797E5,1.44255E5,4.6207575E5,8.1218E4,1.56645E5,1.5373162E5,3.0618E4,3.9541688E4,3.5795562E4,2.8414512E4,4.938758E4,3.318725E4,2.43105E4,2.305625E4,1.391675E4,2.08795E4,1.7062E4,2.28275E4,8.82825E4,1.7975247E5,1.6976825E5,2.3459E4,3.20825E4,2.646125E4,2.4073733E5,1.8261844E4,2.2095E4,1.0160252E4,1.36731875E4,7.414625E4,1.36803125E4,8.1309625E4,1.3236588E4,4.91135E4,3.3035312E4,5.733575E4,1.7118469E4,3.9476312E4,1.2556906E4,2.8824438E4,1.448975E4,3.2471375E4,1.3970875E4,3.6552375E4,9.39075E3,9.776E3,3.190125E4,1.9054E4,1.6381E4,4.62475E3,0E0,0E0,0E0,0E0,0E0,0E0,0E0,0E0,0E0,0E0,0E0,0E0,0E0,0E0,0E0,0E0,0E0,0E0,0E0,0E0,0E0,0E0,0E0,0E0,0E0,0E0,0E0,0E0,0E0,0E0,0E0,0E0,0E0,0E0,0E0,0E0,0E0,0E0,0E0,0E0,0E0,0E0,0E0,0E0,0E0,0E0,0E0,0E0,0E0,0E0,0E0,0E0,0E0,0E0,0E0,0E0,0E0,0E0,0E0,0E0,0E0,0E0,0E0,0E0],"parents":[2147483647,0,0,1,1,2,2,3,3,4,4,5,5,6,6,7,7,8,8,9,9,10,10,11,11,12,12,13,13,14,14,15,15,16,16,17,17,18,18,19,19,20,20,21,21,22,22,23,23,24,24,25,25,26,26,27,27,28,28,29,29,30,30,31,31,32,32,33,33,34,34,35,35,36,36,37,37,38,38,39,39,40,40,41,41,42,42,43,43,44,44,45,45,46,46,47,47,48,48,49,49,50,50,51,51,52,52,53,53,54,54,55,55,56,56,57,57,58,58,59,59,60,60,61,61,62,62],"right_children":[2,4,6,8,10,12,14,16,18,20,22,24,26,28,30,32,34,36,38,40,42,44,46,48,50,52,54,56,58,60,62,64,66,68,70,72,74,76,78,80,82,84,86,88,90,92,94,96,98,100,102,104,106,108,110,112,114,116,118,120,122,124,126,-1,-1,-1,-1,-1,-1,-1,-1,-1,-1,-1,-1,-1,-1,-1,-1,-1,-1,-1,-1,-1,-1,-1,-1,-1,-1,-1,-1,-1,-1,-1,-1,-1,-1,-1,-1,-1,-1,-1,-1,-1,-1,-1,-1,-1,-1,-1,-1,-1,-1,-1,-1,-1,-1,-1,-1,-1,-1,-1,-1,-1,-1,-1,-1],"split_conditions":[4.789638E1,2.71215E1,6.901272E1,1.166802E1,3.845541E1,5.775714E1,8.185485E1,7E0,2.6719069E1,3.213462E1,4.337172E1,5.296116E1,6.2694134E1,7.428509E1,8.982918E1,6E0,5E0,1.9489574E1,7E0,2.3590693E1,6E0,6E0,6E0,6E0,6E0,6E0,6E0,6E0,7.807632E1,6E0,9.769053E1,8E0,1.9E1,4E0,5.029059E0,5E0,6E0,6E0,1.611813E1,6E0,1.7E1,1.7853603E1,7E0,1.7379818E1,7E0,1.8005241E1,7E0,1.6267E1,7E0,1.7988352E1,7E0,1.4847991E1,7E0,7.897588E0,7E0,5.30672E0,7E0,6E0,5E0,5E0,5E0,1.4E1,6E0,-1.2588315E0,-9.029298E-1,-9.014582E-2,-1.5048187E0,-1.1705341E0,-7.5858074E-1,-1.3293183E0,-1.1516317E0,-7.020756E-1,-8.39598E-1,-6.7289686E-1,-5.6868696E-1,-4.7818667E-1,5.053461E-1,-9.6504366E-1,-5.902141E-1,-5.155744E-1,-4.076534E-1,-1.24191284E-1,5.3384393E-1,-4.0340218E-1,-3.0510074E-1,1.8392961E-2,-2.90317E-1,-2.5696644E-1,-1.5478262E-1,2.1549454E-1,-1.460694E-1,-1.055639E-1,4.4032615E-3,2.682221E-1,-8.423467E-3,-4.106671E-1,4.963073E-2,4.1322637E-1,1.2304729E-1,1.4528069E-1,2.8280208E-1,5.079488E-1,2.5544205E-1,2.4026048E-1,3.5465786E-1,6.028177E-1,3.8432738E-1,3.544534E-1,5.0169015E-1,7.4531966E-1,5.3326434E-1,4.7580156E-1,6.625635E-1,9.247947E-1,6.7027235E-1,7.628167E-1,8.5929394E-1,1.3653139E0,9.088673E-1,1.0671303E0,1.4366931E0,1.3245575E0,9.9958736E-1,1.3216633E0,1.170542E0,1.3114647E0,1.4232941E0],"split_indices":[6,6,6,6,6,6,6,5,9,6,6,6,6,6,6,5,4,6,5,9,5,5,5,5,5,5,5,5,6,4,6,4,4,4,6,4,5,5,6,5,4,9,5,9,5,9,5,0,5,9,5,9,5,7,5,7,5,5,5,4,5,4,5,0,0,0,0,0,0,0,0,0,0,0,0,0,0,0,0,0,0,0,0,0,0,0,0,0,0,0,0,0,0,0,0,0,0,0,0,0,0,0,0,0,0,0,0,0,0,0,0,0,0,0,0,0,0,0,0,0,0,0,0,0,0,0,0],"split_type":[0,0,0,0,0,0,0,0,0,0,0,0,0,0,0,0,0,0,0,0,0,0,0,0,0,0,0,0,0,0,0,0,0,0,0,0,0,0,0,0,0,0,0,0,0,0,0,0,0,0,0,0,0,0,0,0,0,0,0,0,0,0,0,0,0,0,0,0,0,0,0,0,0,0,0,0,0,0,0,0,0,0,0,0,0,0,0,0,0,0,0,0,0,0,0,0,0,0,0,0,0,0,0,0,0,0,0,0,0,0,0,0,0,0,0,0,0,0,0,0,0,0,0,0,0,0,0],"sum_hessian":[3.31709E5,1.77365E5,1.54344E5,8.1654E4,9.5711E4,9.1727E4,6.2617E4,3.1153E4,5.0501E4,4.7845E4,4.7866E4,4.772E4,4.4007E4,3.6218E4,2.6399E4,1.2219E4,1.8934E4,4.5722E4,4.779E3,1.938E4,2.8465E4,2.459E4,2.3276E4,2.573E4,2.199E4,2.0702E4,2.3305E4,1.6801E4,1.9417E4,1.4242E4,1.2157E4,9.683E3,2.536E3,1.0374E4,8.56E3,2.0763E4,2.4959E4,3.29E3,1.489E3,1.9082E4,2.98E2,1.4268E4,1.4197E4,1.3148E4,1.1442E4,1.2398E4,1.0878E4,1.4362E4,1.1368E4,1.1947E4,1.0043E4,1.1205E4,9.497E3,1.2347E4,1.0958E4,8.885E3,7.916E3,1.0371E4,9.046E3,3.735E3,1.0507E4,7.778E3,4.379E3,2.292E3,7.391E3,2.288E3,2.48E2,6.138E3,4.236E3,2.857E3,5.703E3,6.019E3,1.4744E4,1.0793E4,1.4166E4,2.458E3,8.32E2,9.97E2,4.92E2,9.099E3,9.983E3,2.19E2,7.9E1,7.624E3,6.644E3,2.326E3,1.1871E4,6.896E3,6.252E3,1.855E3,9.587E3,8.321E3,4.077E3,1.955E3,8.923E3,4E2,1.3962E4,2.084E3,9.284E3,8.912E3,3.035E3,1.913E3,8.13E3,3.498E3,7.707E3,1.888E3,7.609E3,2.007E3,1.034E4,2.291E3,8.667E3,1.165E3,7.72E3,1.851E3,6.065E3,5.253E3,5.118E3,1.22E2,8.924E3,2.996E3,7.39E2,4.82E2,1.0025E4,3.073E3,4.705E3,1.897E3,2.482E3],"tree_param":{"num_deleted":"0","num_feature":"12","num_nodes":"127","size_leaf_vector":"1"}},{"base_weights":[3.2633825E-4,-9.913911E0,9.89981E0,-1.5530573E1,-5.2539606E0,4.780996E0,1.7311205E1,-1.925133E1,-1.3410695E1,-7.9866686E0,-2.9516401E0,2.1169484E0,7.733026E0,1.40888605E1,2.1622032E1,-1.5985992E1,-2.1352606E1,-1.3995033E1,-8.76602E0,-9.450846E0,-6.846655E0,-4.146898E0,-1.6222912E0,7.4929464E-1,3.2268593E0,5.9677906E0,8.990555E0,1.2242295E1,1.5707106E1,1.944507E1,2.4138815E1,-1.9098091E1,-4.385284E0,-1.9630657E1,-2.346557E1,-1.586585E1,-1.2465241E1,-4.932906E0,-1.677686E1,-9.630943E0,-1.1254556E0,-7.980568E0,-5.738529E0,-5.161262E0,-3.0518723E0,-2.6626608E0,-4.0582272E-1,-2.4551882E-1,1.8878949E0,1.9868958E0,4.790583E0,5.016115E0,7.102062E0,8.043011E0,1.0073235E1,1.2450874E1,8.503342E0,1.4854921E1,1.6797304E1,1.833978E1,2.0514177E1,2.265942E1,2.5500536E1,-1.120802E0,-8.122242E-1,4.7705632E-1,-4.688042E-1,-1.1358684E0,-7.442393E-1,-1.3144912E0,-1.133966E0,-6.893672E-1,-8.3932495E-1,-6.8357104E-1,-5.7972336E-1,-4.8306438E-1,4.7317782E-1,-9.305603E-1,-5.7548237E-1,-5.4031056E-1,-4.313045E-1,-1.7873333E-1,3.8467193E-1,-4.0427318E-1,1.8569514E-1,-1.905755E-2,-3.384868E-1,-3.280547E-1,-2.2859335E-1,9.756324E-2,-2.0159164E-1,-2.1809988E-1,-1.0223582E-1,2.4121276E-1,-7.372227E-2,-4.990783E-2,6.853833E-2,3.1354937E-1,4.5876108E-2,-2.4953922E-2,1.4985195E-1,4.414098E-1,1.922928E-1,2.6916355E-1,8.285582E-2,5.3610355E-1,3.124845E-1,4.216952E-1,2.690307E-1,6.7085785E-1,4.6054512E-1,5.8092207E-1,6.683874E-1,3.3956772E-1,4.8203975E-1,7.600672E-1,6.186609E-1,8.5163987E-1,6.329879E-1,1.2577298E0,8.9418E-1,1.1583409E0,9.676119E-1,1.2158747E0,1.088281E0,1.5066E0,1.2616423E0],"categories":[],"categories_nodes":[],"categories_segments":[],"categories_sizes":[],"default_left":[0,0,0,0,0,0,0,0,0,0,0,0,0,0,0,0,0,0,0,0,0,0,0,0,0,0,0,0,0,0,0,0,0,0,0,0,0,0,0,0,0,0,0,0,0,0,0,0,0,0,0,0,0,0,0,0,0,0,0,0,0,0,0,0,0,0,0,0,0,0,0,0,0,0,0,0,0,0,0,0,0,0,0,0,0,0,0,0,0,0,0,0,0,0,0,0,0,0,0,0,0,0,0,0,0,0,0,0,0,0,0,0,0,0,0,0,0,0,0,0,0,0,0,0,0,0,0],"id":12,"left_children":[1,3,5,7,9,11,13,15,17,19,21,23,25,27,29,31,33,35,37,39,41,43,45,47,49,51,53,55,57,59,61,63,65,67,69,71,73,75,77,79,81,83,85,87,89,91,93,95,97,99,101,103,105,107,109,111,113,115,117,119,121,123,125,-1,-1,-1,-1,-1,-1,-1,-1,-1,-1,-1,-1,-1,-1,-1,-1,-1,-1,-1,-1,-1,-1,-1,-1,-1,-1,-1,-1,-1,-1,-1,-1,-1,-1,-1,-1,-1,-1,-1,-1,-1,-1,-1,-1,-1,-1,-1,-1,-1,-1,-1,-1,-1,-1,-1,-1,-1,-1,-1,-1,-1,-1,-1,-1],"loss_changes":[3.2556052E7,4.337681E6,6.296754E6,5.92498E5,5.6987925E5,7.7206625E5,9.41574E5,1.86796E5,1.29821E5,6.907125E4,7.811069E4,7.833417E4,1.0332375E5,1.157615E5,1.58431E5,3.856E5,5.9908E4,1.215105E5,1.6428888E5,2.717125E4,2.921975E4,2.8738375E4,2.9459023E4,2.6188363E4,5.5225594E4,2.0881125E4,2.7817E4,1.40315E4,1.89605E4,1.80055E4,2.6511E4,7.938575E4,1.5723784E5,1.33672E5,1.59355E4,3.637E4,2.44185E4,2.466481E5,1.6520219E4,2.086325E4,8.343244E3,1.41481875E4,6.5093344E4,1.105625E4,6.1053586E4,1.3166633E4,5.9988047E4,1.5012699E4,4.5848348E4,3.9904305E4,4.8020438E4,1.2989781E4,2.7203469E4,1.50521875E4,3.6463125E4,1.2948E4,1.8058828E3,9.79675E3,8.616E3,2.3357E4,2.3898E4,9.0355E3,7.911E3,0E0,0E0,0E0,0E0,0E0,0E0,0E0,0E0,0E0,0E0,0E0,0E0,0E0,0E0,0E0,0E0,0E0,0E0,0E0,0E0,0E0,0E0,0E0,0E0,0E0,0E0,0E0,0E0,0E0,0E0,0E0,0E0,0E0,0E0,0E0,0E0,0E0,0E0,0E0,0E0,0E0,0E0,0E0,0E0,0E0,0E0,0E0,0E0,0E0,0E0,0E0,0E0,0E0,0E0,0E0,0E0,0E0,0E0,0E0,0E0,0E0,0E0,0E0,0E0],"parents":[2147483647,0,0,1,1,2,2,3,3,4,4,5,5,6,6,7,7,8,8,9,9,10,10,11,11,12,12,13,13,14,14,15,15,16,16,17,17,18,18,19,19,20,20,21,21,22,22,23,23,24,24,25,25,26,26,27,27,28,28,29,29,30,30,31,31,32,32,33,33,34,34,35,35,36,36,37,37,38,38,39,39,40,40,41,41,42,42,43,43,44,44,45,45,46,46,47,47,48,48,49,49,50,50,51,51,52,52,53,53,54,54,55,55,56,56,57,57,58,58,59,59,60,60,61,61,62,62],"right_children":[2,4,6,8,10,12,14,16,18,20,22,24,26,28,30,32,34,36,38,40,42,44,46,48,50,52,54,56,58,60,62,64,66,68,70,72,74,76,78,80,82,84,86,88,90,92,94,96,98,100,102,104,106,108,110,112,114,116,118,120,122,124,126,-1,-1,-1,-1,-1,-1,-1,-1,-1,-1,-1,-1,-1,-1,-1,-1,-1,-1,-1,-1,-1,-1,-1,-1,-1,-1,-1,-1,-1,-1,-1,-1,-1,-1,-1,-1,-1,-1,-1,-1,-1,-1,-1,-1,-1,-1,-1,-1,-1,-1,-1,-1,-1,-1,-1,-1,-1,-1,-1,-1,-1,-1,-1,-1],"split_conditions":[4.5637306E1,2.535309E1,6.752886E1,1.039984E1,3.567858E1,5.603052E1,8.069996E1,7E0,2.6719069E1,3.023097E1,4.107054E1,5.0146633E1,6.046383E1,7.300335E1,8.888019E1,6E0,5E0,1.7810835E1,7E0,2.3590693E1,6E0,6E0,6E0,6E0,6E0,6E0,6E0,2.3E1,7.710349E1,6E0,9.450735E1,2.06471E1,1.1E1,4E0,3.4082685E0,5E0,6E0,6E0,1.611813E1,6E0,1.7E1,2.662977E1,7E0,1.5894773E1,7E0,1.5323671E1,7E0,1.8005241E1,7E0,1.4906149E1,7E0,6.2475414E1,7E0,6.1639484E1,7E0,6E0,6.977323E1,6.2752563E1,6.56754E1,5E0,7E0,8E0,5E0,-1.120802E0,-8.122242E-1,4.7705632E-1,-4.688042E-1,-1.1358684E0,-7.442393E-1,-1.3144912E0,-1.133966E0,-6.893672E-1,-8.3932495E-1,-6.8357104E-1,-5.7972336E-1,-4.8306438E-1,4.7317782E-1,-9.305603E-1,-5.7548237E-1,-5.4031056E-1,-4.313045E-1,-1.7873333E-1,3.8467193E-1,-4.0427318E-1,1.8569514E-1,-1.905755E-2,-3.384868E-1,-3.280547E-1,-2.2859335E-1,9.756324E-2,-2.0159164E-1,-2.1809988E-1,-1.0223582E-1,2.4121276E-1,-7.372227E-2,-4.990783E-2,6.853833E-2,3.1354937E-1,4.5876108E-2,-2.4953922E-2,1.4985195E-1,4.414098E-1,1.922928E-1,2.6916355E-1,8.285582E-2,5.3610355E-1,3.124845E-1,4.216952E-1,2.690307E-1,6.7085785E-1,4.6054512E-1,5.8092207E-1,6.683874E-1,3.3956772E-1,4.8203975E-1,7.600672E-1,6.186609E-1,8.5163987E-1,6.329879E-1,1.2577298E0,8.9418E-1,1.1583409E0,9.676119E-1,1.2158747E0,1.088281E0,1.5066E0,1.2616423E0],"split_indices":[6,6,6,6,6,6,6,5,9,6,6,6,6,6,6,5,4,6,5,9,5,5,5,5,5,5,5,4,6,5,6,9,4,4,6,4,5,5,6,5,4,9,5,9,5,9,5,9,5,9,5,7,5,7,5,5,6,7,7,5,5,4,5,0,0,0,0,0,0,0,0,0,0,0,0,0,0,0,0,0,0,0,0,0,0,0,0,0,0,0,0,0,0,0,0,0,0,0,0,0,0,0,0,0,0,0,0,0,0,0,0,0,0,0,0,0,0,0,0,0,0,0,0,0,0,0,0],"split_type":[0,0,0,0,0,0,0,0,0,0,0,0,0,0,0,0,0,0,0,0,0,0,0,0,0,0,0,0,0,0,0,0,0,0,0,0,0,0,0,0,0,0,0,0,0,0,0,0,0,0,0,0,0,0,0,0,0,0,0,0,0,0,0,0,0,0,0,0,0,0,0,0,0,0,0,0,0,0,0,0,0,0,0,0,0,0,0,0,0,0,0,0,0,0,0,0,0,0,0,0,0,0,0,0,0,0,0,0,0,0,0,0,0,0,0,0,0,0,0,0,0,0,0,0,0,0,0],"sum_hessian":[3.31709E5,1.65731E5,1.65978E5,7.515E4,9.0581E4,9.8174E4,6.7804E4,2.7273E4,4.7877E4,4.1418E4,4.9163E4,5.1605E4,4.6569E4,3.8803E4,2.9001E4,1.0682E4,1.6591E4,4.2525E4,5.352E3,1.8128E4,2.329E4,2.5886E4,2.3277E4,2.3119E4,2.8486E4,1.9376E4,2.7193E4,1.8127E4,2.0676E4,1.5555E4,1.3446E4,8.422E3,2.26E3,9.147E3,7.444E3,1.9126E4,2.3399E4,3.621E3,1.731E3,1.7744E4,3.84E2,1.1508E4,1.1782E4,1.3436E4,1.245E4,1.2546E4,1.0731E4,1.2339E4,1.078E4,1.5889E4,1.2597E4,1.0539E4,8.837E3,1.4506E4,1.2687E4,1.7167E4,9.6E2,1.1613E4,9.063E3,7.657E3,7.898E3,6.453E3,6.993E3,3.891E3,4.531E3,5.96E2,1.664E3,5.54E3,3.607E3,1.614E3,5.83E3,5.876E3,1.325E4,9.804E3,1.3595E4,2.726E3,8.95E2,1.282E3,4.49E2,8.174E3,9.57E3,3.01E2,8.3E1,1.1406E4,1.02E2,1.902E3,9.88E3,3.978E3,9.458E3,2.039E3,1.0411E4,3.344E3,9.202E3,1.82E3,8.911E3,8.419E3,3.92E3,1.953E3,8.827E3,4.591E3,1.1298E4,2.387E3,1.021E4,9.5E3,1.039E3,1.682E3,7.155E3,1.2647E4,1.859E3,2.598E3,1.0089E4,9.005E3,8.162E3,3.86E2,5.74E2,1.0186E4,1.427E3,8.572E3,4.91E2,4.77E2,7.18E3,2.4E3,5.498E3,2.251E3,4.202E3,3.76E2,6.617E3],"tree_param":{"num_deleted":"0","num_feature":"12","num_nodes":"127","size_leaf_vector":"1"}},{"base_weights":[3.273463E-4,-8.575508E0,1.0331045E1,-1.3795028E1,-3.3466125E0,5.880437E0,1.7277933E1,-1.711339E1,-1.0992015E1,-5.62553E0,-1.0695332E0,3.595685E0,8.993684E0,1.481695E1,2.1636862E1,-2.1886415E1,-1.5993713E1,-1.143205E1,-4.8395753E0,-6.86568E0,-4.4551744E0,-2.0776088E0,2.5506905E-1,2.3205254E0,5.2183113E0,7.9067907E0,1.0626037E1,1.3280162E1,1.670109E1,2.0155834E1,2.3945225E1,-2.4375261E1,-2.0592527E1,-1.3224548E1,-1.7983685E1,-1.3050082E1,-9.775559E0,-1.5957373E1,-2.761273E0,-6.958791E0,5.870003E0,-5.433516E0,-3.423094E0,-3.0673726E0,-9.326417E-1,-7.294977E-1,1.3756512E0,1.2141854E0,3.714077E0,4.2549663E0,6.367443E0,7.0225034E0,8.926681E0,1.0840981E1,6.519218E0,1.204005E1,1.4024315E1,2.4251825E1,1.6572166E1,2.1793192E1,1.9395224E1,2.5307549E1,2.3043308E1,-1.1400074E0,-1.3988405E0,-9.5603925E-1,-1.2519864E0,-8.12138E-1,-5.7993323E-2,-7.9856074E-1,-1.0155331E0,-9.8648244E-1,-6.439318E-1,-5.463914E-1,-4.4114873E-1,-8.442337E-1,-6.12318E-1,-3.275041E-1,1.9303028E-1,-3.9798775E-1,-2.9993626E-1,1.3006707E0,9.735251E-2,-2.5529215E-1,-3.9993897E-1,5.0394524E-2,-2.1524489E-1,-1.8782529E-1,-8.8497326E-2,2.2026002E-1,-9.9015355E-2,-2.2216145E-2,-2.3813744E-1,2.7830964E-1,2.308832E-2,-4.7621217E-2,1.07706465E-1,3.828395E-1,1.4062424E-1,2.30056E-1,5.2104123E-2,4.968315E-1,2.7599826E-1,3.1829494E-1,4.3772146E-1,6.0808164E-1,4.0429172E-1,4.9812132E-1,5.8938277E-1,3.3790734E-1,1.904543E-1,5.6110156E-1,6.4845026E-1,1.4067603E0,6.9836634E-1,8.999049E-1,1.6431954E0,7.719551E-1,8.830849E-1,1.0378811E0,1.1875519E0,1.2576278E0,9.509345E-1,1.240363E0,1.3197039E0,1.0248613E0,1.2557946E0],"categories":[],"categories_nodes":[],"categories_segments":[],"categories_sizes":[],"default_left":[0,0,0,0,0,0,0,0,0,0,0,0,0,0,0,0,0,0,0,0,0,0,0,0,0,0,0,0,0,0,0,0,0,0,0,0,0,0,0,0,0,0,0,0,0,0,0,0,0,0,0,0,0,0,0,0,0,0,0,0,0,0,0,0,0,0,0,0,0,0,0,0,0,0,0,0,0,0,0,0,0,0,0,0,0,0,0,0,0,0,0,0,0,0,0,0,0,0,0,0,0,0,0,0,0,0,0,0,0,0,0,0,0,0,0,0,0,0,0,0,0,0,0,0,0,0,0],"id":13,"left_children":[1,3,5,7,9,11,13,15,17,19,21,23,25,27,29,31,33,35,37,39,41,43,45,47,49,51,53,55,57,59,61,63,65,67,69,71,73,75,77,79,81,83,85,87,89,91,93,95,97,99,101,103,105,107,109,111,113,115,117,119,121,123,125,-1,-1,-1,-1,-1,-1,-1,-1,-1,-1,-1,-1,-1,-1,-1,-1,-1,-1,-1,-1,-1,-1,-1,-1,-1,-1,-1,-1,-1,-1,-1,-1,-1,-1,-1,-1,-1,-1,-1,-1,-1,-1,-1,-1,-1,-1,-1,-1,-1,-1,-1,-1,-1,-1,-1,-1,-1,-1,-1,-1,-1,-1,-1,-1],"loss_changes":[2.9387784E7,4.946689E6,4.651832E6,8.43506E5,4.6985688E5,6.522935E5,6.29938E5,2.21612E5,1.330725E5,6.5651875E4,6.0478906E4,1.0943125E5,6.8783E4,1.0852E5,7.1992E4,2.490325E4,1.85165E5,1.22872E5,7.5836516E4,2.6093625E4,2.3492875E4,2.9143125E4,2.1596762E4,4.566189E4,2.5738625E4,2.0955625E4,1.362225E4,1.89235E4,1.60175E4,1.5668E4,9.5905E3,1.4639E4,3.3536E4,5.123955E5,9.134E4,2.6328E4,2.479775E4,1.5723438E3,6.947173E4,2.0912375E4,1.2592813E4,1.0005656E4,4.4289203E4,1.23265625E4,6.670218E4,1.1982774E4,3.5058082E4,3.3630637E4,4.657375E4,1.40795E4,3.2044375E4,1.4144375E4,2.9330438E4,1.2141125E4,4.754453E2,5.755875E3,1E4,1.45425E4,2.0204E4,7.799375E3,1.866575E4,1.1325E3,2.5833E4,0E0,0E0,0E0,0E0,0E0,0E0,0E0,0E0,0E0,0E0,0E0,0E0,0E0,0E0,0E0,0E0,0E0,0E0,0E0,0E0,0E0,0E0,0E0,0E0,0E0,0E0,0E0,0E0,0E0,0E0,0E0,0E0,0E0,0E0,0E0,0E0,0E0,0E0,0E0,0E0,0E0,0E0,0E0,0E0,0E0,0E0,0E0,0E0,0E0,0E0,0E0,0E0,0E0,0E0,0E0,0E0,0E0,0E0,0E0,0E0,0E0,0E0,0E0,0E0],"parents":[2147483647,0,0,1,1,2,2,3,3,4,4,5,5,6,6,7,7,8,8,9,9,10,10,11,11,12,12,13,13,14,14,15,15,16,16,17,17,18,18,19,19,20,20,21,21,22,22,23,23,24,24,25,25,26,26,27,27,28,28,29,29,30,30,31,31,32,32,33,33,34,34,35,35,36,36,37,37,38,38,39,39,40,40,41,41,42,42,43,43,44,44,45,45,46,46,47,47,48,48,49,49,50,50,51,51,52,52,53,53,54,54,55,55,56,56,57,57,58,58,59,59,60,60,61,61,62,62],"right_children":[2,4,6,8,10,12,14,16,18,20,22,24,26,28,30,32,34,36,38,40,42,44,46,48,50,52,54,56,58,60,62,64,66,68,70,72,74,76,78,80,82,84,86,88,90,92,94,96,98,100,102,104,106,108,110,112,114,116,118,120,122,124,126,-1,-1,-1,-1,-1,-1,-1,-1,-1,-1,-1,-1,-1,-1,-1,-1,-1,-1,-1,-1,-1,-1,-1,-1,-1,-1,-1,-1,-1,-1,-1,-1,-1,-1,-1,-1,-1,